#include <math.h> 
 #include <string.h> 
#include "k2c_include.h" 
#include "k2c_tensor_include.h" 

 


void poly_512(k2c_tensor* dense_66_input_input, k2c_tensor* dense_67_output) { 

float dense_66_output_array[512] = {0}; 
k2c_tensor dense_66_output = {&dense_66_output_array[0],1,512,{512,  1,  1,  1,  1}}; 
float dense_66_kernel_array[512] = {
-6.60128519e-02f,+9.70707908e-02f,-1.19820863e-01f,-1.55140147e-01f,+1.93146765e-01f,
-6.80965334e-02f,+5.93319982e-02f,+2.06037357e-01f,-8.89712498e-02f,-6.84237387e-03f,
-1.19709179e-01f,-1.00800514e-01f,+5.05530126e-02f,+6.17853627e-02f,-1.34475008e-01f,
+5.82419038e-02f,-6.30846694e-02f,-8.07763785e-02f,+8.65417123e-02f,+9.67309475e-02f,
-1.44128427e-01f,-1.42522678e-01f,-7.67579898e-02f,+2.26426706e-01f,-8.93418910e-05f,
+6.55627921e-02f,+5.39345406e-02f,-5.04105985e-02f,+8.34027007e-02f,-8.70072842e-03f,
-1.19216792e-01f,-3.48338857e-02f,+1.46903783e-01f,+1.06263578e-01f,+5.08605503e-02f,
+7.07585290e-02f,-9.15029421e-02f,+1.17034726e-01f,-1.00614570e-01f,-1.24070562e-01f,
-9.62638855e-02f,-1.18057795e-01f,+6.32497296e-02f,+1.04802318e-01f,-1.15633838e-01f,
-1.24223918e-01f,+5.32576181e-02f,-1.89719424e-01f,+8.39227512e-02f,-1.32828474e-01f,
-6.04650639e-02f,+5.85247651e-02f,+5.54978102e-02f,+5.55887558e-02f,+1.17012039e-01f,
-6.65857494e-02f,-1.23069137e-01f,+5.51561005e-02f,-1.33732677e-01f,-1.62587523e-01f,
+1.81438848e-01f,+7.92435929e-02f,+3.73799622e-01f,+7.50592723e-02f,+6.36993721e-02f,
-1.01482593e-01f,-6.69065714e-02f,+5.31720147e-02f,-7.70120090e-03f,+5.61717786e-02f,
+8.93337354e-02f,+2.14601934e-01f,+5.62394299e-02f,-1.18311346e-01f,+1.30202174e-01f,
+6.78689033e-02f,-1.15480937e-01f,+2.55646504e-04f,+5.88405654e-02f,+6.59649894e-02f,
+3.03226896e-03f,+5.60753383e-02f,-7.40727857e-02f,-3.80547121e-02f,+9.21399966e-02f,
-1.09457836e-01f,+5.59842288e-02f,+6.35925308e-02f,+5.40616103e-02f,-5.93742467e-02f,
-9.62996949e-03f,+1.72599882e-03f,-7.10485876e-02f,+7.83350915e-02f,+2.38580942e-01f,
-3.71320881e-02f,+4.39642459e-01f,+1.31964266e-01f,+5.74383885e-02f,-1.25683367e-01f,
+1.77124292e-01f,+5.02164301e-04f,-7.54846931e-02f,-9.75627974e-02f,-3.66027877e-02f,
+8.24802294e-02f,+7.57791176e-02f,+1.72562674e-01f,+5.34640141e-02f,+1.11118682e-01f,
+5.53119779e-02f,+5.77641800e-02f,-1.36350945e-01f,-2.44025560e-03f,+5.41596897e-02f,
-7.46827796e-02f,-9.27230418e-02f,-1.22451559e-01f,+8.83592218e-02f,+1.09838821e-01f,
-4.86405194e-02f,+2.08934233e-01f,-2.65354337e-03f,-6.37355968e-02f,+5.63850515e-02f,
-5.01422100e-02f,-1.06221095e-01f,+6.28132820e-02f,+5.43824919e-02f,+1.90681264e-01f,
-9.31944102e-02f,-3.36478576e-02f,+6.29242957e-02f,+6.86937273e-02f,+1.87651560e-01f,
-8.04637522e-02f,+5.86782247e-02f,+1.88171104e-01f,+1.40657112e-01f,-1.14173979e-01f,
+3.38810170e-03f,-1.20086081e-01f,+4.57714461e-02f,-1.25342414e-01f,+2.15598688e-01f,
-1.21051684e-01f,-4.86877784e-02f,+1.41624555e-01f,+7.53136948e-02f,+4.87314677e-03f,
-5.01330346e-02f,+7.69018307e-02f,+1.37715295e-01f,+9.09245163e-02f,-1.53964087e-01f,
+1.09729148e-01f,+5.89218996e-02f,-1.33120894e-01f,+5.49701937e-02f,+9.44955051e-02f,
-1.52622774e-01f,+1.14793509e-01f,-3.55003327e-02f,-4.55371588e-02f,-5.35245985e-03f,
+5.82201108e-02f,-3.06673106e-02f,+5.76088205e-02f,+5.79256453e-02f,+6.93257526e-02f,
-7.90467635e-02f,-1.06595978e-01f,+7.08683580e-02f,-8.94231424e-02f,+1.29329607e-01f,
+1.07123680e-01f,+5.77618293e-02f,-7.90332854e-02f,-1.17431872e-01f,+2.26986200e-01f,
-3.24875973e-02f,+1.60756752e-01f,-5.10671623e-02f,+8.35208595e-02f,+7.45657831e-02f,
+5.34930676e-02f,-1.69233665e-01f,-7.59534016e-02f,+2.19926327e-01f,+2.00255737e-01f,
+5.94433844e-02f,-1.33214623e-01f,+5.48235588e-02f,-4.31905016e-02f,-8.83302614e-02f,
+1.71301410e-01f,+7.42950365e-02f,-2.64181972e-01f,-5.29402925e-04f,+1.34227112e-01f,
-1.28418833e-01f,-1.34035155e-01f,-4.16131020e-02f,+2.56315500e-01f,-1.36873320e-01f,
-1.17510237e-01f,-5.09670675e-02f,-8.72603804e-02f,-8.08828324e-02f,+1.81019877e-03f,
+9.80447382e-02f,+5.89842908e-02f,+5.61029501e-02f,-1.64084300e-01f,+8.59849229e-02f,
+9.01143253e-02f,+5.52951097e-02f,+6.06099665e-02f,+5.43200597e-02f,+5.71925752e-02f,
+1.89779371e-01f,+4.23972262e-03f,-1.62080407e-01f,+7.47073740e-02f,+5.37564494e-02f,
-1.30138069e-01f,+5.24536371e-02f,+5.21026790e-01f,-9.27148536e-02f,+5.30665144e-02f,
-1.08712785e-01f,+6.40136302e-02f,+1.47846177e-01f,-1.42944440e-01f,+5.91782816e-02f,
+6.24731742e-02f,-1.21884644e-01f,+1.03652209e-01f,+9.93224084e-02f,-1.20830953e-01f,
+5.49686737e-02f,-1.01566829e-01f,+2.03777537e-01f,+1.72610506e-01f,+5.39569296e-02f,
-5.45086451e-02f,+7.78373629e-02f,-5.83431944e-02f,-1.24229528e-01f,+2.63428688e-01f,
+1.45574368e-03f,+6.75389171e-02f,-1.35416746e-01f,-1.44110054e-01f,+1.89934283e-01f,
-7.85569847e-02f,+6.84945360e-02f,-7.70211220e-02f,+1.56847492e-01f,+1.21744238e-01f,
+9.98477638e-02f,+5.56061789e-02f,-5.30972853e-02f,+5.72195724e-02f,+1.64787307e-01f,
+5.86863160e-02f,+1.50489900e-03f,+5.58402650e-02f,-6.64112046e-02f,+8.25848728e-02f,
+9.11372453e-02f,+5.52423447e-02f,+9.16182026e-02f,+9.86928642e-02f,+5.52175269e-02f,
+9.97374654e-02f,+1.86811045e-01f,-9.78756621e-02f,+8.26464891e-02f,-7.48930275e-02f,
-2.07518786e-03f,+7.53011703e-02f,+5.54602779e-02f,+1.44938077e-03f,-1.24869667e-01f,
+1.42935947e-01f,-1.25332788e-01f,+5.46588339e-02f,+4.54578698e-02f,+6.58002719e-02f,
-5.41190617e-02f,+5.46144843e-02f,-4.65376936e-02f,+1.70808518e-03f,+5.87464832e-02f,
+2.86768517e-03f,-6.50674105e-02f,+4.09530615e-03f,-6.23476729e-02f,-4.43763137e-02f,
-1.19750954e-01f,-5.95090352e-02f,+7.42458850e-02f,+5.47053739e-02f,+7.18926489e-02f,
-1.86837255e-03f,-1.06512718e-01f,-1.17503799e-01f,-5.24963439e-02f,-2.50505120e-01f,
-1.48461908e-01f,+9.42365825e-02f,+7.24455789e-02f,+6.70157000e-02f,-1.12667941e-01f,
-2.97764182e-01f,+6.59122318e-02f,-2.03772619e-01f,-3.41714732e-02f,-8.75738114e-02f,
-1.04638718e-01f,-8.54168436e-04f,+8.85817707e-02f,+5.55730052e-02f,+5.71210012e-02f,
-1.18926153e-01f,+5.82583025e-02f,-7.62049630e-02f,+5.53012602e-02f,+5.24334908e-02f,
+7.08784834e-02f,+1.00043662e-01f,+5.72917908e-02f,+8.91687274e-02f,+1.23919882e-01f,
+5.75254783e-02f,-5.40070161e-02f,-6.05334602e-02f,-6.59533069e-02f,+1.90571994e-01f,
-7.93444440e-02f,+6.78413957e-02f,+1.86824903e-01f,-1.06247485e-01f,-4.69692349e-02f,
-1.17779225e-01f,+5.28663471e-02f,-6.85545132e-02f,-6.67090788e-02f,-3.15033570e-02f,
-1.04967237e-01f,+9.12658721e-02f,-5.90119511e-02f,+3.99078563e-04f,-3.88801023e-02f,
-8.17562789e-02f,+5.67059405e-02f,+5.31520136e-02f,-7.19094276e-02f,-7.26243928e-02f,
+1.48616001e-01f,+5.64172007e-02f,+5.36109246e-02f,-5.76183759e-02f,+5.34180105e-02f,
-9.97239649e-02f,+5.26007041e-02f,+2.17726687e-03f,-9.75902602e-02f,-1.16565198e-01f,
-3.83614860e-02f,+1.86499879e-01f,+8.01499113e-02f,+1.03967167e-01f,-6.06178381e-02f,
-1.24562122e-01f,-6.91894144e-02f,+5.76186143e-02f,+1.41744390e-01f,-3.42942327e-02f,
+8.86144936e-02f,+1.77216440e-01f,-2.26215765e-01f,+5.32699078e-02f,-1.23952374e-01f,
-4.68669832e-02f,+9.68809724e-02f,-8.21060762e-02f,+7.41057992e-02f,+6.53781593e-02f,
+9.75769684e-02f,+7.72954002e-02f,-8.20002779e-02f,+1.04081772e-01f,-4.79648560e-02f,
-1.18772186e-01f,+5.82329407e-02f,+6.66291863e-02f,-1.24579802e-01f,-1.13722362e-01f,
+5.81191219e-02f,-1.04896292e-01f,-9.18454304e-02f,-7.81871155e-02f,+6.97660148e-02f,
+6.77712634e-02f,-7.92975202e-02f,+7.54287243e-02f,-1.23989858e-01f,+1.36194423e-01f,
-1.26162335e-01f,-5.31331152e-02f,+8.98835883e-02f,+8.65211412e-02f,+1.20261267e-01f,
+5.24044782e-02f,+7.53608719e-02f,+4.08180267e-01f,+7.54215866e-02f,+1.27812549e-01f,
-4.78590578e-02f,+6.05192184e-02f,-3.18696558e-01f,+9.29358590e-04f,-1.15856096e-01f,
+5.42312376e-02f,+5.59561625e-02f,-1.04383327e-01f,-4.76664975e-02f,-8.03371444e-02f,
+6.50780573e-02f,+1.11740172e-01f,-8.52181762e-02f,+4.97268885e-02f,+1.07764721e-01f,
-1.04879528e-01f,-1.20257959e-01f,-3.93683091e-02f,+5.39718792e-02f,-9.07236785e-02f,
-6.68284670e-02f,+2.09197253e-01f,+1.97816774e-01f,-9.91377160e-02f,+1.20351776e-01f,
+8.10638885e-04f,+7.44369924e-02f,-5.24896495e-02f,+7.13198781e-02f,-4.69213128e-02f,
+5.91005199e-02f,-6.05416633e-02f,+7.04752579e-02f,+1.34367973e-01f,+6.40714765e-02f,
+1.51002526e-01f,+7.28157982e-02f,-1.30458876e-01f,+5.82315959e-02f,+5.85854948e-02f,
-9.72651318e-02f,-1.17921315e-01f,+5.43448441e-02f,-5.82174845e-02f,+5.69687039e-02f,
-5.59783690e-02f,+5.46062998e-02f,+1.62445888e-01f,+6.00104854e-02f,-1.40162602e-01f,
+9.09855813e-02f,+7.44762942e-02f,+1.67868793e-01f,+5.84020354e-02f,+1.11617886e-01f,
+7.07753450e-02f,-6.36336580e-02f,+5.39890155e-02f,+5.86233288e-02f,+3.33566606e-01f,
-1.00151233e-01f,+4.05699061e-03f,-5.92756420e-02f,-3.38963382e-02f,+3.55969253e-03f,
-8.46684277e-02f,-3.78709137e-02f,-4.94804308e-02f,-7.65744075e-02f,-1.39023736e-01f,
+8.01911503e-02f,-1.13387913e-01f,+7.39953965e-02f,+1.52786598e-01f,+1.16569787e-01f,
+6.48283809e-02f,-3.69897820e-02f,-9.61787552e-02f,+5.51746823e-02f,-2.15551376e-01f,
-1.07503682e-01f,+7.70942196e-02f,-6.83106557e-02f,-1.04742318e-01f,-9.97611880e-02f,
-1.04966328e-01f,-3.80431414e-02f,+5.32629609e-04f,-1.23293102e-01f,+9.09933373e-02f,
-1.44004524e-01f,-1.14085600e-01f,}; 
k2c_tensor dense_66_kernel = {&dense_66_kernel_array[0],2,512,{  1,512,  1,  1,  1}}; 
float dense_66_bias_array[512] = {
+7.56909922e-02f,-5.09480089e-02f,-1.76551417e-01f,-2.63698459e-01f,-4.13383031e-03f,
+8.39451328e-02f,+6.67724162e-02f,+7.57257082e-03f,+8.92143473e-02f,-2.24488936e-02f,
-1.89060926e-01f,+9.14695635e-02f,+5.88108003e-02f,+7.90764838e-02f,-1.87024370e-01f,
+5.82572818e-02f,+7.77473450e-02f,+7.96115473e-02f,+3.71948034e-02f,-7.50039890e-02f,
-2.00037271e-01f,-1.93520904e-01f,+7.71725625e-02f,+7.14929029e-02f,-1.99226402e-02f,
+5.87419756e-02f,+5.92334419e-02f,+5.80777340e-02f,-5.99186346e-02f,-2.16668099e-02f,
-1.91524208e-01f,+4.29478660e-02f,+5.85007928e-02f,-8.15951526e-02f,+5.64892665e-02f,
+6.04022630e-02f,+8.43602717e-02f,-4.75342609e-02f,+9.11092982e-02f,-1.99174672e-01f,
+8.81797075e-02f,-1.65367737e-01f,-4.84548062e-02f,-5.04673161e-02f,-1.64692611e-01f,
-1.68400064e-01f,+6.16085194e-02f,-3.29013646e-01f,+2.67753825e-02f,-1.81003854e-01f,
+6.61583468e-02f,+5.82834445e-02f,+5.69917075e-02f,+6.66074976e-02f,-4.61045764e-02f,
+6.70123324e-02f,-2.00023934e-01f,+5.60146943e-02f,-2.25914925e-01f,-2.78419614e-01f,
-1.65902954e-02f,-5.13006113e-02f,-9.65753675e-01f,-5.07984199e-02f,+8.15956518e-02f,
+9.97638032e-02f,+7.26383999e-02f,+6.21380955e-02f,-2.25082356e-02f,+6.53693303e-02f,
-5.15908115e-02f,+5.78230843e-02f,+7.00475872e-02f,-1.93565816e-01f,-4.47866842e-02f,
+8.71411711e-02f,-1.85584530e-01f,-2.01695021e-02f,+7.50799403e-02f,-4.95158508e-02f,
-1.78935528e-02f,+7.02473000e-02f,+7.43863508e-02f,+4.69112396e-02f,-5.48136458e-02f,
-1.76210210e-01f,+5.68274744e-02f,+8.15042406e-02f,+6.13354556e-02f,+6.95645884e-02f,
-2.15947758e-02f,-1.91567596e-02f,+7.11094216e-02f,-5.19523546e-02f,+6.35506958e-02f,
+4.54814807e-02f,-1.07228792e+00f,-4.28129956e-02f,+7.20219761e-02f,-1.84336260e-01f,
-1.04362071e-02f,-1.97986439e-02f,+9.28234756e-02f,+9.74978879e-02f,+4.49541658e-02f,
-5.49075082e-02f,-4.94776145e-02f,+8.56809202e-04f,+5.86980693e-02f,-4.98739071e-02f,
+6.37301207e-02f,+5.71710840e-02f,-2.23794475e-01f,-2.19138917e-02f,+6.67877421e-02f,
+7.46991932e-02f,+8.54410753e-02f,-1.64505750e-01f,-5.18212803e-02f,-4.79021147e-02f,
+5.73041625e-02f,+1.56953223e-02f,-1.93096623e-02f,+7.81925991e-02f,+5.73478304e-02f,
+5.87707870e-02f,-1.65704131e-01f,+5.79068735e-02f,+6.56492636e-02f,+2.20090672e-02f,
+1.12354428e-01f,+4.14735526e-02f,+5.77542223e-02f,+8.81780088e-02f,+3.34820785e-02f,
+7.93550611e-02f,+5.86167909e-02f,+6.19674549e-02f,-4.14122194e-02f,-1.77099705e-01f,
-1.74258538e-02f,-1.77833542e-01f,+5.57466447e-02f,-1.80252865e-01f,+1.61870290e-02f,
-1.76361367e-01f,+5.76582886e-02f,-4.26121429e-02f,-5.02533652e-02f,-1.49823213e-02f,
+6.17826097e-02f,-5.75614870e-02f,-4.07386199e-02f,-5.29732965e-02f,-2.66323209e-01f,
-4.78689931e-02f,+6.43138066e-02f,-1.98645949e-01f,+5.99109009e-02f,-4.97565344e-02f,
-2.58710891e-01f,-4.92988862e-02f,+4.37512100e-02f,+5.41739948e-02f,-2.23362911e-02f,
+7.31719285e-02f,+3.78542617e-02f,+5.73813394e-02f,+6.51136339e-02f,+8.89810696e-02f,
+7.80812278e-02f,+9.71847326e-02f,+9.09855515e-02f,+8.96941125e-02f,-5.16696237e-02f,
-4.80903946e-02f,+7.23742396e-02f,+7.85826296e-02f,-1.75135016e-01f,+3.75510082e-02f,
+4.00405005e-02f,-3.13112698e-02f,+6.18476085e-02f,-5.07212803e-02f,+6.12215139e-02f,
+6.33789077e-02f,-2.91689843e-01f,+8.61178562e-02f,+2.55642030e-02f,+1.53689422e-02f,
+7.61433244e-02f,-1.98349953e-01f,+6.77273721e-02f,+5.19974642e-02f,+1.04293264e-01f,
-2.80217007e-02f,+9.53925252e-02f,-4.61643547e-01f,-2.07030755e-02f,-4.21441160e-02f,
-1.78545207e-01f,-1.96899205e-01f,+5.06964363e-02f,+5.77906147e-02f,-2.26535261e-01f,
-1.69184953e-01f,+5.94612807e-02f,+8.68910179e-02f,+8.00056979e-02f,-1.91813633e-02f,
-5.14746197e-02f,+5.93038164e-02f,+6.72123507e-02f,-2.80709118e-01f,-5.86875081e-02f,
-6.72101155e-02f,+5.62286600e-02f,+7.62378201e-02f,+6.51165470e-02f,+5.77166714e-02f,
-1.16304299e-02f,-1.66136157e-02f,-2.81641185e-01f,+9.59699005e-02f,+6.52338788e-02f,
-2.00284153e-01f,+6.11396097e-02f,-1.13733041e+00f,+1.03762396e-01f,+5.97485751e-02f,
-1.69585079e-01f,+5.86688630e-02f,-3.70999947e-02f,-1.95329338e-01f,+7.44695887e-02f,
+8.01014975e-02f,-1.99348524e-01f,-5.98570034e-02f,-7.62556866e-02f,-1.75928175e-01f,
+6.83629289e-02f,+9.15593356e-02f,+2.32085101e-02f,-2.78686583e-02f,+6.45283088e-02f,
+6.69211969e-02f,-5.99374101e-02f,+7.19418228e-02f,-1.67042151e-01f,+5.68751991e-02f,
-1.96390077e-02f,+8.66267383e-02f,-2.15209886e-01f,-2.00006559e-01f,-1.34419501e-02f,
+7.82111436e-02f,-5.32658659e-02f,+7.68454745e-02f,+6.52189255e-02f,-4.62041534e-02f,
-5.27650714e-02f,+6.22581691e-02f,+6.19599409e-02f,+5.77720180e-02f,-2.92317588e-02f,
+7.51261786e-02f,-8.25783517e-03f,+7.13128820e-02f,+8.18420723e-02f,-4.97629531e-02f,
-5.79272024e-02f,+6.87623098e-02f,+3.82163450e-02f,-7.47258365e-02f,+5.66675775e-02f,
-5.20528518e-02f,+6.77194505e-04f,+8.88798907e-02f,-5.90102077e-02f,+9.12333056e-02f,
-2.13422738e-02f,-5.55015132e-02f,+5.65543920e-02f,-1.91915222e-02f,-2.07679734e-01f,
-4.34829630e-02f,-1.93370461e-01f,+6.80324659e-02f,+5.35832644e-02f,-4.80515584e-02f,
+6.58490583e-02f,+6.62468970e-02f,+5.73600233e-02f,-1.93124879e-02f,-4.56750430e-02f,
-1.81179512e-02f,+6.99977055e-02f,-1.59817766e-02f,+6.73938021e-02f,+5.30158430e-02f,
-1.89173773e-01f,+6.46768734e-02f,+6.12361655e-02f,+5.98085858e-02f,+9.22804847e-02f,
-2.01264638e-02f,+9.53175724e-02f,-1.94669858e-01f,+6.08278699e-02f,-4.36708242e-01f,
-2.08309188e-01f,-4.95766513e-02f,+6.01412579e-02f,+8.59953761e-02f,-1.64080888e-01f,
-5.19496858e-01f,-5.04048429e-02f,-3.54270279e-01f,+4.21364568e-02f,+9.79624316e-02f,
-9.22371373e-02f,-2.11975705e-02f,-5.13761789e-02f,+6.96462616e-02f,+5.78153841e-02f,
-1.65523857e-01f,+6.36083707e-02f,+9.09484029e-02f,+6.65755942e-02f,+6.05909899e-02f,
-5.20737916e-02f,-4.94889244e-02f,+6.75369352e-02f,-5.17155975e-02f,-4.89295721e-02f,
+5.85569181e-02f,+6.65221587e-02f,+6.61481693e-02f,+6.64326698e-02f,-1.54728927e-02f,
+7.87414536e-02f,+8.70514810e-02f,-1.37282545e-02f,-1.63827702e-01f,+5.72252385e-02f,
-1.69568598e-01f,+5.92560098e-02f,+6.88219368e-02f,+7.25666136e-02f,+3.88500802e-02f,
+9.41036791e-02f,-5.86147904e-02f,+6.53695166e-02f,-2.03002021e-02f,+4.77627553e-02f,
+8.09921622e-02f,+7.10725263e-02f,+6.38937205e-02f,+8.73821750e-02f,+7.24571198e-02f,
-3.66952047e-02f,+6.83776885e-02f,+6.40363470e-02f,+6.61739558e-02f,+6.48185834e-02f,
+9.51516926e-02f,+6.07037023e-02f,-1.88300852e-02f,+8.89111906e-02f,-1.64828271e-01f,
+4.68766466e-02f,-1.55933592e-02f,-5.26799522e-02f,-7.85510615e-02f,+7.00078011e-02f,
-2.05610096e-01f,+7.82057419e-02f,+7.33809322e-02f,-4.51724939e-02f,+4.22990993e-02f,
-5.13479896e-02f,-1.64384525e-02f,+4.38846737e-01f,+6.06134385e-02f,-1.66689098e-01f,
+5.73957637e-02f,-7.29324222e-02f,+8.17923471e-02f,+6.02919310e-02f,+5.84135056e-02f,
-6.29331842e-02f,-5.71205355e-02f,+8.10801834e-02f,-4.80756499e-02f,+5.87753020e-02f,
-1.65217221e-01f,+7.30537772e-02f,+5.88104054e-02f,-1.67376876e-01f,-1.73908383e-01f,
+6.54210970e-02f,+9.38854143e-02f,+8.81596580e-02f,+8.92336592e-02f,+8.95893946e-02f,
-4.94969934e-02f,+9.67135504e-02f,+6.17425442e-02f,-1.66619077e-01f,-4.17161472e-02f,
-1.75433859e-01f,+6.08669929e-02f,-6.96115717e-02f,-6.19616024e-02f,-4.69973013e-02f,
+6.02728277e-02f,+9.68219712e-02f,-1.07203782e+00f,-5.37383072e-02f,-4.46591824e-02f,
+5.86587824e-02f,+7.75286704e-02f,-5.56624472e-01f,-1.99632496e-02f,-1.81018218e-01f,
+5.56235574e-02f,+5.74124977e-02f,-1.61300227e-01f,+5.82166463e-02f,+9.81273726e-02f,
+5.83703443e-02f,-4.90678437e-02f,-1.19838022e-01f,+6.10542856e-02f,-5.10297418e-02f,
+1.01266406e-01f,-1.79585636e-01f,+4.82843369e-02f,+5.92676997e-02f,+1.11194737e-01f,
+7.62494132e-02f,+2.87276283e-02f,+6.42551715e-03f,-1.09052896e-01f,-4.98932861e-02f,
-8.73408001e-03f,+9.55648199e-02f,+6.34625182e-02f,+6.10039942e-02f,+5.55866621e-02f,
+7.43291229e-02f,+7.39381909e-02f,+5.90541810e-02f,-4.49464433e-02f,+8.21154714e-02f,
-3.50405239e-02f,-5.66129200e-02f,-1.81360155e-01f,+7.30740502e-02f,+7.09781572e-02f,
+8.87426287e-02f,-1.67953804e-01f,+6.70851395e-02f,+7.13232160e-02f,+6.38801530e-02f,
+6.36064261e-02f,+5.59320040e-02f,-3.06200888e-02f,-4.66718003e-02f,-2.37409070e-01f,
-5.40823229e-02f,-5.47619760e-02f,-2.85574570e-02f,+7.28159770e-02f,-5.00327274e-02f,
+6.03435487e-02f,+7.68316090e-02f,+6.41857013e-02f,+6.48803115e-02f,+1.07313514e-01f,
+9.15583447e-02f,-1.33855697e-02f,+6.61932305e-02f,+4.18433920e-02f,-1.66461766e-02f,
+8.39084089e-02f,+4.65112291e-02f,+5.86146638e-02f,+9.20785442e-02f,-2.31127426e-01f,
+1.03032194e-01f,-1.69359803e-01f,-5.40279970e-02f,-3.43131647e-02f,-4.66220006e-02f,
-5.04027046e-02f,+4.52466682e-02f,+1.13083415e-01f,+6.87727705e-02f,-3.75047356e-01f,
-1.74718499e-01f,+6.26695529e-02f,+8.38529691e-02f,-1.61223412e-01f,+9.03861821e-02f,
+9.89342704e-02f,+4.64966819e-02f,-1.69461258e-02f,-1.84205487e-01f,-5.49333878e-02f,
-2.45975733e-01f,-1.85020864e-01f,}; 
k2c_tensor dense_66_bias = {&dense_66_bias_array[0],1,512,{512,  1,  1,  1,  1}}; 
float dense_66_fwork[513] = {0}; 

 
float dense_67_kernel_array[512] = {
-6.23456128e-02f,-1.32859111e-01f,+1.81362450e-01f,+2.25634083e-01f,-1.15362667e-01f,
-2.79321931e-02f,+1.35730729e-01f,-1.15909256e-01f,-5.00769466e-02f,+3.00850291e-02f,
+2.14191407e-01f,-8.83425549e-02f,+1.59624964e-01f,+9.58191827e-02f,+1.27253041e-01f,
+1.64636090e-01f,-4.09179740e-02f,-1.31896108e-01f,-1.44206852e-01f,-8.16985965e-02f,
+9.20130387e-02f,+9.31235924e-02f,-7.07571730e-02f,-9.15812552e-02f,+1.86661854e-02f,
+1.62492394e-01f,+1.75889999e-01f,-1.44474521e-01f,-1.04684554e-01f,+1.22742178e-02f,
+2.30719954e-01f,-9.06497017e-02f,-1.11300483e-01f,-7.74516240e-02f,+1.85238644e-01f,
+1.75462365e-01f,-1.19423628e-01f,-1.13913558e-01f,-9.81619954e-02f,+2.05458269e-01f,
-9.47379619e-02f,+1.88161224e-01f,-1.45987734e-01f,-1.21304199e-01f,+1.95164591e-01f,
+1.63790584e-01f,+1.53175876e-01f,+2.57504791e-01f,-9.98898149e-02f,+1.27264112e-01f,
-1.13151915e-01f,+1.61268920e-01f,+1.51114494e-01f,+1.34199753e-01f,-1.44443706e-01f,
-1.22455053e-01f,+2.24192649e-01f,+1.69979677e-01f,+2.98819035e-01f,+2.57570803e-01f,
-1.42105326e-01f,-1.56633228e-01f,+1.60408187e+00f,-1.56010568e-01f,+9.76227969e-02f,
-4.97972183e-02f,-8.20855573e-02f,+1.37412637e-01f,+3.20115089e-02f,+1.37520358e-01f,
-1.56166434e-01f,-8.22443813e-02f,+1.10323578e-01f,+2.58387476e-01f,-1.16587371e-01f,
+9.11226422e-02f,+2.50959426e-01f,+4.22355011e-02f,+9.43280309e-02f,-1.46587983e-01f,
+5.39943948e-02f,+1.03549249e-01f,-8.56401697e-02f,-6.89889938e-02f,-1.20733805e-01f,
+2.97829300e-01f,+1.65297821e-01f,+9.13276747e-02f,+1.45941347e-01f,-7.08561614e-02f,
-2.52081477e-03f,+5.48627712e-02f,-1.30129918e-01f,-1.45732731e-01f,-8.86703581e-02f,
-1.24120280e-01f,+1.55111146e+00f,-1.37204766e-01f,+1.06900394e-01f,+1.52941734e-01f,
-9.45723429e-02f,+2.73446795e-02f,-3.50382365e-02f,-4.52093147e-02f,-1.09910131e-01f,
-1.25843465e-01f,-1.77092031e-01f,-7.55683035e-02f,+1.72976047e-01f,-1.16773866e-01f,
+1.62474960e-01f,+1.65112793e-01f,+1.35475859e-01f,+8.74201283e-02f,+1.12555861e-01f,
-9.90316719e-02f,-1.06121548e-01f,+5.66362031e-02f,-1.51347578e-01f,-1.59126595e-01f,
-1.16517529e-01f,-1.05160311e-01f,+5.18895802e-04f,-4.34419774e-02f,+1.57506019e-01f,
-1.15062945e-01f,+2.75137812e-01f,+1.62209272e-01f,+1.11090474e-01f,-8.72239843e-02f,
-3.44172791e-02f,-1.22642845e-01f,+1.64902151e-01f,+8.88440982e-02f,-7.88528323e-02f,
-1.30193993e-01f,+1.54356167e-01f,-9.02211368e-02f,-1.21886306e-01f,+2.27358356e-01f,
+4.17326018e-02f,+1.84636533e-01f,+1.38610303e-01f,+1.52105629e-01f,-1.08199403e-01f,
+1.69071496e-01f,-1.06489860e-01f,-8.75523761e-02f,-1.60362542e-01f,+2.01824978e-02f,
-4.89777029e-02f,-1.08993284e-01f,-1.60862640e-01f,-1.37779474e-01f,+1.36232451e-01f,
-1.60632223e-01f,+1.69237033e-01f,+1.36082292e-01f,+1.54167458e-01f,-1.59728244e-01f,
+1.87052652e-01f,-6.06481917e-02f,-8.25699642e-02f,-1.36071101e-01f,+3.38907503e-02f,
+9.67109278e-02f,-1.13885775e-01f,+1.72997832e-01f,+1.43650323e-01f,+9.31029916e-02f,
-1.35950476e-01f,-5.49259856e-02f,+8.71741772e-02f,-4.92244177e-02f,-7.47208595e-02f,
-1.65074974e-01f,+1.07680894e-01f,-9.44809914e-02f,+2.06798360e-01f,-9.58618894e-02f,
-1.45543441e-01f,-1.36837229e-01f,-7.20722899e-02f,-1.51552290e-01f,+1.31264552e-01f,
+1.15900852e-01f,+1.85790092e-01f,-5.12203202e-02f,-1.01140745e-01f,-9.89304855e-02f,
+1.00479722e-01f,+1.34610161e-01f,+1.07068971e-01f,-1.30562589e-01f,-3.79309282e-02f,
-1.49645090e-01f,+9.07011703e-02f,+2.78519839e-01f,+4.33632433e-02f,-1.49377882e-01f,
+1.40902266e-01f,+1.30873084e-01f,-1.04277447e-01f,-9.61545557e-02f,+1.22280389e-01f,
+1.84545413e-01f,-1.14583082e-01f,-6.05501793e-02f,-1.06540307e-01f,+7.56656900e-02f,
-1.25815481e-01f,+1.36142045e-01f,+1.33138731e-01f,+2.24869162e-01f,-1.08376995e-01f,
-9.06710848e-02f,+1.61654964e-01f,+1.02838799e-01f,+1.32025778e-01f,+1.51275411e-01f,
-1.21299013e-01f,+8.83634537e-02f,+1.46929964e-01f,+8.64562616e-02f,+1.20509818e-01f,
+1.43126607e-01f,+1.25462249e-01f,+1.49266148e+00f,-3.97737958e-02f,+1.36173442e-01f,
+2.59370923e-01f,+1.57483235e-01f,-1.50566906e-01f,+9.16161910e-02f,+9.31187868e-02f,
+9.53318328e-02f,+2.38519147e-01f,-9.13246647e-02f,-8.21744055e-02f,+1.69789881e-01f,
+1.03657126e-01f,-1.10825934e-01f,-9.50952470e-02f,-1.55607447e-01f,+1.42395645e-01f,
-5.03059328e-02f,-1.00898817e-01f,-4.48539294e-02f,+1.67907625e-01f,-9.74652171e-02f,
+8.41723904e-02f,+9.50371474e-02f,+1.25115499e-01f,+9.18435082e-02f,-1.25635073e-01f,
-9.23736840e-02f,-1.06371038e-01f,-9.23134163e-02f,-1.55520931e-01f,-1.23366691e-01f,
-1.13361545e-01f,+1.24923334e-01f,-9.80495736e-02f,+1.50999427e-01f,-1.04245193e-01f,
+1.02309301e-01f,+3.67840305e-02f,+1.08670689e-01f,-4.89846952e-02f,-1.70368999e-01f,
-1.09348543e-01f,+1.15247473e-01f,-1.26051322e-01f,-8.29380825e-02f,+1.53568745e-01f,
-1.18754119e-01f,-9.68889892e-02f,-1.22415178e-01f,-1.06642827e-01f,-4.06442471e-02f,
+3.45567055e-02f,-1.17632762e-01f,+1.61748603e-01f,+3.68427932e-02f,+2.61770040e-01f,
-7.05059543e-02f,+1.71617448e-01f,+1.03799202e-01f,+1.79506406e-01f,-1.75685644e-01f,
-6.14678152e-02f,+1.22414991e-01f,-5.87397777e-02f,+8.74226615e-02f,-1.70389891e-01f,
+5.44898547e-02f,-1.00140408e-01f,+1.17236376e-02f,-1.16338149e-01f,-1.41216129e-01f,
+2.14042127e-01f,-1.36470258e-01f,+1.37870073e-01f,+1.31335899e-01f,+9.22110900e-02f,
+7.95117859e-03f,-9.47100967e-02f,+3.11357677e-01f,-1.10205516e-01f,+4.20024604e-01f,
+9.77077633e-02f,-1.63849413e-01f,+1.43515944e-01f,+8.68848041e-02f,+2.08373412e-01f,
+4.75894898e-01f,-1.35182783e-01f,+3.38656008e-01f,-7.94370696e-02f,-4.25493494e-02f,
+2.84858327e-02f,+8.92689973e-02f,-1.59135431e-01f,+1.10754468e-01f,+1.71194836e-01f,
+1.84736997e-01f,+1.69240415e-01f,-4.45278548e-02f,+1.35256678e-01f,+1.29164115e-01f,
-1.35810599e-01f,-1.56728193e-01f,+1.29959345e-01f,-1.54103979e-01f,-8.77826586e-02f,
+1.38506040e-01f,-4.94191386e-02f,-1.15090013e-01f,-1.24329157e-01f,-1.55366212e-01f,
-1.00584693e-01f,+9.00153816e-02f,-1.20692492e-01f,+2.64996320e-01f,-7.75316358e-02f,
+1.84025928e-01f,+1.47146791e-01f,-1.25373483e-01f,-8.15530047e-02f,-1.06633969e-01f,
-1.01283610e-01f,-1.07818775e-01f,-1.11513734e-01f,+8.37981626e-02f,-9.06396434e-02f,
-9.25941616e-02f,+9.92770270e-02f,+1.33995190e-01f,-4.30264398e-02f,-1.38705805e-01f,
-1.53526872e-01f,+1.12173811e-01f,+1.15318060e-01f,-8.72049257e-02f,+1.27087250e-01f,
-5.92851266e-02f,+1.36742219e-01f,+6.36031479e-02f,-1.04398556e-01f,+1.92306936e-01f,
-1.20893724e-01f,-1.48795813e-01f,-1.42112911e-01f,-7.90702701e-02f,-7.37503842e-02f,
+2.45350331e-01f,-6.03583269e-02f,+9.93284658e-02f,-6.87620416e-02f,-8.77061859e-02f,
-1.59773737e-01f,-1.21985860e-01f,+8.39380980e-01f,+1.27837181e-01f,+5.61634041e-02f,
-6.90817833e-02f,-8.44990984e-02f,-7.39151835e-02f,+1.31637231e-01f,+1.63384527e-01f,
-9.25898850e-02f,-1.12382069e-01f,-9.94554982e-02f,-1.67986155e-01f,-6.53105378e-02f,
+1.86208233e-01f,+1.06821164e-01f,+1.52337149e-01f,+5.72402440e-02f,+2.19732001e-01f,
+1.53823525e-01f,-1.14046484e-01f,-8.38972479e-02f,-4.79549170e-02f,+9.01910290e-02f,
-1.62513793e-01f,-3.82320210e-02f,+1.23386182e-01f,+5.65096736e-02f,-1.43257201e-01f,
+1.48306355e-01f,-1.18658066e-01f,-8.64580274e-02f,-9.95882377e-02f,-1.19466014e-01f,
+1.28799900e-01f,+8.79886895e-02f,+1.50304317e+00f,-1.26812920e-01f,-1.31409779e-01f,
-6.47275820e-02f,+9.78089273e-02f,+3.90118241e-01f,+8.77732188e-02f,+2.23636433e-01f,
+1.69853970e-01f,+1.49301156e-01f,+2.80247629e-01f,-7.14988261e-02f,-3.71518619e-02f,
+1.72169030e-01f,-1.21481687e-01f,+5.84606975e-02f,+1.19652435e-01f,-1.14197239e-01f,
-4.84638922e-02f,+1.96971893e-01f,-9.35310423e-02f,+1.74707532e-01f,-2.64227223e-02f,
-6.21415116e-02f,-9.40034091e-02f,-1.06429927e-01f,+3.39591652e-02f,-9.37799886e-02f,
+1.38067389e-02f,+8.92802700e-02f,-7.11086988e-02f,+1.72488153e-01f,-1.23928815e-01f,
+9.78593677e-02f,-4.98240814e-02f,+1.47584602e-01f,-1.01080969e-01f,+9.05433670e-02f,
-1.30726382e-01f,-1.08607121e-01f,+1.35139450e-01f,+1.06656611e-01f,+1.12432487e-01f,
-1.01588048e-01f,+1.82835683e-01f,+1.04085818e-01f,-5.03328517e-02f,+1.49056673e-01f,
-1.03709355e-01f,+1.63878173e-01f,-1.36574551e-01f,-1.30027458e-01f,+2.96121240e-01f,
-1.26024783e-01f,-1.20570973e-01f,-1.51076436e-01f,+1.07334539e-01f,-1.13317691e-01f,
+1.74456343e-01f,-5.26292026e-02f,+1.30427599e-01f,+1.59693033e-01f,-1.51428208e-01f,
-7.44405910e-02f,-4.55605099e-03f,-9.99879241e-02f,-8.16965923e-02f,+1.12562785e-02f,
-7.78111443e-02f,-9.90231037e-02f,-1.01738036e-01f,-4.31187302e-02f,+1.41409770e-01f,
+8.65159184e-02f,+2.28229210e-01f,-1.27055302e-01f,-1.37817025e-01f,-1.32522285e-01f,
-1.27033398e-01f,-1.35819405e-01f,-3.54109891e-02f,+1.03965990e-01f,+3.60242426e-01f,
+3.29709709e-01f,+1.21871382e-01f,-4.02285196e-02f,+2.71600097e-01f,-1.05484210e-01f,
-5.17708883e-02f,-1.22209892e-01f,-2.83769541e-03f,+1.83471411e-01f,-1.18095614e-01f,
+1.22784115e-01f,+2.73016185e-01f,}; 
k2c_tensor dense_67_kernel = {&dense_67_kernel_array[0],2,512,{512,  1,  1,  1,  1}}; 
float dense_67_bias_array[1] = {
-9.98816118e-02f,}; 
k2c_tensor dense_67_bias = {&dense_67_bias_array[0],1,1,{1,1,1,1,1}}; 
float dense_67_fwork[1024] = {0}; 

 
k2c_dense(&dense_66_output,dense_66_input_input,&dense_66_kernel, 
	&dense_66_bias,k2c_relu,dense_66_fwork); 
k2c_dense(dense_67_output,&dense_66_output,&dense_67_kernel, 
	&dense_67_bias,k2c_linear,dense_67_fwork); 

 } 

void poly_512_initialize() { 

} 

void poly_512_terminate() { 

} 

