#include <math.h> 
 #include <string.h> 
#include "k2c_include.h" 
#include "k2c_tensor_include.h" 

 


void poly_32_32_32(k2c_tensor* dense_109_input_input, k2c_tensor* dense_112_output) { 

float dense_109_output_array[32] = {0}; 
k2c_tensor dense_109_output = {&dense_109_output_array[0],1,32,{32, 1, 1, 1, 1}}; 
float dense_109_kernel_array[32] = {
-2.07148761e-01f,-1.69102982e-01f,+3.62870187e-01f,-6.21031318e-03f,-2.60488749e-01f,
-3.74860652e-02f,-2.01138005e-01f,+2.44354084e-01f,-4.60612357e-01f,+9.78432074e-02f,
-9.17648524e-03f,-3.57208923e-02f,+9.67908576e-02f,-1.08601473e-01f,+3.57380062e-01f,
+2.72925735e-01f,+1.12158842e-01f,+4.35982794e-02f,+4.92002606e-01f,+1.65401310e-01f,
+4.18175101e-01f,+2.48566091e-01f,+1.19651154e-01f,-2.96192437e-01f,+4.29593205e-01f,
-2.85313845e-01f,+4.54106322e-03f,+2.41157949e-01f,-6.74325898e-02f,+1.77287385e-01f,
-1.45587727e-01f,+2.78228223e-01f,}; 
k2c_tensor dense_109_kernel = {&dense_109_kernel_array[0],2,32,{ 1,32, 1, 1, 1}}; 
float dense_109_bias_array[32] = {
-1.34020224e-02f,+9.27542001e-02f,-2.83068597e-01f,-1.64578333e-02f,+6.81609139e-02f,
+4.80966866e-02f,+1.00620471e-01f,+4.89126116e-01f,-3.37568298e-02f,-7.17805102e-02f,
-2.11342201e-02f,+2.02596471e-01f,-1.16687313e-01f,-4.99551333e-02f,+2.59043016e-02f,
-6.92563057e-02f,+1.66172355e-01f,-9.38486382e-02f,-3.24370742e-01f,+1.60020754e-01f,
-7.77725577e-02f,-1.22777775e-01f,+2.27536336e-01f,+9.15515497e-02f,-2.30304554e-01f,
+9.89662856e-02f,-1.48687065e-02f,+1.92527756e-01f,+3.26914668e-01f,+3.59737903e-01f,
+9.86202136e-02f,-1.58453807e-01f,}; 
k2c_tensor dense_109_bias = {&dense_109_bias_array[0],1,32,{32, 1, 1, 1, 1}}; 
float dense_109_fwork[33] = {0}; 

 
float dense_110_output_array[32] = {0}; 
k2c_tensor dense_110_output = {&dense_110_output_array[0],1,32,{32, 1, 1, 1, 1}}; 
float dense_110_kernel_array[1024] = {
+3.09660643e-01f,-1.16560459e-01f,-1.26114756e-01f,-7.94500113e-03f,+6.44838884e-02f,
-2.13114247e-01f,-1.98586151e-01f,+1.94539279e-01f,+1.85138017e-01f,+2.42369264e-01f,
+2.69042701e-01f,-2.13071495e-01f,-4.69641350e-02f,-2.25332692e-01f,+1.69346809e-01f,
+1.94517389e-01f,+2.64840573e-01f,+2.36367464e-01f,+1.92793146e-01f,-1.13634415e-01f,
-2.80474871e-01f,+2.02995747e-01f,-1.10304460e-01f,-1.91603109e-01f,+9.31213796e-02f,
+2.30320066e-01f,-5.11068404e-02f,-2.28630170e-01f,+4.52505760e-02f,-5.67008480e-02f,
+2.57116199e-01f,-2.47971728e-01f,+3.08925748e-01f,+2.96241611e-01f,+2.04252273e-01f,
-1.42866969e-02f,-1.97474137e-01f,+2.89072722e-01f,-1.70468539e-01f,-1.26192868e-01f,
-8.71476834e-04f,+8.20185244e-02f,+2.88844466e-01f,-2.09005266e-01f,-3.98345888e-01f,
-1.66570768e-01f,-9.93375331e-02f,-1.37569964e-01f,-1.05599754e-01f,-2.27820739e-01f,
+1.72098443e-01f,-1.62589312e-01f,+1.06457926e-01f,-2.62471139e-01f,-1.12344874e-02f,
+5.50455227e-02f,-1.89744845e-01f,-6.02129884e-02f,-1.46845654e-01f,+1.78834870e-01f,
-1.02101915e-01f,-1.52303189e-01f,-2.79891819e-01f,+3.13431948e-01f,-5.26532829e-02f,
-2.28034109e-01f,+1.82574987e-03f,+4.63733286e-01f,-1.82805862e-02f,-1.53952315e-01f,
+6.44367710e-02f,+2.65974253e-01f,+1.38136029e-01f,+2.39319161e-01f,+2.17951328e-01f,
+1.19841009e-01f,+2.66787708e-02f,-3.85959804e-01f,+8.23310316e-02f,+2.49745682e-01f,
-9.29825529e-02f,-5.50614484e-02f,+9.26725715e-02f,-2.64310509e-01f,+3.81947868e-02f,
+6.48031831e-02f,-6.23248518e-02f,-3.50227952e-02f,-1.20740391e-01f,-1.27102017e-01f,
+5.32473624e-02f,-1.20979369e-01f,-3.62954348e-01f,+2.08618149e-01f,+1.70009270e-01f,
-2.07447842e-01f,-3.01240981e-02f,+2.47725278e-01f,+1.48714185e-01f,+2.86802977e-01f,
+1.72453508e-01f,-2.59585649e-01f,+1.60737336e-01f,+4.71192151e-02f,-1.67058110e-02f,
+2.19896078e-01f,-2.11054549e-01f,-9.65054519e-03f,-5.84235899e-02f,+8.35894346e-02f,
+4.00529504e-02f,-2.65704840e-01f,+2.34809667e-01f,+6.41895533e-02f,-2.84942657e-01f,
-1.22071430e-01f,-9.20617953e-02f,-1.98588341e-01f,+1.84494138e-01f,+5.46824634e-02f,
-2.05314457e-02f,-1.72116026e-01f,-2.16907084e-01f,-4.26878333e-02f,-6.67021424e-02f,
-2.20004141e-01f,+2.63138562e-01f,-7.25375414e-02f,+2.17180774e-01f,-6.21756017e-02f,
+4.05970216e-03f,+1.09818578e-01f,-2.51146346e-01f,+9.64518785e-02f,+3.93651240e-02f,
+1.35233998e-01f,+1.20376758e-01f,-2.77955711e-01f,+1.00745194e-01f,-1.51731625e-01f,
-1.91486120e-01f,+2.35016957e-01f,-1.82207763e-01f,-3.08987856e-01f,+9.51967686e-02f,
+9.41309184e-02f,+2.43984655e-01f,-8.48786011e-02f,-3.31305563e-01f,-1.83845446e-01f,
-1.90068290e-01f,-7.77026713e-02f,-1.63471699e-02f,+7.80529678e-02f,+2.40916699e-01f,
+1.27798483e-01f,-3.50039482e-01f,+3.32995117e-01f,+1.84983209e-01f,+2.27843761e-01f,
-1.28628746e-01f,-2.34700799e-01f,-2.08171010e-02f,+1.99755758e-01f,+1.66820750e-01f,
+2.47441307e-01f,-2.76856035e-01f,-2.42646247e-01f,+9.53765586e-02f,-2.60717273e-01f,
-1.09164186e-01f,-2.15263143e-02f,-4.66377586e-01f,+1.61021173e-01f,+1.33645505e-01f,
+3.41297984e-02f,-2.11409226e-01f,-1.90159947e-01f,-2.63016880e-01f,-1.22060247e-01f,
-1.13814287e-01f,-7.51330554e-02f,+1.47664741e-01f,+2.78107822e-01f,+9.33490545e-02f,
+2.58993566e-01f,-1.95530951e-02f,-2.63550460e-01f,-3.71272117e-01f,+2.83461154e-01f,
+2.53028512e-01f,-4.91236448e-02f,-9.74195749e-02f,-8.33299756e-02f,-5.94247282e-02f,
+7.47543871e-02f,+1.24594554e-01f,+1.62493020e-01f,-2.63592124e-01f,+2.09635347e-01f,
+2.59887606e-01f,-2.12853178e-01f,-1.61106154e-01f,-2.59130418e-01f,+1.63484335e-01f,
+1.10430941e-01f,-2.28208929e-01f,+1.17779411e-01f,-2.44386028e-02f,-9.55101699e-02f,
-2.80659884e-01f,+8.33636001e-02f,+7.43829906e-02f,+4.87250090e-03f,-4.25201058e-01f,
-2.81336784e-01f,+1.31936103e-01f,+2.21658245e-01f,-7.47095793e-02f,-8.87562986e-03f,
-6.81969300e-02f,-2.59875268e-01f,+1.81842446e-01f,+1.44727901e-01f,-9.91241276e-01f,
-2.47248769e-01f,-7.29681402e-02f,-4.56998050e-01f,+1.02713595e-04f,+5.79947829e-01f,
+7.42886513e-02f,+1.01174437e-01f,+3.85426581e-01f,-2.25007936e-01f,+1.67627484e-01f,
-2.82979399e-01f,+3.57125729e-01f,+4.15373892e-01f,+1.90327018e-01f,+8.01685691e-01f,
-1.19835958e-01f,+2.74336517e-01f,+4.13288862e-01f,+2.99851894e-01f,+2.27198333e-01f,
-2.82473177e-01f,+3.76639664e-02f,+1.30998641e-01f,+7.43795693e-01f,+6.50716245e-01f,
-2.06007078e-01f,-3.62351358e-01f,+7.07482696e-01f,+2.37005409e-02f,-6.06601119e-01f,
-3.68303694e-02f,+1.07571512e-01f,+1.10713780e-01f,-5.21459877e-02f,-8.12060386e-02f,
+3.09036486e-02f,-2.71952480e-01f,-4.62035090e-02f,-2.75349140e-01f,-1.56328231e-01f,
+1.39213756e-01f,+2.83888012e-01f,-8.17653611e-02f,-9.04924423e-03f,-4.56095301e-02f,
-8.90124887e-02f,-8.68588164e-02f,+1.67744726e-01f,+1.94507867e-01f,+2.22408712e-01f,
+9.49829891e-02f,-1.82648689e-01f,-2.30485380e-01f,+2.27437168e-01f,+1.39307782e-01f,
-3.23753089e-01f,-3.20084184e-01f,+1.97514445e-01f,+2.09098220e-01f,-3.93626779e-01f,
+8.22936837e-03f,-3.74367759e-02f,-1.02082014e-01f,-5.18065393e-02f,-1.35704696e-01f,
+7.23285973e-02f,+5.81846423e-02f,-1.56834364e-01f,-2.27039039e-01f,-2.46198669e-01f,
-7.17082527e-03f,+1.26666829e-01f,-2.37964496e-01f,+1.20487213e-01f,+1.68813452e-01f,
+2.46463254e-01f,+2.45084956e-01f,-1.27834722e-01f,+1.81843519e-01f,+2.08906531e-01f,
-1.49838120e-01f,-2.52894126e-02f,+9.93105695e-02f,-2.76014477e-01f,+1.88844949e-01f,
-2.39869282e-01f,+1.20783687e-01f,-2.17918321e-01f,-2.43530460e-02f,+2.67407686e-01f,
-3.76042016e-02f,-3.13282043e-01f,+3.20608288e-01f,-1.85500979e-01f,+5.77723980e-03f,
+2.42013410e-01f,+3.74689698e-03f,-2.62141377e-01f,+3.74177098e-02f,+2.65169621e-01f,
-1.91544920e-01f,+2.64815658e-01f,+2.19882518e-01f,+1.85658485e-01f,+3.56991291e-02f,
+5.31819649e-02f,-2.09190115e-01f,-2.91989893e-01f,-1.33301824e-01f,+3.05004716e-02f,
-2.64524043e-01f,-2.80673057e-01f,+3.18832368e-01f,+2.34396845e-01f,+5.21772057e-02f,
-2.79303670e-01f,+6.21243715e-02f,-1.32362217e-01f,+3.23319435e-02f,-1.38914347e-01f,
+5.40224276e-02f,-2.74878144e-01f,-2.97126859e-01f,+6.37451410e-02f,-2.79575884e-01f,
+4.47888523e-02f,+2.50501335e-01f,+7.30470568e-02f,-1.09318450e-01f,-1.52717009e-01f,
-1.10741436e+00f,+1.36721477e-01f,+3.19665149e-02f,+5.05921841e-01f,-4.70699556e-02f,
+3.31560016e-01f,-4.01792228e-01f,+2.85690993e-01f,-1.48939550e-01f,-5.78711852e-02f,
+5.03308848e-02f,+1.23734146e-01f,+3.62233743e-02f,-1.95323467e-01f,-4.64935079e-02f,
+3.32132399e-01f,+1.48559570e-01f,+1.93730146e-02f,-5.52773476e-03f,+2.58067288e-02f,
+1.46628827e-01f,+2.33447909e-01f,+2.30683416e-01f,+1.54929012e-01f,-2.69512177e-01f,
+4.52326179e-01f,-2.73906559e-01f,-1.27859354e-01f,-3.32100630e-01f,-1.38131961e-01f,
+2.04536110e-01f,-6.17246181e-02f,+3.79422382e-02f,+6.12022504e-02f,+7.24174753e-02f,
+1.38996139e-01f,+2.89100021e-01f,-1.09645739e-01f,-2.15085298e-01f,-2.31033176e-01f,
-1.30697295e-01f,+1.22680105e-01f,-1.26066282e-01f,-5.15441895e-02f,-1.32272676e-01f,
+7.78731937e-03f,+1.44396842e-01f,-1.19378529e-01f,-1.77888528e-01f,+1.03221625e-01f,
+5.47881722e-02f,-2.42106691e-01f,-2.66544938e-01f,-1.84455127e-01f,-1.05990000e-01f,
+1.62771970e-01f,-2.62244612e-01f,-7.65086234e-01f,+4.54477847e-01f,+5.65112084e-02f,
+3.41442674e-01f,-1.37100667e-01f,-2.56423712e-01f,-5.76844662e-02f,+2.78888851e-01f,
+1.94733351e-01f,-2.49192595e-01f,+4.01605397e-01f,+3.87447178e-02f,-9.35862586e-02f,
-4.90042269e-02f,+2.14475036e-01f,-2.37429112e-01f,+1.19933479e-01f,-2.59126127e-01f,
+1.24170184e-01f,-2.12948263e-01f,-2.48246983e-01f,-4.51271683e-02f,+1.88841626e-01f,
-1.05520636e-01f,-1.88052088e-01f,-1.00917548e-01f,-4.37040031e-02f,-1.18135884e-01f,
-1.18506461e-01f,+5.07368222e-02f,+9.09267664e-02f,+2.93223172e-01f,-4.47748780e-01f,
-1.61936376e-02f,+2.53629386e-01f,-9.41175446e-02f,+1.49217069e-01f,-4.86673117e-02f,
+2.79501766e-01f,-1.99070543e-01f,-1.28974348e-01f,+1.48583084e-01f,+1.41590089e-01f,
-1.14355087e-02f,-4.65204800e-03f,+1.55397430e-01f,-3.69239748e-01f,+1.93019599e-01f,
-9.91793349e-02f,-2.31642738e-01f,-1.59904063e-02f,-3.62377279e-02f,+2.46864781e-01f,
+2.76316497e-02f,-3.32794487e-01f,+1.95118427e-01f,+1.92082837e-01f,+1.16567105e-01f,
-1.62853926e-01f,+2.23460406e-01f,-1.38385758e-01f,-2.56085217e-01f,-2.73255497e-01f,
+4.34795767e-02f,-2.26737052e-01f,+9.18902308e-02f,+2.61031091e-01f,-2.00212270e-01f,
+8.42446685e-02f,-2.98377216e-01f,-2.23657578e-01f,+2.28577420e-01f,+1.64050415e-01f,
+3.52311879e-02f,+8.28734785e-02f,+1.12824850e-01f,-5.42100891e-02f,+2.06617206e-01f,
-2.79014677e-01f,+2.23277166e-01f,+2.87489176e-01f,-5.26456416e-01f,-2.22520739e-01f,
-3.09308201e-01f,+2.68118143e-01f,-7.62860551e-02f,-6.10518605e-02f,+8.57083052e-02f,
-4.39920742e-03f,+1.41923100e-01f,+1.07761651e-01f,+1.64764941e-01f,-3.90701383e-01f,
-6.54862225e-02f,-3.39258909e-02f,-3.04206192e-01f,-9.99016017e-02f,+2.45632380e-01f,
-9.61667672e-02f,+1.97295502e-01f,-2.99780786e-01f,+1.17092133e-01f,-8.67369175e-02f,
+2.20096394e-01f,-3.13248098e-01f,+1.12667553e-01f,-1.20620519e-01f,-1.17303664e-02f,
-6.33068755e-02f,-7.71416798e-02f,-3.13227713e-01f,+1.29651904e-01f,+7.54650682e-02f,
-2.70866066e-01f,+2.61808425e-01f,-5.29327154e-01f,+8.89544412e-02f,+3.71067822e-02f,
-2.92910427e-01f,+2.16562346e-01f,+3.10740948e-01f,-2.81819969e-01f,+9.70503762e-02f,
+2.45426029e-01f,+1.38967317e-02f,-7.92256147e-02f,-2.92632371e-01f,-3.24271142e-01f,
+5.18572569e-01f,-1.43772960e-01f,+7.42243677e-02f,-6.88461214e-02f,-2.67385811e-01f,
+1.41638100e-01f,+2.73501366e-01f,-8.28200504e-02f,+6.14679754e-02f,+1.30208805e-01f,
-1.84823215e-01f,-1.31201744e-01f,+6.19852990e-02f,+7.14213923e-02f,-1.78012580e-01f,
+2.31575325e-01f,+1.64562330e-01f,+1.49855256e-01f,-1.57649800e-01f,+9.80859846e-02f,
+1.62050232e-01f,-2.88330764e-01f,+1.33946408e-02f,+1.59138188e-01f,-1.63922042e-01f,
-1.75585583e-01f,-2.70114452e-01f,-8.17485750e-02f,+1.29721180e-01f,-4.33605872e-02f,
-1.40495345e-01f,+2.52543181e-01f,-3.66045356e-01f,-5.84713593e-02f,+8.17730948e-02f,
-1.79452568e-01f,-2.46973932e-01f,-7.56794512e-02f,-1.25668436e-01f,+4.53276187e-01f,
-1.29988581e-01f,+2.51147877e-02f,+7.35393167e-02f,-7.73021355e-02f,-1.29069388e-01f,
+3.19321394e-01f,+2.24378705e-02f,+1.49140045e-01f,+1.52060017e-01f,-1.18416712e-01f,
-1.89805865e-01f,-1.37550429e-01f,+3.21007252e-01f,+3.21069695e-02f,-2.56399542e-01f,
+2.50218838e-01f,+2.80664295e-01f,-2.90455997e-01f,+1.18932046e-01f,-1.12148091e-01f,
-2.63451755e-01f,-3.07074130e-01f,+2.01041967e-01f,-1.67533029e-02f,-5.38729191e-01f,
+3.78951460e-01f,+2.37653777e-01f,+1.91108420e-01f,+7.54438043e-02f,+1.62245035e-01f,
-2.57717997e-01f,+1.82668239e-01f,-1.05381832e-01f,-5.88337444e-02f,+3.94876957e-01f,
-1.86706156e-01f,-1.90398067e-01f,-1.18280977e-01f,-3.70533258e-01f,-4.30595055e-02f,
+1.08412774e-02f,-2.59121239e-01f,+1.68960273e-01f,-1.03583455e+00f,-1.01999559e-01f,
+1.57768011e-01f,-2.11100683e-01f,+3.10262013e-02f,+3.66822183e-01f,+6.80225194e-02f,
+2.29505911e-01f,-2.98959196e-01f,+3.15242633e-03f,+2.02242106e-01f,+2.22701043e-01f,
+3.07248533e-01f,+9.07453597e-02f,-2.30558798e-01f,+7.63579831e-02f,+2.96692342e-01f,
-1.69559464e-01f,+2.70785838e-01f,-1.03189468e-01f,+4.23722297e-01f,-2.20528856e-01f,
-1.82807773e-01f,+2.56648898e-01f,+2.83609360e-01f,-3.34372193e-01f,-2.08190665e-01f,
+1.56654745e-01f,+1.18316844e-01f,+1.59622431e-01f,-2.01481357e-01f,-1.20632067e-01f,
-4.60592449e-01f,+2.08394989e-01f,-3.74600381e-01f,+4.37032953e-02f,+5.94707876e-02f,
-2.73060530e-01f,-1.35885447e-01f,-9.78764594e-02f,-3.05044711e-01f,-2.60972321e-01f,
-4.52045262e-01f,-2.03961611e-01f,+6.61353581e-03f,-1.44929692e-01f,+1.75512671e-01f,
-1.62652925e-01f,+3.36713284e-01f,-1.03157431e-01f,-1.07106894e-01f,+1.02702409e-01f,
+4.30451989e-01f,+2.25484520e-01f,-4.76688147e-02f,-2.84841776e-01f,-1.51940510e-01f,
-2.98593462e-01f,-8.36023763e-02f,+1.24592602e-01f,+2.70793319e-01f,+2.89707333e-01f,
-1.41161636e-01f,+2.83374757e-01f,-1.44988045e-01f,+3.92251760e-02f,-1.01182185e-01f,
+2.52463877e-01f,+1.45261034e-01f,-2.83887740e-02f,+2.48013824e-01f,-2.50884593e-01f,
+6.37198687e-02f,-3.58478785e-01f,-4.03205544e-01f,-1.78104475e-01f,+5.31975627e-02f,
-2.65743464e-01f,-9.53347608e-02f,-3.21478665e-01f,+3.31703842e-01f,-7.42699653e-02f,
-2.15910763e-01f,-7.94433653e-02f,-5.94550897e-07f,+2.14481026e-01f,-2.34729141e-01f,
+8.28007534e-02f,+2.52339423e-01f,-3.75856400e-01f,+2.86908627e-01f,-2.70591050e-01f,
+1.85643416e-02f,+2.55315363e-01f,-2.34819502e-01f,-2.82978505e-01f,-8.05696189e-01f,
+2.84535084e-02f,-9.74196717e-02f,-2.56633312e-01f,+2.68848985e-01f,+3.49228382e-01f,
-2.64347523e-01f,-2.64159620e-01f,-4.06218469e-02f,+5.85484551e-03f,-3.60515416e-01f,
-3.64681184e-02f,+2.74172932e-01f,+4.69072074e-01f,-3.01635504e-01f,-7.78471157e-02f,
+2.35237896e-01f,-9.62443352e-02f,-1.27154142e-01f,-1.93089500e-01f,-2.92430371e-01f,
-1.19760148e-01f,+1.81516245e-01f,-1.89371914e-01f,-2.95900017e-01f,+1.33331567e-01f,
-2.60944724e-01f,-1.69741586e-02f,+3.56969833e-02f,-9.25939679e-02f,+2.66169012e-01f,
-5.03661036e-02f,-1.79579616e-01f,+2.52943009e-01f,+1.76476642e-01f,+2.96689451e-01f,
+1.33685172e-01f,-3.49857867e-01f,+2.32476264e-01f,+1.74337119e-01f,+2.69148141e-01f,
+7.35004693e-02f,+2.79792584e-02f,-2.38001078e-01f,+2.21003145e-01f,+1.39485657e-01f,
+2.45483950e-01f,-1.15452871e-01f,+1.97695028e-02f,+1.04165494e-01f,-2.04949737e-01f,
+5.69829345e-02f,-5.91506101e-02f,+3.25829536e-02f,-3.44829232e-01f,+2.14319244e-01f,
-2.37287760e-01f,+1.76948458e-01f,+1.28044605e-01f,-2.78009444e-01f,+4.99256216e-02f,
+1.51591316e-01f,-2.16146141e-01f,-2.02263251e-01f,-1.96411818e-01f,+1.38328522e-01f,
-3.94492686e-01f,-2.17278391e-01f,-1.72691420e-02f,-2.37992004e-01f,-1.95874840e-01f,
+3.14484946e-02f,-2.45377421e-03f,-3.29300791e-01f,-4.99098450e-01f,-3.22623551e-02f,
+2.87279598e-02f,-6.63586736e-01f,+3.91876400e-01f,+1.46172434e-01f,-2.35932305e-01f,
+2.18688529e-02f,-2.94687837e-01f,-1.74238980e-02f,-1.12115458e-01f,-2.09231693e-02f,
+2.79384628e-02f,-1.26718968e-01f,-2.23262131e-01f,+1.73648626e-01f,+1.93835527e-01f,
-4.56737801e-02f,+1.43754363e-01f,+6.25982061e-02f,+2.23398358e-01f,+4.91049588e-02f,
+2.20878273e-01f,+3.19538414e-01f,+2.06348315e-01f,+3.02468419e-01f,+7.88440928e-02f,
-5.21825720e-03f,+2.25561053e-01f,-3.41271609e-01f,-1.01639964e-01f,-2.60442961e-02f,
-1.74442664e-01f,-2.64317244e-01f,+1.70179546e-01f,-2.45125070e-01f,+3.20725143e-01f,
+2.70528704e-01f,+1.47713125e-01f,+1.92489520e-01f,+1.66222245e-01f,+1.12553537e-02f,
-2.11779952e-01f,+2.15324655e-01f,-1.53338626e-01f,+2.15532482e-02f,-4.00757790e-03f,
-1.16469055e-01f,-2.30585828e-01f,-2.75739193e-01f,-2.57538706e-01f,+2.47947663e-01f,
-2.66275793e-01f,+2.33616799e-01f,-1.68645475e-02f,+1.31119445e-01f,+3.01843323e-02f,
+2.09550515e-01f,+1.03134044e-01f,-1.32548511e-02f,+2.23629862e-01f,-1.94439352e-01f,
+1.16685003e-01f,+2.33880684e-01f,+1.34802654e-01f,+1.65314049e-01f,+5.79267778e-02f,
-6.55747354e-02f,+2.72192359e-01f,-3.16846550e-01f,+1.78924352e-01f,+2.29334265e-01f,
-2.89605618e-01f,-2.38536030e-01f,-1.52360797e-01f,+1.99435622e-01f,-3.13110292e-01f,
+2.60600477e-01f,+1.63915232e-02f,-5.81992418e-02f,-1.35334715e-01f,-4.67161136e-03f,
+1.59092575e-01f,+2.50753760e-02f,+8.06908123e-03f,-2.11060464e-01f,-6.01769447e-01f,
-2.20174298e-01f,-2.97889590e-01f,-1.97084740e-01f,+2.55329400e-01f,+1.73410088e-01f,
-1.03584483e-01f,+3.09595112e-02f,-9.74468142e-02f,+2.01721564e-02f,+1.32130161e-01f,
-1.28674895e-01f,-6.53435513e-02f,+2.84666091e-01f,-2.73226708e-01f,-2.81336635e-01f,
-1.79787353e-01f,+1.43125206e-01f,-1.93532109e-01f,-2.44530171e-01f,-1.42674172e+00f,
+1.57393157e-01f,-5.79048023e-02f,+2.42168963e-01f,-1.00528255e-01f,+2.09443405e-01f,
-2.39417672e-01f,-2.06151024e-01f,-3.26449156e-01f,-1.98109776e-01f,+2.73542911e-01f,
-2.21834168e-01f,+2.96865880e-01f,-1.77255884e-01f,+1.11867271e-01f,+7.65789226e-02f,
-1.35605246e-01f,+2.72688866e-01f,-5.82306683e-02f,+1.33702233e-01f,-1.57696277e-01f,
+1.10947102e-01f,+8.79946426e-02f,-1.57209903e-01f,+3.77979712e-04f,+7.15226948e-01f,
+2.46331111e-01f,+3.02793887e-02f,+3.02341878e-01f,-1.14086151e+00f,+1.35601610e-01f,
+1.12384558e-03f,-2.91870803e-01f,-2.28215158e-02f,+7.99660161e-02f,+1.12148993e-01f,
-2.46337846e-01f,+3.34144324e-01f,-9.99859646e-02f,+5.07811964e-01f,+5.89595782e-03f,
-1.38585806e-01f,+2.61802047e-01f,-1.09399557e-01f,+4.54569310e-01f,+2.24754284e-03f,
-5.45635470e-04f,+3.52301002e-01f,+1.25190750e-01f,+3.03865939e-01f,-1.54320836e-01f,
-2.20149178e-02f,-7.53701478e-02f,+6.91063702e-01f,+5.67513168e-01f,-2.20194727e-01f,
-4.77806747e-01f,+6.60494030e-01f,-1.97433189e-01f,-2.43363947e-01f,+1.60456792e-01f,
-2.51122620e-02f,+6.41410649e-02f,+1.28162563e-01f,-2.98491478e-01f,+3.20758335e-02f,
+2.30779424e-01f,-2.01871544e-01f,+3.35450470e-02f,-2.04883143e-01f,+2.58676827e-01f,
+4.95122969e-02f,+1.05949745e-01f,-1.90429673e-01f,+1.77785128e-01f,+1.81740999e-01f,
-6.17415346e-02f,-1.60409734e-01f,-2.18874320e-01f,+1.81240290e-01f,-3.87519449e-02f,
+2.24811465e-01f,-2.24734843e-01f,-4.72320527e-01f,-3.99982966e-02f,-9.37456340e-02f,
-1.09324763e-02f,-1.30285934e-01f,+2.24997371e-01f,+1.92147732e-01f,-1.01511434e-01f,
+7.05327317e-02f,+3.26805234e-01f,+2.49700636e-01f,+2.16564327e-01f,+2.24660426e-01f,
+4.48737293e-01f,+2.40769461e-01f,-3.90111208e-01f,+2.02196538e-01f,-2.75065094e-01f,
-3.86288851e-01f,+3.25069010e-01f,-2.39422187e-01f,+2.96263117e-03f,+1.92195565e-01f,
-4.95913774e-01f,+1.00809157e-01f,+1.32633343e-01f,+2.26181239e-01f,-5.95258288e-02f,
+2.01226220e-01f,-7.59248137e-02f,-2.64818758e-01f,-2.74211794e-01f,+3.66405211e-02f,
+1.51470691e-01f,-3.45269799e-01f,-3.24548692e-01f,-1.15572989e-01f,-1.40524864e-01f,
-3.08852524e-01f,+4.31092054e-01f,-9.49827805e-02f,+1.85250491e-01f,}; 
k2c_tensor dense_110_kernel = {&dense_110_kernel_array[0],2,1024,{32,32, 1, 1, 1}}; 
float dense_110_bias_array[32] = {
-4.69043106e-02f,+0.00000000e+00f,+0.00000000e+00f,-3.11370492e-01f,-2.51578409e-02f,
+4.69072014e-02f,+1.04007162e-01f,-9.97037254e-03f,+8.87155831e-02f,-4.69666347e-02f,
+8.31585750e-02f,-8.87623504e-02f,+3.26746069e-02f,+5.74010164e-02f,+0.00000000e+00f,
+6.21561967e-02f,-7.76346624e-02f,+2.86460016e-02f,+7.92141780e-02f,+1.08411260e-01f,
+1.19679309e-01f,+0.00000000e+00f,-2.22987570e-02f,-2.48986613e-02f,+1.68562308e-01f,
+6.56340271e-02f,+0.00000000e+00f,-2.14035381e-02f,+2.98209816e-01f,-9.43341851e-02f,
-6.76651150e-02f,-4.70494665e-02f,}; 
k2c_tensor dense_110_bias = {&dense_110_bias_array[0],1,32,{32, 1, 1, 1, 1}}; 
float dense_110_fwork[1056] = {0}; 

 
float dense_111_output_array[32] = {0}; 
k2c_tensor dense_111_output = {&dense_111_output_array[0],1,32,{32, 1, 1, 1, 1}}; 
float dense_111_kernel_array[1024] = {
-2.54222363e-01f,-2.75816560e-01f,+1.43903404e-01f,+4.20540292e-03f,+5.44931889e-02f,
+3.24805714e-02f,+1.04613453e-02f,+1.05093174e-01f,-3.13713610e-01f,+1.62555248e-01f,
+1.84438303e-01f,-4.19026315e-02f,-1.86712161e-01f,+1.43214032e-01f,-2.39828259e-01f,
+1.61689639e-01f,-1.49036929e-01f,+2.72832632e-01f,-8.53423402e-02f,+3.01185608e-01f,
-4.93133580e-03f,-2.82257468e-01f,-3.34362388e-01f,-1.24671876e-01f,+1.53044447e-01f,
-1.30843073e-01f,+3.09705406e-01f,-1.50302965e-02f,-1.28927380e-01f,+1.85842887e-01f,
-2.21078053e-01f,+1.06346391e-01f,-2.10842550e-01f,-2.82615393e-01f,-2.70525575e-01f,
+1.46070749e-01f,+1.41152799e-01f,-1.08012617e-01f,+1.30039930e-01f,-1.87339470e-01f,
-2.13510722e-01f,-1.71012253e-01f,-1.56526625e-01f,-5.08515537e-02f,-2.97195405e-01f,
-2.72511542e-02f,+2.54210204e-01f,-1.15702406e-01f,-2.51228541e-01f,-2.37559706e-01f,
+1.28876656e-01f,+7.62558579e-02f,+1.12245679e-02f,+1.26065254e-01f,-3.05164367e-01f,
+2.58036226e-01f,-1.37906671e-01f,-2.65857995e-01f,+3.15073133e-02f,+2.60756224e-01f,
-2.89846539e-01f,-2.93164998e-01f,-2.45272800e-01f,-1.45163730e-01f,-1.27141371e-01f,
-2.73459524e-01f,+1.89686656e-01f,+2.53028572e-02f,+2.66040534e-01f,+1.22778773e-01f,
-1.88169181e-01f,-1.77970737e-01f,-1.92014128e-01f,-1.94675297e-01f,+9.34507549e-02f,
+8.91467929e-03f,-6.87763095e-02f,+2.49857396e-01f,+1.32592827e-01f,+2.79896855e-02f,
-3.05902779e-01f,-1.40354022e-01f,-2.51213431e-01f,+1.25035584e-01f,+1.55937582e-01f,
-2.77867436e-01f,-7.95293599e-02f,+7.17404187e-02f,+1.57517165e-01f,+2.62806624e-01f,
-2.09490597e-01f,-8.81284475e-02f,-3.94770503e-02f,+2.12297171e-01f,-1.47648588e-01f,
+2.93821186e-01f,+3.50580662e-02f,+1.42279327e-01f,+4.67085004e-01f,-3.43685299e-01f,
+9.84594822e-02f,-1.25928894e-01f,+2.83346683e-01f,-1.21206685e-03f,-2.45556608e-02f,
-2.13252515e-01f,-3.25616896e-01f,+7.38446489e-02f,+3.89100462e-01f,-2.91982353e-01f,
+2.59972185e-01f,+2.02138394e-01f,+3.31672728e-01f,+3.39152038e-01f,+1.83986589e-01f,
-5.38999140e-02f,-5.10365725e-01f,+9.12597179e-02f,-2.83878446e-01f,-2.50220001e-01f,
-2.02434752e-02f,-1.43953383e-01f,+1.58200949e-01f,-9.05795768e-02f,-2.27197915e-01f,
-1.77689090e-01f,-4.90531862e-01f,-4.43979859e-01f,-1.04099229e-01f,-2.39286393e-01f,
+2.14282393e-01f,+2.56485134e-01f,+2.70265311e-01f,-2.25122556e-01f,-8.19879696e-02f,
+1.98608920e-01f,+2.84182340e-01f,-4.40156739e-03f,+4.19976711e-01f,+1.13222942e-01f,
-1.97472259e-01f,+4.86262500e-01f,+4.38299812e-02f,-3.06227505e-02f,+2.20795959e-01f,
-1.34229749e-01f,+5.89775061e-03f,-1.40521839e-01f,+1.38754293e-01f,-3.86965871e-02f,
+8.99390802e-02f,-9.78733003e-02f,+2.83376724e-01f,+2.74914950e-01f,+1.32316411e-01f,
+1.59634516e-01f,+1.69100478e-01f,-2.63898313e-01f,-1.56984225e-01f,-2.32403532e-01f,
-4.02832061e-01f,-1.86858296e-01f,-2.16839060e-01f,+1.79963708e-01f,+7.08331764e-02f,
+3.10345322e-01f,-2.75399446e-01f,+1.82560943e-02f,+2.27413937e-01f,+1.70257449e-01f,
-8.45753029e-02f,-1.97060481e-01f,+9.29734111e-02f,+3.18724126e-01f,+3.63434106e-01f,
+9.68439877e-02f,+1.31308228e-01f,-1.26662374e-01f,-2.35635385e-01f,+1.76300645e-01f,
+1.61281019e-01f,+5.97395822e-02f,-4.52744178e-02f,+1.52435880e-02f,-3.00817162e-01f,
-1.03339463e-01f,+1.34926006e-01f,-2.29165465e-01f,+2.78330266e-01f,-1.18290998e-01f,
-7.47713670e-02f,+8.17911513e-03f,+3.09482645e-02f,+1.36201888e-01f,+2.14240611e-01f,
+5.52196614e-02f,-2.60038376e-01f,+3.02131325e-01f,+8.71885791e-02f,-5.23329265e-02f,
-2.47131780e-01f,-3.04647297e-01f,+1.57190084e-01f,+1.28932238e-01f,+2.50124365e-01f,
+2.66168863e-02f,-7.36446530e-02f,+3.03570539e-01f,-1.39000401e-01f,-1.93588570e-01f,
-1.49813086e-01f,+1.78862005e-01f,-4.91832010e-02f,+3.12261153e-02f,-4.00265634e-01f,
+1.96838304e-01f,-1.48789331e-01f,-7.39148036e-02f,+2.41772637e-01f,+9.73595157e-02f,
-1.66928157e-01f,-2.36780077e-01f,+1.34319052e-01f,+2.85841785e-02f,-1.71942860e-02f,
+2.39823490e-01f,+1.39794677e-01f,+2.70212829e-01f,+2.65822500e-01f,-1.01892486e-01f,
-6.70179129e-02f,-1.48206159e-01f,-1.92187503e-01f,+2.98444837e-01f,-1.19233780e-01f,
+1.33621246e-01f,-2.37530097e-01f,+4.83918609e-03f,+2.75401860e-01f,-5.64754009e-03f,
-2.57182151e-01f,+3.04341000e-02f,-5.78322746e-02f,+2.70685583e-01f,-8.23663771e-02f,
-1.12886995e-01f,+2.90516138e-01f,-1.71851322e-01f,+1.89360633e-01f,+1.30517278e-02f,
+1.59955062e-02f,-2.60765165e-01f,-2.77810067e-01f,-3.72552872e-02f,+2.29998082e-01f,
+1.10660776e-01f,-3.42059135e-01f,+2.14769408e-01f,-1.04290552e-01f,-8.34870338e-02f,
-2.92355984e-01f,+2.77654193e-02f,+1.24409012e-01f,-2.98340738e-01f,+3.88497785e-02f,
-1.43304959e-01f,+1.14196621e-01f,+2.58339196e-01f,-4.54863533e-02f,+2.15622917e-01f,
-3.05611305e-02f,-2.01940596e-01f,+1.73837647e-01f,-5.97766899e-02f,-2.10502058e-01f,
+1.14182740e-01f,-4.45422649e-01f,-4.29196328e-01f,+1.81594655e-01f,-2.95749009e-01f,
+8.15986544e-02f,+1.35712773e-01f,-2.58649826e-01f,-4.59776372e-02f,+1.09560832e-01f,
-2.59689032e-03f,+2.97151476e-01f,+1.14998206e-01f,+5.59211336e-03f,-2.87433505e-01f,
-8.60795528e-02f,-1.36638075e-01f,-1.66357964e-01f,-1.49426153e-02f,+3.17234010e-01f,
-3.48653942e-02f,-3.48720014e-01f,+3.32254469e-02f,-3.20804939e-02f,+1.66685805e-01f,
+8.64257962e-02f,-5.89196905e-02f,-1.99848473e-01f,-2.15930253e-01f,+3.15418661e-01f,
+4.74100858e-02f,+3.03782791e-01f,+1.21828601e-01f,+4.84380573e-02f,-2.87117988e-01f,
-3.26748371e-01f,-8.89222994e-02f,-1.51354551e-01f,-1.58885896e-01f,+2.61889696e-01f,
+1.16780527e-01f,-3.69530261e-01f,+8.89406502e-02f,+8.56190100e-02f,-3.22122335e-01f,
-3.06953222e-01f,-1.43857092e-01f,+1.52387843e-01f,-7.86335859e-03f,-2.59027541e-01f,
+1.97394952e-01f,+1.43192157e-01f,+1.50812477e-01f,+1.55074671e-01f,-1.25104189e-01f,
-1.10998869e-01f,-1.63356975e-01f,-8.40333849e-02f,-4.34310222e-03f,+1.52106151e-01f,
-3.04515690e-01f,+1.39111593e-01f,-3.47128995e-02f,-1.31274641e-01f,+1.03002405e-02f,
+2.50460416e-01f,+8.89139832e-04f,+2.45061487e-01f,-2.70386636e-01f,+1.69034913e-01f,
-4.35013771e-01f,-1.84264723e-02f,-8.55059400e-02f,-1.40493751e-01f,-2.85386801e-01f,
-4.14916016e-02f,-1.81167170e-01f,+2.60315925e-01f,-1.02717094e-01f,-2.88441658e-01f,
-2.29823843e-01f,-2.88529664e-01f,-2.63424367e-02f,+1.71859190e-02f,+2.48991754e-02f,
-1.09130919e-01f,-2.50978082e-01f,-1.04109034e-01f,+7.21608056e-04f,+2.20736012e-01f,
-2.55759448e-01f,-3.48427832e-01f,-9.81813669e-03f,-6.66537806e-02f,+1.68579668e-01f,
+2.53420234e-01f,-1.21824607e-01f,-1.78746447e-01f,-2.77720690e-01f,-1.12678327e-01f,
+5.50940931e-02f,+1.85912363e-02f,+4.02963161e-02f,-2.22977206e-01f,-2.02216178e-01f,
-1.96267724e-01f,-1.55098796e-01f,+2.80729890e-01f,-1.43059090e-01f,+1.59706905e-01f,
+2.07144305e-01f,-1.09581411e-01f,-1.69327706e-02f,+2.03925043e-01f,+2.75366277e-01f,
+1.41441658e-01f,-3.28769460e-02f,+1.08548395e-01f,+2.65738398e-01f,-7.06353486e-02f,
+2.70599335e-01f,+1.26334038e-02f,+4.44061868e-03f,-3.64163607e-01f,+2.78447956e-01f,
+2.00532615e-01f,+1.14374302e-01f,-1.96803153e-01f,+1.45770982e-01f,+2.21524686e-01f,
+1.20361410e-01f,-3.61598730e-01f,+3.10861915e-01f,+8.73644799e-02f,-2.89589688e-02f,
+6.97643980e-02f,-8.11853707e-02f,+1.92133173e-01f,+3.56624126e-02f,+1.89313754e-01f,
+1.08122557e-01f,-1.96743652e-01f,-1.10997096e-01f,-4.71848249e-02f,-1.89018875e-01f,
-5.89065701e-02f,+1.46546096e-01f,-2.10913047e-01f,+7.67653137e-02f,+2.72943705e-01f,
-2.64031053e-01f,-3.68143152e-03f,+2.05664620e-01f,-9.73101929e-02f,-1.27454996e-01f,
+2.50189215e-01f,+3.02152961e-01f,-2.26998046e-01f,-1.31135762e-01f,-1.61059778e-02f,
+1.60581619e-01f,-3.34086955e-01f,-5.06819077e-02f,+3.37897748e-01f,-2.81881303e-01f,
-1.45558491e-01f,-3.54111761e-01f,-2.00057253e-02f,+1.97777897e-01f,+3.12846005e-01f,
-1.18270330e-01f,+2.07823217e-01f,-1.36589617e-01f,-1.19759440e-02f,-2.18377888e-01f,
-1.65440485e-01f,+9.41748619e-02f,-2.90130347e-01f,-2.34213442e-01f,+1.68497086e-01f,
-1.08325481e-03f,+6.71886206e-02f,+2.86105841e-01f,-2.78494656e-02f,+8.52099061e-03f,
+2.63279706e-01f,+2.02591211e-01f,+1.12162411e-01f,-1.56640708e-02f,+1.41339391e-01f,
-3.04722339e-01f,+3.76599431e-02f,+1.96950227e-01f,+1.64421320e-01f,-9.03268605e-02f,
+2.64294833e-01f,-8.07046592e-02f,+4.04279530e-02f,+2.72795707e-01f,+2.59142965e-01f,
-1.66685224e-01f,-9.01604891e-02f,-2.95492113e-02f,-9.70342159e-02f,+2.76965648e-01f,
+1.70864820e-01f,-6.43113852e-02f,-2.54059732e-01f,-1.90654714e-02f,-6.36574477e-02f,
+1.06701352e-01f,-1.55605569e-01f,-3.25659543e-01f,+4.93494064e-01f,+2.43743524e-01f,
-6.18129075e-02f,+1.72985137e-01f,+1.22855492e-01f,-1.80125922e-01f,+6.51945220e-03f,
-1.35746077e-01f,-2.06685513e-01f,+2.47545931e-02f,+3.41864750e-02f,-3.13072562e-01f,
-2.59956539e-01f,-5.00992835e-02f,-3.69266160e-02f,+6.92823976e-02f,-1.62003294e-01f,
-1.48722023e-01f,-1.16759114e-01f,+1.92382988e-02f,+2.95392543e-01f,-2.00468063e-01f,
+1.02643177e-01f,-2.46270239e-01f,-1.16616674e-01f,-2.71455139e-01f,+1.25036165e-01f,
-3.01810712e-01f,+1.02683127e-01f,-3.97580443e-03f,+2.76509821e-01f,+2.64724381e-02f,
-2.28544295e-01f,+1.09857708e-01f,-3.02875191e-01f,+7.87350833e-02f,-2.22805575e-01f,
+1.37083933e-01f,-1.17099829e-01f,+2.13392973e-02f,-2.10514098e-01f,+3.17519575e-01f,
-1.42432705e-01f,+1.49275094e-01f,+1.55084819e-01f,+2.89783329e-01f,-3.99572030e-02f,
+1.04716562e-01f,-1.55114874e-01f,+1.27931729e-01f,-1.63288862e-01f,-4.70397584e-02f,
-1.91378891e-01f,+7.85993710e-02f,+2.90681142e-02f,-1.01865798e-01f,-1.69328690e-01f,
-8.16214830e-02f,+1.10835291e-01f,+3.07349134e-02f,-5.03085852e-02f,+3.00729126e-01f,
-1.48628265e-01f,-1.19264998e-01f,-2.53550172e-01f,-2.93941587e-01f,+2.24122871e-02f,
+6.77460209e-02f,-8.26438516e-03f,-2.45082840e-01f,+1.64893597e-01f,-1.38976142e-01f,
-3.14678997e-01f,+2.79591143e-01f,-3.10539603e-01f,+6.79923370e-02f,-1.51204363e-01f,
-1.77469209e-01f,+1.10671379e-01f,+1.71242669e-01f,+8.28080717e-03f,-4.27512050e-01f,
+1.01247534e-01f,+2.08067611e-01f,-1.53898939e-01f,+1.10796690e-02f,+2.78381854e-01f,
-2.65568107e-01f,-4.56114709e-01f,-6.59378320e-02f,-2.32802287e-01f,+2.95568615e-01f,
+8.75837803e-02f,+2.88961530e-01f,+2.23487020e-01f,+2.39998922e-01f,+9.34087560e-02f,
+2.87454188e-01f,-2.29582265e-01f,-2.41657048e-01f,+7.86940530e-02f,-1.19292095e-01f,
+3.16676527e-01f,-2.58410484e-01f,-1.81183472e-01f,-1.08796619e-01f,-9.92217958e-02f,
+1.65381238e-01f,-9.10646468e-02f,-5.70801534e-02f,+7.53135309e-02f,-1.45021915e-01f,
-1.01531975e-01f,-1.87484697e-01f,+2.51374394e-01f,+1.42397553e-01f,+2.70339072e-01f,
+1.36986643e-01f,+2.93428063e-01f,+8.88175368e-02f,-2.03064710e-01f,-6.42218813e-02f,
+2.58631438e-01f,+1.20831899e-01f,+5.64537644e-02f,-1.08922347e-01f,-2.25402907e-01f,
+5.48780896e-02f,+1.65234193e-01f,-4.62142900e-02f,+2.57155001e-01f,-2.18854740e-01f,
-5.61748222e-02f,+1.35426641e-01f,+3.15382391e-01f,-2.69166291e-01f,+2.56659448e-01f,
-2.35397536e-02f,+1.75985113e-01f,-1.85553119e-01f,+1.04847170e-01f,-2.63942361e-01f,
+1.63381234e-01f,-2.61514992e-01f,+1.90620229e-01f,+1.82071790e-01f,+1.70248542e-02f,
+2.16870368e-01f,+2.85925299e-01f,+5.66181280e-02f,+1.80136457e-01f,+2.22995877e-01f,
+2.91236043e-01f,-1.48028359e-01f,+2.07431361e-01f,+4.29662287e-01f,-1.85818061e-01f,
-2.89576072e-02f,-2.09151581e-01f,-2.30390385e-01f,-2.27424026e-01f,+5.65983653e-02f,
+1.52729467e-01f,-9.87176895e-02f,+2.62102127e-01f,+1.57940090e-01f,-9.98704359e-02f,
-2.15209082e-01f,-4.95128706e-02f,+9.47169960e-02f,-2.66471622e-03f,+4.29069274e-04f,
+5.20320162e-02f,+1.96918268e-02f,+4.26566899e-02f,+2.11472869e-01f,-1.03215374e-01f,
-3.26870941e-02f,-2.17847303e-01f,-2.62019902e-01f,-4.13997293e-01f,-2.95890599e-01f,
+1.17598370e-01f,-2.23685172e-03f,-1.92426503e-01f,+2.20776469e-01f,+1.54122859e-01f,
-1.96495846e-01f,+2.37895548e-02f,+1.20101064e-01f,+6.51036501e-02f,+2.70829827e-01f,
+2.11059123e-01f,-2.64892995e-01f,+1.83957517e-02f,-1.83763102e-01f,+6.81084991e-02f,
+2.59780318e-01f,-6.75014257e-02f,+2.89707482e-02f,+9.93749499e-03f,+2.20824182e-02f,
-2.64673322e-01f,-1.96201801e-02f,-2.79788375e-02f,-1.82200462e-01f,+2.40245014e-01f,
-2.97269940e-01f,+2.92881578e-01f,-1.35484815e-01f,+8.95721912e-02f,-4.87393439e-02f,
+2.78700143e-01f,+2.95325965e-01f,-2.62674302e-01f,-7.32238740e-02f,+3.38170856e-01f,
-2.79167801e-01f,-3.12392116e-01f,-3.31016511e-01f,+2.47291833e-01f,-8.36891904e-02f,
-2.38293439e-01f,+1.67906538e-01f,+9.43067297e-03f,-9.12344009e-02f,-2.69278884e-01f,
+1.62743539e-01f,-3.07401448e-01f,-2.63010651e-01f,+2.47503906e-01f,-1.00717381e-01f,
+1.33541137e-01f,-8.00062791e-02f,-3.68034273e-01f,-5.12193441e-02f,+2.04153091e-01f,
-2.29088832e-02f,-2.32380435e-01f,+8.05722252e-02f,+3.99859389e-03f,-2.71357242e-02f,
-9.58530754e-02f,+2.82848269e-01f,-4.97334972e-02f,-1.54312849e-02f,+3.53698969e-01f,
-1.71770826e-01f,-2.42705017e-01f,-9.73923504e-02f,+2.25667804e-01f,-2.02014714e-01f,
-1.61313117e-01f,-2.57930279e-01f,-1.97699621e-01f,-2.46708751e-01f,+1.55123919e-01f,
-3.06603223e-01f,+2.72879928e-01f,-1.68790475e-01f,+1.88967243e-01f,-7.77576417e-02f,
+4.17166725e-02f,+1.03747189e-01f,+2.51022905e-01f,-1.93260223e-01f,-1.86963081e-01f,
+6.02111667e-02f,+1.13956034e-02f,+6.11038208e-02f,-1.97364792e-01f,-3.03413509e-03f,
+3.79472561e-02f,+2.21122175e-01f,+1.22390069e-01f,+6.79320917e-02f,+3.13937813e-01f,
+1.69193447e-01f,-1.33311048e-01f,-1.04399193e-02f,-6.19181156e-01f,+7.06191957e-02f,
+2.76509762e-01f,+3.12432200e-01f,+3.05561692e-01f,+3.18764627e-01f,-3.28167856e-01f,
+1.69908017e-01f,-1.53190605e-02f,-2.55870461e-01f,+1.64162591e-01f,-5.11067137e-02f,
+6.43804744e-02f,-1.00496449e-02f,+3.50981988e-02f,+1.34843588e-02f,+2.26594582e-01f,
-3.66455734e-01f,+4.04556453e-01f,-3.51510078e-01f,-6.58043563e-01f,+1.21935137e-01f,
+3.79860282e-01f,-7.46184587e-01f,+2.69434065e-01f,+7.42843747e-02f,+1.75565287e-01f,
-3.92747253e-01f,-4.63634543e-03f,-6.65082261e-02f,+7.37333745e-02f,+4.31664973e-01f,
-5.29788136e-01f,+3.63267958e-02f,-3.62291792e-03f,+9.58945081e-02f,-1.48938149e-01f,
+2.42939144e-01f,-2.73482762e-02f,-1.77555680e-01f,+1.38021156e-01f,-9.26029831e-02f,
+5.38620539e-02f,-3.61989677e-01f,+1.23423174e-01f,-1.28547683e-01f,-6.84875576e-03f,
-1.58516541e-01f,+2.30614677e-01f,+1.31508157e-01f,-1.19319282e-01f,-3.13613474e-01f,
-4.23869580e-01f,-2.44675186e-02f,+1.42419830e-01f,-1.39455432e-02f,+2.31734350e-01f,
-1.23877436e-01f,+2.35046502e-02f,+3.92000452e-02f,-1.44136071e-01f,-8.86498690e-02f,
+3.14667612e-01f,+3.35119455e-03f,+2.54192203e-01f,-1.62582517e-01f,-7.92306364e-02f,
-1.51895761e-01f,-6.22515976e-02f,+8.57784152e-02f,-2.49837220e-01f,-2.44105443e-01f,
-1.20983049e-01f,+7.49447942e-02f,+1.62370741e-01f,-2.71036267e-01f,+2.75973290e-01f,
-1.38687789e-01f,+4.78165448e-02f,-6.59098029e-02f,-7.99072087e-02f,-2.40255326e-01f,
-1.56258777e-01f,-3.80765498e-02f,-2.78218567e-01f,-2.10385293e-01f,-2.47250527e-01f,
+1.22316122e-01f,-1.92536891e-01f,-1.76174328e-01f,+1.07458115e-01f,-1.01276934e-01f,
-1.37561306e-01f,-1.80797383e-01f,+1.21597797e-01f,+2.46129602e-01f,+1.23263538e-01f,
+1.25489235e-02f,-6.02747919e-03f,-2.57695675e-01f,+2.57061571e-01f,+1.26037076e-01f,
+8.38158056e-02f,-1.48775429e-01f,-2.32138097e-01f,-8.20420608e-02f,-6.06067944e-03f,
-2.74580363e-02f,+1.62334815e-01f,-5.63562140e-02f,-6.73110411e-02f,-2.07051575e-01f,
-2.01508686e-01f,+3.08838457e-01f,+1.02005765e-01f,+2.29505122e-01f,+3.02545398e-01f,
-2.66592838e-02f,-9.95272547e-02f,+2.29318947e-01f,-8.44560862e-02f,+7.81024247e-02f,
+1.54150009e-01f,-1.95380658e-01f,-4.87502441e-02f,+1.26853094e-01f,+2.15228289e-01f,
-1.61095202e-01f,+7.31636882e-01f,-2.44861171e-01f,-1.11667059e-01f,+3.96446735e-01f,
-2.23888040e-01f,+3.79559636e-01f,-6.19670987e-01f,+2.79640526e-01f,-1.99580103e-01f,
-8.65593106e-02f,+3.08157682e-01f,-3.26284379e-01f,-3.45952719e-01f,+1.17175564e-01f,
-3.07515681e-01f,-9.42170620e-02f,+5.95267415e-02f,-1.42792463e-01f,+1.00884028e-01f,
-6.77895904e-01f,+7.36092329e-01f,+1.98243946e-01f,+1.96789369e-01f,+7.26601720e-01f,
+5.25857389e-01f,+1.32165596e-01f,-1.08806014e+00f,-1.03449547e+00f,-9.42982137e-02f,
-5.81968725e-01f,+5.35182536e-01f,+4.28036720e-01f,-3.54410969e-02f,+2.89846033e-01f,
+1.62919536e-01f,-1.77030534e-01f,+2.52935320e-01f,+1.14900716e-01f,+7.00774491e-02f,
+8.40649307e-02f,+2.17292160e-02f,-2.69011557e-01f,-2.28310645e-01f,-4.78982218e-02f,
+1.54950410e-01f,-3.70806515e-01f,-2.72328287e-01f,-2.95478374e-01f,+2.47672126e-01f,
+6.27499372e-02f,+2.51020968e-01f,-1.58179864e-01f,-2.86939293e-01f,-3.62822682e-01f,
+2.13243470e-01f,+2.05228791e-01f,-1.68712899e-01f,-4.19097841e-01f,+6.17181882e-02f,
-1.12436637e-01f,-2.49084115e-01f,+2.61632800e-01f,-1.53540239e-01f,-2.91874975e-01f,
+3.08168501e-01f,+2.37995952e-01f,-1.14306435e-01f,-2.38244459e-01f,-1.75504476e-01f,
-1.10898189e-01f,+1.20621346e-01f,+8.61150175e-02f,-2.25723818e-01f,+2.77673841e-01f,
-1.75345853e-01f,+1.84356272e-02f,+3.94998007e-02f,-2.42614701e-01f,-2.96883643e-01f,
+2.26108760e-01f,+4.05195206e-02f,+2.47652888e-01f,-1.55873820e-01f,+1.20080210e-01f,
-7.49116093e-02f,-4.27021384e-02f,+1.19000860e-01f,-2.32086137e-01f,-1.95988417e-01f,
-1.90790415e-01f,+1.56041026e-01f,+9.32015851e-02f,-2.74996907e-01f,+1.27579600e-01f,
-2.58128941e-01f,-2.91585356e-01f,+1.98649600e-01f,-3.19223553e-01f,+1.34438172e-01f,
-2.99646258e-01f,-1.73192114e-01f,+8.52459148e-02f,-1.23155843e-02f,+1.35757625e-01f,
-1.06008410e-01f,-4.83001908e-03f,-3.10823053e-01f,+9.47563648e-02f,-1.73860461e-01f,
-2.74089038e-01f,+2.70237863e-01f,-2.19384044e-01f,-2.00394765e-01f,+2.27395833e-01f,
+2.99285889e-01f,-9.10990238e-02f,+4.78460975e-02f,-2.44828463e-01f,+1.66347101e-01f,
+2.68811435e-01f,+2.08521500e-01f,-3.48940969e-01f,-2.71877736e-01f,+2.26395309e-01f,
+1.38005450e-01f,-1.60892323e-01f,+7.82596320e-03f,-7.71554410e-02f,}; 
k2c_tensor dense_111_kernel = {&dense_111_kernel_array[0],2,1024,{32,32, 1, 1, 1}}; 
float dense_111_bias_array[32] = {
-1.16938408e-02f,-1.61176510e-02f,+4.24916521e-02f,+1.49075836e-01f,+0.00000000e+00f,
+6.25930503e-02f,-9.07463301e-03f,-5.76201379e-02f,+6.88328445e-02f,-1.66149121e-02f,
+1.22370876e-01f,+3.50237042e-02f,+5.05248643e-02f,+1.17120333e-01f,+4.17633243e-02f,
+0.00000000e+00f,+2.38683168e-02f,-2.14121789e-02f,+5.09535931e-02f,-7.47202635e-02f,
+8.40508118e-02f,-2.10450180e-02f,+1.38692390e-02f,-5.94227063e-03f,-1.47570437e-02f,
+1.26209646e-01f,-6.10489734e-02f,-6.19554631e-02f,+6.74774945e-02f,-1.26655698e-02f,
+9.10467934e-03f,+1.05506219e-01f,}; 
k2c_tensor dense_111_bias = {&dense_111_bias_array[0],1,32,{32, 1, 1, 1, 1}}; 
float dense_111_fwork[1056] = {0}; 

 
float dense_112_kernel_array[32] = {
-4.35521185e-01f,-1.82078391e-01f,+2.69441724e-01f,+3.52266222e-01f,-1.87465385e-01f,
-4.53323483e-01f,+4.76900131e-01f,+1.21296287e-01f,-4.26661670e-01f,+7.25367814e-02f,
+5.51569462e-01f,+4.22009140e-01f,+4.12730515e-01f,+6.00244641e-01f,-1.67433649e-01f,
-1.99466050e-02f,+7.62757659e-02f,+4.39301997e-01f,+3.44867468e-01f,+1.72940671e-01f,
-6.34182692e-01f,-1.75563827e-01f,-2.73952097e-01f,-3.84259373e-01f,+3.68565917e-01f,
+3.55757117e-01f,+3.15892190e-01f,+3.11838865e-01f,-3.40219736e-01f,+3.49176586e-01f,
-4.21585888e-01f,+4.45138186e-01f,}; 
k2c_tensor dense_112_kernel = {&dense_112_kernel_array[0],2,32,{32, 1, 1, 1, 1}}; 
float dense_112_bias_array[1] = {
-9.32135433e-03f,}; 
k2c_tensor dense_112_bias = {&dense_112_bias_array[0],1,1,{1,1,1,1,1}}; 
float dense_112_fwork[64] = {0}; 

 
k2c_dense(&dense_109_output,dense_109_input_input,&dense_109_kernel, 
	&dense_109_bias,k2c_relu,dense_109_fwork); 
k2c_dense(&dense_110_output,&dense_109_output,&dense_110_kernel, 
	&dense_110_bias,k2c_relu,dense_110_fwork); 
k2c_dense(&dense_111_output,&dense_110_output,&dense_111_kernel, 
	&dense_111_bias,k2c_relu,dense_111_fwork); 
k2c_dense(dense_112_output,&dense_111_output,&dense_112_kernel, 
	&dense_112_bias,k2c_linear,dense_112_fwork); 

 } 

void poly_32_32_32_initialize() { 

} 

void poly_32_32_32_terminate() { 

} 

