#include <math.h> 
 #include <string.h> 
#include "k2c_include.h" 
#include "k2c_tensor_include.h" 

 


void poly_64_64_64(k2c_tensor* dense_113_input_input, k2c_tensor* dense_116_output) { 

float dense_113_output_array[64] = {0}; 
k2c_tensor dense_113_output = {&dense_113_output_array[0],1,64,{64, 1, 1, 1, 1}}; 
float dense_113_kernel_array[64] = {
+1.04410470e-01f,+2.10919902e-01f,-2.49299422e-01f,-2.68846989e-01f,-2.78880417e-01f,
+1.06912851e-01f,-2.16182604e-01f,-1.80710912e-01f,-4.26629931e-02f,-7.29243329e-04f,
+1.26203507e-01f,-9.14594010e-02f,-2.79938549e-01f,-2.05587029e-01f,+7.46538565e-02f,
-3.15009564e-01f,+2.79411107e-01f,+2.39704743e-01f,-1.58298299e-01f,-1.40384406e-01f,
-2.09843755e-01f,-1.05800547e-01f,+2.62772352e-01f,+2.46796280e-01f,+1.93363428e-01f,
-2.56087005e-01f,+2.23172247e-01f,+2.12536216e-01f,+8.92868489e-02f,-2.75611132e-01f,
+9.81903970e-02f,+1.73939720e-01f,+2.84923643e-01f,+2.43282080e-01f,+1.93040922e-01f,
+2.27335304e-01f,+2.60308594e-01f,-6.20559566e-02f,+9.48251784e-03f,-7.34068975e-02f,
+7.14126676e-02f,+2.72561878e-01f,-6.35287464e-02f,-1.82840884e-01f,+1.38888553e-01f,
+1.22916922e-01f,-1.91750422e-01f,+8.09479579e-02f,-1.74676970e-01f,-1.56630814e-01f,
+7.40847662e-02f,+8.77821743e-02f,+2.14393064e-01f,-1.52091056e-01f,+1.12849653e-01f,
+7.45285749e-02f,-1.44241691e-01f,-2.02488288e-01f,+1.90834105e-01f,+1.83148384e-01f,
-2.66896725e-01f,+6.37196004e-02f,+2.76141942e-01f,-2.34591678e-01f,}; 
k2c_tensor dense_113_kernel = {&dense_113_kernel_array[0],2,64,{ 1,64, 1, 1, 1}}; 
float dense_113_bias_array[64] = {
-8.93912166e-02f,-2.93463673e-02f,-1.94158211e-01f,+9.94984880e-02f,+2.63895392e-02f,
+1.26135543e-01f,-5.73044363e-03f,+9.97498035e-02f,+1.16829433e-01f,-9.60971881e-03f,
-7.96956420e-02f,+1.31060094e-01f,+4.35282402e-02f,+7.21312463e-02f,+9.64322090e-02f,
+1.52912764e-02f,+1.10198498e-01f,+1.67728048e-02f,+6.83799535e-02f,+1.28129393e-01f,
-3.09485257e-01f,+7.46503174e-02f,-1.83517952e-02f,+7.85155296e-02f,-9.20929834e-02f,
-4.49206047e-02f,-2.68704686e-02f,+2.65539736e-02f,+1.25722736e-01f,-1.82946831e-01f,
-1.09800935e-01f,-6.90809488e-02f,-8.14372972e-02f,-1.00118205e-01f,-7.03647062e-02f,
+1.13348305e-01f,-7.34040737e-02f,-1.17796384e-01f,+1.22297101e-01f,-2.81728376e-02f,
-9.33303162e-02f,-4.68059182e-02f,+4.52270731e-02f,-1.12788500e-02f,-1.46389902e-01f,
-1.88019469e-01f,-2.39878595e-01f,-1.17003925e-01f,+1.52392879e-01f,-1.12110406e-01f,
-7.02727586e-02f,-1.64689809e-01f,-2.81787336e-01f,-1.02147005e-01f,+1.29934341e-01f,
+2.52990335e-01f,-1.23563111e-02f,+9.87286493e-02f,+1.12539835e-01f,-8.33016038e-02f,
+7.70504847e-02f,-8.67734700e-02f,+1.26381561e-01f,-2.40567718e-02f,}; 
k2c_tensor dense_113_bias = {&dense_113_bias_array[0],1,64,{64, 1, 1, 1, 1}}; 
float dense_113_fwork[65] = {0}; 

 
float dense_114_output_array[64] = {0}; 
k2c_tensor dense_114_output = {&dense_114_output_array[0],1,64,{64, 1, 1, 1, 1}}; 
float dense_114_kernel_array[4096] = {
+1.19730219e-01f,-7.63372183e-02f,+1.57100201e-01f,-7.76834488e-02f,+1.98105305e-01f,
+2.23580822e-01f,-6.30739406e-02f,+1.40735060e-01f,+1.00918971e-01f,-1.48316860e-01f,
+1.19654968e-01f,-3.50788012e-02f,-2.72732198e-01f,-1.89095289e-02f,-3.21791396e-02f,
-6.69011846e-03f,-1.88241988e-01f,+6.60488009e-03f,-4.22429107e-02f,-2.98486054e-02f,
+8.36105496e-02f,-2.61366725e-01f,+6.62079006e-02f,-1.83704272e-01f,+1.39283404e-01f,
-5.06894290e-02f,-2.50337243e-01f,-1.03672132e-01f,+4.20731716e-02f,-2.18018144e-01f,
+2.25015320e-02f,+1.76096365e-01f,-1.73724011e-01f,-1.79631010e-01f,-4.12498266e-02f,
+8.25086981e-02f,-9.72865820e-02f,+1.66928276e-01f,-1.69324905e-01f,-1.97208896e-01f,
+1.04552954e-01f,+1.59417242e-02f,+5.71877509e-02f,-1.47255242e-01f,-1.49383873e-01f,
+1.37076601e-01f,+7.16318861e-02f,-1.96497843e-01f,-4.63124476e-02f,+2.06020549e-01f,
+6.61043972e-02f,+1.53151289e-01f,+1.44404665e-01f,+3.96470353e-02f,-4.03504353e-03f,
-7.29397079e-03f,-2.43539676e-01f,-1.37493879e-01f,-2.55634934e-01f,+1.67627826e-01f,
-4.08970304e-02f,-6.76826388e-03f,-2.06979677e-01f,+7.52236992e-02f,+1.49205998e-01f,
-1.57675236e-01f,-2.70476565e-02f,+1.47672489e-01f,+2.26372212e-01f,+1.31011501e-01f,
-9.04029794e-03f,-5.60909547e-02f,+1.59209594e-01f,-5.03094904e-02f,-1.75887138e-01f,
+1.82610720e-01f,+1.61501497e-01f,+1.27748743e-01f,-1.65358737e-01f,-4.78739366e-02f,
+3.44468802e-02f,-1.17102705e-01f,+1.25908732e-01f,-1.18877374e-01f,-1.67659879e-01f,
+1.13288671e-01f,+4.86864634e-02f,+1.79601252e-01f,-7.42702372e-03f,+1.34329908e-02f,
-1.57996356e-01f,-1.16618887e-01f,+2.09394068e-01f,-6.17356375e-02f,+1.30141631e-01f,
-9.20142606e-02f,+1.86858743e-01f,-2.50020232e-02f,-1.67949721e-01f,+1.31912336e-01f,
+6.82559609e-03f,+1.14873387e-01f,+1.28281161e-01f,+8.93558934e-02f,-4.05197889e-02f,
+6.14847355e-02f,+2.04412669e-01f,-1.29157200e-01f,-1.75830528e-01f,-1.71820283e-01f,
+2.18304649e-01f,-1.97656959e-01f,-1.28919959e-01f,+1.69436678e-01f,+2.80663520e-02f,
-1.76400710e-02f,-1.42236784e-01f,+1.16706565e-01f,+1.10448085e-01f,+2.11046740e-01f,
+5.11378311e-02f,+1.99730411e-01f,-1.90904930e-01f,-1.21809289e-01f,+4.46416773e-02f,
-3.48659940e-02f,+9.20178890e-02f,+1.47338286e-01f,+1.94550633e-01f,-9.88744199e-03f,
-1.23191640e-01f,+6.43643588e-02f,-1.68164894e-01f,+8.89574140e-02f,+6.71608075e-02f,
-1.28196642e-01f,+1.73814580e-01f,-8.75981450e-02f,+3.93263400e-02f,-1.14239827e-01f,
+9.44615826e-02f,+6.14816882e-02f,+1.55843690e-01f,-2.33728498e-01f,-1.08736530e-01f,
-1.22524627e-01f,+6.44170493e-02f,-1.76913440e-01f,-1.32450312e-01f,+1.59375206e-01f,
-9.45580751e-02f,-2.01236367e-01f,+7.30152279e-02f,-1.15713306e-01f,-2.48030975e-01f,
-1.82381228e-01f,-1.63081735e-01f,+2.52117366e-01f,+5.71256541e-02f,+1.61988437e-01f,
-5.37627637e-02f,-5.36048375e-02f,+3.76631767e-02f,-3.09965163e-02f,-1.65138751e-01f,
+4.67832312e-02f,+1.84395134e-01f,+4.46979851e-02f,-1.27411619e-01f,-6.38581216e-02f,
-1.47473469e-01f,-9.66382585e-03f,-4.72323075e-02f,-1.18846044e-01f,+1.12635389e-01f,
+1.16812438e-01f,+1.76043622e-02f,-1.66270092e-01f,+9.07665342e-02f,-1.47218570e-01f,
-1.98170602e-01f,-1.35802865e-01f,-1.19660035e-01f,-1.88030347e-01f,-3.50364596e-02f,
-7.10254088e-02f,+1.40171677e-01f,-1.40974954e-01f,+6.78346157e-02f,+6.65987507e-02f,
-2.30878703e-02f,-5.30278683e-02f,+6.93404675e-02f,-3.29896808e-04f,-4.84625623e-02f,
+5.25043458e-02f,-3.76925920e-03f,+3.26988734e-02f,-1.13228746e-01f,-1.47550881e-01f,
+1.50647700e-01f,+8.37657526e-02f,+1.34120598e-01f,-1.58352092e-01f,+3.62910442e-02f,
+1.11765571e-01f,-1.32177144e-01f,+9.55202356e-02f,+2.02566758e-01f,+1.81821689e-01f,
-1.73645332e-01f,-1.56273067e-01f,+1.98396981e-01f,+1.46406934e-01f,+2.45568249e-02f,
+1.41118392e-01f,+9.14774016e-02f,+1.96370557e-01f,+9.28018987e-02f,+1.24542437e-01f,
-6.28194353e-03f,+1.66326851e-01f,-6.52222261e-02f,-3.98307078e-04f,-1.55958116e-01f,
-3.79764512e-02f,-5.01975417e-03f,-1.50984526e-01f,-1.63375542e-01f,+5.99462837e-02f,
+2.36221045e-01f,-1.35854945e-01f,+1.50742278e-01f,-5.45577444e-02f,+1.79247707e-01f,
+9.74484161e-02f,+1.98176861e-01f,+1.01056397e-01f,-1.37093991e-01f,+1.12093769e-01f,
-2.40661234e-01f,+1.52991071e-01f,+1.98639199e-01f,-5.94639555e-02f,-1.80370227e-01f,
+1.01018921e-01f,+1.55279368e-01f,+1.71327427e-01f,+1.89631924e-01f,-1.52928948e-01f,
+3.39007601e-02f,-1.76418662e-01f,+1.90031454e-01f,+4.42792848e-02f,+1.48659989e-01f,
-1.41958266e-01f,+1.58688769e-01f,+6.27559572e-02f,+1.89367756e-01f,+1.27053633e-01f,
+1.51310228e-02f,+1.52977288e-01f,+2.00023875e-01f,-1.25796661e-01f,+2.01604426e-01f,
+1.96808189e-01f,+1.49899691e-01f,+1.00806959e-01f,-1.11633852e-01f,-5.79467975e-02f,
-1.69510543e-02f,-2.32382953e-01f,-7.41267502e-02f,-1.28418803e-01f,-1.69637147e-02f,
-1.59637123e-01f,+7.04998374e-02f,+3.11149713e-02f,-1.03259981e-01f,-8.02568272e-02f,
-1.42938420e-01f,-6.91685528e-02f,-8.80776718e-02f,+1.29359424e-01f,+6.28020614e-02f,
+2.40362808e-01f,+7.91949686e-03f,-1.55521989e-01f,+2.09601060e-01f,-6.11813217e-02f,
-3.34533751e-02f,-1.05198041e-01f,-1.82571203e-01f,+1.70410171e-01f,+1.76466316e-01f,
-1.64035648e-01f,-6.58672750e-02f,-1.61537260e-01f,+1.68017849e-01f,-1.08694874e-01f,
-1.74733877e-01f,-1.85699612e-01f,-1.94278732e-01f,-1.09792642e-01f,+2.58418135e-02f,
+1.27379134e-01f,+1.38286278e-01f,+1.52104661e-01f,-5.82713485e-02f,+6.12488426e-02f,
-6.30942136e-02f,-1.66891634e-01f,-8.18270743e-02f,+1.82945251e-01f,+4.50747088e-02f,
+1.72006890e-01f,-2.03803107e-02f,-3.02359145e-02f,-7.20961094e-02f,+1.46531239e-01f,
-2.83206433e-01f,-7.60434568e-02f,+8.91290158e-02f,-1.82766691e-01f,+6.12182245e-02f,
-1.32658079e-01f,-1.48359999e-01f,+8.25921372e-02f,+1.06145285e-01f,-1.05719738e-01f,
-1.35160118e-01f,-9.29395929e-02f,+2.50829128e-03f,-1.86081111e-01f,+7.49630928e-02f,
-1.63270995e-01f,+2.78680533e-01f,-5.13934642e-02f,-1.72246233e-01f,-1.63193017e-01f,
-1.72131769e-02f,+2.21139088e-01f,+3.82097214e-01f,-1.94762558e-01f,+1.52302831e-01f,
-3.72099072e-01f,+3.36870611e-01f,+1.51085660e-01f,+2.05733597e-01f,+1.07483461e-03f,
-1.46304384e-01f,+3.59701365e-02f,+2.20594525e-01f,-1.19855918e-01f,-1.82646617e-01f,
-1.94114685e-01f,+1.01441890e-02f,-1.74102008e-01f,+3.46389948e-03f,+6.86084479e-02f,
-1.49672017e-01f,+1.86841667e-01f,+1.27422303e-01f,+4.87047136e-02f,-5.96350245e-02f,
-1.60571367e-01f,+4.91599329e-02f,+2.09027767e-01f,+1.38075978e-01f,-9.60483477e-02f,
+7.42348582e-02f,-1.32328913e-01f,-1.10329136e-01f,-1.09973952e-01f,+1.01509750e-01f,
-1.78620964e-01f,+1.40707821e-01f,+9.10649225e-02f,+2.45459408e-01f,+1.43787712e-02f,
+1.12099841e-01f,+3.41954976e-02f,+1.58383206e-01f,+4.18942943e-02f,-2.06426069e-01f,
+1.31742731e-01f,-2.24357277e-01f,-1.52537286e-01f,+9.41959396e-02f,+3.99664119e-02f,
+1.73443198e-01f,+3.63042951e-03f,+2.00857118e-01f,+7.83053190e-02f,-4.48101982e-02f,
+2.69305911e-02f,-1.37043431e-01f,+1.58711985e-01f,-1.02835894e-03f,-2.15690836e-01f,
+1.28492013e-01f,+8.48094076e-02f,+8.93461928e-02f,+6.63408488e-02f,+1.04574993e-01f,
-2.37710714e-01f,-1.16380036e-01f,+7.67088383e-02f,-1.69706181e-01f,+1.77998647e-01f,
-2.44469792e-01f,+1.09522603e-01f,-1.41665414e-01f,-3.57013643e-02f,+1.90024734e-01f,
+7.20345974e-02f,+1.35129899e-01f,-2.60868907e-01f,+1.26932994e-01f,-5.49614429e-03f,
+2.14465842e-01f,-2.62179635e-02f,-3.91328335e-02f,-2.21786201e-02f,+1.04975566e-01f,
-1.17960729e-01f,+3.08546834e-02f,-3.57147940e-02f,-1.37298599e-01f,-1.31142810e-01f,
+1.60456106e-01f,-1.06553666e-01f,-2.32552066e-01f,+1.79090187e-01f,-1.82375252e-01f,
+1.29304513e-01f,+1.14189103e-01f,+3.32874358e-02f,-3.94494161e-02f,+1.09301671e-01f,
-1.23865448e-01f,+1.83416784e-01f,+1.26718864e-01f,-5.11588454e-02f,+4.69590388e-02f,
+9.11023542e-02f,-1.81246370e-01f,-2.18254328e-02f,-8.43712538e-02f,+1.68186560e-01f,
-2.08024845e-01f,-7.39254206e-02f,+1.39989957e-01f,+2.24354699e-01f,+3.44889015e-02f,
+1.82287186e-01f,-1.28755271e-01f,+2.28286654e-01f,+4.73221317e-02f,+1.80510074e-01f,
+5.90194464e-02f,+1.23682201e-01f,-1.28961831e-01f,-7.89099038e-02f,+1.03640810e-01f,
+1.21008679e-01f,+2.02596471e-01f,-3.45904976e-02f,+7.76103511e-02f,-1.01407468e-01f,
+1.45455077e-01f,+7.89307058e-02f,-1.47892520e-01f,+1.93116799e-01f,+1.40576452e-01f,
+1.02561191e-01f,-3.15017462e-01f,-9.91464406e-02f,+1.00225240e-01f,+1.39533117e-01f,
+1.67925414e-02f,-2.35019982e-01f,-5.87732345e-02f,+2.04786643e-01f,+8.76197070e-02f,
+2.16898918e-01f,+2.10549176e-01f,+6.79119155e-02f,-1.65041268e-01f,-2.85056885e-02f,
-1.12441659e-01f,-8.91887918e-02f,-4.97617610e-02f,-7.26021901e-02f,-1.05741777e-01f,
-1.61599014e-02f,-1.27135068e-01f,-1.57911867e-01f,+2.76161283e-02f,+1.64147794e-01f,
+1.64909914e-01f,+5.89025430e-02f,-1.47731006e-01f,-1.58340305e-01f,+6.84083626e-02f,
-1.64434567e-01f,+1.75313309e-01f,-5.13422489e-02f,-5.41070737e-02f,+1.18144967e-01f,
-3.18344720e-02f,+7.38856718e-02f,-1.39033332e-01f,+1.24402776e-01f,-9.93896872e-02f,
+1.87063709e-01f,-5.34601286e-02f,+1.36025444e-01f,+2.06519157e-01f,-2.31746241e-01f,
-1.80473924e-02f,+1.57916233e-01f,-2.21598446e-01f,+2.74536490e-01f,+3.51030082e-02f,
-2.22360209e-01f,-2.06439704e-01f,+6.39332011e-02f,-1.22914553e-01f,-6.40498996e-02f,
+2.09640563e-01f,-1.93913937e-01f,+5.16698211e-02f,+2.72952784e-02f,+2.25635737e-01f,
+4.89592412e-03f,+1.54085636e-01f,+1.88083336e-01f,+2.31176957e-01f,+1.83919981e-01f,
-3.80350679e-01f,-1.63460433e-01f,-1.70111522e-01f,-7.39689916e-02f,+3.01132351e-01f,
-2.86804815e-03f,+1.26827911e-01f,-1.32841021e-01f,-1.96454227e-02f,+1.30648643e-01f,
-2.02591065e-02f,+8.90798643e-02f,+4.15873602e-02f,+7.37020075e-02f,-7.96492398e-03f,
+9.25795585e-02f,+3.10490698e-01f,+1.78424776e-01f,+1.05261207e-01f,+8.80968496e-02f,
-1.94872469e-01f,+8.38793814e-02f,-1.89513311e-01f,+1.27753988e-01f,-1.08447678e-01f,
+2.42693529e-01f,+1.54124111e-01f,-3.27452689e-01f,-3.35526243e-02f,-1.93091333e-01f,
+1.79910492e-02f,-1.99265718e-01f,+1.56216800e-01f,+1.76876441e-01f,-9.25814547e-03f,
-1.27973616e-01f,+1.55964136e-01f,+1.69022635e-01f,+6.25121640e-04f,-1.16528854e-01f,
+1.26657352e-01f,-1.37433410e-01f,-9.17328000e-02f,+1.69168219e-01f,-1.47242546e-01f,
-1.31067991e-01f,-2.12892499e-02f,-1.01161286e-01f,-2.04279706e-01f,+1.95544586e-01f,
+2.18691990e-01f,+2.50059888e-02f,+3.30565274e-02f,-1.41907930e-01f,-2.10761279e-01f,
-1.67491704e-01f,+1.51752219e-01f,-1.32272333e-01f,+2.10843638e-01f,+4.24915850e-02f,
-1.95585892e-01f,-7.14726448e-02f,+5.50880879e-02f,-5.63621037e-02f,-2.96905003e-02f,
-1.17650032e-01f,-1.56507641e-02f,+3.78995389e-02f,-1.76353510e-02f,-8.68204311e-02f,
-1.81443483e-01f,+2.14707687e-01f,-6.18013144e-02f,+3.72678041e-02f,+1.78720489e-01f,
-7.14511573e-02f,+8.83648545e-02f,+1.78140119e-01f,+1.64618239e-01f,-1.90481737e-01f,
-2.22825147e-02f,-2.26547718e-02f,-1.18420646e-01f,+8.91084597e-02f,+6.71131164e-03f,
+1.56710699e-01f,-2.07986295e-01f,-1.86079562e-01f,+4.96306568e-02f,-1.70558810e-01f,
+3.61029729e-02f,-9.59435254e-02f,-1.53798789e-01f,+6.36063367e-02f,-1.98154092e-01f,
-1.37169182e-01f,+5.10537438e-02f,+9.05406773e-02f,+8.25365037e-02f,-1.42021000e-01f,
+1.24075770e-01f,-1.78475797e-01f,+1.04407869e-01f,-5.97171485e-03f,+2.33197287e-01f,
-4.75176759e-02f,-4.51668017e-02f,+1.92291752e-01f,+4.93888520e-02f,-1.43796965e-01f,
-1.26487017e-02f,+1.25033394e-01f,-1.35854587e-01f,-9.21471268e-02f,-8.90308619e-03f,
-1.60795480e-01f,+1.44211128e-01f,+8.48208815e-02f,+1.60471216e-01f,-2.72112340e-02f,
-1.20535791e-02f,-2.92969327e-02f,+1.29454508e-01f,-1.99816898e-02f,+1.66364208e-01f,
-5.47526777e-02f,-1.52355814e-02f,+1.48221016e-01f,-2.45832894e-02f,+1.81556062e-03f,
+6.13680296e-02f,+3.25972736e-02f,+9.99777392e-02f,-1.58764377e-01f,-5.66567034e-02f,
+1.61324397e-01f,-1.79645687e-01f,+4.53620730e-03f,+1.19107187e-01f,-1.21505976e-01f,
+2.01344073e-01f,-1.12521306e-01f,+2.24891871e-01f,-6.65138811e-02f,-3.13072838e-02f,
-2.56624460e-01f,+1.43793821e-01f,+7.45260566e-02f,+3.37473787e-02f,-7.44818151e-03f,
-1.85865074e-01f,-2.10942015e-01f,-2.61427904e-03f,-1.56262830e-01f,-1.98573947e-01f,
+2.19153449e-01f,+2.18008664e-02f,-1.38361529e-01f,-1.16682515e-01f,-1.79189324e-01f,
+5.66246510e-02f,+7.13638440e-02f,+8.14059675e-02f,+5.67291826e-02f,-1.17911901e-02f,
-1.74813524e-01f,+3.13999318e-02f,+9.79676992e-02f,+1.71421990e-01f,+1.14378445e-01f,
-1.78386912e-01f,+1.72163144e-01f,-6.81343898e-02f,+2.06341937e-01f,+5.31646386e-02f,
+1.53365001e-01f,+1.26082063e-01f,+1.36882246e-01f,-1.04234256e-01f,+6.07148223e-02f,
+1.21686012e-01f,-8.29153508e-02f,-1.67574752e-02f,-2.14942500e-01f,-1.68469027e-02f,
+2.06565291e-01f,+2.04321593e-01f,+2.37010214e-02f,-4.54781950e-02f,+2.19564244e-01f,
+2.20229760e-01f,-1.08149290e-01f,-1.03093550e-01f,+9.70906764e-02f,+6.48522750e-02f,
+7.15148449e-03f,+3.25896638e-03f,+9.73360464e-02f,+1.15528420e-01f,+1.60735860e-01f,
+3.43214124e-02f,+5.11813127e-02f,+2.20411733e-01f,+9.22954306e-02f,+6.99056014e-02f,
-4.30417880e-02f,+2.65452632e-04f,-1.44190773e-01f,+2.54931033e-01f,+2.21456483e-01f,
-2.23327167e-02f,-8.11596513e-02f,+8.73882920e-02f,+1.92100942e-01f,-3.09311599e-02f,
+1.02448143e-01f,+1.01514071e-01f,+1.64512679e-01f,+1.40250176e-01f,-2.79113710e-01f,
-2.17813477e-01f,-2.31159896e-01f,-7.04666674e-02f,+1.84508309e-01f,-1.31725207e-01f,
-1.23973444e-01f,+1.76148757e-01f,-1.16943747e-01f,+1.12359233e-01f,-1.72169954e-02f,
-1.70662016e-01f,-1.94094092e-01f,-1.38505965e-01f,-1.56865850e-01f,-1.10380463e-01f,
-1.32707790e-01f,+1.55701730e-02f,-8.76977816e-02f,+5.30458018e-02f,-1.95376247e-01f,
-1.64735004e-01f,-1.25005797e-01f,+1.95383236e-01f,-9.66505259e-02f,+1.02686770e-01f,
+1.06147990e-01f,+1.08448669e-01f,-3.65131050e-02f,-1.35391325e-01f,-9.53382999e-02f,
-1.36004597e-01f,+8.96266326e-02f,-7.16974437e-02f,+1.28941357e-01f,+1.29912078e-01f,
-1.22238649e-02f,+3.01162601e-02f,+1.41572431e-01f,-1.51389241e-01f,-9.97044370e-02f,
-1.55871719e-01f,-2.53749162e-01f,-1.09201677e-01f,-2.07173094e-01f,+1.32944718e-01f,
+5.57077862e-02f,+4.57295515e-02f,-6.92010224e-02f,-5.51618673e-02f,+1.21531636e-01f,
+1.17430493e-01f,-6.77562132e-02f,-1.34622827e-01f,+4.38156612e-02f,+8.91154259e-03f,
-2.00523138e-01f,+2.34097056e-02f,-1.91680446e-01f,-8.98633897e-02f,+1.40979126e-01f,
+1.26315296e-01f,+1.81997120e-01f,+1.23914471e-02f,+3.13925445e-02f,-2.13778824e-01f,
+1.27274573e-01f,-5.29147238e-02f,-1.64554730e-01f,+1.34592786e-01f,-8.10938776e-02f,
-2.08355680e-01f,-2.80199517e-02f,+1.53380539e-02f,-4.91743982e-02f,-1.07201785e-01f,
-7.06907064e-02f,+4.09629047e-02f,+1.17638916e-01f,+1.75991595e-01f,+7.74290338e-02f,
+1.55510992e-01f,+1.16409585e-01f,-2.06666380e-01f,-1.03532940e-01f,+6.56422749e-02f,
-4.14345525e-02f,-1.97758272e-01f,+1.50222778e-01f,+5.33369556e-02f,-1.89772278e-01f,
+1.95229992e-01f,-1.83990881e-01f,-1.68534115e-01f,-1.59543827e-01f,-1.56633586e-01f,
-9.85866860e-02f,+2.00737447e-01f,+1.10926833e-02f,-1.12041980e-02f,+1.97240740e-01f,
+4.01235409e-02f,-1.24704890e-01f,+8.04050118e-02f,+4.43521701e-02f,-6.25999924e-03f,
-2.48652518e-01f,-1.51486471e-01f,-3.42808813e-02f,+7.95653313e-02f,-1.18245482e-01f,
+8.26126486e-02f,-2.58435067e-02f,+2.08730027e-01f,-4.97926027e-02f,-3.43715958e-02f,
-9.52345803e-02f,+1.59299970e-01f,-4.63567814e-03f,+1.49550423e-01f,-1.47291124e-01f,
-1.98784947e-01f,-1.71386585e-01f,+1.64119735e-01f,-1.24257512e-01f,-1.73313215e-01f,
+1.46461174e-01f,+1.66623387e-02f,-1.85675174e-01f,+5.21725342e-02f,+5.11701889e-02f,
-1.83224052e-01f,+6.25476390e-02f,+1.46561667e-01f,+6.83677718e-02f,-1.37665883e-01f,
+7.23706335e-02f,-3.11957657e-01f,+1.41549483e-01f,-9.95923057e-02f,-1.72202572e-01f,
+2.06313908e-01f,+5.56057319e-02f,-1.41379595e-01f,+6.99631944e-02f,+5.71289612e-03f,
+5.91946393e-02f,-1.47494867e-01f,+4.05774423e-04f,-3.93688343e-02f,-1.62213147e-01f,
+8.05554092e-02f,+7.29445070e-02f,-1.77854970e-02f,-1.83172360e-01f,+1.95794692e-03f,
-1.76254362e-01f,+9.62370709e-02f,+1.20547794e-01f,+1.93687767e-01f,+1.67963788e-01f,
+2.74000894e-02f,-2.37332687e-01f,+3.51009011e-01f,-1.70632094e-01f,-1.34176001e-01f,
-3.08195978e-01f,+1.51866898e-01f,-6.26860261e-02f,+1.19148269e-01f,+1.61708832e-01f,
+1.88770875e-01f,-4.09787297e-02f,+1.91886500e-01f,-2.43675277e-01f,-3.24837595e-01f,
+5.38817793e-02f,-1.22792922e-01f,-1.10752232e-01f,-1.96752891e-01f,-1.55110866e-01f,
-6.96167871e-02f,+3.42435688e-02f,-6.85507283e-02f,+2.24526152e-02f,+7.24869445e-02f,
-5.84314615e-02f,+4.58669513e-02f,-7.79981986e-02f,-3.76235172e-02f,+9.00210440e-02f,
-1.93807945e-01f,-3.04560903e-02f,+1.99901640e-01f,-1.06788285e-01f,+2.73889422e-01f,
-1.76306546e-01f,-2.56163001e-01f,-1.18360758e-01f,+1.24822542e-01f,+1.31322861e-01f,
+7.94946998e-02f,-2.15402782e-01f,+3.09080835e-02f,+2.14239225e-01f,-1.56375140e-01f,
+1.57143906e-01f,+1.81756496e-01f,-5.73024005e-02f,+1.55263081e-01f,+1.03319623e-01f,
-6.18339367e-02f,+1.10871732e-01f,+6.83436692e-02f,+1.31297097e-01f,-7.66208768e-03f,
+6.74290210e-02f,-1.37064114e-01f,-1.24106854e-01f,-3.95446345e-02f,+5.51934093e-02f,
-1.86142132e-01f,-2.26248324e-01f,-3.62467170e-02f,+2.83881798e-02f,+1.27496883e-01f,
-4.33406280e-03f,-2.04280928e-01f,+8.63929838e-02f,+4.66311863e-03f,+9.47368741e-02f,
+5.87730817e-02f,-1.65905386e-01f,+1.53104484e-01f,-1.53335795e-01f,+2.16114655e-01f,
-1.73969090e-01f,+4.65618521e-02f,-2.04604238e-01f,+2.19855681e-01f,+9.17193145e-02f,
+7.13271946e-02f,+1.12955347e-01f,+2.31018346e-02f,+1.21580295e-01f,-7.11826831e-02f,
+6.06202371e-02f,+1.04872687e-02f,+2.14830279e-01f,-8.15030634e-02f,-2.05002233e-01f,
-2.12642804e-01f,+6.73825592e-02f,+1.48059294e-01f,-1.60801157e-01f,-1.36295944e-01f,
+8.43534619e-02f,-2.31225073e-01f,-1.21608460e-02f,+3.51342931e-02f,-1.79978892e-01f,
+1.16686877e-02f,-1.45823419e-01f,+4.98915613e-02f,-1.71574950e-01f,+8.14120937e-03f,
+9.74318534e-02f,+1.19975433e-01f,+5.86528629e-02f,-4.49514650e-02f,+2.95434445e-02f,
+1.48119614e-01f,-1.95010990e-01f,-6.95372969e-02f,-7.01533407e-02f,-1.75597608e-01f,
+1.95059448e-01f,-8.29682648e-02f,-1.16210006e-01f,+1.08475782e-01f,+1.78783178e-01f,
-2.49594152e-02f,-2.09982663e-01f,-1.15589269e-01f,+1.17110297e-01f,-1.29064038e-01f,
+6.80442080e-02f,-6.64698780e-02f,+2.08626598e-01f,-7.38817975e-02f,-1.06244057e-01f,
+1.46096811e-01f,-1.06628239e-01f,+3.91404554e-02f,-2.22488478e-01f,+4.72925194e-02f,
+5.80893904e-02f,+5.88911325e-02f,+8.17034245e-02f,-5.74684590e-02f,-2.13447243e-01f,
-2.79585272e-02f,+5.20231985e-02f,-2.12014332e-01f,+7.91915786e-03f,+4.78577092e-02f,
+6.15416318e-02f,+1.30534977e-01f,+8.93317237e-02f,+2.19021738e-01f,+1.05411284e-01f,
+5.30595779e-02f,+1.84707753e-02f,+1.17773950e-01f,-8.31732452e-02f,-5.36394119e-02f,
-1.24804132e-01f,+1.26292929e-01f,+1.62920937e-01f,-7.03580230e-02f,+5.01504131e-02f,
-1.06378332e-01f,-1.31816640e-01f,+9.00941566e-02f,+5.49665242e-02f,+1.20693326e-01f,
+1.12967290e-01f,+1.13878325e-01f,-1.23394735e-01f,-6.40913425e-03f,-4.43226099e-02f,
+7.25762695e-02f,-1.86817080e-01f,-1.82601362e-01f,+9.98432562e-02f,-1.92413449e-01f,
-8.05887058e-02f,+1.51954666e-01f,-1.41413271e-01f,+1.65954396e-01f,-1.71521202e-01f,
-6.64132386e-02f,+5.86465746e-02f,+6.22513331e-02f,-1.04213350e-01f,-1.27267286e-01f,
+5.05253226e-02f,+1.48586303e-01f,+3.15992683e-02f,+2.27425247e-02f,-9.46837589e-02f,
+9.00871091e-05f,+8.88638664e-04f,+6.48186654e-02f,-2.47393116e-01f,-9.86116529e-02f,
+2.13029072e-01f,+1.51251242e-01f,+1.49048895e-01f,+1.05239898e-01f,-3.01584601e-03f,
+7.56058767e-02f,-3.10842991e-02f,-1.83991909e-01f,-9.83896330e-02f,-1.00925989e-01f,
+1.44834682e-01f,-1.33491695e-01f,+3.46618108e-02f,+1.29320901e-02f,+4.49941903e-02f,
-1.90296501e-01f,+1.65446475e-01f,+1.69882685e-01f,-1.14872880e-01f,+2.23927069e-02f,
+4.47965078e-02f,-1.18242584e-01f,+1.19743943e-02f,-1.15802318e-01f,-1.49055094e-01f,
+1.77357450e-01f,-1.92524523e-01f,-1.10487886e-01f,-2.02179953e-01f,+1.94490194e-01f,
+1.70018330e-01f,-3.11160851e-02f,+1.51304111e-01f,+4.26919609e-02f,+5.94302081e-02f,
-2.81683914e-02f,-1.74095389e-02f,+2.14568913e-01f,-1.55888289e-01f,+4.36609350e-02f,
+1.68618754e-01f,-8.04535970e-02f,-1.31395072e-01f,+1.29792303e-01f,-1.84968144e-01f,
+1.25086322e-01f,+1.02075469e-02f,-8.81945565e-02f,+1.75639898e-01f,-1.38666689e-01f,
-3.82853076e-02f,+1.41553804e-01f,-1.15836435e-03f,-4.04573940e-02f,+2.11238414e-02f,
-8.46488923e-02f,-9.89062935e-02f,+1.62922889e-01f,-1.79268301e-01f,-6.31939024e-02f,
-1.88392196e-02f,-3.31873894e-02f,+6.19765669e-02f,+1.87420100e-01f,-2.43038833e-02f,
+1.78341195e-01f,+1.16107419e-01f,+2.03607395e-01f,+9.13557597e-03f,-1.51249573e-01f,
-7.53892288e-02f,-1.52605474e-01f,+2.20969170e-02f,+1.47494033e-01f,-4.96366955e-02f,
+2.80003428e-01f,-1.82500575e-02f,+2.05898255e-01f,-1.52326107e-01f,+1.02398247e-01f,
+1.93685144e-01f,-1.71647727e-01f,+1.01431817e-01f,+5.88347614e-02f,+2.03185737e-01f,
-3.02323103e-01f,+5.99217527e-02f,+6.50807470e-02f,-1.29322885e-02f,+9.90875810e-02f,
-7.26332963e-02f,-5.39819039e-02f,+6.21606857e-02f,+1.12435371e-01f,+1.39665350e-01f,
-1.81762934e-01f,-1.85125321e-01f,+1.08033419e-01f,-1.12531826e-01f,+1.13668434e-01f,
-7.91603029e-02f,+1.00991048e-01f,+7.83573240e-02f,-9.83521417e-02f,-2.04654127e-01f,
+3.22124884e-02f,+3.15090455e-02f,+1.13350770e-03f,+9.58780870e-02f,+8.55528116e-02f,
+8.95999968e-02f,+1.15310531e-02f,+1.54829010e-01f,+1.73330307e-02f,+1.26856402e-03f,
-5.32582998e-02f,+1.27774820e-01f,+9.62415263e-02f,-5.27482033e-02f,-4.52553816e-02f,
-1.67702317e-01f,-1.61085442e-01f,-5.72797768e-02f,-2.25550612e-03f,+4.83205393e-02f,
+4.41681705e-02f,+1.61620080e-01f,+2.23928839e-01f,-1.92333991e-03f,-2.53969342e-01f,
+1.69298455e-01f,-7.76884109e-02f,-1.40410125e-01f,+2.33021975e-01f,-1.79864198e-01f,
+5.46592921e-02f,-2.49039084e-02f,+1.22431353e-01f,-1.55855432e-01f,+1.87525555e-01f,
-2.08404213e-02f,+9.82959419e-02f,-9.50268507e-02f,-1.42079547e-01f,+1.77823231e-01f,
+6.09638356e-02f,+2.06659690e-01f,+1.33396775e-01f,+1.27271816e-01f,+8.73960555e-02f,
+1.31038472e-01f,-2.06623405e-01f,+1.24444447e-01f,-1.12453222e-01f,+4.92450148e-02f,
+2.04416454e-01f,+2.69963562e-01f,-6.32412210e-02f,-1.09581493e-01f,+2.88922247e-03f,
-2.01768100e-01f,+1.39877588e-01f,+1.05535530e-01f,+2.12604508e-01f,-2.07122386e-01f,
-1.26220584e-01f,-2.25176662e-02f,-1.12378210e-01f,+2.76502967e-03f,+6.38724416e-02f,
-3.38694779e-03f,+8.32674652e-02f,-5.30346334e-02f,-1.20199181e-01f,-1.65319249e-01f,
+1.89865440e-01f,-3.64463292e-02f,-2.76657462e-01f,+6.03349730e-02f,+2.43653655e-02f,
-3.03697586e-01f,-9.44426134e-02f,-3.53052765e-02f,+7.14919250e-03f,-1.69451684e-01f,
+8.71910304e-02f,+2.17892677e-02f,+8.39249566e-02f,+4.96271960e-02f,+8.58522207e-02f,
+1.23748615e-01f,-5.49360096e-01f,-4.22939137e-02f,+4.58949357e-02f,-1.83491223e-02f,
-2.10633665e-01f,+1.74165666e-01f,-1.80271640e-01f,-4.93820161e-02f,-2.05470234e-01f,
-1.61536977e-01f,-1.94129094e-01f,-1.70172021e-01f,+5.11861682e-01f,+1.04190245e-01f,
-1.77698266e-02f,-2.27522314e-01f,-1.88409060e-01f,-4.98166643e-02f,+1.07269034e-01f,
-3.99714941e-03f,-1.85614735e-01f,+3.33413854e-02f,+2.39685513e-02f,-7.25837126e-02f,
-9.25035030e-02f,-1.19032927e-01f,-1.28797114e-01f,-2.49344677e-01f,-1.60060227e-01f,
+5.68834096e-02f,+9.22062993e-03f,+4.62507829e-02f,+1.50878727e-01f,-1.69475973e-02f,
-9.74864438e-02f,-2.03442067e-01f,-1.78546488e-01f,+2.04773620e-01f,+1.58179209e-01f,
+4.34246510e-02f,-1.85423598e-01f,-2.09002107e-01f,+1.96860433e-01f,+2.13130668e-01f,
-1.60078108e-01f,-1.50686622e-01f,-2.01865315e-01f,+4.55146171e-02f,-7.34042749e-02f,
+1.90659568e-01f,+2.30229184e-01f,+5.44205047e-02f,-6.98504746e-02f,+1.35712177e-01f,
+1.50685161e-01f,-5.75374216e-02f,+1.04729146e-01f,-5.91515005e-02f,-1.41325146e-01f,
-1.72034532e-01f,-1.37546510e-01f,+1.68612421e-01f,-1.11585088e-01f,-1.00449465e-01f,
+1.44404814e-01f,+3.59943928e-03f,+2.80180667e-02f,+1.69165045e-01f,+1.44439088e-02f,
+4.05966267e-02f,+1.18565477e-01f,-1.77657679e-01f,-2.07017064e-02f,-1.03549741e-01f,
-3.88721973e-02f,+1.83945388e-01f,-7.67550245e-02f,-3.64261642e-02f,+8.29539523e-02f,
+1.74061134e-01f,+1.47305220e-01f,+4.20132168e-02f,-7.32742250e-02f,-5.30518927e-02f,
-1.88531741e-01f,+2.56198589e-02f,-1.00006089e-01f,-1.79695621e-01f,-6.82834387e-02f,
+8.41406137e-02f,-1.99028432e-01f,-1.21952541e-01f,-9.16213617e-02f,+9.64444596e-03f,
-5.63997659e-04f,-1.09850231e-03f,-8.83233100e-02f,-6.54546618e-02f,+9.56904609e-03f,
+1.82603002e-01f,-1.65547252e-01f,-4.04454395e-02f,-1.41564876e-01f,-1.70580909e-01f,
-1.03182852e-01f,+1.43031761e-01f,+2.13826120e-01f,-1.79896861e-01f,+1.28670977e-02f,
+2.54754219e-02f,+4.25319076e-02f,-9.93323401e-02f,-1.37656927e-02f,+2.04702616e-01f,
-1.20485030e-01f,-1.70743659e-01f,+1.63135201e-01f,-6.79329634e-02f,-8.27115551e-02f,
-1.13348037e-01f,+1.62327990e-01f,-9.38850939e-02f,+5.53149134e-02f,+5.46694268e-03f,
-2.50150979e-01f,-3.86414677e-02f,+4.07102071e-02f,-8.14310461e-02f,+1.70072928e-01f,
-4.44119703e-03f,+7.50021189e-02f,-2.33291090e-01f,-1.05886683e-01f,-8.78187567e-02f,
-2.17180699e-03f,+9.70535800e-02f,+1.36416510e-01f,-2.05032289e-01f,-3.48719805e-02f,
+2.33855452e-02f,-9.96921882e-02f,+1.71772778e-01f,+9.59447175e-02f,-2.14639485e-01f,
+1.73043534e-01f,+1.27849272e-02f,+1.65597256e-03f,-2.62000740e-01f,-1.49700880e-01f,
+1.43664107e-01f,-2.16154322e-01f,-1.78717062e-01f,-6.35421276e-02f,-1.93015449e-02f,
+9.91752446e-02f,-8.98192748e-02f,+2.85034031e-02f,-1.05895795e-01f,+7.16930777e-02f,
-2.43217833e-02f,+1.07183680e-01f,-9.95631963e-02f,+1.66488126e-01f,-1.38759896e-01f,
+1.43279687e-01f,-1.76789463e-01f,-1.36968046e-01f,-7.87176192e-03f,+1.63234130e-01f,
-1.90631002e-02f,-9.77486894e-02f,-7.94331208e-02f,+1.27626792e-01f,+1.44490004e-01f,
+7.66990185e-02f,+2.16447134e-02f,-1.75735801e-02f,+4.93387179e-03f,+1.54848561e-01f,
-5.40658832e-02f,-1.21194720e-01f,+1.24408789e-01f,-1.00942701e-01f,+6.29800409e-02f,
+1.14317082e-01f,+2.11140856e-01f,-5.53455018e-02f,+2.26320606e-02f,-3.37707520e-01f,
-4.14232127e-02f,-9.10710916e-02f,-1.11647189e-01f,+1.57372635e-02f,+1.78404078e-01f,
+1.00162454e-01f,+1.02544911e-01f,-1.55620366e-01f,-4.95582372e-02f,+1.97201952e-01f,
+2.34842062e-01f,+1.00518659e-01f,-1.20073646e-01f,-4.21899706e-02f,-1.28548771e-01f,
+1.24697708e-01f,-8.12317654e-02f,+1.37024140e-02f,+1.02328345e-01f,+1.99335843e-01f,
-1.59347162e-01f,+1.05189390e-01f,-1.12124108e-01f,+1.45657510e-01f,-7.20702782e-02f,
+1.81220815e-01f,+1.97644532e-02f,-2.01114342e-01f,+7.10368380e-02f,-2.20051467e-01f,
+8.49197581e-02f,-8.70700479e-02f,+1.13604479e-01f,+1.88571393e-01f,+9.77434143e-02f,
-7.73456991e-02f,+8.49067122e-02f,-9.80874524e-02f,+1.99998632e-01f,+1.34411648e-01f,
+8.07345882e-02f,-2.26123348e-01f,-9.81425866e-02f,+4.29495946e-02f,-4.44373488e-03f,
-3.80659029e-02f,+1.26523301e-01f,-7.62231573e-02f,+1.92850888e-01f,+2.08549842e-01f,
+7.76241794e-02f,-4.37267721e-02f,+2.39368156e-02f,-2.05983430e-01f,+1.31544963e-01f,
+2.37523764e-01f,-1.02813996e-01f,+6.13232367e-02f,+3.47165614e-02f,-1.91142157e-01f,
+1.23529539e-01f,+1.21717677e-01f,+1.00396328e-01f,-1.91853240e-01f,+1.07612148e-01f,
-1.17282150e-02f,-7.84680098e-02f,-3.17815249e-03f,+1.01237506e-01f,+1.50559992e-01f,
+1.45456001e-01f,-1.78655803e-01f,-2.31181979e-02f,-9.59325954e-02f,-1.47322416e-01f,
+1.32612586e-02f,+1.44708917e-01f,-1.89132467e-01f,-3.22727636e-02f,+3.97880897e-02f,
-1.58944309e-01f,+1.57960922e-01f,-1.92133635e-01f,-1.95507675e-01f,-1.66908011e-01f,
-8.68777111e-02f,-1.24709636e-01f,-3.23782563e-02f,+1.96169585e-01f,-1.00990511e-01f,
-2.01898754e-01f,-1.67162478e-01f,+6.39211759e-02f,-9.18178484e-02f,+2.87526667e-01f,
+2.04623840e-03f,-5.85597344e-02f,+1.36812806e-01f,+1.07805781e-01f,-2.63162524e-01f,
+1.30172476e-01f,-6.99686036e-02f,-3.64598520e-02f,-1.99314430e-01f,-1.41345551e-02f,
+1.86491236e-02f,+1.07547119e-01f,+2.89151445e-02f,-1.03790596e-01f,+1.83394805e-01f,
-1.39548540e-01f,+1.02610260e-01f,+5.43842763e-02f,+1.66494876e-01f,+1.48514658e-01f,
-2.91540176e-02f,-2.07115397e-01f,+9.28299725e-02f,-1.32915676e-01f,-4.03514504e-02f,
-5.02576455e-02f,-8.67969915e-02f,+9.53730941e-03f,+1.29895747e-01f,-1.57144696e-01f,
+9.20953229e-02f,-9.12121609e-02f,-1.30149826e-01f,+1.73517555e-01f,+1.40937746e-01f,
-1.43257752e-01f,-2.40885183e-01f,-8.44833627e-02f,-1.82449013e-01f,+2.02668712e-01f,
+6.49578497e-02f,-1.59990147e-01f,-1.58631980e-01f,+1.38115376e-01f,-7.13304728e-02f,
-9.61792544e-02f,+9.09651369e-02f,-1.09611675e-01f,-3.23538855e-02f,-4.41174805e-02f,
-3.22890170e-02f,-2.51248777e-01f,+1.80527210e-01f,-1.56501994e-01f,+3.76350842e-02f,
-1.73741914e-02f,+4.53771511e-03f,-1.29014239e-01f,-2.22403660e-01f,+1.08650751e-01f,
-1.75230920e-01f,-1.02332786e-01f,+1.29499450e-01f,+1.79946676e-01f,-1.28853738e-01f,
+9.18336362e-02f,+1.01474136e-01f,-3.63437571e-02f,-1.26428483e-02f,+1.72687218e-01f,
+1.95597887e-01f,+4.82326150e-02f,-7.20838085e-02f,-1.41596735e-01f,-1.41083673e-01f,
-1.26882613e-01f,-6.65901005e-02f,-2.60686427e-02f,+2.10472837e-01f,-8.56286734e-02f,
+2.12162554e-01f,+9.96717587e-02f,+1.95646495e-01f,-1.15876809e-01f,+2.11828813e-01f,
-6.06387742e-02f,-1.13469912e-02f,-4.64957803e-02f,-9.55391750e-02f,+6.61950186e-02f,
+2.26284847e-01f,-1.02037400e-01f,-2.18288377e-01f,-1.29102200e-01f,+1.49621323e-01f,
-1.95775405e-01f,-2.25979045e-01f,+1.80943713e-01f,-1.46400616e-01f,+3.82795446e-02f,
-8.58643651e-02f,+8.92942920e-02f,-1.91160634e-01f,-3.84143367e-02f,+2.07322855e-02f,
+7.04836100e-02f,-9.24159512e-02f,+7.18593001e-02f,-1.63842961e-01f,-3.48027050e-02f,
+2.11085394e-01f,+1.30624324e-01f,-1.47800639e-01f,-4.11874130e-02f,+8.09835792e-02f,
+3.60546857e-02f,+2.07803190e-01f,+1.47330090e-01f,+2.70432723e-03f,-3.63083556e-02f,
+1.12479031e-01f,+1.34307429e-01f,+1.85324281e-01f,-3.74632627e-02f,+2.88766772e-02f,
+2.13347211e-01f,+1.46589667e-01f,-1.76485881e-01f,-1.24400377e-01f,-1.25896707e-01f,
-1.90525994e-01f,-3.04444749e-02f,+1.54160038e-01f,-1.22290172e-01f,-1.33161500e-01f,
+8.08365196e-02f,+2.99343485e-02f,+2.28537545e-01f,-8.01258907e-02f,-4.99904007e-02f,
+1.33058101e-01f,+1.49465203e-02f,-1.46757841e-01f,-1.61740959e-01f,+2.16378108e-01f,
+2.10527495e-01f,-1.07071161e-01f,-4.60452996e-02f,+1.66944638e-01f,+1.40133336e-01f,
+2.04367071e-01f,-1.98217794e-01f,-7.36454576e-02f,+1.91062436e-01f,+1.54848054e-01f,
-1.80773571e-01f,-7.62586221e-02f,-8.59824568e-02f,-1.32068425e-01f,-1.88016251e-01f,
-2.25854799e-01f,+8.15393478e-02f,-1.64606005e-01f,-1.48253724e-01f,+3.75306532e-02f,
+1.16944395e-01f,+1.10687494e-01f,-1.70536503e-01f,-1.14275470e-01f,-1.73462436e-01f,
+1.74068034e-01f,+1.05128348e-01f,+6.84671104e-03f,-2.06081346e-01f,-1.44660562e-01f,
+1.72236174e-01f,-2.04265192e-01f,-1.91965550e-01f,+2.03860849e-01f,+1.94945261e-01f,
-6.95814267e-02f,+6.95411265e-02f,-1.16931744e-01f,+1.43882588e-01f,+1.14846148e-01f,
+1.02427647e-01f,-1.50942639e-01f,-1.45882130e-01f,-5.98894060e-02f,+9.41777006e-02f,
+5.20487614e-02f,-1.37802318e-01f,+8.14711303e-02f,-3.58136767e-03f,-3.85694429e-02f,
-1.11467689e-01f,+9.00641531e-02f,-1.69156119e-01f,-1.32788718e-01f,+1.34773299e-01f,
+2.82117706e-02f,+1.68469474e-01f,-9.18882713e-02f,+1.95720449e-01f,-7.76841417e-02f,
+1.34426460e-01f,-1.95740029e-01f,+1.42741278e-01f,+3.34302709e-02f,-1.97510913e-01f,
-9.59464386e-02f,-2.91776787e-02f,-1.10751331e-01f,-1.84909329e-01f,-1.59246534e-01f,
-1.05430849e-01f,-5.15459366e-02f,-1.77567095e-01f,+2.34038204e-01f,-2.04387724e-01f,
-8.94020423e-02f,+1.73687488e-02f,+5.30124865e-02f,-8.10718238e-02f,+2.76952330e-02f,
-1.62316561e-01f,+1.98615268e-01f,-2.34536845e-02f,+3.09296876e-01f,+6.68784752e-02f,
-1.81826875e-01f,-6.38632476e-02f,+9.97299775e-02f,+1.55310050e-01f,+1.69798315e-01f,
+1.38451800e-01f,+5.64738661e-02f,+9.19791013e-02f,+9.34611261e-03f,+7.98434839e-02f,
-3.39494556e-01f,-2.24990379e-02f,+3.39321233e-02f,+1.20897584e-01f,-1.37757510e-01f,
-2.53393613e-02f,+2.33942226e-01f,-2.56152034e-01f,-1.93097860e-01f,+2.03156039e-01f,
+1.69177819e-02f,-1.48527920e-01f,-1.32112831e-01f,-2.02544212e-01f,-2.55379081e-02f,
-2.30147004e-01f,-1.28767952e-01f,-1.47263288e-01f,+1.16623357e-01f,-2.20495269e-01f,
+2.79855967e-01f,+1.56504110e-01f,+5.85485436e-02f,-1.32288523e-02f,+7.61959478e-02f,
-5.29086068e-02f,-6.21594395e-03f,+1.27539322e-01f,+1.60483047e-01f,+1.17806748e-01f,
-3.14576440e-02f,-4.11796309e-02f,-1.24555402e-01f,+3.32100540e-02f,+1.27729699e-01f,
-4.65082079e-02f,+3.12530883e-02f,-1.99367166e-01f,+3.88830081e-02f,-1.16802014e-01f,
+1.71301976e-01f,+7.30548501e-02f,+1.21322379e-01f,-3.80364954e-02f,-1.62754700e-01f,
+1.70541361e-01f,-3.90940160e-02f,-1.89506650e-01f,+2.72288602e-02f,-5.30970655e-02f,
-1.91392958e-01f,+6.14049695e-02f,-3.17329377e-01f,+2.02344567e-01f,+2.00652555e-01f,
+2.39298701e-01f,-9.11914706e-02f,+9.51122940e-02f,-1.58870667e-01f,+1.21185191e-01f,
-4.25842851e-02f,-6.65654093e-02f,-1.36147276e-01f,-1.14326209e-01f,+1.68709874e-01f,
+1.92913368e-01f,+3.17050144e-02f,-1.91632926e-01f,-9.81423631e-02f,+7.25492164e-02f,
-2.11172074e-01f,-1.56963021e-01f,-1.36411741e-01f,+1.29345387e-01f,-5.18215112e-02f,
+1.37291253e-01f,+4.32424992e-02f,+5.96447440e-04f,-2.90379822e-02f,-1.46255195e-01f,
+1.34425461e-01f,-1.79949373e-01f,-1.69499427e-01f,+1.15106799e-01f,+1.11852139e-01f,
-1.27779812e-01f,+9.95459706e-02f,-1.46792242e-02f,-1.14061818e-01f,+1.60344422e-01f,
-1.83113411e-01f,+1.35713056e-01f,+3.03354889e-01f,+1.07321605e-01f,+7.47349486e-03f,
+5.76612502e-02f,+1.16009109e-01f,+2.62632489e-01f,+2.95189679e-01f,-8.82929265e-02f,
+5.48288226e-03f,+4.12296355e-02f,-1.70603216e-01f,+1.25697657e-01f,+2.20671520e-01f,
-1.81737930e-01f,-4.74786647e-02f,-7.61615634e-02f,-1.64851740e-01f,-1.87276438e-01f,
-1.59709498e-01f,+5.88129051e-02f,-1.66730434e-01f,-3.93276289e-03f,+1.97615817e-01f,
-7.31639862e-02f,-3.68474722e-01f,-1.51141897e-01f,-6.75385147e-02f,+6.85236603e-02f,
+1.29210636e-01f,-1.41558051e-01f,-2.28547156e-01f,-1.52459085e-01f,-1.01074345e-01f,
+1.08046338e-01f,+2.03397766e-01f,+2.58582294e-01f,+1.98789164e-01f,-1.03003971e-01f,
+1.90472379e-02f,+1.51561961e-01f,-3.10483412e-03f,+1.84026271e-01f,-2.80562371e-01f,
-7.82087073e-02f,+2.21140638e-01f,+4.93615083e-02f,-3.11832428e-02f,+2.15656012e-02f,
-2.15651691e-01f,-5.71670104e-03f,+2.07812056e-01f,-1.30527690e-01f,+8.43714550e-02f,
+1.47997411e-02f,-1.88818082e-01f,+1.82910974e-03f,-1.88308313e-01f,+1.34593084e-01f,
-4.44331132e-02f,-8.02933276e-02f,+7.02620894e-02f,+3.05609182e-02f,-1.78476736e-01f,
-2.09854394e-01f,+1.63685635e-01f,+1.79886445e-01f,+1.94004849e-01f,+1.80384383e-01f,
+2.28137299e-01f,+1.98984876e-01f,-3.67975645e-02f,-1.47269800e-01f,-1.26460284e-01f,
+4.25824383e-03f,+1.36146605e-01f,-1.27321035e-01f,-1.15047909e-01f,+6.49764761e-02f,
-1.34851396e-01f,-1.28052682e-01f,+9.63655263e-02f,-8.99722576e-02f,-9.47234854e-02f,
-2.16303347e-03f,+7.68868849e-02f,+2.00105295e-01f,+1.20014414e-01f,-1.04677200e-01f,
-1.91621751e-01f,+1.43191665e-01f,+8.41023475e-02f,+1.00285970e-01f,-1.65449113e-01f,
-5.78529686e-02f,+4.15840186e-02f,-1.26793355e-01f,+1.61417261e-01f,-1.01749107e-01f,
+1.34536698e-01f,+6.08533584e-02f,-8.31405893e-02f,+2.05532119e-01f,+1.90051109e-01f,
+1.88881621e-01f,+1.51859805e-01f,-2.25190166e-02f,+1.76543873e-02f,-2.30401874e-01f,
+7.31193945e-02f,-1.88451469e-01f,-4.59987819e-02f,-1.98821992e-01f,-2.90209502e-02f,
+9.57823247e-02f,-2.17450082e-01f,-6.05267435e-02f,-2.16593206e-01f,-7.67257363e-02f,
+1.78069323e-01f,+1.20512322e-01f,-1.52262270e-01f,+9.90401208e-03f,+1.90675452e-01f,
+1.60466895e-01f,+1.86062396e-01f,+1.28761664e-01f,+1.43963993e-01f,-9.31023881e-02f,
+2.41829410e-01f,-3.91429961e-02f,+1.40589982e-01f,+1.75227299e-01f,+1.85558885e-01f,
+1.62430376e-01f,+6.99592829e-02f,+4.11697291e-02f,-7.27169216e-03f,-8.52116942e-02f,
-3.37197818e-02f,-2.08405957e-01f,+2.17286184e-01f,+1.53736055e-01f,-1.98188394e-01f,
-1.78135008e-01f,+2.61807572e-02f,+2.14770123e-01f,-9.51395407e-02f,+1.23807907e-01f,
+7.15536578e-03f,+1.11859508e-01f,-1.29592612e-01f,+1.28299356e-01f,-1.83800578e-01f,
-1.52247071e-01f,+2.15993360e-01f,+1.28851691e-02f,+3.55594195e-02f,-9.35415924e-03f,
-2.00965285e-01f,-1.53774559e-01f,-2.07664922e-01f,+8.92168730e-02f,-1.69886678e-01f,
+1.34676501e-01f,-9.38988551e-02f,-1.23257257e-01f,-1.69103161e-01f,+5.87007089e-04f,
-1.96943775e-01f,+1.14898421e-01f,+1.58305466e-01f,-1.14120230e-01f,-2.56508552e-02f,
+1.40040770e-01f,-8.72616246e-02f,+2.82201171e-03f,-1.91878498e-01f,+1.16699420e-01f,
+7.44555239e-03f,+1.48888096e-01f,-9.99426618e-02f,-1.18816327e-02f,-1.88007414e-01f,
+1.75633982e-01f,-6.89622909e-02f,-4.01177257e-02f,+1.54625371e-01f,+1.09096937e-01f,
+1.01294532e-01f,+1.73574060e-01f,-2.69432664e-01f,-1.80557847e-01f,+1.77647039e-01f,
-2.71871835e-02f,-9.11117718e-03f,-2.01847330e-01f,-1.87762141e-01f,+2.34296113e-01f,
+9.08159930e-03f,-7.02012777e-02f,+8.93027037e-02f,-1.59710333e-01f,-2.14474827e-01f,
-5.55033684e-02f,+2.20967546e-01f,+1.91561311e-01f,+1.37028605e-01f,+4.55638617e-02f,
-8.06637183e-02f,-1.34381279e-01f,-1.72689289e-01f,-1.43969133e-01f,+1.71808064e-01f,
-3.11120842e-02f,-1.15859009e-01f,-1.07280932e-01f,-6.90244660e-02f,-7.05784336e-02f,
-1.23661254e-02f,-7.06436336e-02f,-8.28290433e-02f,-1.71387047e-01f,-1.90752998e-01f,
+1.43017739e-01f,+1.47983894e-01f,-3.16375792e-02f,-1.50607556e-01f,+2.69145548e-01f,
+1.46782592e-01f,-5.17600030e-02f,+4.22912613e-02f,-1.90969914e-01f,+1.49306864e-01f,
-1.06588915e-01f,-7.85547420e-02f,+1.26677796e-01f,+4.63733524e-02f,-3.91261419e-03f,
-1.32518813e-01f,-7.55431652e-02f,-8.61942470e-02f,-3.07099335e-02f,+1.72640309e-01f,
+5.50851375e-02f,+1.15687028e-01f,+7.41242245e-02f,+4.84414585e-02f,+2.81871744e-02f,
-2.68558085e-01f,-8.62354040e-03f,-1.68833315e-01f,+1.75993398e-01f,+8.33221897e-02f,
+1.95714146e-01f,-9.44374278e-02f,+1.32505551e-01f,+2.59423345e-01f,-9.87280011e-02f,
-1.04592621e-01f,+1.46134406e-01f,-5.44283688e-02f,-7.76853636e-02f,-1.46813437e-01f,
-1.41468853e-01f,+1.61625549e-01f,+1.55140862e-01f,-2.32981414e-01f,+1.57023862e-01f,
-4.48020101e-02f,-4.86953855e-02f,+5.76235913e-02f,+1.57599673e-01f,+2.00769886e-01f,
-1.71956807e-01f,+1.61908284e-01f,+1.45566806e-01f,-6.75796717e-02f,+1.27818054e-02f,
-1.08447880e-01f,+4.92992252e-02f,-2.31385380e-01f,+4.04135473e-02f,+2.13828638e-01f,
-1.38498664e-01f,-1.12471931e-01f,+1.91777930e-01f,-1.94975033e-01f,-4.67214063e-02f,
+7.36512244e-03f,-2.10399702e-01f,-2.71999836e-02f,+9.73638147e-02f,-1.35518014e-01f,
-1.69631273e-01f,+1.80446714e-01f,-1.47300616e-01f,+1.46487787e-01f,+7.78007656e-02f,
+7.52469376e-02f,-2.72928596e-01f,+2.61022598e-01f,+1.22237958e-01f,-2.42864281e-01f,
-1.58627987e-01f,+1.26543239e-01f,-2.61452496e-02f,+9.66408476e-02f,-1.79638207e-01f,
+3.94612439e-02f,+3.98712009e-02f,-2.08963051e-01f,-1.63472220e-01f,-7.28512406e-02f,
-3.48470956e-02f,-1.22066773e-02f,-9.93228555e-02f,+1.72115490e-01f,+7.67131755e-03f,
-1.28327236e-01f,-8.22286606e-02f,-2.02704266e-01f,+5.63428551e-02f,+2.02575475e-01f,
+1.53523952e-01f,-1.79018080e-01f,-8.08753744e-02f,+1.03832431e-01f,-2.18316749e-01f,
+1.43569961e-01f,+1.87818959e-01f,-6.97253877e-03f,+7.77864903e-02f,-1.00958258e-01f,
+8.18314552e-02f,+2.51656622e-02f,+2.39795148e-02f,+1.95448726e-01f,+7.62271136e-02f,
-1.83008835e-01f,+8.36789384e-02f,-1.42454445e-01f,+1.98870167e-01f,-2.13985488e-01f,
-8.27504471e-02f,-7.40339607e-03f,-5.14349006e-02f,-1.49015218e-01f,-2.12595705e-03f,
+6.40673414e-02f,-1.13563649e-01f,+5.32358326e-02f,+2.34342262e-01f,+9.35686678e-02f,
-1.66243702e-01f,-1.35980844e-02f,-1.88355148e-01f,+1.17251836e-01f,+6.43082261e-02f,
+2.01533139e-01f,+2.39306867e-01f,+1.95723444e-01f,+7.38555789e-02f,+1.98501453e-01f,
+1.20005503e-01f,-4.71073501e-02f,-1.77331313e-01f,-5.95301017e-02f,+3.76311690e-02f,
+6.01299852e-02f,-1.87496021e-01f,-1.08623527e-01f,-5.79780228e-02f,-1.88428000e-01f,
+7.24106282e-02f,+2.08068445e-01f,-7.08203316e-02f,-1.56374484e-01f,+1.90498576e-01f,
-1.09529659e-01f,-1.93488061e-01f,+3.89144868e-02f,-4.02947217e-02f,-8.62427428e-02f,
-1.00103132e-01f,-1.07628211e-01f,+2.54027545e-02f,-4.34629247e-02f,-1.20079264e-01f,
-9.96990651e-02f,+7.14924335e-02f,-1.81317359e-01f,+4.76215547e-03f,-2.45773196e-02f,
+1.86953232e-01f,+9.22699198e-02f,-1.22706480e-01f,+8.62007141e-02f,+4.06871699e-02f,
+1.69267029e-01f,+7.86411315e-02f,+2.06754699e-01f,+2.16220170e-02f,-1.56461269e-01f,
-1.99963257e-01f,-3.28629315e-01f,-5.10196649e-02f,-6.06283583e-02f,+7.28153735e-02f,
-1.51318401e-01f,-9.92763508e-03f,+2.13329241e-01f,+1.04310988e-02f,+8.14837441e-02f,
+1.70073554e-01f,+1.52352393e-01f,-2.67840624e-02f,+9.35312361e-02f,+1.69650063e-01f,
-1.55399978e-01f,+2.35230789e-01f,+1.56915471e-01f,-2.05746144e-01f,+1.45404503e-01f,
+1.42334327e-01f,+9.73909423e-02f,+8.01404268e-02f,-2.35618472e-01f,-1.59945086e-01f,
+2.68456005e-02f,-2.04928666e-01f,-1.26493290e-01f,+3.70558947e-02f,-1.79495379e-01f,
-1.52322084e-01f,-2.11605325e-01f,-4.63461578e-02f,-2.01359671e-03f,+2.08402932e-01f,
-1.54554397e-01f,+1.74424961e-01f,-2.11252227e-01f,-2.11401373e-01f,-1.30455881e-01f,
-1.00978136e-01f,+3.16935107e-02f,+1.50147125e-01f,+6.84174746e-02f,-1.74325466e-01f,
-8.77495855e-02f,+5.66981584e-02f,-9.83247757e-02f,+8.38371366e-02f,-1.02098316e-01f,
-6.93624914e-02f,+5.01328222e-02f,-9.96764153e-02f,+1.37827933e-01f,+1.23373732e-01f,
-2.62231499e-01f,+1.56126574e-01f,+7.37908334e-02f,-3.29611540e-01f,-2.84783870e-01f,
-1.93789482e-01f,+5.48659787e-02f,-4.27439511e-02f,+8.46828371e-02f,-1.49706274e-01f,
+1.65965095e-01f,+6.57873228e-02f,+1.48418397e-02f,-2.53325760e-01f,-5.05121589e-01f,
-2.32797012e-01f,+5.64412326e-02f,+8.58603120e-02f,+1.61179498e-01f,+1.89854890e-01f,
+8.38002786e-02f,+8.86210352e-02f,-9.94176269e-02f,-1.84388667e-01f,+9.99842435e-02f,
-7.90158436e-02f,+1.19740263e-01f,-1.42425448e-01f,-5.55292852e-02f,-9.68733951e-02f,
-1.71409428e-01f,-1.78375751e-01f,-1.49273545e-01f,-2.65128523e-01f,-1.10041499e-01f,
-2.03719243e-01f,-6.10994548e-02f,+1.41469926e-01f,-1.82260558e-01f,-5.30397817e-02f,
-1.97480917e-02f,-4.72188964e-02f,-3.22193205e-01f,-1.84772313e-02f,+4.05551903e-02f,
-9.51465592e-02f,-2.26382539e-01f,-2.04285666e-01f,-1.45619005e-01f,-1.04072385e-01f,
+5.11004105e-02f,+2.85892040e-02f,+1.02072582e-01f,-1.65316164e-01f,-1.65951610e-01f,
+3.81346047e-03f,+1.47541121e-01f,+7.21272752e-02f,-1.81858763e-01f,-3.44866991e-01f,
-1.75105453e-01f,-3.22575010e-02f,-7.28002340e-02f,+1.31919041e-01f,+4.04059924e-02f,
-1.29549593e-01f,-5.44231124e-02f,+3.09447944e-01f,+6.99796230e-02f,-1.41141787e-01f,
+1.67675972e-01f,+2.54774988e-02f,+1.41034409e-01f,+1.25727713e-01f,-6.02442548e-02f,
-2.91883945e-02f,-1.24810435e-01f,+3.42162222e-01f,+4.19464946e-01f,+3.48110795e-01f,
-1.14609204e-01f,-1.12428233e-01f,+3.24050069e-01f,-4.13927138e-02f,+6.85940459e-02f,
+9.44201872e-02f,-1.21630684e-01f,-1.65404275e-01f,-7.24677444e-02f,-1.42955154e-01f,
-4.70968127e-01f,+2.02982470e-01f,-8.60980153e-02f,+1.62408039e-01f,-1.51404813e-01f,
-1.35361493e-01f,+2.14527443e-01f,+3.53805244e-01f,-3.43628615e-01f,+1.34230167e-01f,
+3.31674546e-01f,-1.21774085e-01f,+7.23605901e-02f,+4.62035507e-01f,-9.89699140e-02f,
+1.68203637e-01f,+4.23782885e-01f,+7.93964639e-02f,+1.61176305e-02f,+1.77357212e-01f,
+2.90808588e-01f,-1.96412459e-01f,-3.05540442e-01f,+1.09187894e-01f,+1.19698476e-02f,
+4.50221188e-02f,+7.79383108e-02f,+1.87650993e-01f,+1.07826754e-01f,+2.82584876e-02f,
+9.24412683e-02f,+1.97559342e-01f,-1.57362297e-02f,+1.11101866e-02f,+1.39415175e-01f,
+9.98244509e-02f,+8.53905305e-02f,-1.18823960e-01f,-1.13597654e-01f,-1.58442892e-02f,
-2.66479105e-02f,+1.77474841e-01f,+4.58329014e-04f,-1.39546141e-01f,+1.38391003e-01f,
+2.02499852e-01f,+1.27915800e-01f,-4.35821414e-02f,-1.93323404e-01f,-8.32472965e-02f,
+1.05199531e-01f,-1.11423597e-01f,-1.19185820e-01f,-1.51870456e-02f,-1.42772079e-01f,
-1.36399940e-01f,+1.82107404e-01f,+8.77129659e-02f,-1.57245174e-01f,+1.38338208e-01f,
-1.12332791e-01f,+2.94925421e-02f,-2.07412556e-01f,-8.30951780e-02f,+1.99461520e-01f,
+1.43117204e-01f,-1.17655985e-01f,-6.92214519e-02f,-1.18970379e-01f,-1.07042141e-01f,
+3.73226888e-02f,-1.96046486e-01f,-1.79456845e-01f,+9.69258770e-02f,+6.47488609e-02f,
-1.37584850e-01f,+6.84490800e-03f,+1.66843474e-01f,+9.86725539e-02f,-6.45289570e-02f,
+1.35576606e-01f,+1.87176451e-01f,+5.57864979e-02f,+1.07708812e-01f,-6.84318841e-02f,
-8.61878544e-02f,+3.55381519e-02f,+8.61098617e-02f,-1.67352512e-01f,+1.42383501e-01f,
-1.13575026e-01f,-1.14220291e-01f,+2.16805488e-01f,-1.39470413e-01f,+1.97901994e-01f,
+2.09475428e-01f,+1.70615986e-01f,+1.83487430e-01f,+1.80714741e-01f,+5.57097122e-02f,
+2.03403443e-01f,-2.81508844e-02f,-1.08074956e-01f,+1.04373254e-01f,+4.03456204e-02f,
-1.05372041e-01f,-2.77873486e-01f,-4.60554659e-02f,+8.66498798e-02f,-7.92156011e-02f,
-2.14530215e-01f,-4.10047639e-03f,-1.85772598e-01f,+6.08325936e-02f,-7.66144097e-02f,
-1.50206268e-01f,-3.32560599e-01f,-2.27161750e-01f,+3.21827158e-02f,-1.15432739e-01f,
-3.93336773e-01f,+3.09426785e-02f,+1.06541269e-01f,-1.58467680e-01f,+2.08505496e-01f,
-5.84708601e-02f,+9.57258791e-02f,+3.31023484e-01f,+2.00552911e-01f,+3.59500945e-03f,
+1.05225369e-01f,-1.76875100e-01f,+1.54059932e-01f,+1.88888554e-02f,-2.34717190e-01f,
-1.20146908e-01f,+4.63441104e-01f,+5.57323210e-02f,-2.89399177e-01f,-1.00818247e-01f,
+7.65533000e-02f,-5.04994765e-02f,-9.89220366e-02f,+1.41536593e-01f,+8.99650156e-02f,
+2.16460824e-01f,-1.62803352e-01f,+1.10943541e-01f,-2.06551865e-01f,-1.29386246e-01f,
-2.53946297e-02f,-1.35947004e-01f,-3.26068163e-01f,-8.28325376e-02f,+1.39469638e-01f,
-8.64765048e-02f,-1.27308354e-01f,+4.63213474e-02f,+7.78440386e-02f,+7.21553043e-02f,
+1.82879176e-02f,-9.86685753e-02f,+1.74428955e-01f,-2.11080074e-01f,-2.10405737e-01f,
-1.42189309e-01f,+1.63218137e-02f,+1.50479540e-01f,+4.31525372e-02f,-8.96940008e-02f,
-4.07096790e-03f,-1.14218794e-01f,-7.43156523e-02f,+1.12224653e-01f,-3.45285237e-03f,
-1.74315646e-02f,+4.97012623e-02f,-7.45872259e-02f,+3.81821990e-02f,-1.22697577e-02f,
-2.25820780e-01f,+3.76065783e-02f,+5.82808629e-03f,+1.13502694e-02f,+5.08463867e-02f,
-1.98796183e-01f,-1.89351011e-02f,+1.13424055e-01f,-6.88446015e-02f,+1.75991312e-01f,
+1.06913403e-01f,-5.25809964e-03f,+1.56794056e-01f,+1.79608300e-01f,+2.78674569e-02f,
-1.65249050e-01f,+1.54989451e-01f,-5.94369546e-02f,-1.02501482e-01f,-1.69387937e-01f,
+9.07712653e-02f,-1.00934476e-01f,+1.64137855e-01f,-1.02782167e-01f,-1.72433779e-01f,
+1.94304973e-01f,-1.53939947e-01f,-1.32647857e-01f,+5.03894649e-02f,+1.85817286e-01f,
+1.98386326e-01f,+6.32726401e-02f,-9.77242086e-03f,-1.56880915e-03f,+1.49298191e-01f,
+1.61924124e-01f,-2.52480600e-02f,-6.94421828e-02f,+2.04272531e-02f,+6.08672202e-03f,
+1.44496024e-01f,+1.18055448e-01f,+1.84218436e-01f,+1.68700551e-03f,+7.44021917e-03f,
-2.03681752e-01f,-1.16674483e-01f,+1.13830104e-01f,-1.17505886e-01f,-6.23800829e-02f,
+1.65515020e-01f,-5.80564961e-02f,+9.99096632e-02f,-1.92481607e-01f,-1.06990673e-01f,
+6.22237176e-02f,+4.76813093e-02f,-5.60725778e-02f,-1.13340080e-01f,+1.07745461e-01f,
-5.46145625e-02f,-2.24961504e-01f,+2.08195359e-01f,-6.57821745e-02f,+1.26819396e-02f,
+1.60331056e-01f,-2.65934736e-01f,+2.12361798e-01f,-1.74116835e-01f,+2.02736288e-01f,
-3.04450113e-02f,-1.87955856e-01f,-1.92404091e-02f,-3.61576527e-02f,-1.52375251e-01f,
-1.17831290e-01f,-1.60513148e-01f,+3.35332192e-02f,+1.70392647e-01f,+1.05368204e-01f,
+2.45493911e-02f,+2.06167370e-01f,+5.78953773e-02f,+9.76713598e-02f,+3.30918096e-02f,
-1.20009206e-01f,-3.28727424e-01f,+1.98515560e-02f,-2.07008794e-01f,+1.47202611e-01f,
-1.90636188e-01f,-9.55164135e-02f,-4.39139977e-02f,-1.28433377e-01f,+2.54401844e-02f,
-6.70646802e-02f,-8.16129819e-02f,-1.75457314e-01f,+7.45524541e-02f,-7.62641570e-03f,
+3.15390043e-02f,+1.37660965e-01f,+1.60528764e-01f,+5.61628193e-02f,+1.21950701e-01f,
-6.75333142e-02f,+3.00528146e-02f,-1.71742439e-01f,+1.25553474e-01f,-1.55974239e-01f,
-1.39251664e-01f,-6.35376796e-02f,-1.86905146e-01f,-1.41228884e-01f,-7.76791945e-02f,
+1.54228672e-01f,-9.65953022e-02f,+7.19951168e-02f,+1.22845180e-01f,+1.94809780e-01f,
+1.07376702e-01f,+9.56954211e-02f,-1.80853128e-01f,-2.70420518e-02f,+2.89142784e-02f,
-6.58899248e-02f,-1.89454377e-01f,+1.23258615e-02f,-8.74120966e-02f,+1.65635005e-01f,
+1.36738256e-01f,+1.52716607e-01f,+9.21562407e-03f,+1.06565759e-01f,-1.79468557e-01f,
-1.13402635e-01f,+1.01628825e-01f,+1.09062657e-01f,-4.80538607e-03f,+2.09721606e-02f,
+1.67900741e-01f,+1.06954500e-01f,+9.06089693e-02f,-1.17088422e-01f,+1.55985802e-02f,
-2.02395488e-02f,-6.94965795e-02f,+1.45099929e-03f,+1.32434191e-02f,-1.86421737e-01f,
-1.18469447e-02f,-5.46774045e-02f,+1.30212769e-01f,-7.97952339e-02f,-2.00502664e-01f,
-4.88944761e-02f,+6.01632595e-02f,+7.15855211e-02f,+6.95356205e-02f,-1.94887549e-01f,
-1.30473956e-01f,-8.45810771e-03f,+2.04720631e-01f,+1.55999362e-01f,+1.99909061e-02f,
+9.31633711e-02f,-3.71145159e-02f,-1.81484252e-01f,+2.27672514e-02f,-4.55735028e-02f,
+9.04948041e-02f,-1.22538865e-01f,+1.58005893e-01f,+9.87237096e-02f,-9.32244807e-02f,
-9.04787332e-02f,-3.92261595e-02f,+1.20629825e-01f,-7.11283460e-02f,+1.73799828e-01f,
+1.44035101e-01f,+3.51144671e-02f,-2.13330105e-01f,+1.69924423e-01f,+4.73217033e-02f,
-1.26688182e-03f,-1.95498079e-01f,+3.49953845e-02f,-1.92399472e-02f,-7.01404288e-02f,
-6.63166493e-02f,-1.30513310e-03f,-2.01153472e-01f,-9.91164446e-02f,-1.18568214e-02f,
-8.01196769e-02f,-2.82170236e-01f,-1.62875205e-01f,-8.81841779e-02f,-7.50427991e-02f,
-6.73371106e-02f,-4.26389277e-03f,-1.18093021e-01f,+3.96248877e-01f,-1.95267707e-01f,
-4.56565619e-02f,-6.54622167e-02f,-2.36698970e-01f,-1.44401655e-01f,+2.05218911e-01f,
+1.55576644e-02f,-2.58521307e-02f,+1.29129723e-01f,-1.84456751e-01f,-2.72225440e-01f,
-8.79475921e-02f,+1.15275756e-01f,-1.42401055e-01f,-1.96622133e-01f,-9.98207331e-02f,
+1.04140021e-01f,+7.84079209e-02f,-2.14103013e-01f,+4.65623960e-02f,+6.76141307e-02f,
-9.83008742e-03f,-1.59869939e-01f,+5.21382093e-02f,-2.38278419e-01f,-1.09963948e-02f,
+1.04339674e-01f,-1.31970048e-02f,-4.04117517e-02f,+3.84225994e-02f,+1.53768256e-01f,
+8.34835842e-02f,-1.65726185e-01f,+2.30316967e-01f,+7.55398646e-02f,-1.54207155e-01f,
+3.41750234e-02f,-1.94387317e-01f,+1.33912638e-01f,-1.69618830e-01f,+1.00616761e-01f,
-2.64822036e-01f,-2.72097588e-01f,-5.71849644e-02f,+1.09691262e-01f,-6.58791810e-02f,
+8.68967921e-02f,-1.36100188e-01f,-1.14537753e-01f,+1.81903660e-01f,-7.16417879e-02f,
-7.95595348e-02f,-3.57387900e-01f,-4.26732004e-02f,-1.66171446e-01f,-5.96910268e-02f,
-5.38771227e-02f,-1.74912065e-01f,+5.33174202e-02f,-1.08908623e-01f,+1.82625160e-01f,
-1.40650690e-01f,+6.18291944e-02f,+2.35338524e-01f,-1.11122534e-01f,+1.16281286e-01f,
+1.37931993e-02f,-2.22086906e-01f,+1.78076684e-01f,+7.03398976e-03f,-2.93763071e-01f,
-1.59350365e-01f,+7.94388950e-02f,+1.64837047e-01f,-7.68477991e-02f,+1.00714341e-01f,
-2.60011256e-02f,+1.49027899e-01f,-1.13129996e-01f,+1.01605646e-01f,-2.51730233e-01f,
+1.37074934e-02f,+5.05556241e-02f,-8.51629898e-02f,+2.77716126e-02f,-1.13866448e-01f,
-3.21687236e-02f,-6.40200078e-02f,-2.06920803e-02f,+9.65841562e-02f,+8.89654979e-02f,
-1.68254688e-01f,-3.54176201e-02f,+1.89427420e-01f,-1.95460320e-02f,+3.13914455e-02f,
-7.75900856e-02f,-1.87845081e-02f,+1.91649824e-01f,+1.57325566e-01f,-9.25639644e-02f,
+4.44774628e-02f,-1.10628784e-01f,+1.40613234e-02f,+3.92879397e-02f,-1.56854942e-01f,
+1.06290773e-01f,+4.88494486e-02f,+3.55344899e-02f,-5.08860946e-02f,+7.18225986e-02f,
+4.31096107e-02f,-2.48971805e-01f,+1.16324358e-01f,-8.19955021e-02f,-2.58115232e-01f,
-5.00482202e-01f,-4.96384390e-02f,-1.90588847e-01f,+2.27505788e-01f,+1.23523874e-02f,
+1.97962984e-01f,-2.27301970e-01f,+1.68436334e-01f,-6.85447901e-02f,-8.62463415e-02f,
+1.58078328e-01f,-1.14300363e-01f,+3.98682952e-01f,-1.90106824e-01f,-1.49685919e-01f,
-3.30127031e-02f,-2.54700184e-01f,+1.62494689e-01f,-2.06779949e-02f,-7.19951242e-02f,
+1.51468933e-01f,-1.82253361e-01f,-2.38498226e-01f,-7.14523112e-03f,-1.48517027e-01f,
-2.99495876e-01f,-1.03891253e-01f,-1.63254306e-01f,-2.77742445e-01f,+1.16828158e-01f,
+1.82856917e-01f,-2.68236455e-02f,+2.06945643e-01f,-1.36897817e-01f,+9.22249779e-02f,
-2.71247506e-01f,+1.30685478e-01f,-7.49534070e-02f,+3.77594754e-02f,+1.96600258e-02f,
+8.22500736e-02f,+2.09569976e-01f,+7.62290657e-02f,+2.17631549e-01f,+3.83659452e-02f,
+3.26566070e-01f,+6.99689910e-02f,+3.62001546e-02f,-1.98008716e-01f,-5.06777614e-02f,
-2.67878890e-01f,+1.96147889e-01f,+5.15312664e-02f,-2.62829274e-01f,-4.72571641e-01f,
-5.83336949e-02f,+1.09768979e-01f,+2.78289020e-02f,-2.73946375e-02f,-3.53199281e-02f,
+2.07987025e-01f,-1.32056788e-01f,+1.16995558e-01f,-6.68618549e-03f,-3.51996839e-01f,
+8.66488554e-03f,-2.28223473e-01f,+1.86779991e-01f,-1.61482945e-01f,+5.24197072e-02f,
-1.55177891e-01f,-3.73555988e-01f,+2.25115120e-02f,-1.16855815e-01f,-1.97328910e-01f,
+5.38821280e-01f,+8.28294829e-02f,+6.62959069e-02f,+2.17503503e-01f,-1.83754236e-01f,
-2.00765088e-01f,+1.96002990e-01f,-3.52646440e-01f,-1.76711485e-01f,+2.01924890e-01f,
-2.13881973e-02f,-3.23076338e-01f,+6.51984364e-02f,+5.68389148e-02f,+1.64629459e-01f,
+1.30114123e-01f,-4.92766723e-02f,+1.44275604e-02f,+1.07197076e-01f,-2.04849139e-01f,
-1.01399951e-01f,-2.72860795e-01f,+4.66499180e-02f,+1.28467724e-01f,-3.21501493e-02f,
-3.23482275e-01f,-2.29784474e-01f,+1.15482584e-01f,+8.83215815e-02f,+9.54626203e-02f,
-5.48170507e-02f,-1.80685297e-01f,+9.66294203e-03f,+1.54995471e-01f,-1.56198159e-01f,
-7.41273463e-02f,-1.95203692e-01f,+1.12223580e-01f,-5.00780381e-02f,+8.32035914e-02f,
-3.53381108e-03f,-1.99370340e-01f,-1.30034119e-01f,+1.91987798e-01f,-2.58858055e-02f,
+1.18054830e-01f,+2.09488258e-01f,+8.24800283e-02f,+4.38166000e-02f,-9.65558551e-03f,
-4.43569869e-02f,+2.74117966e-03f,-1.39674902e-01f,+2.22617880e-01f,+5.38368896e-02f,
-4.21597570e-01f,-3.49622145e-02f,-2.53844447e-02f,+6.88028708e-03f,+5.21306172e-02f,
-9.54468697e-02f,-5.05687445e-02f,-9.49453488e-02f,-1.25995904e-01f,+7.38813207e-02f,
-8.67404416e-02f,+1.08766355e-01f,+1.20670527e-01f,+1.63913071e-02f,+1.02248386e-01f,
+8.26635733e-02f,-1.30491421e-01f,-4.27774489e-02f,+1.79819420e-01f,-8.97887349e-02f,
-2.39760444e-01f,-2.13310421e-01f,-8.43320340e-02f,-1.05693810e-01f,+1.79231148e-02f,
+6.95739314e-02f,+9.14735571e-02f,-6.29999340e-02f,+1.36010572e-01f,+1.91061437e-01f,
-3.46864946e-02f,-3.76202911e-02f,-2.01761976e-01f,+6.62867427e-02f,+3.93084846e-02f,
-2.05547214e-01f,-8.67418572e-03f,-1.48029178e-02f,-1.40783697e-01f,-1.06541999e-01f,
-1.55691266e-01f,+1.63478293e-02f,-6.68209940e-02f,+1.91319585e-02f,+9.88868102e-02f,
-1.21975183e-01f,+1.57815404e-02f,+1.07952103e-01f,-1.85379311e-01f,-3.33057195e-02f,
-8.81635696e-02f,+1.31600991e-01f,+3.99356224e-02f,-1.11224011e-01f,-1.28520846e-01f,
+3.48622352e-02f,+6.48648590e-02f,+1.15961835e-01f,-2.33415648e-01f,+1.10628463e-01f,
-1.26520619e-01f,+6.32139370e-02f,-4.78770226e-01f,-2.29155973e-01f,+8.80501121e-02f,
+2.02104270e-01f,+1.95273414e-01f,+1.94481179e-01f,-1.90459698e-01f,-1.85733378e-01f,
-3.09935808e-02f,+3.32253724e-02f,-8.82986039e-02f,+8.51726457e-02f,-3.64136770e-02f,
-1.75169125e-01f,+1.17290132e-02f,-2.92341173e-01f,-1.26363248e-01f,-1.12439997e-01f,
-2.53861040e-01f,-1.25649720e-01f,-1.08670462e-02f,-2.70333514e-02f,+1.56451285e-01f,
-7.25217089e-02f,+1.67820379e-01f,-2.39601523e-01f,-1.11595988e-02f,+5.46010807e-02f,
+1.28597021e-01f,+1.85423985e-01f,+1.05942652e-01f,+1.51214957e-01f,-1.42298892e-01f,
+1.48043796e-01f,+1.79774061e-01f,-8.76528248e-02f,-1.59337282e-01f,-5.56513667e-02f,
+2.04152748e-01f,+1.06550977e-01f,+3.09636831e-01f,-1.19319953e-01f,-1.48510724e-01f,
+1.90746471e-01f,+2.66092177e-02f,+1.34884134e-01f,+4.18629609e-02f,-1.47171259e-01f,
+1.24539271e-01f,-2.11384922e-01f,-2.54677355e-01f,+1.54682890e-01f,+1.49788797e-01f,
-1.84919506e-01f,-1.08658463e-01f,+2.11169764e-01f,-2.43862569e-02f,+1.05792597e-01f,
+1.80864260e-01f,-2.13158324e-01f,-1.24271110e-01f,-1.54371589e-01f,+1.16196021e-01f,
+6.85785711e-03f,-2.83273429e-01f,-7.73960203e-02f,+1.88712880e-01f,-1.96809098e-01f,
-2.40832254e-01f,+8.72322172e-02f,+7.70517066e-02f,+2.16889810e-02f,-8.71209204e-02f,
-1.78403780e-01f,-6.20746464e-02f,+2.76965141e-01f,-1.18327595e-01f,+2.30140239e-02f,
+8.04886743e-02f,-1.65516734e-01f,+1.56742960e-01f,-1.12981945e-01f,-2.33001515e-01f,
-5.04940515e-03f,+7.91960806e-02f,+5.69641925e-02f,-2.43883878e-01f,-1.52904510e-01f,
-1.61560252e-01f,-1.68824211e-01f,+1.12440944e-01f,+2.07539991e-01f,-2.36417755e-01f,
+1.66673779e-01f,+7.45751485e-02f,-1.23624302e-01f,+3.18100378e-02f,-7.72999078e-02f,
-2.18453437e-01f,-2.98989296e-01f,-1.77457243e-01f,-8.23147297e-02f,-4.43490176e-03f,
-1.99803174e-01f,+3.75413328e-01f,-8.98162574e-02f,+2.55395055e-01f,-1.71886310e-01f,
+3.74579467e-02f,+2.26561382e-01f,+1.27202705e-01f,-1.44299597e-01f,-1.24758363e-01f,
-2.18841389e-01f,-6.72297627e-02f,-2.78499722e-02f,+1.05650909e-01f,-4.08237278e-01f,
-4.64751542e-01f,-1.40352696e-01f,+8.51757750e-02f,+3.48275751e-02f,-9.40385014e-02f,
-1.47443131e-01f,-1.02706496e-02f,-3.03253327e-02f,+1.84085712e-01f,-1.53140068e-01f,
-5.43987870e-01f,-2.11708650e-01f,-9.91745442e-02f,+1.01458490e-01f,-2.73439616e-01f,
+5.68694323e-02f,-4.53784205e-02f,-3.68959069e-01f,+1.82659879e-01f,+9.30580348e-02f,
+2.76333690e-02f,+2.85705119e-01f,+5.24325669e-02f,-1.94579363e-02f,+2.80018561e-02f,
-4.53478210e-02f,+1.54226795e-01f,+1.16925903e-01f,-3.35161313e-02f,-3.13455500e-02f,
+4.61825579e-01f,-6.72086030e-02f,-1.11486629e-01f,-5.35570681e-02f,-2.16073826e-01f,
+4.95273285e-02f,+1.16514549e-01f,+1.11708872e-01f,-6.23275824e-02f,+2.09716365e-01f,
-3.63363475e-01f,-9.24728066e-02f,-1.04982659e-01f,-1.33724511e-02f,-2.03286242e-02f,
-4.57105160e-01f,-3.25467080e-01f,-2.44471103e-01f,-8.17337856e-02f,+1.23267427e-01f,
-1.40479747e-02f,-1.89048275e-01f,+2.67398089e-01f,-3.26823778e-02f,+3.05203889e-02f,
+2.79836684e-01f,-1.16546988e-01f,+9.18351710e-02f,+1.29543319e-01f,-1.38379484e-01f,
+7.52211958e-02f,+2.04178408e-01f,+1.88883349e-01f,+3.21272835e-02f,-7.41503835e-02f,
-1.21784203e-01f,-2.14870237e-02f,-5.29983640e-03f,+1.68885887e-02f,-1.87197655e-01f,
-5.48357004e-03f,+5.14833815e-02f,-5.61518185e-02f,+9.54809338e-02f,-3.65071982e-01f,
-2.32548658e-02f,-1.28766000e-01f,+1.19091853e-01f,-8.26942101e-02f,-8.94891471e-02f,
-4.31657099e-04f,+1.46217197e-01f,-9.59476903e-02f,+1.84856072e-01f,-7.96043873e-03f,
+2.49014884e-01f,-1.50315255e-01f,+3.62414867e-02f,+1.80598542e-01f,-1.24455363e-01f,
-2.09825337e-01f,-1.08269580e-01f,-2.44543046e-01f,-2.72685308e-02f,+2.11072564e-01f,
+1.08952202e-01f,+3.75152603e-02f,-1.21078931e-01f,-8.99834633e-02f,-7.21139684e-02f,
-1.89421237e-01f,+1.43419564e-01f,-1.37978628e-01f,-7.37958997e-02f,-2.77379632e-01f,
-1.97075218e-01f,+8.96625519e-02f,+5.68149239e-02f,+1.51454538e-01f,+1.65318593e-01f,
-2.80580185e-02f,-2.04164997e-01f,-1.24377988e-01f,+9.83292311e-02f,+8.88454169e-03f,
-1.85702115e-01f,+1.58097565e-01f,-8.25192332e-02f,-1.52137563e-01f,+2.10898295e-01f,
-1.17851861e-01f,-9.53323692e-02f,-2.11091697e-01f,+1.36006951e-01f,-1.51440904e-01f,
+1.14863329e-01f,-1.51769340e-01f,-2.12545916e-01f,-1.43721536e-01f,-3.65257263e-03f,
-5.95426979e-03f,+3.31193507e-02f,+1.53497204e-01f,+7.68855661e-02f,+8.23403820e-02f,
+1.44092575e-01f,+7.19648153e-02f,-9.22260210e-02f,-4.37181026e-01f,-1.41139269e-01f,
-2.58799195e-02f,+2.27415070e-01f,+7.71472007e-02f,-7.83411339e-02f,-1.22372426e-01f,
+1.80455506e-01f,-1.77054703e-02f,+1.04390159e-01f,-1.58812985e-01f,+5.41703962e-03f,
+2.54792929e-01f,+1.05648473e-01f,-1.54744804e-01f,-8.19796175e-02f,+1.56955376e-01f,
+1.21354572e-01f,+1.00171156e-01f,-2.17676923e-01f,+1.80279776e-01f,-2.35035449e-01f,
-4.37168181e-02f,+4.41604480e-02f,+5.78190386e-03f,-1.63472727e-01f,+1.56018004e-01f,
+1.68321013e-01f,-5.97911030e-02f,-5.69267124e-02f,+1.90472111e-01f,+7.94749856e-02f,
+1.46792069e-01f,+1.66409507e-01f,+1.90187082e-01f,+3.43100950e-02f,+1.52319252e-01f,
-1.76836476e-01f,-1.13015592e-01f,-1.14273563e-01f,+6.23842180e-02f,-3.07132304e-02f,
-7.22846156e-03f,+4.30417284e-02f,+1.23840809e-01f,-2.00832859e-02f,-8.58288705e-02f,
-3.00235391e-01f,+1.92263052e-01f,+8.56942832e-02f,+1.27723247e-01f,-9.25616100e-02f,
-9.00353342e-02f,-8.95529892e-03f,+2.75470972e-01f,-1.42340690e-01f,-6.90234974e-02f,
-2.13498712e-01f,-1.31393030e-01f,+1.01372644e-01f,+1.59303889e-01f,-1.61828399e-01f,
+1.72058031e-01f,-1.21391289e-01f,+1.36766806e-01f,+1.06770314e-01f,-1.77116902e-03f,
+1.15043242e-02f,+6.33908436e-02f,-6.59233183e-02f,+8.93069953e-02f,+1.82965770e-01f,
-8.23179185e-02f,+7.27015883e-02f,-2.13352725e-01f,-2.18274184e-02f,-6.79440349e-02f,
-1.84123278e-01f,-7.50979781e-02f,+1.59572840e-01f,-8.79838020e-02f,+1.67318180e-01f,
-1.71869576e-01f,-8.55426211e-03f,-1.17202252e-01f,+6.25740662e-02f,+2.30537891e-01f,
-5.12232631e-02f,-1.30792826e-01f,-1.21043064e-02f,-3.05200499e-02f,-2.63306499e-01f,
+1.49439424e-01f,-3.66393998e-02f,-4.61822189e-02f,-9.83194932e-02f,+8.43766704e-02f,
+1.33201465e-01f,+6.11065747e-03f,+2.11732555e-03f,+1.75974235e-01f,-7.50952540e-03f,
+3.03504765e-01f,-1.90107346e-01f,-1.17827043e-01f,-1.56829834e-01f,-2.08376318e-01f,
-1.63790782e-03f,-8.55543315e-02f,-5.72751388e-02f,-1.87618896e-01f,+1.28592655e-01f,
-6.19977862e-02f,+2.00264454e-01f,+2.53188968e-01f,-6.97511673e-01f,-1.24689214e-01f,
-2.84228176e-02f,+1.34338453e-01f,-8.96686912e-02f,-9.13262833e-03f,-1.71674937e-02f,
+6.59135804e-02f,+1.65379465e-01f,+2.87712336e-01f,+1.47769049e-01f,-6.12429567e-02f,
-7.06095994e-02f,+3.74534220e-01f,+9.10685882e-02f,+1.38517946e-01f,-3.98414224e-01f,
+1.95933133e-01f,-3.52527797e-02f,-6.05983883e-02f,+8.80422890e-02f,-5.16825169e-02f,
-2.29062438e-02f,-1.84175164e-01f,-3.54518145e-01f,-8.27488959e-01f,-1.50422184e-02f,
-2.10046723e-01f,-6.93814009e-02f,-1.45607561e-01f,+7.66190439e-02f,+2.16429550e-02f,
+3.07868570e-01f,+8.93840566e-02f,-1.57550737e-01f,+9.86638218e-02f,-2.07966536e-01f,
-1.09029315e-01f,+3.19220871e-01f,+1.26993731e-01f,+2.16371082e-02f,+3.90664846e-01f,
+1.73544139e-01f,+2.92484373e-01f,+4.96834256e-02f,-6.78949580e-02f,-2.06604049e-01f,
+2.31847055e-02f,+2.52516657e-01f,+1.00338876e-01f,+1.37273818e-01f,+1.32775707e-02f,
+3.08746994e-02f,-5.36274016e-02f,+4.45860624e-03f,+1.62003577e-01f,-5.99345900e-02f,
+2.25979406e-02f,-1.98501647e-01f,-2.15561055e-02f,-1.04171023e-01f,+1.60175130e-01f,
-2.70289630e-02f,-1.00246750e-01f,-5.47162779e-02f,+1.61428973e-01f,+1.66164592e-01f,
+5.27461283e-02f,-3.84258479e-02f,+1.06997050e-01f,-1.39517233e-01f,-9.70840156e-02f,
-7.82015994e-02f,-8.80979821e-02f,+1.46716744e-01f,-1.77267492e-01f,-1.07525364e-01f,
-1.75219402e-01f,+1.86097980e-01f,+1.34543955e-01f,-1.45478457e-01f,-7.95436352e-02f,
+2.62947958e-02f,+1.60878990e-02f,+8.06315467e-02f,-2.12367415e-01f,-1.32059664e-01f,
+1.93779692e-01f,-8.22788328e-02f,+1.22598782e-01f,-1.72977790e-01f,+1.55153960e-01f,
-5.14634587e-02f,+5.36436960e-02f,+8.78904089e-02f,+2.40022421e-01f,-1.73091233e-01f,
+1.24379374e-01f,+5.29833026e-02f,-1.85289178e-02f,+4.31358181e-02f,+1.91553488e-01f,
+1.42809181e-02f,-2.53194422e-02f,-1.27352506e-01f,+1.40898615e-01f,+4.77911681e-02f,
+4.47637737e-02f,-1.63501590e-01f,-3.81936617e-02f,+1.36350200e-01f,-1.39893189e-01f,
+1.40318766e-01f,-2.18076855e-02f,-1.11692719e-01f,+6.32293671e-02f,-2.05553740e-01f,
+1.12708077e-01f,-4.00265157e-02f,+8.16694461e-03f,+1.04793899e-01f,+2.05871806e-01f,
-1.91501886e-01f,-4.68645506e-02f,+3.72486003e-02f,+7.16482401e-02f,-3.44171003e-02f,
-7.01672435e-02f,-1.32342994e-01f,-4.98199463e-02f,+2.92473305e-02f,-5.53124994e-02f,
-1.34254098e-02f,-1.48650497e-01f,-2.42214054e-02f,-5.37049472e-02f,-1.67707309e-01f,
+2.14840606e-01f,-8.93779937e-03f,-2.15048566e-02f,-7.59942532e-02f,+2.14127988e-01f,
-1.13490090e-01f,-2.88160115e-01f,+6.14417270e-02f,-1.92937344e-01f,-1.67831421e-01f,
+1.88856676e-01f,+9.93753746e-02f,-3.08729857e-02f,+1.44731119e-01f,-1.63764805e-02f,
+2.11729050e-01f,-4.69742864e-02f,+9.64666605e-02f,-9.48112085e-03f,-1.32481689e-02f,
+4.74426039e-02f,+1.41908199e-01f,-8.07798803e-02f,+1.15736164e-01f,+3.49146989e-03f,
-1.23444542e-01f,-1.97218433e-01f,-8.54241848e-02f,+2.78311819e-02f,+1.23910226e-01f,
+2.11780712e-01f,-7.32358396e-02f,+7.27301091e-02f,-1.89917684e-02f,+1.38606712e-01f,
-1.29062653e-01f,+2.17250034e-01f,-7.62707889e-02f,-7.01792911e-02f,-1.48573995e-01f,
-1.92881990e-02f,+1.10690199e-01f,-7.81719759e-03f,+1.49162844e-01f,-2.27126390e-01f,
-2.15972185e-01f,-3.87840904e-02f,+6.21572174e-02f,-4.86683939e-03f,+6.34787679e-02f,
-1.63799420e-01f,-6.14018030e-02f,-1.45944118e-01f,+8.57558474e-02f,+5.50789982e-02f,
-1.95163950e-01f,+1.61415711e-02f,+9.81850997e-02f,+2.67534461e-02f,-8.39916170e-02f,
+8.42601359e-02f,-1.46008134e-01f,+6.57899305e-02f,-5.77121973e-02f,-1.88585132e-01f,
+1.75707415e-01f,+9.28551406e-02f,+4.29573879e-02f,+2.34439477e-01f,+1.00704417e-01f,
+9.82572287e-02f,-1.31202713e-01f,+1.92084014e-01f,+1.48792788e-01f,+1.86671779e-01f,
+1.17895581e-01f,+1.63329288e-01f,-1.51659817e-01f,-2.15413049e-01f,-1.54600665e-01f,
-5.53965829e-02f,-1.00205384e-01f,+9.91157666e-02f,-1.49477229e-01f,-1.54123127e-01f,
-7.90537447e-02f,-1.50207588e-02f,-1.26307294e-01f,-9.33850184e-02f,+1.69440061e-01f,
+1.45885602e-01f,+1.18419528e-03f,+1.55917928e-01f,-1.42786652e-01f,+9.92675796e-02f,
-1.84791312e-02f,+1.67466655e-01f,+1.96242407e-01f,+2.61964723e-02f,-1.50081053e-01f,
-1.25448063e-01f,-2.25764066e-02f,-1.83419213e-01f,+1.45312354e-01f,-5.96384071e-02f,
+8.36825222e-02f,-1.95412755e-01f,+1.39122203e-01f,+1.93013266e-01f,+1.04071364e-01f,
+9.06950831e-02f,-2.18832307e-02f,+9.27272663e-02f,-1.05443582e-01f,+1.85089409e-01f,
-1.36583552e-01f,-1.73479214e-01f,+3.26267667e-02f,+9.85281020e-02f,-2.14725539e-01f,
+1.63140923e-01f,+2.58568376e-02f,-2.20652670e-01f,-9.26261023e-02f,+1.60587937e-01f,
-1.13003783e-01f,-1.30006403e-01f,-1.63776621e-01f,+2.01999128e-01f,-7.86633417e-02f,
-1.34570986e-01f,-1.72247633e-01f,+6.89825369e-03f,+2.12589160e-01f,+1.45956442e-01f,
-1.97986394e-01f,-1.40108332e-01f,-6.72655702e-02f,-3.29272188e-02f,+8.89993906e-02f,
+1.57722220e-01f,+1.91138223e-01f,-1.49259567e-01f,+2.70115793e-01f,+1.54088572e-01f,
+7.17307776e-02f,+1.05162084e-01f,-1.70856625e-01f,+2.18417630e-01f,+2.07891986e-01f,
-1.84233919e-01f,+1.27874166e-01f,+1.58029154e-01f,+1.36771917e-01f,-9.64047536e-02f,
-5.37659228e-02f,+4.26622778e-02f,-8.54099542e-02f,-2.37402152e-02f,-1.53061315e-01f,
-1.55092433e-01f,+7.66592398e-02f,-2.00655431e-01f,-6.76260814e-02f,+1.71952620e-02f,
+1.99574336e-01f,-1.73384711e-01f,-1.06326610e-01f,-2.03014731e-01f,+2.57276371e-02f,
-1.59145266e-01f,-4.62746471e-02f,+1.40353188e-01f,-1.09793022e-01f,-1.97153255e-01f,
+1.20446093e-01f,+8.88579711e-02f,-1.44848913e-01f,-2.06253663e-01f,+1.22415900e-01f,
-1.84525967e-01f,-1.12306200e-01f,+1.68612286e-01f,+1.94236532e-01f,+7.14237839e-02f,
+8.43146518e-02f,-1.44465670e-01f,-1.81420818e-01f,+4.29983363e-02f,+1.67111531e-01f,
-1.68719202e-01f,-1.51029453e-01f,+2.12894425e-01f,-1.68701321e-01f,-1.83629483e-01f,
-1.46203578e-01f,-9.13291499e-02f,+2.76679862e-02f,-1.68584391e-01f,+8.41697827e-02f,
-1.49679333e-01f,-1.87362835e-01f,-1.51767716e-01f,-1.03549678e-02f,-3.38795483e-02f,
+2.09211126e-01f,-2.02341080e-01f,-2.02405110e-01f,-4.02594209e-02f,-1.80958316e-01f,
+2.16340452e-01f,+1.67527109e-01f,-5.37196063e-02f,+3.37194130e-02f,+1.64808348e-01f,
+1.18547775e-01f,-2.06252530e-01f,+1.10973999e-01f,-6.20215908e-02f,+1.74839571e-01f,
+1.17094144e-01f,-9.89963673e-03f,-8.42637345e-02f,+7.59897009e-02f,-6.17877133e-02f,
-1.27498955e-01f,-1.01621924e-02f,+1.28755599e-01f,-2.82926392e-02f,-1.05945170e-02f,
+5.64559028e-02f,+9.75023210e-03f,+1.39354300e-02f,-2.71051019e-01f,+2.13971183e-01f,
+1.09500736e-02f,-1.05443828e-01f,-1.80960223e-01f,+1.51529104e-01f,+1.95406258e-01f,
+2.52772093e-01f,+1.49221748e-01f,+1.05042428e-01f,+1.68145731e-01f,+1.97363198e-02f,
-3.34694074e-03f,-2.12235585e-01f,-9.38188136e-02f,+5.95503598e-02f,-2.27642417e-01f,
+1.48314994e-03f,+1.00651070e-01f,+2.08266705e-01f,-6.53314441e-02f,+3.15894186e-02f,
-8.38851258e-02f,+1.57891378e-01f,+1.88333407e-01f,+6.70807213e-02f,-1.30369335e-01f,
-4.42331642e-01f,-8.39617178e-02f,+8.71829167e-02f,-9.68330055e-02f,+2.40087099e-02f,
+1.61498323e-01f,-2.12607741e-01f,+5.93713932e-02f,+1.05698600e-01f,-1.73131078e-02f,
+1.18165687e-01f,+3.20250958e-01f,-5.74741960e-02f,-2.15641513e-01f,-6.99555874e-02f,
-2.13836461e-01f,+5.68482243e-02f,-5.88158742e-02f,+1.16516359e-01f,+9.80016813e-02f,
+1.40998423e-01f,+5.59739657e-02f,-9.36400592e-02f,+6.13989979e-02f,+9.80069786e-02f,
-8.50941613e-02f,-1.11801252e-01f,+9.70943123e-02f,+1.93620976e-02f,-5.53803928e-02f,
-2.10623756e-01f,+1.96345858e-02f,-2.22130209e-01f,+2.92700529e-03f,-1.79209083e-01f,
+1.29137173e-01f,+8.24777782e-02f,-3.76501866e-02f,+7.86558241e-02f,-1.33734226e-01f,
+5.37100472e-02f,+4.63386029e-02f,+2.09012836e-01f,-2.91248299e-02f,+1.00105897e-01f,
-1.28787130e-01f,+8.70330110e-02f,+6.88749030e-02f,+6.96846992e-02f,-1.63663447e-01f,
+1.37877360e-01f,+2.37012804e-02f,-1.28483251e-01f,+4.16469947e-02f,+1.10677324e-01f,
+7.23792762e-02f,-1.02870815e-01f,-3.95314246e-02f,-1.37454301e-01f,-3.49882729e-02f,
-3.67967695e-01f,-1.78430960e-01f,-1.00201726e-01f,+3.05729602e-02f,+1.00604676e-01f,
+2.85468227e-03f,+6.68961480e-02f,-2.41220206e-01f,-1.26224339e-01f,+6.70399517e-02f,
-1.60115570e-01f,+1.07166566e-01f,-2.64986902e-02f,-1.82830960e-01f,-1.37851641e-01f,
-1.99629188e-01f,+6.74287230e-02f,-1.14181615e-01f,+2.14270204e-01f,+1.50156677e-01f,
-1.39577985e-01f,-9.75792110e-02f,+7.24554732e-02f,-1.06678754e-01f,-1.42297149e-01f,
+1.59183174e-01f,+1.72853619e-01f,+1.31259188e-01f,-5.45440763e-02f,-3.12084649e-02f,
-8.66494514e-03f,-5.15776053e-02f,+1.60230175e-01f,-6.98759556e-02f,-2.21914891e-02f,
+1.53675407e-01f,+1.74588382e-01f,-8.71367604e-02f,-3.91440876e-02f,-1.01692937e-01f,
-1.93331182e-01f,+2.09301993e-01f,-2.01139405e-01f,-1.98047444e-01f,+1.00782134e-01f,
+7.61789531e-02f,+1.20165743e-01f,+1.14917584e-01f,+1.71844706e-01f,-6.19437397e-02f,
+1.86565503e-01f,+2.44536699e-04f,+1.92182034e-01f,-5.87747172e-02f,-2.18562931e-01f,
+1.46439418e-01f,-1.50273412e-01f,+1.84229821e-01f,-1.64325923e-01f,+1.76884368e-01f,
-8.41792673e-02f,+1.72711894e-01f,-1.86719790e-01f,+1.62769601e-01f,-3.42551656e-02f,
-2.73227468e-02f,+2.13127881e-01f,+1.24162413e-01f,-1.10888533e-01f,+3.28510813e-02f,
-1.61464557e-01f,+1.59835309e-01f,-1.57643959e-01f,+1.16703369e-01f,-1.86400086e-01f,
-1.80296272e-01f,+1.99030176e-01f,-1.69663787e-01f,-1.74519494e-01f,+1.35523155e-01f,
-2.53236410e-03f,-1.02496453e-01f,+1.52469441e-01f,+7.70936012e-02f,+2.46920250e-03f,
+1.46334037e-01f,-1.57904640e-01f,-1.54922539e-02f,+4.59607765e-02f,-1.47815486e-02f,
-1.91641390e-01f,+2.28639087e-03f,-1.42339706e-01f,-7.95459524e-02f,-1.39543712e-01f,
-1.70897599e-02f,-2.11723462e-01f,-1.41041800e-01f,-1.35714024e-01f,+1.18804604e-01f,
+1.64849952e-01f,+1.23268470e-01f,+1.22439966e-01f,+1.38393149e-01f,+2.85985302e-02f,
-2.16546014e-01f,}; 
k2c_tensor dense_114_kernel = {&dense_114_kernel_array[0],2,4096,{64,64, 1, 1, 1}}; 
float dense_114_bias_array[64] = {
+6.44594058e-02f,+0.00000000e+00f,-6.78976923e-02f,+0.00000000e+00f,+4.09561135e-02f,
+3.00647295e-03f,-2.12936513e-02f,-1.18240520e-01f,-8.28463435e-02f,+4.87148985e-02f,
-1.70014091e-02f,+6.46889582e-02f,+8.85361210e-02f,-2.35622432e-02f,-4.08597067e-02f,
+7.64540434e-02f,+1.52059823e-01f,+0.00000000e+00f,-2.34721173e-02f,+0.00000000e+00f,
-1.83513816e-02f,+4.09533307e-02f,+8.00100118e-02f,-1.66322861e-03f,-7.34341983e-03f,
+5.05229272e-02f,+3.00208092e-01f,+5.07270843e-02f,-7.63505977e-03f,-1.45054911e-03f,
+7.56866187e-02f,-6.00494165e-03f,+5.53454496e-02f,+1.13763809e-01f,+0.00000000e+00f,
+0.00000000e+00f,+0.00000000e+00f,-1.55907691e-01f,-1.49172172e-01f,-4.09008656e-03f,
+2.40495950e-02f,+8.03849921e-02f,-1.30045367e-02f,-2.04989649e-02f,+9.83225107e-02f,
+9.96464640e-02f,-7.38593042e-02f,+5.09918258e-02f,+1.40249327e-01f,-1.19415782e-02f,
+0.00000000e+00f,+6.94970861e-02f,-5.71729848e-03f,+9.21898112e-02f,+1.16535842e-01f,
-5.12754582e-02f,+1.35352705e-02f,-1.65562723e-02f,+1.19660258e-01f,+0.00000000e+00f,
-3.20577472e-02f,+1.42397285e-01f,+9.09104943e-02f,+6.01561181e-02f,}; 
k2c_tensor dense_114_bias = {&dense_114_bias_array[0],1,64,{64, 1, 1, 1, 1}}; 
float dense_114_fwork[4160] = {0}; 

 
float dense_115_output_array[64] = {0}; 
k2c_tensor dense_115_output = {&dense_115_output_array[0],1,64,{64, 1, 1, 1, 1}}; 
float dense_115_kernel_array[4096] = {
+1.33760542e-01f,-3.66963781e-02f,+2.03189328e-01f,+5.76309711e-02f,-1.01353809e-01f,
+1.41520709e-01f,-1.49211153e-01f,-7.97128156e-02f,+1.46345764e-01f,+6.47617355e-02f,
+6.18507862e-02f,+1.10359475e-01f,-1.18713163e-01f,+2.24084556e-01f,-1.27786413e-01f,
+1.80069789e-01f,+1.82907730e-01f,+1.77798346e-01f,-2.15782374e-02f,-1.18022971e-01f,
+2.09312484e-01f,+9.25884172e-02f,+7.73377949e-03f,+7.05512315e-02f,+1.51458994e-01f,
+4.51867804e-02f,+1.70889333e-01f,+9.92805511e-02f,+2.02044785e-01f,+1.79641649e-01f,
+3.22372541e-02f,-5.93285216e-03f,+1.00167207e-01f,+7.41139352e-02f,-7.02300146e-02f,
-1.85476825e-01f,-1.48726910e-01f,-1.04192935e-01f,+9.43229944e-02f,+4.43881862e-02f,
-5.25440685e-02f,-1.00355923e-01f,-1.38525099e-01f,-4.97388095e-02f,+8.68889838e-02f,
-1.79473951e-01f,-1.62057623e-01f,+1.46267235e-01f,+4.90610637e-02f,+1.36144072e-01f,
-2.35751141e-02f,-7.90961236e-02f,+1.65641289e-02f,-2.85210729e-01f,-1.13336712e-01f,
+1.00930315e-02f,+3.78588513e-02f,-2.23296598e-01f,+3.81909758e-02f,-1.39139235e-01f,
-1.94587946e-01f,+1.97909847e-01f,-8.92337412e-02f,+3.25497836e-02f,-1.54315412e-01f,
-2.91319788e-02f,+1.73873737e-01f,-1.66251361e-02f,-5.70651144e-02f,+1.35250196e-01f,
-1.28282487e-01f,-3.52025926e-02f,-1.22128397e-01f,+3.98675650e-02f,-2.60298848e-02f,
-1.86454982e-01f,+7.52193481e-02f,-1.57236576e-01f,-2.16157407e-01f,-2.60334462e-02f,
-7.35242665e-03f,+1.72689602e-01f,-1.39693916e-01f,+1.97097763e-01f,-9.74717960e-02f,
-8.80295187e-02f,+3.31296325e-02f,+1.63180977e-02f,-1.23254471e-01f,+6.92956299e-02f,
+3.40699106e-02f,+1.77026317e-01f,-9.25242528e-02f,-1.13273598e-01f,-1.25721246e-01f,
+5.61835617e-02f,+3.24604362e-02f,+1.94706962e-01f,-2.05458298e-01f,+7.44604915e-02f,
-2.06863537e-01f,-1.90050557e-01f,-1.05221733e-01f,-6.76773340e-02f,+1.36262998e-01f,
+1.00841656e-01f,-1.04002237e-01f,+1.18580058e-01f,+6.69385046e-02f,-1.31180286e-02f,
-8.83882195e-02f,+2.02347264e-01f,-1.25917852e-01f,-8.55470002e-02f,-1.65759623e-01f,
-1.89500868e-01f,+1.03003383e-02f,-8.59879851e-02f,+2.12400213e-01f,+1.42204016e-02f,
+1.80788472e-01f,-6.36948645e-02f,+1.01655021e-01f,+4.17568833e-02f,-1.91804424e-01f,
-1.90846577e-01f,+8.51542801e-02f,+9.58928466e-03f,+1.91709802e-01f,-1.74225450e-01f,
-1.73781022e-01f,+2.76266098e-01f,-2.14424342e-01f,-2.64248252e-01f,+1.72493994e-01f,
+1.83552969e-02f,+1.52825341e-01f,+9.16203186e-02f,+1.28666714e-01f,-1.02335133e-01f,
+2.35307962e-01f,+1.48154780e-01f,+2.53373999e-02f,-1.50266409e-01f,+1.31568670e-01f,
+1.12721257e-01f,+1.85836688e-01f,+6.05073199e-02f,-6.35451004e-02f,-2.60054410e-01f,
-1.83674410e-01f,-3.99468094e-02f,-8.31307620e-02f,-2.14219838e-01f,+1.60530895e-01f,
-1.89233199e-01f,+8.62230957e-02f,-3.81939262e-02f,-2.39998773e-01f,-2.63983272e-02f,
-5.67118861e-02f,-1.44699827e-01f,-4.18849178e-02f,-1.73210889e-01f,-1.81049109e-01f,
+1.03120729e-01f,-1.44614980e-01f,-1.36437625e-01f,-5.39123006e-02f,+5.18458076e-02f,
-2.66063958e-01f,+2.11483702e-01f,+6.41659945e-02f,-2.44561583e-02f,-5.11961840e-02f,
+6.56315312e-02f,-3.19291204e-01f,+3.26635331e-01f,+1.34645775e-01f,+1.19936690e-01f,
-3.09905857e-01f,+6.10791892e-02f,-1.68285549e-01f,+6.71343803e-02f,+9.54011828e-02f,
+1.23930179e-01f,+5.36963791e-02f,+1.23271301e-01f,-5.19791916e-02f,-3.53690633e-03f,
-1.92226306e-01f,+1.10443830e-02f,-1.54991671e-01f,+1.77813664e-01f,-7.91437477e-02f,
+2.12577507e-01f,+6.24772906e-03f,+8.08257610e-02f,+6.85153157e-02f,-1.53852135e-01f,
-1.99263960e-01f,+1.08727440e-01f,-5.54661006e-02f,-7.22279251e-02f,-1.22445442e-01f,
-1.81599110e-01f,-2.32030600e-02f,+2.03691229e-01f,-1.32329583e-01f,-6.37471080e-02f,
-1.86796546e-01f,-1.49680942e-01f,+4.98733371e-02f,-2.03603685e-01f,-4.70234454e-03f,
+9.49220210e-02f,+1.40218481e-01f,+2.67357677e-02f,-1.62279874e-01f,-1.24027722e-01f,
-1.30572349e-01f,+7.92766660e-02f,-9.95558649e-02f,-1.19357377e-01f,+1.34715870e-01f,
-5.64273000e-02f,+8.67302567e-02f,-6.21411800e-02f,-2.51177102e-02f,+1.80902332e-02f,
-1.00299850e-01f,+4.05181199e-02f,-1.85102969e-01f,-1.16081215e-01f,-6.77684993e-02f,
-9.53949466e-02f,-2.01419875e-01f,+3.12566757e-02f,-1.57991648e-02f,-7.44735599e-02f,
-3.01972032e-03f,+7.96741396e-02f,+1.79286525e-01f,+3.03145200e-02f,+1.66527048e-01f,
+9.62090343e-02f,+1.10233501e-01f,+5.23594022e-03f,+5.84305376e-02f,-1.76004589e-01f,
-1.11148030e-01f,-1.89915165e-01f,+9.90401953e-02f,-1.23342633e-01f,-1.84942842e-01f,
+9.96894985e-02f,+1.74481526e-01f,+1.92428365e-01f,-1.91007908e-02f,+1.11741304e-01f,
-1.67683780e-01f,+1.91353381e-01f,+8.81886184e-02f,-1.15901390e-02f,+3.72782443e-03f,
+1.25478366e-02f,+7.18844011e-02f,+6.69605359e-02f,+1.22180596e-01f,-1.81670234e-01f,
-2.75334775e-01f,-1.88843295e-01f,-1.06331088e-01f,-1.68427795e-01f,-1.78013742e-02f,
-2.01880857e-02f,-1.84640527e-01f,-1.19633704e-01f,+1.39369205e-01f,+2.81877071e-02f,
-1.85184907e-02f,+1.75027162e-01f,+1.47115216e-01f,+1.28542274e-01f,+7.28769675e-02f,
+1.28538087e-01f,-1.36302799e-01f,+1.83217689e-01f,+1.55718416e-01f,-1.55681968e-01f,
+5.18240109e-02f,-7.19977543e-02f,+2.30016544e-01f,-6.09422103e-02f,+1.08013913e-01f,
-1.39692396e-01f,+9.23318267e-02f,-9.07100271e-03f,+2.01069131e-01f,+1.05213493e-01f,
+1.78713128e-01f,+1.74953714e-01f,+1.77515551e-01f,+9.84922424e-02f,-1.69094145e-01f,
+1.40660867e-01f,-1.73035404e-03f,-4.70522158e-02f,-1.09890014e-01f,+4.74486500e-02f,
-1.23524763e-01f,-1.59996629e-01f,-2.19676554e-01f,-1.15018614e-01f,+3.47141176e-02f,
+2.57496722e-02f,+1.65948302e-01f,+2.28056371e-01f,-1.80234537e-01f,-5.74733038e-03f,
+1.72722731e-02f,-2.03605458e-01f,+1.95460975e-01f,+5.59807830e-02f,-5.11287153e-03f,
-1.91028148e-01f,-1.64782360e-01f,-1.16521016e-01f,-4.95048985e-02f,+1.29756391e-01f,
+1.12260662e-01f,-1.07737072e-01f,+1.32051751e-01f,+1.55824065e-01f,-1.63326815e-01f,
+1.72458246e-01f,+1.48952380e-01f,+5.09958006e-02f,-1.02733023e-01f,-6.22994406e-03f,
+1.20640785e-01f,+2.18251124e-02f,-1.56615347e-01f,+1.59615129e-02f,-1.27145186e-01f,
+6.19508773e-02f,+1.21601366e-01f,-2.84502413e-02f,+1.01263085e-02f,-1.60585269e-01f,
-8.50489270e-03f,-1.05807744e-01f,+1.79581985e-01f,+3.62659618e-02f,+1.80346772e-01f,
-1.47286266e-01f,+1.94253400e-01f,-1.71382219e-01f,+3.31122912e-02f,-9.05961320e-02f,
-9.62946638e-02f,-2.13186279e-01f,-2.46866178e-02f,+1.91567078e-01f,-2.00028643e-01f,
-1.54465109e-01f,+9.33572650e-03f,-4.32587191e-02f,-2.30917752e-01f,-1.10528335e-01f,
-1.18018381e-01f,+1.35176152e-01f,-2.28236884e-01f,-1.57893270e-01f,+9.01916251e-02f,
+1.69635266e-02f,+9.94891860e-03f,+1.42774299e-01f,-1.40476942e-01f,-1.41967967e-01f,
+6.93265628e-03f,+1.55298218e-01f,-4.59423214e-02f,-1.15081318e-01f,-6.69845939e-02f,
+1.12500861e-02f,+1.39672920e-01f,-2.06479132e-02f,+3.18468362e-02f,-1.52550101e-01f,
+1.72017053e-01f,+2.08452597e-01f,+6.96128830e-02f,+1.21114299e-01f,-1.54861733e-01f,
-8.16531703e-02f,+1.93662941e-02f,+1.35248572e-01f,-2.22556263e-01f,-9.17277709e-02f,
-1.19933104e-02f,+1.82223499e-01f,-1.08211830e-01f,+1.87033623e-01f,+1.43738165e-01f,
-1.00473702e-01f,+1.86628625e-01f,-1.66434139e-01f,-1.83219403e-01f,+1.41533390e-01f,
+2.21827820e-01f,+9.71744061e-02f,+9.33551118e-02f,+1.14992261e-03f,-2.00969428e-01f,
+9.09380838e-02f,+1.01515539e-01f,-2.33689755e-01f,-7.02696517e-02f,+1.72534034e-01f,
+8.51906314e-02f,+2.00914770e-01f,-1.63434550e-01f,+1.78373829e-01f,+1.88753799e-01f,
-9.79628637e-02f,-6.73235729e-02f,+1.28613472e-01f,-1.72721401e-01f,-1.88089699e-01f,
+1.66083962e-01f,-1.05261125e-01f,-2.25030050e-01f,-1.41339123e-01f,+3.00384928e-02f,
-6.41894341e-02f,-1.23963423e-01f,-1.47200108e-01f,-9.04807970e-02f,+2.21439496e-01f,
-1.27027363e-01f,-1.62319362e-01f,+7.51836747e-02f,-1.15648992e-01f,-8.80918056e-02f,
+2.04677656e-01f,+8.46530646e-02f,+1.89910308e-01f,-1.66436404e-01f,-1.36939019e-01f,
-1.05044834e-01f,+1.17257006e-01f,-1.11333236e-01f,-1.00276522e-01f,+6.67374432e-02f,
-2.03622460e-01f,-1.06239095e-01f,-6.82514310e-02f,+6.29492626e-02f,-1.22345909e-01f,
+1.04074247e-01f,-2.24635735e-01f,-1.93973765e-01f,-8.93831253e-04f,+1.00559950e-01f,
-1.36673167e-01f,-1.79686517e-01f,-8.84888545e-02f,+1.38871670e-01f,-2.35245392e-01f,
+3.59886438e-02f,+5.71654588e-02f,-1.30639896e-01f,-2.13800624e-01f,+3.27574432e-01f,
-1.23887146e-02f,+6.44158497e-02f,-1.93920732e-02f,-4.40151036e-01f,+8.48168135e-02f,
-1.92504838e-01f,+3.88134457e-02f,+1.24183014e-01f,-3.12626988e-01f,+9.25120190e-02f,
+1.97943419e-01f,-8.12751353e-02f,+1.32045418e-01f,-1.75593477e-02f,+9.83650759e-02f,
-2.34818235e-02f,-1.16960786e-01f,+5.58120161e-02f,-9.05815214e-02f,-9.11596864e-02f,
-3.55628543e-02f,-3.10320884e-01f,+1.65488392e-01f,-1.92392617e-01f,+9.51742679e-02f,
-1.34261772e-01f,+5.98331131e-02f,+8.06211978e-02f,+2.53293902e-01f,-1.32825285e-01f,
-2.38180071e-01f,+5.78462034e-02f,-8.45725387e-02f,-3.76942083e-02f,-1.54171348e-01f,
-1.04886524e-01f,-1.66810304e-02f,+1.14458039e-01f,+5.88732585e-02f,+1.32008940e-01f,
+3.18046182e-01f,+4.68145758e-02f,-6.44941851e-02f,+2.16862097e-01f,+1.71339005e-01f,
+6.33415431e-02f,-4.17893752e-02f,+1.95748121e-01f,-2.16370467e-02f,-1.04095981e-01f,
+5.77736348e-02f,-3.78382772e-01f,+2.63502300e-02f,+8.37864652e-02f,+9.89394188e-02f,
-1.31180376e-01f,+1.31870648e-02f,-7.96645656e-02f,-2.21986979e-01f,+3.01597267e-02f,
+1.89569816e-01f,+1.60252258e-01f,-1.10600200e-02f,+2.28279918e-01f,-1.19307160e-01f,
-1.89922765e-01f,-4.59628105e-02f,-3.88297826e-01f,+1.94466025e-01f,+9.15196165e-02f,
+1.11218825e-01f,+5.73361106e-02f,-2.16446340e-01f,-1.93125218e-01f,+3.56237441e-02f,
-2.04546347e-01f,+1.88366130e-01f,-1.01962291e-01f,-5.98311890e-04f,-2.04516545e-01f,
-1.26674294e-01f,-2.06290871e-01f,+1.55319229e-01f,-2.78221276e-02f,+1.60526052e-01f,
-1.93538904e-01f,+1.66155666e-01f,-1.10870078e-01f,-1.31213218e-01f,-8.50533396e-02f,
-9.95418355e-02f,+3.07261827e-03f,+1.53087348e-01f,+1.90007314e-01f,+1.05451331e-01f,
+1.82163939e-01f,-1.07181147e-01f,-1.42485619e-01f,+1.29889503e-01f,+1.67675018e-02f,
-1.08414687e-01f,-6.52709454e-02f,-1.83451235e-01f,+2.35835060e-01f,-3.95991057e-02f,
-2.04340518e-02f,+1.20471939e-02f,+1.84078678e-01f,+1.41169086e-01f,-1.48132682e-01f,
+7.16319755e-02f,-2.41016671e-02f,-1.63469404e-01f,-2.95741688e-02f,+4.67622690e-02f,
-2.07611665e-01f,-4.69632447e-02f,+1.06997557e-01f,-1.51123673e-01f,+1.10013500e-01f,
-9.47929472e-02f,-8.27773437e-02f,+1.05114311e-01f,-1.62637919e-01f,-2.02955246e-01f,
+1.41883284e-01f,+1.79185480e-01f,-1.38018668e-01f,-8.45209509e-02f,+1.08440898e-01f,
-2.00579733e-01f,+2.29252785e-01f,-1.60614252e-02f,+1.08392216e-01f,-1.28022134e-01f,
-1.75790640e-03f,+1.68428913e-01f,+2.30782241e-01f,+3.15394774e-02f,+4.15527895e-02f,
+9.16441251e-03f,-9.05025527e-02f,-9.54481214e-02f,+1.96238562e-01f,-2.04303727e-01f,
-1.30268216e-01f,+1.38204202e-01f,-1.27229899e-01f,-1.67425677e-01f,-6.36870936e-02f,
-1.95391804e-01f,-1.84028283e-01f,+1.37147933e-01f,-1.39546156e-01f,+3.60020548e-02f,
-1.39305994e-01f,+4.61791456e-02f,+1.29568994e-01f,-1.32239550e-01f,+1.20254770e-01f,
+9.79274213e-02f,+1.23237856e-02f,+2.26130277e-01f,-5.21807373e-03f,+4.84220646e-02f,
-1.88594863e-01f,+2.48224121e-02f,-1.06633388e-01f,+2.96516009e-02f,-1.51842281e-01f,
-4.49441075e-02f,-1.44584075e-01f,-2.03195333e-01f,-2.72926409e-02f,-1.24370586e-02f,
-8.67725583e-04f,-1.20759167e-01f,+8.98120254e-02f,-9.98350829e-02f,+1.97522983e-01f,
-1.03960678e-01f,-7.82580078e-02f,-9.04647261e-02f,-7.30330199e-02f,-1.53248653e-01f,
+5.24360389e-02f,+1.32873565e-01f,-1.52319580e-01f,-6.45668656e-02f,+1.47004902e-01f,
-1.96359411e-01f,+1.88837722e-01f,+1.07939266e-01f,-2.78939344e-02f,-8.33313167e-03f,
-3.53254415e-02f,-1.44361975e-02f,-6.07701531e-03f,+1.95566878e-01f,-1.05894297e-01f,
+1.97830528e-01f,+2.12659612e-01f,+1.57047927e-01f,+1.91493586e-01f,-2.70116981e-02f,
-1.22857392e-01f,-1.56388164e-01f,-4.21619415e-03f,-2.13493124e-01f,+3.73215228e-02f,
-9.11477208e-02f,-6.77480847e-02f,-1.66265368e-01f,-2.06182629e-01f,+9.76059288e-02f,
+1.77088216e-01f,+3.46726179e-03f,-1.45069817e-02f,-7.15307593e-02f,+1.82710588e-01f,
+1.30724937e-01f,-1.76012158e-01f,-9.87766236e-02f,-7.36618936e-02f,-2.25562230e-01f,
-2.36564111e-02f,+4.69312444e-02f,+7.96504319e-03f,-2.10568488e-01f,-1.64268345e-01f,
-8.94284546e-02f,-6.13330416e-02f,-1.70101315e-01f,+1.85150251e-01f,+2.72648275e-01f,
-3.36721241e-02f,+2.01394230e-01f,+1.88494146e-01f,+1.78052589e-01f,-1.65692151e-01f,
-9.23361536e-03f,-1.59951270e-01f,+1.61581680e-01f,-1.93436548e-01f,-1.36007756e-01f,
-4.54659052e-02f,-9.14526656e-02f,+2.15853110e-01f,+1.25620738e-01f,-1.29891381e-01f,
+1.73144713e-01f,+2.84005702e-01f,-7.92068243e-02f,-8.81969929e-02f,-4.74379845e-02f,
-3.36774588e-02f,+1.22182429e-01f,-8.94150957e-02f,+1.88399062e-01f,-1.84610635e-02f,
+1.19207025e-01f,-1.51807651e-01f,+9.78651941e-02f,-1.70393378e-01f,+2.01431766e-01f,
-1.08239084e-01f,-3.59286182e-02f,+1.61004961e-01f,-1.78483561e-01f,-3.62852186e-01f,
+5.70889115e-02f,+3.62272590e-01f,-1.90246880e-01f,+4.92847711e-02f,-3.88324559e-02f,
-1.25729546e-01f,+1.52532443e-01f,+1.63768139e-02f,+9.90332738e-02f,+1.80105139e-02f,
+1.80115029e-01f,+8.32624361e-02f,+2.12071966e-02f,+8.89144391e-02f,+6.45896196e-02f,
+9.36849862e-02f,+2.01298371e-01f,+1.04424223e-01f,+1.72997698e-01f,-9.36524570e-02f,
-1.40071828e-02f,-3.93656082e-02f,+1.22868098e-01f,-6.28664270e-02f,-7.28228241e-02f,
-4.65243682e-02f,+2.17195712e-02f,-5.14041930e-02f,+1.27622038e-01f,-1.23991676e-01f,
-2.67710090e-02f,-2.64195576e-02f,+1.90121487e-01f,+1.04379453e-01f,-2.16401517e-02f,
+1.48844481e-01f,-1.88052639e-01f,-1.12314723e-01f,-1.63343489e-01f,-5.22558279e-02f,
+1.19316548e-01f,-2.06467658e-01f,+1.20444141e-01f,-8.22854787e-02f,+2.38092363e-01f,
+2.83084720e-01f,-8.34490955e-02f,+5.23107983e-02f,-6.02066666e-02f,-2.57923275e-01f,
+1.07498892e-01f,-1.20092571e-01f,-6.22117966e-02f,+5.12072206e-01f,+2.42198212e-03f,
-1.99859425e-01f,+1.49937673e-02f,-2.80543059e-01f,+1.15545154e-01f,+1.45158038e-01f,
-1.07350416e-01f,-1.70984387e-01f,+8.07567537e-02f,-1.31233945e-01f,+3.26298513e-02f,
+2.45566502e-01f,-2.00329795e-02f,-2.00086042e-01f,+1.46305934e-01f,+1.29450530e-01f,
-1.89227492e-01f,+2.13898852e-01f,+2.23824963e-01f,+7.34300315e-02f,-2.21957281e-01f,
+3.49942863e-01f,+1.08691260e-01f,+1.13871560e-01f,-3.85082275e-01f,+1.61799997e-01f,
+1.30987577e-02f,+2.12413296e-01f,+2.36786723e-01f,+1.08525984e-01f,+8.64212438e-02f,
-1.04346111e-01f,+4.49143238e-02f,-1.15910426e-01f,+9.01019350e-02f,+3.11965104e-02f,
+3.56212631e-02f,+2.12272868e-01f,-2.54265010e-01f,+1.46073192e-01f,+1.22825531e-02f,
-7.71204382e-02f,-1.77955046e-01f,-2.59134006e-02f,-1.11688986e-01f,-4.73796688e-02f,
+1.84635356e-01f,+1.30554900e-01f,+1.69557050e-01f,+4.65310574e-01f,-1.48400620e-01f,
-1.53244615e-01f,-2.03345791e-01f,+2.17130214e-01f,-4.60597910e-02f,+2.27383263e-02f,
+1.78588852e-01f,+1.87065512e-01f,-6.34095073e-02f,+4.46328074e-02f,+1.02057211e-01f,
-1.09825842e-01f,+1.07344612e-01f,-3.78195167e-01f,-1.33041115e-02f,+1.70190200e-01f,
-3.16346139e-02f,+1.36137426e-01f,+5.92150912e-02f,+3.18950452e-02f,+3.15679461e-02f,
+7.62636214e-02f,-9.91382748e-02f,-8.95358846e-02f,-2.75878638e-01f,-3.08039244e-02f,
+1.93314150e-01f,-1.56793147e-02f,-1.68210194e-01f,-1.27043724e-01f,-1.34410098e-01f,
-1.14829861e-01f,+1.32288009e-01f,+1.12464845e-01f,-8.67966413e-02f,-2.91210264e-01f,
-2.02521637e-01f,+9.57107767e-02f,+7.99828842e-02f,+1.71647206e-01f,-1.71986699e-01f,
-9.38810632e-02f,+1.29479513e-01f,-1.50900215e-01f,-8.44907239e-02f,+1.88332573e-01f,
-1.01796009e-01f,-1.36316746e-01f,+5.58298677e-02f,-1.71305358e-01f,-1.26355246e-01f,
+1.41558513e-01f,-1.87371403e-01f,+6.20715246e-02f,+1.66473851e-01f,+7.67773464e-02f,
+1.42807692e-01f,-1.49137914e-01f,-6.98600113e-02f,+1.98868290e-02f,+1.53901458e-01f,
-1.45960346e-01f,-1.48427472e-01f,+1.52372122e-01f,-2.16677293e-01f,+5.53263724e-03f,
+1.93887249e-01f,+1.03611737e-01f,-1.53241992e-01f,+6.88373074e-02f,+7.63256997e-02f,
+3.71958949e-02f,-2.05936372e-01f,+4.52791840e-01f,+1.58811718e-01f,+5.20850606e-02f,
+1.69340387e-01f,-3.14593911e-01f,-1.60201609e-01f,-1.76280886e-02f,+2.29272638e-02f,
+9.05200243e-02f,-1.08428530e-01f,-1.62422106e-01f,+2.87910759e-01f,-6.11294508e-02f,
+1.47260934e-01f,-1.53578207e-01f,+2.82301642e-02f,-2.46961266e-01f,+3.33131254e-02f,
-1.54643133e-01f,+9.05960351e-02f,-3.05762235e-02f,+1.44624650e-01f,+4.16976362e-02f,
+2.63128400e-01f,-1.04492582e-01f,-1.68390349e-01f,-2.14978028e-02f,+9.12050009e-02f,
+1.06418744e-01f,+3.09354931e-01f,+1.39180943e-01f,+4.91661616e-02f,+5.86857051e-02f,
+1.58363014e-01f,-1.27984583e-01f,+4.05552238e-02f,-1.46438330e-01f,-7.21908063e-02f,
-1.99069828e-01f,+6.01649880e-02f,+2.06451222e-01f,+1.73269853e-01f,-1.58982292e-01f,
-6.14816025e-02f,-2.34644681e-01f,-4.99790236e-02f,-1.08897686e-01f,-8.90253950e-03f,
-2.25820933e-02f,-1.80377021e-01f,+1.67332828e-01f,-8.39675367e-02f,-6.93407133e-02f,
-1.49290487e-01f,+8.80864933e-02f,-1.35933518e-01f,-4.36044931e-02f,+4.85718325e-02f,
-4.13139164e-02f,+2.08174184e-01f,+1.47277698e-01f,-1.97549433e-01f,+1.47459982e-02f,
+1.30130887e-01f,-1.97187781e-01f,-6.38717636e-02f,-3.07265986e-02f,-1.04204789e-01f,
+2.26597920e-01f,+1.31160408e-01f,-2.60174070e-02f,-9.15533211e-03f,-9.49923508e-03f,
+6.41690046e-02f,+1.00766771e-01f,-5.03975141e-04f,-1.36129022e-01f,-1.93098243e-02f,
+2.11437568e-02f,+1.07594959e-01f,-6.83343560e-02f,+1.30558714e-01f,-1.32704735e-01f,
-4.52470630e-02f,+2.50386417e-01f,+2.11925767e-02f,-5.66837229e-02f,-1.75094549e-02f,
+6.22402653e-02f,+8.57959911e-02f,-6.41062260e-02f,-7.87838846e-02f,-1.14199832e-01f,
-9.15608183e-02f,-1.39929593e-01f,+1.87099893e-02f,-2.07524896e-02f,+2.14077055e-01f,
-1.01353332e-01f,+8.00740421e-02f,+1.71195760e-01f,+1.55182660e-01f,-1.25807291e-02f,
-1.85535371e-01f,+3.70974429e-02f,-1.26788830e-02f,-9.60058123e-02f,+1.65445015e-01f,
-1.02397330e-01f,-1.24313757e-01f,-1.11946631e-02f,+1.74614787e-01f,-1.61600649e-01f,
+4.52848710e-02f,-1.40524223e-01f,+4.94233391e-04f,+7.04708975e-03f,-1.38572246e-01f,
-7.73747712e-02f,+7.28722736e-02f,-1.42357782e-01f,-1.50571719e-01f,+1.93825945e-01f,
-1.75023541e-01f,+5.27876876e-02f,-4.04209793e-02f,+7.05108270e-02f,+5.23133986e-02f,
-3.59641552e-01f,-3.67528386e-02f,-9.31736529e-02f,+9.70234722e-02f,+3.48081350e-01f,
+1.78549573e-01f,-1.42576724e-01f,+1.70096502e-01f,-2.10307971e-01f,+4.69234735e-02f,
+1.69825390e-01f,+8.50085318e-02f,-7.40336180e-02f,+1.25218257e-01f,+1.18333876e-01f,
+3.32678221e-02f,+1.28736421e-01f,+4.34748158e-02f,+5.48735708e-02f,-1.67467132e-01f,
+1.90739766e-01f,-1.73178956e-01f,+3.34126532e-01f,+1.05776571e-01f,+1.07679047e-01f,
-1.63220868e-01f,+2.66100556e-01f,+2.03025173e-02f,-3.48930135e-02f,-1.92065597e-01f,
-1.67760134e-01f,+4.71948944e-02f,-1.89607143e-01f,-1.20245935e-02f,-2.81551331e-02f,
-1.18817449e-01f,-3.71291675e-02f,-7.94795603e-02f,-1.80425346e-02f,+3.23165655e-02f,
+8.98105949e-02f,+1.85212091e-01f,-4.15852070e-02f,+1.65996596e-01f,-1.46414727e-01f,
-2.01145887e-01f,+1.39100060e-01f,-4.07906324e-02f,+4.51591462e-02f,+1.62333995e-02f,
+1.69036552e-01f,+1.56799853e-02f,-1.87125564e-01f,+5.03933281e-02f,-1.48876041e-01f,
+1.37055963e-02f,+3.46603543e-02f,-8.98002088e-03f,-8.54990929e-02f,+1.00847438e-01f,
-1.53492332e-01f,-2.06602499e-01f,-9.95920524e-02f,+3.92368883e-02f,-2.45659649e-02f,
-7.56185204e-02f,-4.13998365e-02f,+2.15902880e-01f,-1.90143675e-01f,+6.31284863e-02f,
+2.15922996e-01f,-6.43499643e-02f,+8.41387659e-02f,-2.56907940e-03f,+9.53171104e-02f,
-1.68996975e-01f,-1.73569441e-01f,+1.43096402e-01f,+4.22731787e-02f,+1.56563371e-02f,
+1.97786823e-01f,-1.35980815e-01f,+3.69504839e-02f,+3.74807566e-02f,-1.11287504e-01f,
-1.57030165e-01f,-2.16439068e-02f,+1.08193710e-01f,-1.67162582e-01f,+1.73496470e-01f,
+1.77164361e-01f,-1.31848842e-01f,-1.03404328e-01f,-1.72313556e-01f,+1.15897253e-01f,
-7.41571188e-03f,-1.78995192e-01f,-2.08023623e-01f,-8.87769163e-02f,+1.83416560e-01f,
+2.00663969e-01f,-8.32279027e-02f,+9.93373320e-02f,+8.98951963e-02f,-2.73509175e-02f,
-8.63891095e-02f,+1.28455758e-02f,-1.10417932e-01f,+9.05406699e-02f,+2.03182250e-01f,
-1.49919659e-01f,+2.03219175e-01f,+1.96639653e-02f,-7.61735365e-02f,+7.65604302e-02f,
+5.94640709e-02f,-5.45760952e-02f,+1.33926868e-02f,+2.09897757e-01f,+1.36037484e-01f,
-1.87329039e-01f,+9.29145664e-02f,+1.97867215e-01f,+3.55435908e-02f,-2.68481355e-02f,
+1.65113196e-01f,-2.07739994e-01f,-1.19772248e-01f,+1.42946094e-01f,-5.59229776e-02f,
+1.75117046e-01f,+1.54989973e-01f,-5.64685166e-02f,-1.02195442e-01f,-5.95082603e-02f,
-2.09243521e-01f,-6.71507195e-02f,-1.94073454e-01f,-1.42706096e-01f,-2.03312680e-01f,
-1.66252241e-01f,-1.21768840e-01f,+2.01664835e-01f,+6.44477233e-02f,-1.38199538e-01f,
-8.58228281e-02f,-1.84822381e-02f,+3.36954743e-02f,-1.85938291e-02f,+3.92733887e-02f,
+6.61002249e-02f,+1.42511100e-01f,+1.65224031e-01f,-1.91271141e-01f,-7.99728334e-02f,
-8.86831284e-02f,-1.34779140e-01f,+2.09867895e-01f,-4.85385507e-02f,-1.32979408e-01f,
-1.83823481e-01f,-2.01105490e-01f,-8.23644325e-02f,+1.96129501e-01f,+1.56712338e-01f,
-1.20070420e-01f,+1.98838457e-01f,-1.42126217e-01f,+1.97465912e-01f,+6.92975074e-02f,
-4.07527983e-02f,-1.73424184e-03f,+1.57141969e-01f,+1.99479565e-01f,-1.12053752e-02f,
+1.07074305e-01f,-7.21243173e-02f,+2.63017565e-02f,+1.07421532e-01f,-1.76388532e-01f,
+1.40703812e-01f,-1.81302458e-01f,+9.06878561e-02f,-1.40025422e-01f,-1.81782365e-01f,
+2.00911328e-01f,+8.33736211e-02f,-5.17636538e-03f,-1.05672576e-01f,-1.63406044e-01f,
+3.76740247e-02f,-1.31465018e-01f,+1.33678749e-01f,-1.55773848e-01f,+1.30705371e-01f,
+2.06657365e-01f,+2.15224907e-01f,+1.27335265e-01f,-1.24556407e-01f,-3.90355736e-02f,
+4.03764993e-02f,-5.39858192e-02f,-1.05947398e-01f,-1.25459164e-01f,-9.81186852e-02f,
+2.06814662e-01f,-7.87816942e-03f,+1.00073516e-02f,+2.14214936e-01f,-9.85553861e-02f,
-9.85379890e-02f,-1.82061315e-01f,-1.41923130e-02f,-6.89375550e-02f,+2.15232894e-01f,
-1.92884758e-01f,+4.28485870e-03f,-1.91280276e-01f,+4.98545915e-02f,-2.56924480e-02f,
+9.50369090e-02f,-3.94465178e-02f,-4.50387597e-03f,+1.71639398e-01f,+8.03115964e-03f,
-7.56189376e-02f,+1.69340715e-01f,-1.93473116e-01f,-1.87785506e-01f,-6.96702451e-02f,
+6.33587688e-02f,-1.38746351e-01f,-1.00321084e-01f,+1.96324363e-01f,-1.25569075e-01f,
+1.02451108e-01f,-2.30084062e-02f,+2.11721912e-01f,-2.08346903e-01f,-1.68182954e-01f,
+8.91394354e-03f,+1.59653410e-01f,+8.66345838e-02f,-1.35460168e-01f,+1.76387563e-01f,
-1.94541216e-01f,-4.40402627e-02f,-3.25238258e-02f,-1.12380333e-01f,-7.80837983e-02f,
+8.19428936e-02f,+1.58188447e-01f,-9.31834728e-02f,-3.45838964e-02f,+8.16759542e-02f,
+1.39156371e-01f,-2.03854740e-02f,+1.12828746e-01f,-1.96758639e-02f,+1.00030914e-01f,
-1.70286056e-02f,+1.78922325e-01f,+2.02536151e-01f,-1.44937366e-01f,-2.02430844e-01f,
+8.00777152e-02f,+1.05093420e-01f,+9.58150178e-02f,+9.46999937e-02f,+1.03368677e-01f,
-2.13332474e-01f,+1.68198586e-01f,+4.21632528e-02f,-1.14131972e-01f,-1.94897652e-01f,
-5.92221171e-02f,-1.60493091e-01f,-1.59430802e-02f,+1.23004071e-01f,+1.30043030e-01f,
+3.97284217e-02f,+3.73050570e-04f,+1.11113153e-01f,-1.62864625e-02f,+8.97667557e-02f,
-1.13505274e-02f,+1.08816639e-01f,-1.43757433e-01f,+1.31705090e-01f,+1.88577622e-02f,
+2.79679745e-02f,-5.45084327e-02f,+8.26452821e-02f,+3.38734686e-03f,-8.21352899e-02f,
-2.05055937e-01f,-2.42630526e-01f,+7.05001131e-02f,+8.45785588e-02f,+1.05625510e-01f,
+1.04123235e-01f,-3.65924984e-02f,-1.24310091e-01f,-1.91249833e-01f,+1.62918374e-01f,
+2.65373081e-01f,-2.92738322e-02f,-2.49242693e-01f,-1.19709969e-01f,-1.69189408e-01f,
-9.67465788e-02f,+7.84582347e-02f,-1.15013368e-01f,+2.43266165e-01f,-4.52427007e-02f,
+2.07539895e-04f,+3.12622249e-01f,-1.01214543e-01f,-1.17479876e-01f,-1.94315642e-01f,
-1.13643773e-01f,-2.43812189e-01f,-1.30907193e-01f,+1.68172255e-01f,-1.41710401e-01f,
+3.58330160e-02f,-1.68355629e-01f,+1.03752859e-01f,+3.46235000e-02f,-9.60291771e-04f,
-1.06132969e-01f,+3.91564146e-02f,-2.49695182e-02f,-1.78375751e-01f,-1.22275893e-02f,
+1.75591275e-01f,+1.19028129e-01f,+4.16111723e-02f,+2.00749144e-01f,+2.05241457e-01f,
-3.86307687e-02f,+7.31079131e-02f,-9.59374905e-02f,+2.77353615e-01f,-1.28198043e-01f,
+4.10903841e-02f,+2.93634105e-02f,-3.17287028e-01f,+8.21935683e-02f,-9.17015821e-02f,
+8.75768214e-02f,-3.12866896e-01f,-5.62840551e-02f,+2.10048724e-02f,+6.45533353e-02f,
-8.51848647e-02f,-8.60342830e-02f,+1.15725622e-01f,+2.09392786e-01f,-1.15455076e-01f,
-2.91734010e-01f,-5.71342111e-02f,-9.46586058e-02f,+7.43721053e-02f,+1.01303719e-01f,
+1.38627291e-01f,+1.84611887e-01f,-1.58587798e-01f,+1.12323865e-01f,+3.28723609e-01f,
+2.44248644e-01f,-3.44940543e-01f,-2.01471940e-01f,-1.09663151e-01f,+5.12427129e-02f,
+5.24439849e-02f,+1.20794103e-01f,-5.97094968e-02f,+3.11406739e-02f,+5.55851683e-02f,
+8.33300948e-02f,-1.16236538e-01f,-3.27091306e-01f,-2.19255328e-01f,+7.69970268e-02f,
-6.85759410e-02f,-2.64501095e-01f,+6.90012723e-02f,-4.15129364e-01f,+2.61065140e-02f,
+8.98687392e-02f,+3.14616978e-01f,-4.31081690e-02f,+4.55442891e-02f,-7.60551915e-02f,
-1.74499631e-01f,+5.12223169e-02f,-8.30053762e-02f,-3.68883133e-01f,+2.91063160e-01f,
+1.27787054e-01f,+2.01911658e-01f,+1.93896249e-01f,-1.52347893e-01f,-3.84042621e-01f,
