#include <math.h> 
 #include <string.h> 
#include "k2c_include.h" 
#include "k2c_tensor_include.h" 

 


void poly_128_128(k2c_tensor* dense_82_input_input, k2c_tensor* dense_84_output) { 

float dense_82_output_array[128] = {0}; 
k2c_tensor dense_82_output = {&dense_82_output_array[0],1,128,{128,  1,  1,  1,  1}}; 
float dense_82_kernel_array[128] = {
-1.15623586e-01f,-2.16591313e-01f,-1.13938145e-01f,+5.47182187e-02f,-1.61379799e-01f,
+4.92467582e-02f,+1.49746448e-01f,-1.33577704e-01f,+1.08558796e-01f,-1.13716997e-01f,
-1.70065895e-01f,+1.22600362e-01f,-1.68868855e-01f,-5.77006862e-02f,-2.41501257e-01f,
-1.05959870e-01f,-9.05589759e-02f,+2.47226581e-01f,-4.74086106e-02f,+7.66652375e-02f,
+4.27453779e-02f,+1.11356936e-01f,-8.34407285e-02f,+2.99734566e-02f,-1.52159408e-01f,
-1.70104261e-02f,-7.68132582e-02f,+1.10842869e-01f,+1.48786642e-02f,+1.05699591e-01f,
-1.42545208e-01f,-9.33101103e-02f,+2.19569519e-01f,+1.58744320e-01f,-1.44155011e-01f,
+2.03614712e-01f,+1.98550373e-02f,-6.99442625e-02f,-7.35766590e-02f,-2.54352599e-01f,
+4.78045940e-02f,-3.38339545e-02f,+1.90796003e-01f,-1.61512241e-01f,+1.17248669e-02f,
+1.73904046e-01f,-2.64644951e-01f,-1.62244216e-01f,+6.74843937e-02f,-5.46307042e-02f,
+7.88705945e-02f,-2.28269815e-01f,-6.01810999e-02f,-1.49874836e-01f,+1.41848817e-01f,
+2.03033924e-01f,+1.30720004e-01f,+1.78412959e-01f,+1.64805397e-01f,+1.15609027e-01f,
+1.79903820e-01f,+2.01823890e-01f,-7.99094960e-02f,+1.98348358e-01f,+6.50470331e-02f,
-1.56290635e-01f,+1.22548155e-01f,-1.29961863e-01f,+3.59442271e-02f,-2.02826962e-01f,
+2.39413127e-01f,+6.29427209e-02f,-2.50957310e-01f,-8.07539299e-02f,-1.28588453e-01f,
-5.23064621e-02f,+1.75093710e-01f,-2.15113252e-01f,+2.23725900e-01f,-1.54944435e-01f,
-2.21363679e-01f,-1.46579772e-01f,-4.58605550e-02f,+2.20402300e-01f,-1.41125351e-01f,
+6.51026890e-02f,-1.79075778e-01f,-1.47413120e-01f,-3.90983969e-02f,-1.08014695e-01f,
-1.33516639e-01f,+9.78607088e-02f,+8.16204324e-02f,+6.48416206e-02f,-9.59021822e-02f,
-4.71127555e-02f,+1.05253011e-01f,+9.43657905e-02f,+2.11130589e-01f,-3.95058505e-02f,
+1.95647404e-01f,-2.45201103e-02f,+5.16784601e-02f,+2.01306984e-01f,-2.04482287e-01f,
-9.74905565e-02f,+2.47791156e-01f,+4.09332551e-02f,-2.13882297e-01f,+2.69254353e-02f,
-1.86464638e-01f,-1.90008655e-01f,-9.30908322e-02f,+8.30663294e-02f,-1.32158354e-01f,
-2.23542467e-01f,+5.86582422e-02f,+6.72868639e-02f,+1.48074254e-01f,+1.39927030e-01f,
+4.46011685e-02f,-9.09430534e-02f,-2.52664208e-01f,-1.17746979e-01f,-2.07625121e-01f,
+1.30062371e-01f,+1.80219308e-01f,+1.69235006e-01f,}; 
k2c_tensor dense_82_kernel = {&dense_82_kernel_array[0],2,128,{  1,128,  1,  1,  1}}; 
float dense_82_bias_array[128] = {
+6.25025630e-02f,-2.40373202e-02f,+4.23396602e-02f,+9.69491228e-02f,+1.68067440e-02f,
+9.08601061e-02f,-1.39960730e-02f,+8.06862488e-02f,+1.43708140e-02f,-5.83487786e-02f,
+3.94464545e-02f,+3.76517326e-03f,-2.70277578e-02f,+1.46542802e-01f,-1.39254153e-01f,
+4.50024754e-02f,+2.20957637e-01f,-2.73274574e-02f,+1.26695409e-01f,+2.69088298e-01f,
+7.91318268e-02f,+6.04320951e-02f,-6.07317984e-02f,+1.85611203e-01f,+1.70814376e-02f,
+3.06530725e-02f,+7.96272233e-02f,+3.06361347e-01f,+2.03506932e-01f,+1.97183728e-01f,
+1.60156656e-02f,+5.29303215e-02f,-5.87848388e-02f,-6.76102787e-02f,-1.99514907e-03f,
-2.80709900e-02f,+2.26913780e-01f,+1.91727668e-01f,+1.92373246e-01f,-1.44778803e-01f,
-1.55722315e-03f,+6.05695583e-02f,-1.13123640e-01f,-1.75009649e-02f,+2.68145114e-01f,
-1.24792820e-02f,-1.95004925e-01f,-1.05857618e-01f,+1.24661870e-01f,+7.26993531e-02f,
+9.36002806e-02f,+4.19528000e-02f,+1.57934383e-01f,-7.07359612e-02f,-7.29450881e-02f,
-5.03142104e-02f,-3.02343145e-02f,+1.01183206e-01f,-9.44719240e-02f,-5.53280674e-02f,
-8.04146230e-02f,-2.19497353e-01f,+2.02549458e-01f,-1.98272560e-02f,-2.74873283e-02f,
-8.72139912e-03f,-3.39193307e-02f,+4.35725264e-02f,+6.61348403e-02f,-6.52940273e-02f,
-2.92389486e-02f,+1.16769120e-01f,-1.24131255e-01f,+2.20701694e-01f,+7.03727081e-02f,
+7.06529766e-02f,-1.25046790e-01f,+5.25300652e-02f,-1.40432775e-01f,+6.27110228e-02f,
-4.45515141e-02f,+9.97074991e-02f,+1.16383761e-01f,-7.08009750e-02f,-8.99744406e-02f,
-1.80805735e-02f,-7.34310970e-02f,+1.19247288e-02f,+9.52514783e-02f,+8.88033733e-02f,
-1.98323905e-01f,+1.75186731e-02f,-9.86198038e-02f,+1.60447471e-02f,+2.61501849e-01f,
+1.09673329e-01f,-4.47841808e-02f,-5.78923672e-02f,-8.84762853e-02f,+7.12658465e-02f,
-2.11318862e-02f,+6.08365312e-02f,+4.45301086e-02f,-1.27667673e-02f,+6.25285059e-02f,
-2.80955452e-02f,-9.21122804e-02f,+7.57924840e-02f,+5.65887652e-02f,+7.61786401e-02f,
+5.10541387e-02f,+2.93911994e-03f,+1.19314231e-02f,+1.53326958e-01f,+7.93516729e-03f,
-2.65118420e-01f,+2.05356367e-02f,+1.24321714e-01f,+2.73563951e-01f,-4.60648127e-02f,
+7.30860000e-03f,-1.02506310e-01f,-1.19878329e-01f,+4.28920873e-02f,-1.51312768e-01f,
-1.82729550e-02f,+2.28153300e-02f,-1.04199991e-01f,}; 
k2c_tensor dense_82_bias = {&dense_82_bias_array[0],1,128,{128,  1,  1,  1,  1}}; 
float dense_82_fwork[129] = {0}; 

 
float dense_83_output_array[128] = {0}; 
k2c_tensor dense_83_output = {&dense_83_output_array[0],1,128,{128,  1,  1,  1,  1}}; 
float dense_83_kernel_array[16384] = {
-1.19096830e-01f,+2.91455239e-02f,+1.04229175e-01f,-7.48263672e-02f,+2.67652273e-02f,
-1.01762719e-01f,-1.13216586e-01f,-1.04010865e-01f,+1.34171426e-01f,+5.78936078e-02f,
-6.61569089e-02f,-1.92583147e-02f,-3.09046544e-02f,-3.14209387e-02f,+6.96740896e-02f,
+6.81924000e-02f,+7.93482885e-02f,-1.14435963e-01f,-1.14046238e-01f,-4.02233377e-02f,
+7.02242106e-02f,-1.17202699e-02f,+1.24140717e-01f,-1.41685441e-01f,-6.82629347e-02f,
+6.57037273e-02f,-2.44936645e-02f,-1.03312835e-01f,-9.55814123e-03f,+3.22181098e-02f,
-6.03091978e-02f,-1.51422828e-01f,+1.24886580e-01f,+6.61545545e-02f,-1.12882555e-01f,
-9.28803906e-02f,-7.71305785e-02f,-1.38240770e-01f,+9.87552572e-03f,-4.21714149e-02f,
-2.54822642e-01f,-1.13903888e-01f,+4.77357581e-02f,+2.08472162e-02f,+5.50508350e-02f,
+1.48295537e-01f,-6.91304505e-02f,-1.07060857e-01f,+9.63163972e-02f,-1.38526067e-01f,
-9.11913738e-02f,-1.70414764e-02f,+6.09205514e-02f,+9.23031271e-02f,+6.57280162e-02f,
+1.40365288e-01f,-6.49350956e-02f,-1.30199432e-01f,-7.95639977e-02f,+7.82492086e-02f,
+7.50452206e-02f,-4.26592492e-02f,-1.16885900e-01f,-1.27605617e-01f,+7.16977343e-02f,
+1.29244909e-01f,+5.67132160e-02f,-9.60780382e-02f,-1.40380353e-01f,+1.11653283e-01f,
+3.83965746e-02f,+5.13393655e-02f,-1.03530437e-01f,-8.10310319e-02f,+7.52290636e-02f,
-1.60749555e-02f,+8.44082236e-02f,+1.15404446e-02f,+1.34029150e-01f,-7.55766034e-03f,
-1.11687087e-01f,-2.09051352e-02f,+7.77914524e-02f,-1.22037850e-01f,+1.11277334e-01f,
-8.65603983e-03f,-3.14898267e-02f,+1.57276681e-03f,-3.87782827e-02f,-1.24007516e-01f,
+2.02882737e-02f,+5.98258451e-02f,+1.12543441e-01f,-1.21541701e-01f,-1.34288445e-01f,
-1.47125453e-01f,+1.41318128e-01f,+1.11608386e-01f,-3.68942181e-03f,-9.19645950e-02f,
-1.21531576e-01f,-1.32208616e-02f,+2.32090801e-02f,+5.58590516e-02f,+1.25631973e-01f,
-2.25895084e-02f,-4.29854449e-03f,-9.04357284e-02f,+7.44059756e-02f,+4.28011604e-02f,
-5.26619293e-02f,+1.02392763e-01f,-1.12364136e-01f,-4.67757694e-02f,-1.43594652e-01f,
-1.26054272e-01f,-1.04253151e-01f,+9.11055580e-02f,-1.42003655e-01f,-1.46483183e-01f,
+1.10451527e-01f,+1.38776526e-01f,-7.98301920e-02f,-2.86959782e-02f,-3.05919014e-02f,
-6.53875843e-02f,+6.75460845e-02f,-1.20961271e-01f,-1.37884647e-01f,-6.91439435e-02f,
+1.00326307e-01f,+7.49054477e-02f,+4.71433848e-02f,-1.79676846e-01f,+6.84853643e-03f,
-1.06152929e-01f,+6.95697665e-02f,+2.36885194e-02f,+8.51809829e-02f,+1.14651538e-01f,
+5.64692430e-02f,-1.44241288e-01f,-1.31047770e-01f,-1.88392997e-01f,+4.04461771e-02f,
-4.21843007e-02f,-9.38646197e-02f,-9.94584858e-02f,-7.30827376e-02f,-2.80027688e-02f,
-2.06361577e-01f,+1.75320297e-01f,-1.30325943e-01f,+8.96383598e-02f,-5.89855015e-03f,
-1.45308927e-01f,-9.91730392e-03f,-1.00047067e-01f,-8.89584124e-02f,+1.21525660e-01f,
-1.43843114e-01f,-8.80368799e-02f,-3.04969978e-02f,-9.13323660e-04f,-5.19895591e-02f,
-3.65078449e-03f,-1.22814015e-01f,-4.62450925e-03f,-1.02717414e-01f,+7.21174804e-03f,
-1.89859316e-01f,-1.33292422e-01f,-2.42774040e-02f,+4.05277312e-03f,-7.17592984e-02f,
+1.05027646e-01f,-8.86539072e-02f,+1.29878595e-01f,-1.17140319e-02f,+1.28225870e-02f,
-1.78586543e-02f,+1.41607478e-01f,+5.15725762e-02f,+1.27255037e-01f,-7.50113577e-02f,
+1.49908081e-01f,+9.03084800e-02f,+1.09790392e-01f,+9.90197137e-02f,-1.43700033e-01f,
-2.46431381e-02f,+3.57352197e-03f,+8.47045407e-02f,+4.91042137e-02f,+1.01209238e-01f,
-2.98025906e-02f,-3.84050533e-02f,-1.45378903e-01f,-1.21626958e-01f,+7.28622004e-02f,
+5.01972400e-02f,+2.12098449e-03f,+4.86301817e-02f,+1.53064206e-01f,+3.15728635e-02f,
+1.91382132e-02f,-5.49610630e-02f,-8.75886306e-02f,+3.24171148e-02f,+8.86660591e-02f,
-1.11888297e-01f,+8.30803532e-03f,+4.46933918e-02f,-5.17641678e-02f,+1.23389997e-01f,
-5.89103997e-02f,+5.17344335e-03f,+4.35965955e-02f,+6.86819330e-02f,-7.17975497e-02f,
-3.51876160e-03f,-4.00882848e-02f,+1.84643921e-02f,+1.90353822e-02f,+2.94056535e-02f,
+4.27940898e-02f,-1.84508041e-01f,+2.20463960e-03f,-8.86857510e-03f,+4.50826921e-02f,
+1.30260915e-01f,+3.44154119e-01f,+5.58866858e-02f,-5.91291189e-02f,-1.13015547e-01f,
-1.02169197e-02f,-9.46988538e-02f,+1.43875614e-01f,+1.10677697e-01f,-8.58669803e-02f,
-7.10458234e-02f,+2.72640437e-02f,+2.45740917e-02f,+9.08987001e-02f,-4.95042130e-02f,
-1.07934520e-01f,-1.68034419e-01f,+6.53792024e-02f,-2.38307957e-02f,-1.20193712e-01f,
-1.30999953e-01f,+1.06394187e-01f,-1.51857644e-01f,-5.43164834e-03f,-8.39051008e-02f,
-1.65503360e-02f,-1.53350726e-01f,+1.44841179e-01f,-1.04920678e-01f,-6.01388142e-02f,
+1.20972693e-02f,+2.19283178e-02f,+6.37058169e-02f,+7.52766505e-02f,-1.25396565e-01f,
+3.35534215e-02f,+2.01381296e-02f,-7.07791001e-02f,-1.47305299e-02f,+9.45354402e-02f,
+9.08568967e-03f,-2.18645595e-02f,+7.05513358e-02f,-4.47097793e-02f,-7.67197087e-02f,
-8.35308433e-03f,-1.67251155e-01f,+1.40359551e-02f,+5.37123606e-02f,+1.06744379e-01f,
+9.20924842e-02f,-4.53890078e-02f,-9.45866928e-02f,+6.40059914e-03f,-3.75933871e-02f,
-1.23366602e-01f,-1.38707146e-01f,-9.33361202e-02f,+1.55669525e-01f,-6.07081642e-03f,
-1.08658917e-01f,-1.04252398e-01f,-6.34974167e-02f,-1.62974000e-02f,+8.71383995e-02f,
+6.51130006e-02f,-1.46368772e-01f,-1.67725652e-01f,-2.48887073e-02f,-5.30033186e-02f,
-9.03151780e-02f,+4.17933315e-02f,-1.33281261e-01f,-8.71951506e-02f,-1.83786750e-02f,
+7.11853951e-02f,+1.10496007e-01f,+4.92942296e-02f,+1.28048077e-01f,-1.41148999e-01f,
+1.35752380e-01f,-7.73185715e-02f,-6.68738782e-02f,-1.42087489e-01f,+5.42780049e-02f,
+5.58107421e-02f,+4.79500331e-02f,+7.62772784e-02f,-1.49352059e-01f,+6.35582805e-02f,
+1.12867601e-01f,-1.02289006e-01f,-9.02807191e-02f,+7.18470216e-02f,-1.38604566e-01f,
+5.26160449e-02f,-8.64432007e-03f,-6.67775050e-02f,-1.22512989e-01f,-1.92888069e-03f,
+7.97370896e-02f,-1.01811662e-01f,-6.51534274e-02f,-4.18564603e-02f,+1.25470325e-01f,
-1.15716599e-01f,-9.51636657e-02f,-2.31856089e-02f,+3.19379978e-02f,-6.82607368e-02f,
+5.55389449e-02f,+1.26576558e-01f,+6.33319989e-02f,-1.20584434e-02f,+1.11622244e-01f,
-9.07519311e-02f,+7.29383081e-02f,-8.74934942e-02f,-6.52556168e-03f,+1.92834530e-02f,
+7.76835382e-02f,+3.05337971e-03f,+1.01328894e-01f,+9.33652520e-02f,-5.33953495e-02f,
-6.00599311e-02f,+8.27935785e-02f,-1.07811615e-01f,+2.81810649e-02f,+7.88268149e-02f,
+3.50077190e-02f,-2.66952179e-02f,+1.21602751e-01f,+4.32722457e-02f,-3.43330912e-02f,
+5.27543351e-02f,-1.62859201e-01f,-1.19498692e-01f,+1.51359871e-01f,-8.65666494e-02f,
-3.97756062e-02f,-1.05877563e-01f,-6.85559288e-02f,+5.64382598e-02f,-2.20863279e-02f,
-5.52589595e-02f,-2.22223010e-02f,+2.40527373e-02f,+7.79673606e-02f,-8.66261348e-02f,
+3.51947807e-02f,-5.86920194e-02f,+9.21545699e-02f,-2.33611632e-02f,+1.04447566e-02f,
-8.59770924e-02f,+6.12760931e-02f,+2.69294381e-02f,+7.47524202e-02f,+9.40664262e-02f,
-9.54857022e-02f,-1.06349029e-01f,-1.59531042e-01f,+4.02088203e-02f,-5.02388626e-02f,
-4.80841026e-02f,+4.30911630e-02f,+2.25519370e-02f,-1.37776285e-01f,-9.13761854e-02f,
+1.10088743e-01f,-6.28148988e-02f,-6.69089109e-02f,+2.02868626e-01f,-6.70588836e-02f,
-1.86952353e-02f,-4.56777662e-01f,+1.55552343e-01f,+1.48411438e-01f,-1.19906105e-02f,
+1.89399589e-02f,+3.01411040e-02f,-1.14017740e-01f,-2.81992052e-02f,-1.18401915e-01f,
+1.23262845e-01f,+1.36390284e-01f,+7.00867251e-02f,-3.66082996e-01f,+1.38989114e-03f,
-4.26958352e-02f,+5.85394166e-02f,-1.16763569e-01f,-7.96092302e-02f,+1.70877233e-01f,
+8.75204802e-04f,+4.19614352e-02f,+1.52491450e-01f,+8.59033167e-02f,+4.16872501e-02f,
+4.05598134e-02f,-1.64605290e-01f,+5.27697206e-02f,-5.65136969e-03f,+8.97740722e-02f,
+6.25742152e-02f,-1.05451822e-01f,+8.93889517e-02f,-1.32950783e-01f,+5.07355072e-02f,
-9.38968062e-02f,-6.38172179e-02f,+1.13853693e-01f,-1.07086115e-01f,+5.33821657e-02f,
+8.37367177e-02f,-3.95289958e-02f,+1.25279739e-01f,-1.83535293e-01f,+1.00199603e-01f,
-6.26575947e-02f,-1.77687053e-02f,+1.00389041e-01f,-5.78517541e-02f,-3.38608660e-02f,
-1.26960486e-01f,-8.36725980e-02f,-1.91060901e-02f,+5.65086491e-02f,+1.49681509e-01f,
+8.77341107e-02f,-2.41091490e-01f,-2.44297341e-01f,+3.53913605e-02f,-1.25764325e-01f,
+7.18108341e-02f,-8.85540769e-02f,-1.44627631e-01f,-1.05998591e-02f,-6.20788112e-02f,
-1.21793672e-01f,+1.82603106e-01f,+8.44723452e-03f,+1.21878631e-01f,-6.40884181e-03f,
-6.87859133e-02f,-7.47205317e-02f,-1.33489788e-01f,+3.81817251e-01f,-9.30938050e-02f,
-5.91227040e-02f,+3.70906107e-02f,+8.39166492e-02f,-2.94411201e-02f,+6.94335997e-02f,
-2.72751227e-02f,+1.36297420e-01f,-8.65773112e-02f,-4.61259410e-02f,-4.19842750e-02f,
-1.13130577e-01f,-4.00499910e-01f,+2.70764008e-02f,-2.24680211e-02f,-2.26730213e-01f,
-2.26309150e-01f,+5.83729800e-03f,-1.26586780e-01f,+7.42696002e-02f,+5.93689904e-02f,
+2.84015797e-02f,-1.69639867e-02f,+1.03892647e-01f,+3.84613499e-03f,-1.03422470e-01f,
+1.43932238e-01f,-8.12026635e-02f,+1.92906559e-02f,+4.26800102e-02f,+2.60385782e-01f,
+3.95785682e-02f,+1.10610232e-01f,-1.79853112e-01f,-8.98626819e-02f,+7.97791854e-02f,
+4.13113236e-02f,-1.38790086e-01f,-6.40805438e-02f,+8.36435258e-02f,-1.13173975e-02f,
+1.17225215e-01f,+2.60580890e-02f,+1.36747494e-01f,-5.02855368e-02f,-1.19647600e-01f,
-1.28407851e-01f,-1.71848640e-01f,-4.55658846e-02f,+3.48288268e-02f,-4.92962115e-02f,
-3.06439102e-02f,+9.54989791e-02f,+3.74944136e-02f,+7.89965987e-02f,-8.20950344e-02f,
-7.99183846e-02f,-9.07490551e-02f,+1.12103365e-01f,+1.02469727e-01f,+7.63593167e-02f,
+9.75158811e-03f,+1.08033650e-01f,+7.55164400e-02f,+4.41264957e-02f,-1.50820702e-01f,
-1.33970752e-01f,-4.41121794e-02f,+4.10637110e-02f,-2.14160141e-02f,-1.38779357e-01f,
-7.89456772e-06f,-9.67966858e-03f,-4.43043932e-02f,-3.89018357e-02f,-9.58698690e-02f,
+1.34933397e-01f,+6.92628622e-02f,+6.78106993e-02f,+9.94323045e-02f,+1.00334428e-01f,
+1.05894729e-01f,-2.29220614e-02f,-3.49797606e-02f,+7.09200650e-02f,-1.50893033e-02f,
+1.41371638e-02f,-3.80745530e-02f,-7.13216215e-02f,+1.18019134e-01f,-1.50549054e-01f,
+1.12565063e-01f,-5.66881076e-02f,+6.15837350e-02f,-1.35173574e-01f,+1.40105501e-01f,
-1.10273480e-01f,+9.41899568e-02f,-1.21440619e-01f,+1.16956398e-01f,+7.98343867e-02f,
+5.66158444e-02f,+8.88027251e-02f,+1.25874385e-01f,+1.45951405e-01f,+1.15321018e-01f,
-1.60068914e-01f,+3.31817344e-02f,-2.21241862e-02f,-1.66174868e-04f,-8.17857385e-02f,
+7.34190121e-02f,+8.06878209e-02f,-5.11809364e-02f,+1.04571525e-02f,-2.90874839e-02f,
-1.44349104e-02f,-1.16217602e-02f,-9.19653922e-02f,+1.47041291e-01f,+1.53168980e-02f,
-1.88140348e-01f,+7.49860629e-02f,+5.89510165e-02f,-6.05130941e-02f,-8.32524374e-02f,
-3.27283107e-02f,+8.74291062e-02f,-1.15487948e-01f,-1.40793338e-01f,+1.74408071e-02f,
+5.88945523e-02f,-2.93241180e-02f,+2.18598098e-02f,-5.05322032e-02f,+4.22560163e-02f,
+2.18989432e-01f,+9.22252312e-02f,+3.05214971e-02f,+7.91337788e-02f,-3.46495882e-02f,
-1.27176225e-01f,+1.26865089e-01f,-8.83242413e-02f,+8.20451155e-02f,-1.43814892e-01f,
-1.06193438e-01f,+1.89750164e-03f,-4.84437384e-02f,+8.58185217e-02f,+1.06443249e-01f,
-2.10151747e-01f,+4.53010648e-02f,-1.25274405e-01f,+1.09267898e-01f,-9.06191170e-02f,
-6.74856305e-02f,+7.32174665e-02f,+1.65497493e-02f,-1.30457774e-01f,-1.89673342e-02f,
-1.39180407e-01f,-2.12318427e-03f,+8.55795518e-02f,+4.70166206e-02f,-6.80459887e-02f,
+9.47865695e-02f,+1.78175215e-02f,-9.79217961e-02f,-1.77809387e-01f,-1.02606406e-02f,
+1.02794036e-01f,+8.03599954e-02f,+1.04635641e-01f,+1.15020365e-01f,-1.11661904e-01f,
-1.41874058e-02f,-9.90649536e-02f,+1.19218513e-01f,+1.34892479e-01f,+1.36554822e-01f,
+8.62312764e-02f,-2.58752108e-02f,-4.62252229e-01f,-1.08164243e-01f,+6.43082410e-02f,
+1.08904310e-01f,+1.28054440e-01f,+5.56662753e-02f,+8.14965069e-02f,-1.76335499e-02f,
+7.76565298e-02f,+8.39168057e-02f,-1.26855701e-01f,-6.08822778e-02f,-1.32292688e-01f,
-5.73192351e-02f,+4.28000093e-02f,+6.47444576e-02f,-1.73077849e-03f,-2.04423070e-02f,
-2.64524966e-02f,-1.14222400e-01f,-1.25032291e-01f,-8.48989785e-02f,+8.12092870e-02f,
-1.33843243e-01f,+1.96176782e-01f,-2.46129394e-01f,-1.47836015e-01f,-1.32326961e-01f,
+1.20369010e-01f,+1.01014040e-01f,+3.30940858e-02f,-5.16808033e-02f,-4.52320799e-02f,
-9.43564996e-03f,+1.24445900e-01f,-5.82682490e-02f,-7.46218339e-02f,-1.33464903e-01f,
-2.18037469e-03f,+1.23938464e-01f,-4.03049588e-03f,-8.43685716e-02f,-1.90526053e-01f,
+1.80869266e-01f,-3.11060548e-02f,-4.34918515e-02f,+5.10460772e-02f,-2.02154871e-02f,
+1.29685923e-01f,+1.29500464e-01f,+7.31583834e-02f,+8.44229758e-02f,+1.21564068e-01f,
-3.11064459e-02f,+1.13034904e-01f,-1.71779603e-01f,-2.64800131e-01f,-5.61106578e-02f,
+8.13272893e-02f,-9.62963235e-03f,-1.47394583e-01f,-5.94478063e-02f,+1.34613237e-03f,
-2.78189927e-02f,-3.14692594e-02f,+1.63895756e-01f,+1.24219790e-01f,-7.80449575e-03f,
-7.79178515e-02f,+1.60347134e-01f,-2.60933161e-01f,+7.24296570e-02f,+1.98669896e-01f,
+1.28423885e-01f,+2.94125229e-02f,+3.43024754e-03f,+7.19553456e-02f,+3.35320756e-02f,
+8.08575526e-02f,-3.97958793e-02f,+9.46621746e-02f,+1.15452200e-01f,+7.83803612e-02f,
-8.67259037e-03f,-2.89798021e-01f,-2.98157364e-01f,+1.47338659e-01f,+6.78388849e-02f,
-3.23238671e-01f,-1.49588764e-01f,+1.57623425e-01f,-3.42820995e-02f,+5.76229161e-03f,
-9.56933647e-02f,-3.18307104e-03f,-6.67627603e-02f,-9.54716578e-02f,-1.51500270e-01f,
+1.15977719e-01f,-3.69395614e-02f,+1.06355086e-01f,-1.10990793e-01f,-3.63407023e-02f,
+2.26804703e-01f,-9.33244303e-02f,+6.26278594e-02f,+5.71457334e-02f,-1.27233997e-01f,
+6.14214987e-02f,-1.18801460e-01f,-5.58379330e-02f,-7.16850236e-02f,-1.12401746e-01f,
-1.30448028e-01f,+5.37593709e-03f,-1.01064704e-01f,-7.12888762e-02f,-1.37803704e-01f,
-1.21027172e-01f,+8.34810063e-02f,-2.03376170e-02f,+8.83828327e-02f,-1.28732622e-01f,
+1.23377003e-01f,+1.43411696e-01f,-7.40441382e-02f,-1.17867336e-01f,-1.15669854e-01f,
-1.72849461e-01f,+1.11175170e-02f,+5.17870113e-02f,+8.47144797e-02f,-1.22049108e-01f,
+1.32809449e-02f,-1.18197352e-01f,+8.04558098e-02f,+1.45323321e-01f,-1.52698368e-01f,
-1.02851158e-02f,+1.62906811e-01f,-1.94664538e-01f,+6.31601363e-02f,-3.14238854e-02f,
-4.34391610e-02f,+1.16620921e-01f,-2.33992115e-02f,-6.56957030e-02f,-8.89016688e-02f,
+5.10731824e-02f,-1.14485510e-01f,-5.10177016e-02f,+2.83613801e-02f,-3.33328545e-02f,
-1.72126651e-01f,+7.69675523e-02f,+6.59056008e-03f,-2.74879802e-02f,-6.93373829e-02f,
+5.49296662e-03f,-8.46484303e-03f,-1.39430523e-01f,-1.39276013e-01f,+5.08895814e-02f,
-8.36113393e-02f,+1.05113648e-01f,-8.98617506e-03f,+1.53126642e-01f,-1.32206663e-01f,
-1.39090091e-01f,-1.59868389e-01f,-1.07251957e-01f,+9.42922756e-02f,-1.05532855e-02f,
-7.18528852e-02f,-1.24637596e-01f,+8.08516666e-02f,-1.45001069e-01f,-7.08954334e-02f,
-1.49530977e-01f,+3.85163724e-02f,-7.52419755e-02f,+4.82412428e-02f,-1.18801869e-01f,
+1.18871152e-01f,+2.26234421e-02f,+5.80714792e-02f,-5.26832119e-02f,-6.21401593e-02f,
-1.45320386e-01f,-5.78993447e-02f,+1.09532528e-01f,+6.85776025e-02f,-8.71309638e-03f,
-1.94139794e-01f,+3.07881348e-02f,+4.29806523e-02f,+7.46633634e-02f,-1.69532951e-02f,
-7.20659718e-02f,-1.45772710e-01f,-4.86865379e-02f,+1.72167882e-01f,+3.30201350e-02f,
+7.43936375e-02f,+3.37175764e-02f,+4.52814475e-02f,+1.34497598e-01f,-1.65792599e-01f,
+7.70389810e-02f,+5.12782447e-02f,+6.19123727e-02f,+3.75432037e-02f,-1.83646113e-01f,
-3.36452611e-02f,+9.11394060e-02f,+7.63232633e-02f,-1.25750959e-01f,-2.01954797e-01f,
-6.04048297e-02f,-1.37218893e-01f,-1.35184586e-01f,-2.63616107e-02f,+6.96414411e-02f,
+1.11375116e-01f,+9.79273468e-02f,-7.38309100e-02f,-6.15746132e-04f,+9.79840606e-02f,
+7.41542205e-02f,+1.21339737e-02f,-8.89425427e-02f,-9.13537666e-02f,-1.26449903e-03f,
+9.79519635e-02f,-9.32206437e-02f,+1.05314925e-01f,+7.16987182e-04f,+2.74593811e-02f,
-8.67401138e-02f,-1.20185263e-01f,-1.49490118e-01f,-6.33443817e-02f,-9.21109170e-02f,
+2.58103497e-02f,+1.29759327e-01f,+1.21163853e-01f,+7.26735964e-02f,-2.14083083e-02f,
-6.38866127e-02f,+5.37937097e-02f,+9.24787968e-02f,+5.90235852e-02f,-1.36887431e-02f,
+1.20022073e-01f,-2.25342773e-02f,+2.66850740e-02f,-2.84235477e-02f,-7.92593062e-02f,
-7.87424818e-02f,+1.10539004e-01f,-9.16018113e-02f,+1.15900964e-01f,+1.40981957e-01f,
+2.36562006e-02f,-8.44355859e-03f,-3.73751894e-02f,+9.00988728e-02f,+1.21786132e-01f,
+1.34734690e-01f,-6.12087399e-02f,-1.00628808e-01f,-6.17704168e-02f,-3.86590138e-02f,
+3.99257131e-02f,-1.35570168e-01f,+1.26868427e-01f,-5.16667403e-02f,+8.52623135e-02f,
-3.48270386e-02f,-2.72037834e-02f,-4.65230905e-02f,-1.47646874e-01f,-5.35571724e-02f,
+5.99232242e-02f,+9.98525694e-02f,-4.39554900e-02f,-1.15075521e-01f,-2.52170265e-02f,
-9.99813229e-02f,-9.62237641e-02f,+1.10186070e-01f,-1.45482734e-01f,+6.20372035e-02f,
-9.52054635e-02f,+5.30346818e-02f,+9.45274979e-02f,+1.08355984e-01f,+1.19169995e-01f,
+1.11816183e-01f,+8.93029571e-03f,-4.32335436e-02f,-7.73062930e-02f,+1.28829153e-02f,
+3.92410159e-02f,+1.39478371e-01f,+2.38440325e-03f,+5.52180856e-02f,-6.06441796e-02f,
-7.74178142e-03f,+8.43789577e-02f,-3.13358828e-02f,-9.12279859e-02f,-5.26590571e-02f,
-1.50729805e-01f,-5.81113063e-02f,-6.24664687e-02f,+7.79469237e-02f,+1.66155115e-01f,
+1.53906241e-01f,-9.16233510e-02f,-6.59725517e-02f,+1.24992304e-01f,+1.26063630e-01f,
+9.21905339e-02f,-1.28223568e-01f,-1.48746744e-01f,+3.74517553e-02f,+1.84138715e-02f,
+1.39070943e-01f,-5.19572571e-02f,+7.59782493e-02f,+1.19570494e-01f,-1.53680876e-01f,
+2.50398386e-02f,-7.49566406e-02f,+8.24597180e-02f,-4.47792672e-02f,+2.43982956e-01f,
+7.01758862e-02f,-2.80223377e-02f,+2.13413909e-02f,+7.35817775e-02f,-3.82095277e-02f,
-3.33690681e-02f,-7.54959062e-02f,+9.77966413e-02f,-5.73872179e-02f,-1.59683242e-01f,
+4.63143140e-02f,-1.27532318e-01f,-6.79778904e-02f,-8.81001726e-02f,+2.97741946e-02f,
+1.16975605e-02f,+1.20905645e-01f,-9.34919491e-02f,-1.18100584e-01f,-1.08316988e-01f,
-1.10226795e-02f,+5.99998757e-02f,-2.90845633e-02f,+7.28546903e-02f,+1.42062590e-01f,
+1.29413351e-01f,-5.95664345e-02f,+4.40249890e-02f,+2.34805457e-02f,-2.63529480e-04f,
-1.19944900e-01f,+1.16727695e-01f,+5.66231571e-02f,+1.02705725e-01f,-9.94291753e-02f,
-5.38842157e-02f,+5.48670143e-02f,+1.03081577e-01f,-9.09216702e-02f,+7.65640114e-04f,
+1.60822440e-02f,+3.38537432e-02f,-1.16018362e-01f,+7.85449892e-02f,-1.36409298e-01f,
-1.51619703e-01f,+1.13133490e-01f,-7.39759803e-02f,-9.21053216e-02f,-1.23802885e-01f,
+7.93147311e-02f,-1.51057392e-01f,+8.09253752e-02f,-9.59452149e-03f,-3.94891277e-02f,
-2.03729868e-02f,-1.37564301e-01f,+4.85649705e-02f,-5.49547493e-01f,-1.37790084e-01f,
+1.82599146e-02f,-7.17737526e-02f,-4.83276658e-02f,-2.16273993e-01f,+1.13405868e-01f,
-9.08348709e-02f,+5.81267998e-02f,+9.46025252e-02f,-8.50055963e-02f,+5.69345802e-02f,
+1.22279122e-01f,+7.17360154e-02f,+9.31233317e-02f,-9.38157737e-03f,-1.67821974e-01f,
-5.59664965e-02f,-4.77781855e-02f,-9.81638283e-02f,+6.93643987e-02f,+7.30975568e-02f,
+6.56239688e-02f,-9.53262821e-02f,+1.17951445e-01f,-1.92686588e-01f,+1.03268363e-02f,
+1.51077375e-01f,+4.69984859e-02f,+8.73259306e-02f,-1.47075012e-01f,+9.04044956e-02f,
-2.04690099e-02f,-6.41647428e-02f,-3.79635990e-02f,+4.98691387e-02f,+1.37371510e-01f,
-1.09393425e-01f,-9.14574936e-02f,-1.49597377e-01f,-1.49687290e-01f,+1.26949906e-01f,
+9.25843325e-03f,+2.25836858e-01f,-1.08057931e-01f,-5.45659289e-02f,-1.37326136e-01f,
-3.13939042e-02f,+4.66564000e-02f,-1.23949796e-01f,+1.34477541e-01f,-7.53409937e-02f,
+3.14893434e-03f,+9.42234918e-02f,+1.50643602e-01f,-7.15513229e-02f,+4.01709005e-02f,
+2.15628892e-02f,+8.49696472e-02f,+2.31770910e-02f,-2.21108153e-01f,-7.15648979e-02f,
+6.92347018e-03f,+2.76057199e-02f,+1.35979548e-01f,+1.59947619e-01f,-1.06355458e-01f,
-1.76951736e-01f,+3.66884880e-02f,+2.79450491e-02f,+1.29592821e-01f,+1.11846142e-01f,
-1.18154638e-01f,-3.70715827e-01f,-1.38074651e-01f,-1.01530232e-01f,-2.15423688e-01f,
-2.39544004e-01f,-2.21647192e-02f,-1.15285227e-02f,-1.76111534e-01f,-5.73631302e-02f,
+1.07392557e-01f,-2.58903131e-02f,+8.55107382e-02f,-6.24150876e-03f,+2.32139323e-02f,
+9.94381458e-02f,-1.38994097e-03f,-1.26807973e-01f,-4.62942608e-02f,-2.00713336e-01f,
+1.03927895e-01f,-1.72473509e-02f,-1.58220649e-01f,-5.72864711e-03f,+7.59746954e-02f,
+7.51883909e-02f,-1.00843817e-01f,-6.81893528e-02f,-4.77262139e-02f,+7.15880394e-02f,
+9.74810347e-02f,-1.51122883e-01f,-1.32267788e-01f,+1.11008525e-01f,-9.22317281e-02f,
-1.17253050e-01f,-1.39864936e-01f,-1.71839848e-01f,-1.34269431e-01f,-6.14963355e-04f,
-2.22196355e-01f,-2.14526206e-02f,-1.21472150e-01f,+1.04164943e-01f,-2.30542526e-01f,
-3.80476058e-01f,+7.55792260e-02f,+7.09275203e-03f,+9.77707058e-02f,+9.98859853e-02f,
-7.05033243e-02f,-9.23288390e-02f,+7.74600580e-02f,-1.11627743e-01f,-9.07354802e-02f,
-1.06736526e-01f,+5.74195534e-02f,-1.31225109e-01f,-3.40163112e-01f,-1.28978103e-01f,
-1.30125452e-02f,-8.62192884e-02f,+1.04647800e-01f,-5.94701506e-02f,-5.69463558e-02f,
+1.76302344e-02f,+9.61343795e-02f,-3.65648866e-02f,-4.47212160e-03f,-6.88026026e-02f,
+3.60927582e-02f,+8.13205093e-02f,-2.17319086e-01f,-1.26535326e-01f,-9.99802202e-02f,
-1.45015121e-03f,+1.24046326e-01f,-5.27285412e-02f,-1.59431934e-01f,+8.11168253e-02f,
+3.98945436e-02f,+1.48461582e-02f,-4.27080467e-02f,+1.65743418e-02f,-1.13430053e-01f,
+5.87058216e-02f,-6.39839247e-02f,+5.53489327e-02f,-7.72438049e-02f,-4.76212427e-02f,
-1.65679559e-01f,+1.81378126e-02f,-2.11892053e-02f,+3.74050736e-02f,-4.02970947e-02f,
+1.26700521e-01f,-5.18424325e-02f,+6.71656728e-02f,-1.85117602e-01f,+9.68674421e-02f,
+9.22601819e-02f,-5.61073348e-02f,+1.08117476e-01f,+1.48142213e-02f,-1.28435090e-01f,
-4.43576455e-01f,+6.31485805e-02f,+7.29518980e-02f,+8.32611024e-02f,-3.03431511e-01f,
-5.30312955e-02f,+5.16447537e-02f,+8.68317261e-02f,+1.22573972e-02f,-4.25583459e-02f,
-1.46119716e-03f,-8.67279619e-02f,-1.10163130e-01f,-1.43682480e-01f,-8.25300068e-02f,
-7.70066828e-02f,-1.02050029e-01f,-9.51476991e-02f,-4.55504566e-01f,+6.30116016e-02f,
+2.57164150e-01f,+8.85713026e-02f,-1.52938202e-01f,-1.57920450e-01f,-8.84597972e-02f,
+6.70930510e-03f,-1.40485568e-02f,-1.40107647e-01f,+7.44192824e-02f,+5.29734194e-02f,
+1.16765499e-04f,-1.98065609e-01f,-6.03421917e-03f,-1.83118954e-01f,+1.10729344e-01f,
-8.80689174e-02f,+1.41639844e-01f,-1.53820306e-01f,+1.01387680e-01f,+9.05883461e-02f,
+5.87697327e-03f,+7.67032504e-02f,+1.22645564e-01f,-1.43032685e-01f,-2.27887128e-02f,
-2.88095940e-02f,+8.12750161e-02f,-1.69227663e-02f,+1.24053098e-01f,-1.01016909e-02f,
+4.71422747e-02f,-1.96828675e-02f,-9.19542313e-02f,-5.09835929e-02f,-2.15077214e-02f,
-7.25273788e-03f,+6.53331205e-02f,+9.66099501e-02f,-5.50722256e-02f,-8.72919783e-02f,
-5.19527979e-02f,+4.78561670e-02f,+5.25033213e-02f,-1.62553385e-01f,-1.39972195e-01f,
-1.09773099e-01f,-3.48493382e-02f,+2.11397465e-02f,-9.31258604e-04f,-1.69824660e-02f,
+1.22259498e-01f,-6.95886612e-02f,+6.51266575e-02f,-1.11709177e-01f,+1.09746009e-01f,
+1.25566632e-01f,-1.43936232e-01f,+3.26907411e-02f,+3.86442728e-02f,+9.13033485e-02f,
-4.53015566e-02f,-1.99115843e-01f,-1.00469694e-01f,-1.01004943e-01f,+1.15836293e-01f,
+4.62318957e-02f,-6.80097118e-02f,-1.80907264e-01f,-2.20980495e-02f,+1.51723370e-01f,
-7.53170475e-02f,+1.06626734e-01f,+1.37988208e-02f,+2.58696526e-02f,-4.66069691e-02f,
+8.37535858e-02f,-1.71494678e-01f,+2.43300200e-03f,-1.25100672e-01f,-2.80116815e-02f,
+1.33426055e-01f,+8.06643888e-02f,+1.42363757e-02f,+7.64282122e-02f,+1.28395870e-01f,
-1.12017125e-01f,-1.27354667e-01f,-1.14999384e-01f,-7.93079436e-02f,-7.13265017e-02f,
-1.37173429e-01f,+1.26349092e-01f,+5.36964983e-02f,+8.68128613e-02f,+8.13032985e-02f,
+1.14397340e-01f,+6.59431592e-02f,+1.29509568e-01f,-6.99254572e-02f,-1.14456333e-01f,
-2.04843432e-02f,-1.50602743e-01f,+1.33266225e-01f,-6.30734265e-02f,-1.49323702e-01f,
+9.64124426e-02f,+1.35030568e-01f,+8.83882642e-02f,-2.13990763e-01f,-7.15457648e-02f,
-7.60184750e-02f,+5.41888997e-02f,+6.41490743e-02f,-1.29762590e-01f,-1.17104843e-01f,
+8.17230493e-02f,+1.22773752e-01f,-1.24654047e-01f,+3.33771035e-02f,+2.73964107e-02f,
-1.19941346e-02f,+3.25683653e-02f,-1.48061082e-01f,+1.10043511e-01f,+5.06556407e-03f,
-6.29414916e-02f,-7.40416273e-02f,-1.15141168e-01f,+2.43350446e-01f,+1.32659867e-01f,
+1.40270740e-02f,-7.51269534e-02f,+1.19472414e-01f,-7.82933757e-02f,+1.52463734e-01f,
+5.85950166e-02f,+6.63149655e-02f,-1.02339491e-01f,+8.37108940e-02f,-1.50778294e-01f,
-2.36184485e-02f,+1.29401861e-02f,+8.87036100e-02f,+5.19126803e-02f,-1.19425476e-01f,
+3.98243777e-03f,+1.67815778e-02f,+9.81152505e-02f,-3.47575769e-02f,-5.12112118e-02f,
+9.62418783e-03f,+1.28806233e-02f,+4.41522487e-02f,-1.69906486e-02f,-7.02832937e-02f,
+2.64509991e-02f,-6.14025369e-02f,-5.80475964e-02f,-8.36915001e-02f,+1.34564579e-01f,
-2.82227830e-03f,+5.61187156e-02f,-1.52107969e-01f,+7.72968531e-02f,-5.67484945e-02f,
+3.25863957e-02f,+7.38512948e-02f,-4.08726558e-02f,-6.77715838e-02f,-7.77806789e-02f,
+9.99627337e-02f,-3.29020619e-02f,-1.48010120e-01f,-4.01434265e-02f,+9.27907377e-02f,
-1.34334162e-01f,+6.50883019e-02f,+7.62008429e-02f,-6.88480437e-02f,+7.09851757e-02f,
+1.13404378e-01f,+5.13009131e-02f,+5.54994829e-02f,+2.96383016e-02f,+1.27554476e-01f,
-2.76128408e-02f,+4.52976450e-02f,-4.36470538e-01f,+4.27267551e-02f,+6.32527098e-02f,
+5.86581267e-02f,+3.02543808e-02f,-1.11930646e-01f,+1.28212765e-01f,+7.70541728e-02f,
+1.96722344e-01f,-8.27892348e-02f,-1.41984224e-01f,-6.70820102e-02f,+1.95251219e-02f,
-1.42237663e-01f,-1.19731560e-01f,+3.24544162e-02f,-3.82359140e-02f,-3.50275710e-02f,
+8.31007883e-02f,-1.46565586e-02f,-2.06347853e-02f,+7.65752420e-02f,-4.96804416e-02f,
+3.18297893e-02f,+6.50397316e-02f,-5.01901023e-02f,+4.62661535e-02f,-1.10785313e-01f,
+1.07305750e-01f,+8.28631222e-02f,+2.35390384e-02f,+3.34622189e-02f,+1.28466934e-02f,
-1.14240274e-01f,-1.38480887e-01f,-4.11273427e-02f,-8.62943754e-02f,-1.37225688e-01f,
+1.37389004e-01f,-1.94932520e-02f,-9.93552059e-02f,-1.32715464e-01f,-5.69343083e-02f,
-1.05970977e-02f,-1.98124111e-01f,-1.26527369e-01f,+2.42743790e-02f,+6.77967668e-02f,
-1.50078267e-01f,-1.29212543e-01f,-6.66680336e-02f,-8.80874991e-02f,+8.55646282e-02f,
-2.06242025e-01f,+1.93660632e-02f,-3.15740593e-02f,-7.83316384e-04f,-8.15330932e-05f,
-1.40223563e-01f,+7.81225413e-02f,-4.01099212e-02f,+9.32811797e-02f,+4.10111174e-02f,
-1.13786317e-01f,+1.01855688e-01f,+2.46967003e-02f,-1.00235820e-01f,+1.35510713e-02f,
-3.24715674e-02f,-3.81016843e-02f,-1.91042274e-02f,-8.93664267e-03f,-8.87009501e-02f,
-5.01034319e-01f,-2.22532842e-02f,-1.37246370e-01f,+5.75561859e-02f,-1.59963533e-01f,
+4.37582582e-02f,-1.00954644e-01f,-1.43515229e-01f,-2.93734437e-03f,+1.19414739e-01f,
-1.81790963e-01f,+2.83547714e-02f,-6.76134676e-02f,-7.64985159e-02f,+1.10756651e-01f,
+1.19397677e-01f,-8.24462399e-02f,-8.28159451e-02f,-7.35798627e-02f,+3.62302060e-03f,
+1.65194660e-01f,-1.92232564e-01f,-1.40547514e-01f,-1.31541982e-01f,+3.26066464e-02f,
-1.17140263e-01f,-1.95235133e-01f,-1.31837413e-01f,-9.25331116e-02f,-1.11598514e-01f,
-5.55096311e-04f,+1.22340336e-01f,+7.09661841e-02f,-5.91483414e-02f,-6.69592619e-03f,
-1.34567752e-01f,-1.66572884e-01f,+1.18600860e-01f,-1.56342342e-01f,+8.06420818e-02f,
-1.26595467e-01f,+5.48271947e-02f,-1.30490631e-01f,-6.67408481e-02f,+1.39018223e-01f,
+8.46460015e-02f,+8.69371444e-02f,-1.07667103e-01f,+7.90835768e-02f,-7.67665803e-02f,
-1.36091411e-01f,+4.73134629e-02f,-5.09909838e-02f,+1.25555888e-01f,-1.41055480e-01f,
+7.69625455e-02f,-2.34963670e-01f,+1.36690572e-01f,-1.10552043e-01f,-4.58157398e-02f,
+9.69319195e-02f,+2.11957246e-02f,+1.28499925e-01f,+3.33921388e-02f,-1.71801150e-02f,
+1.02768257e-01f,+1.15458712e-01f,+1.28041357e-02f,-1.50347307e-01f,-1.50482580e-01f,
+2.47957930e-02f,-1.39739543e-01f,-1.85292497e-01f,-1.04506478e-01f,+9.60999131e-02f,
-3.93284112e-02f,-3.40938941e-02f,-1.30651951e-01f,+6.12310916e-02f,+3.34348828e-02f,
-4.75641675e-02f,-1.48951277e-01f,+4.61588167e-02f,-1.28412664e-01f,-2.38583535e-02f,
-1.48514286e-01f,+5.33712059e-02f,-3.82953361e-02f,+1.00785092e-01f,-1.00065015e-01f,
+5.90408146e-02f,+4.23827134e-02f,+9.65478178e-03f,-1.66482240e-01f,+8.29737410e-02f,
+8.27270821e-02f,+5.40397018e-02f,-1.70843005e-02f,+3.52417454e-02f,-1.53053015e-01f,
+4.01464812e-02f,-9.71177816e-02f,+1.36724025e-01f,+3.86582166e-02f,-2.78090220e-02f,
+3.83819230e-02f,+1.39483377e-01f,+1.65031537e-01f,-2.37263992e-01f,-1.01884231e-01f,
-1.55039817e-01f,+6.46321625e-02f,+7.27667063e-02f,-1.83086127e-01f,-1.35146216e-01f,
-2.02707812e-01f,-9.22812298e-02f,-1.46413684e-01f,-6.46364912e-02f,-4.13699634e-02f,
-1.50369257e-01f,-5.24863973e-02f,+3.46428193e-02f,+8.92742053e-02f,+3.84042740e-01f,
-8.06492865e-02f,+1.34400085e-01f,-7.54518509e-02f,-1.25375584e-01f,-9.19453520e-03f,
+7.30991811e-02f,-3.41544300e-02f,+8.93288404e-02f,+9.23032016e-02f,+8.17232728e-02f,
-6.66743219e-02f,+1.03924416e-01f,-5.22396713e-02f,+1.28764525e-01f,-9.03542936e-02f,
-1.01556480e-02f,+4.96349372e-02f,-9.66832042e-02f,-8.93390551e-02f,+2.06819922e-02f,
+1.33461043e-01f,+1.54127534e-02f,-1.38691843e-01f,+5.09863254e-03f,+4.78265770e-02f,
-1.10928364e-01f,-7.30885118e-02f,+8.27862918e-02f,-2.08515301e-02f,+1.29878610e-01f,
-4.71552424e-02f,-1.45813912e-01f,+2.98499390e-02f,+2.52889469e-02f,-6.89941123e-02f,
-1.44729793e-01f,+1.01190098e-01f,+6.55352399e-02f,-7.16836005e-02f,+1.33549690e-01f,
+7.02584758e-02f,+6.74612895e-02f,-2.05023959e-02f,-2.44677842e-01f,-2.36611776e-02f,
+9.63222384e-02f,+1.74861789e-01f,+9.85391065e-02f,-2.23071337e-01f,-1.30248949e-01f,
-1.00702673e-01f,-2.26103514e-01f,+1.36807710e-02f,+1.11241862e-01f,-1.01989418e-01f,
-1.23719558e-01f,+7.65387714e-02f,-8.05365480e-03f,-1.63561478e-02f,+1.11494139e-01f,
+2.25774691e-01f,-4.14189026e-02f,-9.99685302e-02f,-8.86469148e-03f,+8.36587846e-02f,
+4.69356999e-02f,+1.52462766e-01f,+1.13196999e-01f,+1.46135941e-01f,-4.42453027e-02f,
+2.17682853e-01f,+3.04802191e-02f,-8.72391239e-02f,+4.97071743e-02f,-6.06113113e-03f,
+5.05896881e-02f,-8.10047016e-02f,-1.23771280e-02f,-8.74752626e-02f,-1.62033617e-01f,
+1.10848226e-01f,+8.99801254e-02f,+1.25176683e-01f,+8.46585035e-02f,+6.32083565e-02f,
+1.23181887e-01f,+9.96392816e-02f,-8.15252736e-02f,+1.02351472e-01f,-4.52807546e-01f,
-6.49100915e-02f,+1.15280285e-01f,+9.76004899e-02f,-6.59886599e-02f,+2.37293188e-02f,
+1.62984282e-01f,+5.88735985e-03f,+2.77759619e-02f,-1.48918420e-01f,-1.61968023e-01f,
-3.47272828e-02f,-9.72400233e-02f,-9.89389643e-02f,-4.52869348e-02f,-1.27956361e-01f,
-1.04709864e-01f,+3.30497101e-02f,+2.16600567e-01f,+2.55485866e-02f,+1.21122196e-01f,
+6.34137988e-02f,+1.20716535e-01f,+1.61543161e-01f,+4.20036539e-02f,+1.61150452e-02f,
+7.19072521e-02f,-1.15980722e-01f,-9.01477113e-02f,-5.36542200e-02f,+9.92432833e-02f,
-2.89153844e-01f,+1.01048760e-01f,-7.27971420e-02f,+8.87420923e-02f,-2.09969863e-01f,
+1.61920667e-01f,+8.31361562e-02f,-1.45372555e-01f,-5.03575914e-02f,-9.07664001e-02f,
+2.61364342e-03f,+3.66439787e-03f,+3.74917202e-02f,+3.37279774e-02f,-2.60920878e-02f,
+3.91916409e-02f,-1.63826406e-01f,-2.59779841e-02f,+2.19047114e-01f,+8.74870941e-02f,
-6.01501241e-02f,-1.00877404e-01f,+5.09131923e-02f,+9.24894214e-02f,+8.06843862e-02f,
-4.99516688e-02f,-1.96835101e-01f,+5.99884093e-02f,-8.82572308e-02f,+2.08876561e-02f,
-1.37669250e-01f,+1.29332483e-01f,-1.32867679e-01f,-1.14677548e-02f,-3.95733528e-02f,
+9.33533758e-02f,+2.30401605e-02f,-4.47189203e-03f,+6.07514344e-02f,-1.01850398e-01f,
+4.87950779e-02f,+9.77654457e-02f,+1.23800978e-01f,+1.60500109e-02f,+2.58902088e-02f,
+5.37234992e-02f,-2.27204740e-01f,-9.45251435e-02f,-8.74394327e-02f,-1.64083257e-01f,
-2.18220621e-01f,-2.52061933e-02f,-6.32111430e-02f,+1.29089907e-01f,-3.83013487e-01f,
-4.08989877e-01f,+9.99778956e-02f,-5.81391864e-02f,-1.49031773e-01f,+2.92700529e-02f,
-1.24112107e-01f,-1.45449802e-01f,-9.18615609e-02f,+1.48055449e-01f,-1.02620006e-01f,
+3.30875777e-02f,+1.15507044e-01f,-5.30119836e-01f,-5.58956921e-01f,+7.49792308e-02f,
-1.18578829e-01f,-2.85430923e-02f,-3.04338336e-03f,+5.72943240e-02f,-2.28530928e-01f,
-1.49602264e-01f,-6.59179091e-02f,-1.45236984e-01f,+1.27251551e-01f,-8.46382678e-02f,
-6.96512610e-02f,+1.67214070e-02f,-1.26548037e-01f,-1.98579207e-01f,-2.46878862e-02f,
-5.25454953e-02f,+2.50319093e-02f,-1.27852142e-01f,+3.28184702e-02f,+9.21094418e-03f,
+3.66089642e-02f,-6.79201856e-02f,-1.38851358e-02f,-1.84707776e-01f,+4.74202782e-02f,
-7.17825443e-02f,+1.86450779e-02f,-9.90268365e-02f,+1.01210050e-01f,+2.76814401e-03f,
-1.60020329e-02f,-1.06039226e-01f,-6.63365200e-02f,-1.22502275e-01f,+6.61010249e-03f,
-1.50755018e-01f,-1.25376731e-01f,+5.51690161e-02f,-1.90499142e-01f,+2.88897082e-02f,
-3.15913782e-02f,+6.87055886e-02f,-7.93395415e-02f,-1.57813340e-01f,-7.14403158e-03f,
-4.57314342e-01f,+4.11927886e-02f,+3.86433899e-02f,+1.94608510e-01f,-3.36505145e-01f,
-3.53405960e-02f,+7.31148645e-02f,+3.72026153e-02f,-1.36182070e-01f,+5.34859002e-02f,
+1.31046042e-01f,-2.83848763e-01f,+2.36514583e-02f,+7.22958893e-02f,-1.64684296e-01f,
-1.11598931e-01f,-7.95094445e-02f,-3.43977585e-02f,-5.03267109e-01f,+4.05238979e-02f,
+4.58803624e-01f,-1.08543336e-02f,+6.29588962e-04f,+4.57723401e-02f,-1.04379237e-01f,
-1.29762203e-01f,-1.43650934e-01f,+9.99546330e-03f,+1.34883165e-01f,+7.10400641e-02f,
+2.41807550e-02f,-2.67819047e-01f,-1.09576195e-01f,+7.56979138e-02f,-1.14022613e-01f,
-2.08316058e-01f,+7.70942867e-02f,+1.23967223e-01f,+9.21095759e-02f,-5.18734157e-02f,
-9.64086801e-02f,-1.72863945e-01f,-1.34437725e-01f,-5.67344688e-02f,-2.05920249e-01f,
+5.70102446e-02f,+1.20674923e-01f,-6.89756945e-02f,-9.65901464e-02f,-1.25682160e-01f,
-5.61354272e-02f,+8.47432539e-02f,+1.16877355e-01f,+1.02392361e-01f,+1.34362310e-01f,
+1.22226790e-01f,-1.67939469e-01f,-1.29606932e-01f,+2.88214982e-02f,-1.40943214e-01f,
+1.05793588e-01f,-1.47962764e-01f,+1.13570414e-01f,-5.47995828e-02f,+3.36601287e-02f,
-1.03920199e-01f,+8.52774084e-02f,+6.63973987e-02f,-1.03766263e-01f,+1.00394338e-02f,
-6.51276782e-02f,+1.35883138e-01f,+5.24260141e-02f,+1.39103696e-01f,-1.65830791e-01f,
+6.60402030e-02f,-3.31343338e-02f,+7.29339942e-03f,-1.14304751e-01f,+4.02498916e-02f,
+8.87469854e-03f,+2.22245101e-02f,-8.04093480e-03f,-1.34225875e-01f,+1.13638267e-01f,
-1.05228744e-01f,-9.84479673e-03f,-5.21976836e-02f,+5.88054955e-03f,-9.97235179e-02f,
-3.69129479e-02f,-9.31574851e-02f,+9.04283673e-02f,-1.39877290e-01f,-1.66394249e-01f,
-6.19500037e-03f,+8.70036706e-03f,+1.18488297e-01f,+1.36680856e-01f,-1.36795089e-01f,
-4.46100831e-02f,+1.99635886e-02f,-6.13069534e-03f,-9.42575112e-02f,-3.62409800e-02f,
-7.89492279e-02f,+5.92229934e-03f,+9.29327160e-02f,+5.36872894e-02f,+6.40010312e-02f,
-8.29365849e-02f,-2.07099691e-02f,+4.74462323e-02f,+3.56780253e-02f,-1.16256192e-01f,
-1.00529000e-01f,-2.36596130e-02f,+1.06553681e-01f,+9.73340943e-02f,-1.27980486e-01f,
-7.53054023e-03f,-1.39185160e-01f,-1.33953661e-01f,+1.16074175e-01f,-2.11722739e-02f,
-5.44095337e-02f,-6.17558956e-02f,+4.16793302e-02f,-1.88596919e-03f,+8.34440514e-02f,
-1.41977727e-01f,-5.95816188e-02f,-9.58686545e-02f,+1.06773883e-01f,-1.17177077e-01f,
-5.72783761e-02f,+1.51459143e-01f,-8.41482431e-02f,+5.38419969e-02f,-8.97658058e-03f,
+5.00185937e-02f,+1.29601434e-01f,-1.12272218e-01f,-1.24490209e-01f,+1.03470050e-01f,
-1.11893252e-01f,+4.14473489e-02f,+5.80294281e-02f,+1.56652570e-01f,+3.86954774e-03f,
-6.75846040e-02f,+5.04457131e-02f,+1.48590177e-01f,-5.87920658e-02f,+8.64886269e-02f,
-1.58365861e-01f,-4.49832343e-03f,-1.38460279e-01f,+4.64675799e-02f,-1.21741414e-01f,
-1.57744661e-01f,-4.99088094e-02f,+7.34602846e-03f,+1.93740204e-02f,-9.55714732e-02f,
+4.95935865e-02f,+2.66391747e-02f,-2.96253860e-02f,-1.28376976e-01f,+7.91757274e-03f,
-1.21854708e-01f,+1.06455065e-01f,+2.71632336e-02f,+1.45840123e-01f,-1.86875135e-01f,
+1.86158136e-01f,+5.41734770e-02f,-3.53787243e-01f,+3.20633024e-01f,+6.89178929e-02f,
+4.12027836e-02f,-1.24574136e-02f,+3.89524139e-02f,-2.00018734e-02f,-3.87706347e-02f,
+1.12113640e-01f,-2.72410542e-01f,+3.84899586e-01f,+2.63544858e-01f,+9.62744281e-02f,
+2.66498297e-01f,+1.78417325e-01f,-2.65253574e-01f,+3.24261822e-02f,+7.71163553e-02f,
+3.75533372e-01f,+1.97459552e-02f,-3.69872302e-01f,+9.30683613e-02f,-4.10075635e-01f,
-3.76975656e-01f,-9.87337083e-02f,+8.11561123e-02f,+8.02611783e-02f,-4.31126684e-01f,
-1.54965762e-02f,+2.37760067e-01f,+1.78140804e-01f,+1.66148946e-01f,+9.71750543e-02f,
+4.34122235e-02f,+9.63853225e-02f,+1.60908818e-01f,-3.40159535e-01f,-1.65274367e-01f,
+3.20019513e-01f,-4.52795178e-01f,-1.36715055e-01f,-1.20586328e-01f,-3.58979672e-01f,
+1.58252060e-01f,+1.22028694e-01f,-1.58475161e-01f,+1.17498688e-01f,+1.98260561e-01f,
-1.09055519e-01f,+5.16186506e-02f,+7.96630532e-02f,-2.98332006e-01f,+1.18309431e-01f,
-2.02645853e-01f,-1.45515934e-01f,+2.42161565e-02f,-6.38580844e-02f,+2.97448635e-01f,
-1.95851177e-02f,-3.25950176e-01f,+8.24522041e-03f,-4.63433206e-01f,+5.14721759e-02f,
-1.16411299e-02f,-9.53920484e-02f,-2.48119101e-01f,+1.36118643e-02f,-7.62519389e-02f,
-1.22852251e-02f,-1.43806025e-01f,+2.80057490e-02f,-2.42772862e-01f,+3.15530866e-01f,
+3.70991230e-02f,+1.44666713e-02f,+6.04691133e-02f,-6.26293197e-02f,-9.39727724e-02f,
-1.46172926e-01f,+2.06163093e-01f,+9.05218869e-02f,-6.72646165e-02f,-1.25120088e-01f,
+2.19891332e-02f,+1.55943722e-01f,-5.25867268e-02f,+3.37896682e-02f,-3.23554933e-01f,
+1.10576980e-01f,+5.69203869e-02f,+2.22573012e-01f,+1.81193173e-01f,-4.62445050e-01f,
-5.53949028e-02f,+2.24309206e-01f,+1.88883960e-01f,-2.64028102e-01f,+1.92373514e-01f,
-1.39806941e-01f,-2.33206153e-01f,+1.08136855e-01f,-1.44943416e-01f,+1.01153791e-01f,
+5.05145825e-02f,+1.18027188e-01f,-3.51495482e-02f,+1.62101820e-01f,+4.96762358e-02f,
-3.57725471e-01f,+8.01605582e-02f,+1.82107702e-01f,-1.61118135e-01f,+2.02988148e-01f,
+5.15954420e-02f,+1.57820299e-01f,+4.04907018e-02f,-6.35654479e-02f,-1.65352583e-01f,
-3.46182376e-01f,+5.09254634e-03f,+1.22160785e-01f,+6.09650798e-02f,+1.01099759e-01f,
+1.26004636e-01f,+5.48941642e-02f,+1.22941382e-01f,+1.85701877e-01f,-7.61250183e-02f,
-5.91099113e-02f,-5.39305359e-02f,+9.21959430e-02f,-3.38265859e-02f,+9.63829532e-02f,
+9.60866436e-02f,+6.92878962e-02f,+9.45586264e-02f,+9.86914486e-02f,-2.63124723e-02f,
+1.28571838e-01f,+1.14638731e-01f,-1.12631969e-01f,+7.86778051e-03f,+3.10030729e-02f,
-8.20603669e-02f,+1.30325198e-01f,-2.16298997e-02f,-1.09331600e-01f,+4.02030945e-02f,
+1.08464463e-02f,-4.72628549e-02f,+6.88141286e-02f,+1.39414713e-01f,-2.24331617e-02f,
-2.21542045e-02f,+1.63082927e-01f,+7.15816068e-03f,-8.79925936e-02f,+1.38519093e-01f,
-1.69328541e-01f,-1.13104440e-01f,+5.55338189e-02f,+5.65499701e-02f,-8.99995267e-02f,
+9.93245468e-02f,-1.10544406e-01f,+9.91185158e-02f,-1.52198169e-02f,-5.44722378e-02f,
-1.00589670e-01f,-2.49633193e-03f,-8.48268420e-02f,-2.91561373e-02f,-8.88119563e-02f,
-1.27143264e-01f,-1.20759003e-01f,-2.17154101e-02f,-1.17126822e-01f,-1.16758287e-01f,
-1.45944834e-01f,+8.23595822e-02f,-3.72364521e-02f,+1.29763782e-01f,+1.33557752e-01f,
-4.84424345e-02f,+3.72020453e-02f,+1.45755649e-01f,-1.18235752e-01f,-1.62206650e-01f,
+1.20289877e-01f,-8.50250274e-02f,+8.27982426e-02f,+1.32053658e-01f,-4.22223397e-02f,
-2.38487106e-02f,+1.22105308e-01f,-8.44748467e-02f,-5.66537352e-03f,-1.31601915e-01f,
-1.04644991e-01f,-6.21673018e-02f,+1.59475505e-01f,+1.01979643e-01f,+7.63092050e-03f,
+1.11284032e-01f,+1.50279552e-02f,+1.11077219e-01f,-3.52166370e-02f,-6.99641109e-02f,
-9.12481323e-02f,+4.07515317e-02f,+2.13162571e-01f,-1.95162356e-01f,-6.51422963e-02f,
+1.30879372e-01f,-1.20341897e-01f,+1.32689610e-01f,+6.61461204e-02f,+2.52832286e-02f,
-1.25689551e-01f,-6.21756800e-02f,-1.27188250e-01f,-6.77630231e-02f,-1.36640016e-02f,
+9.38430801e-02f,+9.38641429e-02f,-9.10618454e-02f,+1.21070802e-01f,+8.50849040e-03f,
-3.17192227e-02f,+1.78797953e-02f,+3.84638784e-03f,-1.89603865e-02f,+5.39862104e-02f,
-5.89492172e-02f,+9.12174955e-03f,-8.20675418e-02f,-1.09956469e-02f,+3.62509787e-02f,
-1.20751038e-02f,-4.86851558e-02f,-1.15489207e-01f,-6.29505888e-02f,-1.00935124e-01f,
-4.22091819e-02f,+6.71990439e-02f,-1.00230649e-01f,+6.74717221e-03f,+1.11029774e-01f,
+1.27861843e-01f,-1.05301276e-01f,+1.22345962e-01f,+7.74586946e-03f,+2.77394652e-01f,
-2.99540371e-01f,+2.96465129e-01f,+2.61374060e-02f,-3.16319644e-01f,+3.09745342e-01f,
+1.19842906e-02f,-8.64410922e-02f,+6.92531690e-02f,+1.79267675e-01f,+1.77251697e-02f,
-1.13225086e-02f,-1.38549060e-01f,-1.95312783e-01f,+3.25164109e-01f,+1.22649506e-01f,
+1.28702924e-01f,+4.94413599e-02f,+1.02814808e-01f,-2.55863816e-01f,+3.02000403e-01f,
-8.44523981e-02f,+4.84421611e-01f,+1.52751118e-01f,-3.27508837e-01f,+8.26603770e-02f,
-4.26971823e-01f,-9.65202972e-02f,-1.07643411e-01f,+1.63628846e-01f,-1.14187598e-01f,
-3.93539727e-01f,-5.37141748e-02f,+7.51367882e-02f,+1.56099454e-01f,+1.52471527e-01f,
-4.38650846e-02f,-9.80645493e-02f,+1.83798268e-01f,+2.12668553e-01f,-4.23199981e-01f,
-1.60511345e-01f,+3.20157826e-01f,-3.39751244e-01f,-1.50146306e-01f,+5.61346710e-02f,
-4.37694997e-01f,+2.25287631e-01f,+2.91097164e-03f,+8.18782151e-02f,+1.48892358e-01f,
+6.48418367e-02f,-1.49372861e-01f,-1.15364239e-01f,+5.70555292e-02f,-2.91631430e-01f,
+2.66816821e-02f,-2.23845601e-01f,-1.46714812e-02f,-2.59347516e-03f,-2.84123123e-02f,
+8.84202272e-02f,-1.44469738e-02f,-3.50825697e-01f,+5.81693128e-02f,-1.75320625e-01f,
-6.51099756e-02f,+1.31662622e-01f,+9.05416831e-02f,-2.67973214e-01f,+1.36074170e-01f,
-3.41516212e-02f,+9.19328332e-02f,-6.23756601e-03f,-1.68402761e-01f,-2.35335156e-01f,
+3.29377383e-01f,-1.29701003e-01f,+7.31596127e-02f,+5.68993650e-02f,-1.26119629e-01f,
+9.11775306e-02f,+4.26414385e-02f,-2.38195453e-02f,-1.59415454e-02f,-1.34288371e-02f,
+1.56012713e-03f,+1.34805292e-01f,+3.08534592e-01f,+1.16082393e-01f,+1.07433856e-01f,
-3.60105693e-01f,-2.16068421e-02f,+8.13742206e-02f,+5.83079737e-03f,-3.55051979e-02f,
-2.74528891e-01f,+1.38660342e-01f,+3.22072729e-02f,+1.70854062e-01f,-2.65747488e-01f,
+1.11250699e-01f,+1.57589495e-01f,-4.58983630e-02f,-1.08239211e-01f,+6.63788319e-02f,
+2.26991788e-01f,+2.36932978e-01f,+3.33415228e-04f,+1.18763968e-01f,+2.63541102e-01f,
+2.17294112e-01f,-2.75021136e-01f,-1.55819058e-01f,+6.68502674e-02f,+8.38284120e-02f,
+2.75104105e-01f,+2.41034031e-02f,+1.14152141e-01f,-2.64359936e-02f,+9.10471678e-02f,
-1.22920804e-01f,-3.98070812e-01f,-4.02310900e-02f,+1.93797782e-01f,-5.77555820e-02f,
+2.74220675e-01f,+1.62938535e-01f,-8.75542462e-02f,+8.47416446e-02f,-1.59519404e-01f,
+1.24500766e-01f,+1.55227602e-01f,-2.17690364e-01f,-1.23317756e-01f,-9.62856710e-02f,
-1.31552547e-01f,+2.39885926e-01f,+3.75224650e-02f,+1.99674070e-03f,+7.49226883e-02f,
+1.29379258e-01f,-2.12793186e-01f,+3.62125896e-02f,+2.37042792e-02f,+5.75168207e-02f,
-6.77890405e-02f,+2.95853794e-01f,+6.14663325e-02f,-1.18558079e-01f,+9.76165608e-02f,
-1.07535861e-01f,+4.66334634e-02f,+1.00279592e-01f,+2.27504000e-01f,+1.35181934e-01f,
+9.36098397e-02f,-4.12864015e-02f,+3.24578360e-02f,+7.90723637e-02f,+3.14443782e-02f,
-1.19322367e-01f,+7.00872615e-02f,+1.11166567e-01f,+2.35362481e-02f,-1.48950547e-01f,
-2.17686251e-01f,+1.62115425e-01f,+4.50944528e-02f,-3.84742469e-02f,+5.92641309e-02f,
+2.64083296e-01f,-1.08876944e-01f,-5.88976294e-02f,+1.94249060e-02f,-3.70114297e-02f,
-1.08295158e-01f,-1.07017905e-01f,+2.73813456e-01f,-1.16463326e-01f,-7.58708715e-02f,
+6.57761395e-02f,-1.08597271e-01f,+8.13585222e-02f,-1.43949687e-02f,+8.33112448e-02f,
-3.30438584e-01f,+1.77363276e-01f,+1.22980447e-02f,-1.27581926e-02f,-1.22799955e-01f,
-3.25535331e-03f,+3.33350934e-02f,-1.47272530e-03f,-9.24932212e-02f,-1.02163389e-01f,
+4.41342629e-02f,+1.65165916e-01f,+6.13587014e-02f,+1.49957627e-01f,-2.86828745e-02f,
-6.35851501e-03f,+8.43959954e-03f,+7.95516446e-02f,-1.07921161e-01f,-1.92565709e-01f,
+1.41084790e-01f,-1.26936242e-01f,+1.42672285e-01f,+2.63496250e-01f,+2.78116167e-02f,
-4.33325656e-02f,+2.78773550e-02f,-1.22699000e-01f,-2.09878191e-01f,+3.28081638e-01f,
-1.49250463e-01f,-1.89842552e-01f,+9.57756490e-02f,+2.00041935e-01f,-1.70066115e-02f,
-3.20510454e-02f,+2.00494677e-01f,-1.94738373e-01f,+7.05687925e-02f,+6.54312819e-02f,
-1.94202706e-01f,-1.31055191e-01f,+8.00391883e-02f,+1.48957120e-02f,-2.13053167e-01f,
-2.35440254e-01f,+7.65790790e-02f,+9.36456770e-02f,-5.16320281e-02f,+3.07593107e-01f,
+1.51184667e-02f,+1.45850514e-04f,+2.01923251e-01f,+7.88698122e-02f,+2.75440842e-01f,
-2.97852475e-02f,+1.73101008e-01f,+2.33942959e-02f,-1.10042334e-01f,+9.94468927e-02f,
-3.40103023e-02f,+1.48024648e-01f,+2.40854815e-01f,+6.85333014e-02f,+1.73182040e-01f,
-1.25417118e-05f,+2.61971913e-02f,+4.18638080e-01f,-4.68945540e-02f,-6.19894192e-02f,
-3.01038772e-02f,+1.67264715e-01f,+1.06134124e-01f,+3.89482826e-02f,+1.30737826e-01f,
+4.94223647e-02f,-1.71007305e-01f,+3.16370726e-02f,-1.12882651e-01f,-1.77629720e-02f,
+1.27246425e-01f,-7.17047602e-02f,-6.48457482e-02f,+1.40807107e-01f,-6.85842633e-02f,
+8.35615993e-02f,+6.74815029e-02f,-6.78765178e-02f,-1.12166584e-01f,+1.50754362e-01f,
-1.62133843e-01f,+1.97975188e-02f,-2.46245220e-01f,-8.93093646e-03f,+8.33597854e-02f,
-8.13489705e-02f,+1.81500651e-02f,+3.63699198e-02f,-1.37303546e-01f,-1.39467388e-01f,
-1.63202450e-01f,+1.56295404e-01f,-4.56115091e-03f,+3.21752578e-02f,-5.19062936e-01f,
+1.38878793e-01f,-1.39916912e-01f,+1.12262689e-01f,-1.48002297e-01f,-3.94978553e-01f,
+5.31011522e-02f,-1.14531994e-01f,-2.02491544e-02f,+1.36431186e-02f,+2.88856775e-02f,
-7.77991340e-02f,-4.73986985e-03f,-2.41134152e-01f,-1.61933303e-02f,+1.31614789e-01f,
+1.49195611e-01f,-1.01600140e-01f,+6.64874613e-02f,-1.20815769e-01f,+1.13910660e-01f,
+7.59713426e-02f,+1.15083084e-01f,+9.00856033e-02f,-1.94186151e-01f,-3.70279342e-01f,
-8.69554467e-03f,+7.08242208e-02f,-7.88690671e-02f,+1.58292249e-01f,-1.35812521e-01f,
+3.21787558e-02f,-8.02150890e-02f,-2.44495422e-02f,-1.20702341e-01f,-3.68749797e-02f,
+3.92210670e-02f,+1.77664831e-01f,+4.25045080e-02f,-1.47538364e-01f,-7.46372715e-02f,
+1.33655459e-01f,-1.76666770e-02f,-8.24993849e-02f,-2.06146479e-01f,+1.24216869e-01f,
+4.34331745e-02f,-5.09810112e-02f,-8.71403888e-02f,+6.28823563e-02f,+1.82186976e-01f,
+8.91250521e-02f,-1.95451766e-01f,+1.85470313e-01f,+1.01397194e-01f,+5.69802374e-02f,
+2.08019745e-02f,+5.02824038e-03f,-3.69327180e-02f,+4.84861918e-02f,+2.68495567e-02f,
+6.97753727e-02f,+9.28988457e-02f,+1.50366068e-01f,-1.63125351e-01f,-1.81870416e-01f,
+1.34050101e-01f,-2.60283537e-02f,-1.55143872e-01f,+4.28277217e-02f,-2.69856453e-02f,
+5.92869520e-03f,-3.51074189e-01f,-2.47913867e-01f,+1.45341322e-01f,+6.44959062e-02f,
-2.84273654e-01f,-1.60690397e-01f,+1.45906359e-01f,+1.16979733e-01f,+6.85413368e-03f,
+1.57840084e-02f,+4.62127142e-02f,+1.65492818e-01f,-9.54959318e-02f,-3.42477411e-02f,
+6.17871732e-02f,-3.18479612e-02f,+2.79182717e-02f,-1.01612844e-01f,-1.66132912e-01f,
+2.21834570e-01f,+5.24002500e-02f,-2.31386442e-02f,-1.49386972e-01f,+1.38174936e-01f,
-3.49246934e-02f,+9.28346813e-03f,-6.01684228e-02f,+8.88585597e-02f,-6.47601932e-02f,
-5.25521450e-02f,+1.38001040e-01f,+1.45681441e-01f,+1.42301902e-01f,-4.66736257e-02f,
-1.20868251e-01f,-3.12726498e-02f,-7.83057585e-02f,-3.04686986e-02f,+1.25515461e-01f,
-5.83715998e-02f,+1.40184671e-01f,+1.55655876e-01f,+1.12775035e-01f,-1.34875849e-01f,
-1.82451978e-01f,-6.07100166e-02f,+3.64782773e-02f,-7.90917724e-02f,-1.11960724e-01f,
-7.33598927e-03f,+9.39761549e-02f,-1.18579134e-01f,-2.41823364e-02f,+6.90685883e-02f,
+9.42292809e-02f,+1.05683677e-01f,-1.08839393e-01f,+1.15738340e-01f,+6.08922765e-02f,
+3.04731838e-02f,+1.03062443e-01f,-2.50593424e-02f,+8.46568048e-02f,-1.37239084e-01f,
-9.56025049e-02f,+3.38807851e-02f,-1.37644604e-01f,+4.30588275e-02f,+8.68765637e-04f,
-4.57709618e-02f,-9.65814292e-02f,+2.73740292e-03f,+5.93776815e-02f,-2.74259578e-02f,
-1.09338745e-01f,-1.13267809e-01f,+1.50067151e-01f,+4.55948301e-02f,+2.13432312e-02f,
-5.34767061e-02f,+4.90822643e-02f,-2.24708781e-01f,+1.02219112e-01f,+1.49122104e-01f,
+7.37990439e-02f,+1.46793395e-01f,-1.09997593e-01f,+9.85222161e-02f,-1.01787314e-01f,
+8.48410949e-02f,-1.18173167e-01f,-3.04646268e-02f,+4.48679738e-02f,-6.61103353e-02f,
+1.05113201e-02f,-1.07092038e-01f,-1.00809662e-02f,+1.01400003e-01f,+1.13271199e-01f,
-1.06105715e-01f,-1.42034814e-01f,-6.48024604e-02f,-1.34644359e-02f,-7.77892694e-02f,
-9.33486074e-02f,+1.02397963e-01f,-9.93854031e-02f,-9.72883999e-02f,-5.58287613e-02f,
-7.42848888e-02f,-5.22901155e-02f,+1.02964453e-01f,+1.03111248e-02f,-1.48662028e-03f,
-1.93763122e-01f,-1.13750413e-01f,-8.75583589e-02f,+8.08125809e-02f,-3.83494310e-02f,
+9.32312906e-02f,-8.17727521e-02f,+1.00432169e-02f,-1.76135655e-02f,-9.41577852e-02f,
-1.36093907e-02f,-1.49061829e-01f,+8.07407200e-02f,+9.02374685e-02f,-3.70156765e-02f,
-2.01418325e-01f,-1.09983839e-01f,-1.37307271e-01f,-2.26521924e-01f,-4.31260392e-02f,
-7.48163015e-02f,+1.28153667e-01f,+6.54937476e-02f,-7.75078982e-02f,+1.60289496e-01f,
-1.59385055e-02f,-1.11633532e-01f,+1.14217885e-01f,-9.13572535e-02f,+4.20141220e-02f,
-8.11090842e-02f,-7.30781555e-02f,-2.68417988e-02f,-1.10899217e-01f,+5.52806742e-02f,
+2.82931142e-02f,-1.48182865e-02f,-4.50266600e-02f,-1.16850972e-01f,-5.30007621e-03f,
-1.02306783e-01f,-2.41262406e-01f,+8.93319398e-02f,+1.78083777e-04f,+1.18432097e-01f,
-1.38646048e-02f,-1.07822925e-01f,+4.10031974e-02f,-1.50939822e-01f,+8.81625712e-02f,
-2.68706262e-01f,-2.03830466e-01f,-2.40986347e-02f,-2.91435681e-02f,-1.79202363e-01f,
+4.85752523e-03f,-8.05338100e-02f,-5.70705384e-02f,-3.52716774e-01f,-1.32449076e-01f,
-7.03552365e-02f,-1.60803124e-01f,-2.63990611e-02f,-1.46846831e-01f,-1.47798389e-01f,
-4.67874147e-02f,+1.24872714e-01f,-1.17686853e-01f,+4.55515720e-02f,-1.47345766e-01f,
-1.47428393e-01f,-6.60242736e-01f,-9.03001279e-02f,-5.87176830e-02f,-7.63668939e-02f,
-1.08835593e-01f,-1.12234056e-03f,-3.25636379e-02f,-1.09959036e-01f,-2.00088918e-02f,
-1.46957099e-01f,-7.53205493e-02f,+1.33304074e-01f,-9.12223570e-03f,-1.17529869e-01f,
-7.92668853e-03f,-2.19247088e-01f,-1.08219273e-01f,+2.94822305e-02f,+9.28327888e-02f,
-1.45064265e-01f,+3.80086154e-02f,+4.54289466e-02f,-1.38670042e-01f,+1.07636951e-01f,
+2.24652514e-02f,-3.85197736e-02f,-1.81367576e-01f,-9.35770273e-02f,+8.05352628e-02f,
+4.55077812e-02f,+1.25915185e-01f,+4.57750186e-02f,-1.40513420e-01f,+1.00042693e-01f,
-1.06930450e-01f,+2.09923461e-02f,+1.37540838e-02f,-1.33669972e-01f,-8.99517350e-03f,
+1.12937987e-01f,-1.20001853e-01f,+3.88227366e-02f,+3.32294032e-03f,+2.34158598e-02f,
-1.22308232e-01f,+1.44491017e-01f,+1.15063665e-02f,+3.56714875e-02f,-2.29534954e-02f,
-9.17018205e-02f,-1.27118081e-01f,+1.64278388e-01f,-2.43405893e-01f,-1.14406474e-01f,
-1.33108739e-02f,+1.74704436e-02f,-9.56782326e-02f,-4.52909917e-02f,-6.06129915e-02f,
-2.05495000e-01f,-1.17357656e-01f,+9.13454592e-03f,+1.07643574e-01f,-1.86772630e-01f,
-4.27679084e-02f,-4.13130224e-02f,-1.03989124e-01f,+1.82500053e-02f,+4.79016244e-01f,
+1.19794488e-01f,+6.99931532e-02f,-9.02214646e-02f,-5.74486293e-02f,-3.91085595e-02f,
-1.62127957e-01f,-5.78019619e-02f,+4.75217737e-02f,-1.72766596e-02f,-1.26819551e-01f,
-4.00725633e-01f,+1.23216927e-01f,-1.87430680e-01f,-7.79446661e-02f,-6.63740560e-02f,
+1.33800045e-01f,-1.82403803e-01f,-1.19906463e-01f,-4.42068651e-02f,-8.85698497e-02f,
+1.17541797e-01f,-1.00767806e-01f,+1.09136492e-01f,-1.94401398e-01f,-7.09684342e-02f,
-1.80487242e-02f,-9.92759988e-02f,-9.99360606e-02f,+2.19251513e-02f,+3.11787389e-02f,
-7.28377625e-02f,+2.81712078e-02f,+1.77009462e-03f,+1.00906268e-01f,+2.64981389e-03f,
+8.43510032e-02f,+2.56601870e-02f,+1.36315271e-01f,-3.22670750e-02f,+2.28709765e-02f,
-9.15875435e-02f,+3.29626747e-03f,+1.04637817e-01f,+1.49873778e-01f,+3.50865461e-02f,
-3.63948643e-02f,+1.35267079e-01f,+1.55017495e-01f,+1.02027744e-01f,-9.39955711e-02f,
+1.47784919e-01f,+1.26694128e-01f,-3.45952809e-03f,+5.90515770e-02f,-1.59107640e-01f,
+2.58202180e-02f,+1.58085302e-01f,+1.18280292e-01f,+1.37412116e-01f,-4.81549166e-02f,
-4.54178527e-02f,+3.08965370e-02f,-1.56391650e-01f,+2.18457162e-01f,+2.38570213e-01f,
-5.28883412e-02f,-1.31224602e-01f,+7.83650726e-02f,+3.01450044e-02f,-6.66194782e-02f,
-5.28376810e-02f,+1.50826737e-01f,-8.77748355e-02f,-3.96471098e-02f,+1.88837364e-01f,
-4.53826822e-02f,-2.30753310e-02f,-2.77147740e-02f,-1.13201253e-02f,-4.72698174e-03f,
-3.91298309e-02f,-3.10535226e-02f,-1.41080439e-01f,+1.73004195e-01f,-4.72345687e-02f,
+2.55427789e-02f,+1.59941465e-02f,+1.70472234e-01f,+1.41183466e-01f,+1.65759936e-01f,
-1.42896801e-01f,+1.09055862e-01f,-1.09103143e-01f,+8.64757150e-02f,+1.98299870e-01f,
+1.37347028e-01f,+1.35125041e-01f,-4.49363217e-02f,-8.91704187e-02f,+1.36253998e-01f,
-1.72158778e-01f,-2.77469069e-01f,+1.45980492e-01f,-1.59955025e-03f,-6.69415221e-02f,
+1.54004499e-01f,-2.88085490e-02f,-1.15277320e-01f,-5.84982987e-03f,-1.49874672e-01f,
-9.32245627e-02f,+1.21276781e-01f,-7.03872964e-02f,+1.06935434e-01f,+1.89617977e-01f,
+4.15637381e-02f,+1.65929332e-01f,-1.51554838e-01f,+1.45960033e-01f,-1.32924318e-01f,
-4.89110127e-02f,-5.01656048e-02f,-9.55760628e-02f,+3.16718593e-02f,+8.25081319e-02f,
+1.74078420e-02f,+6.75569028e-02f,-2.52975672e-01f,+5.36422580e-02f,-7.85728544e-03f,
+1.71939805e-02f,+1.31283477e-01f,+1.28502995e-01f,+8.45507085e-02f,+2.46409848e-01f,
+1.77111790e-01f,+1.16828933e-01f,-9.39663500e-02f,+6.23993278e-02f,+8.51525739e-02f,
+3.57425697e-02f,+2.08887324e-01f,+7.93649927e-02f,+1.42256141e-01f,-4.14154539e-03f,
-1.00845024e-01f,-2.34154016e-02f,+8.52096826e-03f,-1.23125300e-01f,+2.33505026e-01f,
-2.23432500e-02f,-9.24808681e-02f,-1.00458935e-01f,-5.02136797e-02f,-1.58578709e-01f,
-3.11457124e-02f,-5.99046052e-03f,-6.79286011e-03f,-1.47008672e-01f,-1.08808108e-01f,
-5.14414683e-02f,+5.44189550e-02f,-1.39219299e-01f,-1.21191420e-01f,+1.10923357e-01f,
-9.54478979e-04f,-1.16763562e-01f,-8.53170455e-02f,-9.43251327e-02f,-1.04482800e-01f,
+6.01557419e-02f,+9.70847458e-02f,+1.08951896e-01f,-1.06324695e-01f,+4.66387831e-02f,
+1.43876169e-02f,+3.12957168e-02f,+8.31076428e-02f,+2.24684179e-02f,-4.01293784e-02f,
-1.02468483e-01f,-3.68390530e-02f,+6.56133890e-02f,-1.21747546e-01f,-7.66401663e-02f,
-9.59992632e-02f,-2.68282704e-02f,+1.06312834e-01f,-4.26080003e-02f,+2.19970942e-02f,
-1.58025190e-01f,-8.96111801e-02f,+5.43895960e-02f,+5.22808135e-02f,-6.48635998e-02f,
-2.72700638e-02f,-1.07774779e-01f,-6.40478507e-02f,+8.19222331e-02f,-1.02214612e-01f,
+1.65355653e-02f,+1.26568645e-01f,+4.00511064e-02f,-1.59733117e-01f,+7.97829181e-02f,
+1.01466492e-01f,+8.64936132e-03f,-1.18403867e-01f,-3.16025876e-02f,-9.13754106e-04f,
-3.12197395e-02f,+4.39511091e-02f,-5.66392019e-02f,-1.56904355e-01f,-8.89378041e-02f,
-2.94793099e-02f,+1.49291039e-01f,-1.15626454e-01f,-1.11387238e-01f,-1.19187012e-01f,
-1.59992322e-01f,-1.11796886e-01f,-1.35229751e-01f,+5.74316569e-02f,-4.99376766e-02f,
+8.23521987e-03f,-1.27382904e-01f,+1.19225129e-01f,-1.25917718e-01f,+1.12534769e-01f,
+8.07795674e-02f,+8.40410665e-02f,+1.04497530e-01f,+2.75299270e-02f,+2.87195425e-02f,
+1.33619215e-02f,-3.34751308e-02f,-1.48015022e-01f,+1.07069701e-01f,+5.63835055e-02f,
-6.79874420e-02f,+1.27110302e-01f,-1.01320490e-01f,-5.63335642e-02f,+1.01324864e-01f,
-1.06175274e-01f,+1.20441549e-01f,-1.03145495e-01f,-8.00554752e-02f,-1.93806738e-02f,
+1.03859119e-01f,-1.61372870e-01f,-1.16593711e-01f,-1.63414434e-01f,-1.28194064e-01f,
+1.55358985e-01f,+2.75555830e-02f,-6.71918020e-02f,-4.06350233e-02f,-1.27377167e-01f,
-4.99664694e-02f,+9.16698277e-02f,-1.27074406e-01f,+4.49963063e-02f,+6.98805153e-02f,
-3.69008705e-02f,+1.11326408e-02f,+1.47622218e-02f,+6.67925850e-02f,+4.18122634e-02f,
+3.81958671e-02f,+4.91876900e-03f,+1.85418483e-02f,-7.65015408e-02f,+6.21900260e-02f,
+3.86536866e-02f,+1.07463449e-01f,+8.87939557e-02f,-8.32936764e-02f,-1.69630185e-01f,
-8.25623497e-02f,-2.54799902e-01f,-1.50391549e-01f,+1.00624538e-03f,+1.15453273e-01f,
-1.10517785e-01f,-4.17905413e-02f,+6.00126833e-02f,-2.79700868e-02f,+8.13938603e-02f,
-3.79863158e-02f,+1.20855831e-01f,-5.89232408e-02f,-1.12334199e-01f,+7.77491182e-02f,
-9.56262276e-02f,+1.27057899e-02f,-1.51394740e-01f,-6.92269355e-02f,-2.62924284e-01f,
+8.84186253e-02f,+5.56610525e-03f,+1.32572249e-01f,-8.78213421e-02f,+1.03593590e-02f,
-1.22295283e-01f,-4.09605354e-02f,-2.70883828e-01f,-1.00926310e-01f,-9.07010064e-02f,
+9.08551887e-02f,-4.52634282e-02f,+8.22999552e-02f,+8.36269706e-02f,+5.85490242e-02f,
+1.78913116e-01f,+7.50917569e-02f,+9.52697545e-02f,-9.32591110e-02f,-5.96531853e-03f,
-9.18658748e-02f,-1.85816158e-02f,-6.44840822e-02f,-1.21459635e-02f,-8.69937688e-02f,
-1.43130779e-01f,+1.04645696e-02f,+2.62517575e-02f,-1.28184035e-01f,-1.17272794e-01f,
+1.22822553e-01f,-8.17911923e-02f,-8.49604607e-02f,-3.87933701e-02f,+1.14528820e-01f,
-1.01808764e-01f,-1.49250031e-01f,-1.74003378e-01f,-7.74587542e-02f,-3.43360975e-02f,
-1.52358934e-01f,+1.40958494e-02f,-1.41111478e-01f,-4.51528840e-02f,+1.45336650e-02f,
-1.38780683e-01f,+1.66739132e-02f,-6.30545318e-02f,-7.68651590e-02f,-1.62428036e-01f,
-7.92040750e-02f,+8.56198147e-02f,+4.48402017e-03f,+7.58071691e-02f,-3.08700465e-02f,
-1.76234916e-01f,-8.54293257e-02f,+1.79456435e-02f,-1.48340054e-02f,+1.34546667e-01f,
+6.07102960e-02f,+6.77193478e-02f,-2.51101013e-02f,-7.07284808e-02f,-6.06409758e-02f,
-1.27465308e-01f,-9.38066989e-02f,+1.54297277e-01f,+7.17421435e-03f,-1.33414194e-01f,
+1.36835173e-01f,+1.71291679e-02f,+1.44048542e-01f,+9.27186683e-02f,-7.27926120e-02f,
+1.16985410e-01f,-2.86165208e-01f,+6.27219677e-02f,-1.46760732e-01f,-1.45881355e-01f,
-2.51264334e-01f,+1.51324138e-01f,-1.27617687e-01f,-8.61443728e-02f,-1.39548987e-01f,
+1.37275741e-01f,+4.71430011e-02f,-1.31401896e-01f,-8.84126276e-02f,+2.81057041e-02f,
+5.12812771e-02f,+1.58418939e-01f,-2.17495978e-01f,-8.42342004e-02f,+2.25919150e-02f,
+9.89978090e-02f,-1.17465466e-01f,+7.22361654e-02f,+1.02042280e-01f,+1.16695926e-01f,
+1.57362550e-01f,-2.73017101e-02f,-2.24436775e-01f,+1.40249744e-01f,+8.10984150e-02f,
-9.60149243e-02f,+4.71319593e-02f,-2.10272260e-02f,-1.23318294e-02f,+9.37237591e-02f,
-1.60997227e-01f,-8.63246545e-02f,+8.73466507e-02f,-5.70101477e-02f,-3.02624214e-03f,
-3.49101499e-02f,+1.36915699e-01f,-1.08809873e-01f,-1.34051740e-01f,+1.05376452e-01f,
+6.24711029e-02f,-3.97284701e-02f,-6.32221773e-02f,-1.39257833e-01f,-1.24611482e-01f,
+1.21448196e-01f,+4.76648211e-02f,-1.77472115e-01f,+1.11496642e-01f,+4.81580198e-03f,
+1.00798219e-01f,+4.78964858e-02f,-1.99616462e-01f,-1.04807675e-01f,-2.16819748e-01f,
+4.73340601e-02f,+1.20864362e-02f,-1.23384736e-01f,-2.01399680e-02f,+2.70100627e-02f,
+5.11607304e-02f,+1.71102565e-02f,+7.69741535e-02f,-3.83083336e-02f,-1.17100894e-01f,
-3.94520536e-02f,+3.95596735e-02f,-2.45222878e-02f,-2.02507675e-01f,-9.52994972e-02f,
+1.77124701e-02f,-7.28678182e-02f,-3.48845571e-02f,+6.80008680e-02f,+6.86630905e-02f,
+6.16372153e-02f,+1.46239698e-02f,-1.60977114e-02f,-7.17144534e-02f,+1.21864647e-01f,
+3.39589156e-02f,+3.52533609e-02f,-7.14715756e-03f,+1.15245268e-01f,-9.47257318e-03f,
-1.71795949e-01f,-1.21472012e-02f,+1.48378029e-01f,-2.52441857e-02f,+1.05381541e-01f,
+3.52396667e-02f,-1.44434020e-01f,+1.60194859e-01f,+3.90191227e-02f,+1.02183990e-01f,
+3.56556326e-02f,+7.45381564e-02f,-1.83763400e-01f,-6.95712045e-02f,+1.57589361e-01f,
+2.37474274e-02f,+6.76714405e-02f,+1.01430699e-01f,-2.32481256e-01f,-3.12863030e-02f,
-1.18078981e-02f,-3.45382541e-02f,+6.36289492e-02f,-1.50090596e-03f,+9.45041999e-02f,
-1.16884105e-01f,+5.80861084e-02f,+6.33798838e-02f,+8.47868174e-02f,-7.65505061e-02f,
+1.09949291e-01f,-1.03988737e-01f,-1.39888749e-01f,-1.43460229e-01f,-1.11576430e-02f,
+5.72686344e-02f,-6.74066395e-02f,+1.40109003e-01f,-1.01303615e-01f,-1.86415911e-02f,
+4.08783257e-02f,-1.03621706e-01f,-1.19361490e-01f,-1.69334169e-02f,+1.14040025e-01f,
-1.56156957e-01f,+1.24956816e-01f,+1.29447639e-01f,-1.14918970e-01f,+1.56835943e-01f,
+1.62360504e-01f,-1.39383882e-01f,-4.56359237e-02f,+1.49707615e-01f,-2.80217621e-02f,
-1.73233643e-01f,-1.28739133e-01f,-8.80119130e-02f,-1.07221283e-01f,+3.60376108e-03f,
+5.89283295e-02f,+1.12755664e-01f,-1.25309378e-01f,-1.16913959e-01f,-9.88369882e-02f,
+1.06308069e-02f,-9.54330564e-02f,+1.06665909e-01f,-1.54149048e-02f,+1.14405729e-01f,
+1.39248386e-01f,-2.02135265e-01f,+1.58187270e-03f,+7.35549675e-03f,-5.39997369e-02f,
+5.01473062e-02f,+4.09267144e-03f,-1.62109554e-01f,-3.09338775e-02f,-1.17828161e-01f,
+3.56860489e-01f,+7.37635940e-02f,-1.17058173e-01f,-3.43837473e-03f,+5.49648236e-03f,
-1.32670090e-01f,+6.05181679e-02f,-8.48243982e-02f,-1.42602533e-01f,-1.80378575e-02f,
+2.76861548e-01f,-1.70125797e-01f,+5.60860187e-02f,+6.86076403e-01f,-5.78771941e-02f,
+2.83619612e-01f,+7.57062808e-02f,+2.13357478e-01f,+4.65618260e-02f,-4.33729813e-02f,
-3.48144583e-02f,+4.64328192e-02f,+2.61306584e-01f,+2.79325336e-01f,-1.05016425e-01f,
+4.82608408e-01f,+1.83791116e-01f,+1.85082719e-01f,+1.03597067e-01f,+4.15915623e-02f,
+4.10832256e-01f,+2.70067573e-01f,+1.07010290e-01f,-1.62393838e-01f,+1.08224005e-01f,
-1.41712993e-01f,-1.10361144e-01f,+1.99909031e-01f,+4.85361844e-01f,-1.05001375e-01f,
-9.62749422e-02f,+3.72564167e-01f,+5.77930436e-02f,+8.74733999e-02f,+4.27970141e-02f,
-5.89614511e-02f,+1.42346188e-01f,-1.51417062e-01f,+2.10358556e-02f,-3.32536310e-01f,
+3.79838109e-01f,-2.21185341e-01f,-1.12098917e-01f,-4.34955508e-02f,+1.94954321e-01f,
+3.53357077e-01f,-1.91175204e-03f,+1.17571548e-01f,+5.80091737e-02f,+4.47543487e-02f,
+2.38396376e-01f,+1.78499296e-01f,+2.60636061e-01f,+6.50784522e-02f,-1.47377536e-01f,
+9.95324180e-02f,+3.11458379e-01f,-2.61128414e-02f,-2.09623560e-01f,+4.24047828e-01f,
-9.13351029e-02f,+2.18257904e-02f,+2.84443200e-01f,+8.62808824e-02f,-6.11863472e-02f,
+3.94148976e-01f,-8.56746510e-02f,-5.27404010e-01f,+1.85795009e-01f,-1.97248146e-01f,
-7.94351771e-02f,-1.42644485e-03f,+2.30617702e-01f,+2.66949147e-01f,-3.55129130e-02f,
+3.39953989e-01f,-5.75814247e-02f,+9.25889984e-02f,+3.22431028e-01f,-8.78055990e-02f,
-4.08045948e-03f,+1.79536462e-01f,+9.84847248e-02f,+8.69729593e-02f,-3.51411313e-01f,
+1.52434602e-01f,+4.72234078e-02f,+4.63834971e-01f,+4.10274923e-01f,+3.46565306e-01f,
+2.67036021e-01f,+4.45470572e-01f,+3.42091680e-01f,+1.99052155e-01f,+1.08500235e-01f,
-4.36713845e-02f,-1.16446525e-01f,+9.14343446e-02f,+2.22886764e-02f,+7.61635005e-02f,
-4.48790453e-02f,+1.10294692e-01f,-1.10630155e-01f,+3.06834936e-01f,+8.41154531e-02f,
+6.95873052e-02f,+3.24691713e-01f,-2.13311136e-01f,-1.73786223e-01f,-1.99220359e-01f,
+1.14661396e-01f,-2.40200087e-01f,-1.26911044e-01f,+2.28709266e-01f,-7.23454878e-02f,
-2.14615211e-01f,+7.87763000e-02f,-3.05209249e-01f,+8.32446218e-02f,-2.56835818e-02f,
+1.44766316e-01f,+7.53995329e-02f,+2.45259225e-01f,-1.57356542e-02f,-2.10578233e-01f,
-9.05147940e-02f,-2.03209251e-01f,-5.75920939e-02f,+1.71552986e-01f,-1.30710199e-01f,
-3.21365893e-03f,+4.07580733e-01f,+8.66060331e-02f,+2.36422554e-01f,+2.79207617e-01f,
+3.20185721e-01f,+1.36745095e-01f,+6.96308911e-02f,-7.05452114e-02f,-2.36554101e-01f,
+2.50684559e-01f,+9.87708047e-02f,-6.28284812e-02f,+1.61226258e-01f,+2.35223956e-02f,
-1.91882458e-02f,+9.22865644e-02f,-1.67356908e-01f,+2.74361819e-01f,+2.58929521e-01f,
-1.23855762e-01f,-2.52636760e-01f,+2.62130320e-01f,-8.96420404e-02f,-4.83892858e-02f,
+2.77327746e-01f,+6.83928728e-02f,-3.77355218e-02f,-1.20436750e-01f,+2.54922658e-01f,
-7.89330676e-02f,-8.16630796e-02f,-6.22696728e-02f,-1.39047086e-01f,+1.83030404e-02f,
+1.37877807e-01f,+1.50461078e-01f,-2.92502582e-01f,+2.64251143e-01f,-2.72940636e-01f,
-1.77171707e-01f,+8.65208358e-02f,-2.77320086e-03f,+3.63890767e-01f,+2.46366113e-01f,
-1.41569763e-01f,-9.28214639e-02f,-1.27366697e-02f,+2.75328487e-01f,+1.97900191e-01f,
+2.01033458e-01f,+1.30881861e-01f,-1.87956244e-02f,+3.36154103e-02f,+5.27226701e-02f,
-1.38862312e-01f,-2.93667734e-01f,+2.75619924e-01f,-6.05052486e-02f,+2.08324045e-02f,
+2.98009098e-01f,-6.39155507e-03f,-3.00375614e-02f,+1.61329463e-01f,+6.33965433e-03f,
-5.35006881e-01f,+1.92015931e-01f,-2.24525899e-01f,-2.02903092e-01f,-1.40314713e-01f,
+6.44492358e-02f,+3.99457753e-01f,-1.22957803e-01f,+3.94182116e-01f,-1.61630794e-01f,
+9.91940126e-02f,+2.57038206e-01f,-1.84964642e-01f,-3.14808153e-02f,+1.75863206e-01f,
-1.85474962e-01f,-2.09122971e-02f,-2.96693593e-01f,+1.71349943e-03f,+1.32741347e-01f,
+3.43007594e-01f,+9.37972739e-02f,+2.52274543e-01f,+3.39464098e-01f,+3.46179545e-01f,
+2.36836568e-01f,+5.01950011e-02f,+4.51053530e-02f,+2.15740696e-01f,-1.34860948e-01f,
-1.21264547e-01f,+5.60480542e-02f,-6.22220375e-02f,-2.30655670e-02f,+1.75319031e-01f,
-7.99854994e-02f,+1.39860138e-01f,+5.57436049e-03f,-1.49738073e-01f,+8.22284594e-02f,
-2.22707763e-01f,-3.24054509e-02f,+4.04042378e-02f,+1.67229921e-01f,-9.07746032e-02f,
+2.81968415e-02f,+2.21524522e-01f,+4.76692393e-02f,-2.65011098e-02f,+1.10086501e-01f,
-2.14588419e-01f,+4.08100197e-03f,-1.51519045e-01f,+1.54997259e-02f,+3.82860899e-02f,
+9.44327842e-03f,-2.23850265e-01f,-6.63504237e-03f,+1.20478749e-01f,+2.36721504e-02f,
-1.44584373e-01f,+1.38728648e-01f,+7.74996355e-02f,-1.15311310e-01f,-4.19007123e-01f,
+5.32808937e-02f,+2.25035280e-01f,+1.15436070e-01f,+8.41588452e-02f,+1.30733028e-01f,
-1.22285448e-01f,-6.85908869e-02f,+8.55608732e-02f,+1.59022689e-01f,-6.54772818e-02f,
-1.93557329e-02f,-1.32232100e-01f,-1.40897101e-02f,+9.97870862e-02f,+5.34420786e-03f,
+6.18238598e-02f,-9.52042341e-02f,+1.12016961e-01f,-1.37941241e-01f,-1.27885938e-01f,
+1.23392738e-01f,+1.36462167e-01f,-1.06084928e-01f,+1.81780025e-01f,-6.74972832e-02f,
+1.29327938e-01f,-9.37169269e-02f,+1.76477462e-01f,-1.17412761e-01f,+8.47332478e-02f,
+4.45598960e-02f,-8.65355134e-03f,+2.43285075e-01f,-5.84273636e-02f,+1.23457529e-01f,
-2.69478802e-02f,-2.61163767e-02f,-1.90178066e-01f,+4.18267623e-02f,+5.77352494e-02f,
+3.31435055e-02f,-9.92930233e-02f,+2.08990499e-01f,+8.22387040e-02f,-2.24124845e-02f,
-9.99673456e-02f,+1.35792047e-01f,-2.13499721e-02f,+1.03896342e-01f,-1.64021865e-01f,
-6.89401999e-02f,+1.13261521e-01f,+2.54781395e-01f,-7.59001821e-02f,-3.34154546e-01f,
-2.66050875e-01f,-6.04516640e-02f,-8.65865722e-02f,-2.29996047e-03f,-6.47838041e-02f,
+3.51482145e-02f,+1.88837461e-02f,+6.72083646e-02f,-2.94030339e-01f,+7.04530180e-02f,
+2.94110514e-02f,-9.10274163e-02f,+1.78840354e-01f,+4.91928458e-02f,-2.94533104e-01f,
+1.19081222e-01f,+2.68880069e-01f,-1.56494632e-01f,+5.02279121e-03f,+1.94508538e-01f,
-2.00238656e-02f,-1.27497479e-01f,+2.13092089e-01f,-5.45516936e-03f,+5.86226210e-03f,
-6.71749488e-02f,-1.27019346e-01f,-1.54588953e-01f,-4.02820036e-02f,-2.24619612e-01f,
+1.89626768e-01f,-9.52281207e-02f,-2.52633035e-01f,-2.66990840e-01f,+8.74122307e-02f,
-1.45659104e-01f,-5.27791418e-02f,+5.32560572e-02f,+3.28066126e-02f,+1.53489262e-01f,
-1.22740986e-02f,-1.21640116e-01f,+1.39665276e-01f,-1.47901252e-01f,+9.47348997e-02f,
+1.15647085e-01f,+1.60834249e-02f,+2.67582864e-01f,-2.02563360e-01f,-1.78067803e-01f,
+5.02135046e-02f,+2.52951384e-02f,-1.36651590e-01f,-1.37487367e-01f,+1.20623365e-01f,
-1.22692838e-01f,+6.75361231e-02f,+1.04012184e-01f,+1.24038890e-01f,-6.38457537e-02f,
-1.25733808e-01f,+1.52144758e-02f,+2.13870574e-02f,-5.96277490e-02f,-8.71069282e-02f,
-7.93313682e-02f,-3.68866697e-02f,-1.70586258e-01f,-1.03967391e-01f,-3.27556804e-02f,
-4.95865867e-02f,-5.28984517e-02f,-2.06591994e-01f,-8.95070210e-02f,+1.48864403e-01f,
-2.29610857e-02f,+5.32960147e-02f,+2.38728262e-02f,-4.05158550e-02f,-1.43020749e-01f,
-1.32847175e-01f,-2.38256454e-02f,+4.65124846e-02f,-2.48660380e-03f,-8.86434019e-02f,
-1.68653265e-01f,-3.92609509e-03f,+1.01724818e-01f,-1.62076935e-01f,-5.26304282e-02f,
+9.06747133e-02f,+1.17804538e-02f,+6.12836797e-03f,+1.24727562e-01f,-9.26371366e-02f,
+1.38180360e-01f,-7.31333867e-02f,+1.11871243e-01f,+4.40387875e-02f,-1.55298963e-01f,
-8.94614533e-02f,-1.53158888e-01f,-5.18923923e-02f,-1.32912129e-01f,-8.07294995e-02f,
-7.06004500e-02f,+9.03367996e-03f,-9.07272696e-02f,+1.60966471e-01f,+8.32120515e-03f,
-1.21160202e-01f,-6.45769835e-02f,+3.86255980e-03f,-4.78643402e-02f,+9.68192965e-02f,
+1.50823966e-01f,-3.58734280e-02f,-4.73843142e-03f,-6.38132393e-02f,+7.93966353e-02f,
+1.41612545e-01f,+4.41634804e-02f,+1.09211892e-01f,-4.75115776e-02f,-1.25224158e-01f,
-8.77509639e-02f,-1.41244203e-01f,+1.06173739e-01f,+9.24993232e-02f,-1.59009516e-01f,
+2.65822057e-02f,-1.18381344e-01f,-1.27587289e-01f,-1.39856234e-01f,+1.10563174e-01f,
+3.10966671e-02f,-5.95087036e-02f,-1.26662612e-01f,-1.95143223e-01f,+9.00912061e-02f,
-3.84554043e-02f,-4.55534458e-03f,+6.74411878e-02f,+6.78359792e-02f,-4.35905010e-02f,
+3.19299921e-02f,-1.35880187e-01f,+1.21184342e-01f,+3.07210144e-02f,+1.35235071e-01f,
+1.26861334e-02f,-6.20117337e-02f,-1.53199464e-01f,+9.41427872e-02f,+3.87944020e-02f,
+1.49558842e-01f,+1.20884851e-01f,-3.52453180e-02f,+4.67134193e-02f,+1.31438628e-01f,
-3.09672323e-04f,-1.63055919e-02f,+2.13894397e-02f,-4.35267426e-02f,-1.05633274e-01f,
-1.19642243e-01f,-1.56140044e-01f,-9.79589224e-02f,-7.46102706e-02f,-2.69714892e-02f,
+2.77146567e-02f,+1.07223883e-01f,+8.01343918e-02f,-3.79516035e-02f,-5.28430976e-02f,
-7.65167996e-02f,+1.18132100e-01f,+7.41955861e-02f,-1.37794048e-01f,+9.09499228e-02f,
+6.30436912e-02f,-1.27169669e-01f,-1.38314188e-01f,-1.65173799e-01f,+2.95034970e-05f,
-8.42540786e-02f,+2.89664194e-02f,-3.12486291e-02f,-7.46496022e-03f,-9.77806076e-02f,
-1.56114608e-01f,-6.11217394e-02f,+1.58891097e-01f,-4.55935374e-02f,-1.47303149e-01f,
+8.61306116e-02f,-2.57522352e-02f,-8.44615698e-03f,-1.35967776e-01f,+9.37344134e-03f,
+1.46404698e-01f,+8.82122144e-02f,-4.11010236e-02f,-5.78673892e-02f,-7.00648427e-02f,
-1.28772736e-01f,+5.42919934e-02f,+4.95840907e-02f,-1.13950267e-01f,-2.92648003e-02f,
+1.43736929e-01f,-1.46657154e-01f,-8.88961554e-02f,+1.64334595e-01f,+1.16958179e-01f,
+6.89628720e-02f,-8.00906569e-02f,-8.67165402e-02f,-1.20790452e-01f,+1.83171369e-02f,
+1.09653600e-01f,+1.41594604e-01f,-1.46450326e-01f,-1.02701277e-01f,-2.57026613e-01f,
+5.12963422e-02f,-4.29395810e-02f,-1.43095955e-01f,+4.77919029e-03f,+2.14645695e-02f,
-8.05244669e-02f,+1.41781256e-01f,+9.67130885e-02f,+6.22019917e-02f,-1.37726171e-02f,
+5.94219565e-03f,+7.60915354e-02f,+5.04916124e-02f,-1.60824537e-01f,+1.13826126e-01f,
-1.35970190e-01f,-7.11120367e-02f,-8.67580250e-02f,-9.29811597e-02f,+9.60161760e-02f,
-5.64591140e-02f,+5.27597368e-02f,+1.49543241e-01f,-1.39405102e-01f,-8.75316188e-02f,
-5.14204949e-02f,-3.59673798e-02f,-1.48933023e-01f,-1.32767811e-01f,-1.05105840e-01f,
-7.81432688e-02f,+1.05197832e-01f,-8.81748274e-02f,+1.19196765e-01f,+1.56326309e-01f,
-1.05304562e-01f,+1.03735462e-01f,+1.56796858e-01f,+5.76394647e-02f,+4.57198881e-02f,
+1.04192778e-01f,+3.64868931e-04f,+8.96068439e-02f,-1.14099711e-01f,-1.28138945e-01f,
+1.31161824e-01f,-7.90682957e-02f,-8.66476446e-02f,+1.97154656e-02f,+4.82695252e-02f,
+1.58641815e-01f,+3.06847319e-02f,-7.63482153e-02f,-7.33208507e-02f,+2.07309783e-01f,
+7.90255815e-02f,+5.79725765e-02f,-1.62294507e-01f,-1.05775625e-01f,-1.84530932e-02f,
-1.10809214e-01f,-5.42125339e-03f,-6.78630546e-02f,+7.23442361e-02f,+1.29840404e-01f,
+2.36174464e-02f,+6.69038892e-02f,+1.33552581e-01f,-4.41244729e-02f,+9.37201604e-02f,
-1.08763734e-02f,-4.95376661e-02f,+8.46413001e-02f,-7.08139017e-02f,+7.08928704e-02f,
-1.52792752e-01f,+9.45073813e-02f,+4.58298102e-02f,-5.85509017e-02f,+7.55604133e-02f,
+8.56616423e-02f,+5.49025834e-02f,-9.51758400e-02f,-4.69358042e-02f,+3.10285240e-02f,
-1.62295163e-01f,+4.20232266e-02f,+2.85487436e-02f,-1.57931328e-01f,+5.06344400e-02f,
+4.09530886e-02f,-1.45321012e-01f,+1.35430545e-02f,+9.21742022e-02f,-1.04812421e-02f,
+1.62237301e-01f,-6.36213571e-02f,-2.51829047e-02f,+9.95649919e-02f,+8.39912370e-02f,
+3.00092287e-02f,-9.43305418e-02f,+3.00820172e-03f,-4.34299931e-02f,-2.04766303e-01f,
-3.99669781e-02f,-4.52664122e-02f,-1.29041836e-01f,-5.06088100e-02f,+5.69703877e-02f,
-8.91929418e-02f,+1.61335200e-01f,+4.72687483e-02f,+5.64510934e-02f,+3.59576866e-02f,
+4.91916351e-02f,+8.40959996e-02f,-1.77822232e-01f,+1.36311918e-01f,+1.55232236e-01f,
-1.35946855e-01f,+7.35551938e-02f,-1.48869812e-01f,+4.37378287e-02f,-1.51233718e-01f,
+1.43778667e-01f,-1.35739908e-01f,+2.38704439e-02f,+8.91159698e-02f,+1.33426934e-02f,
-1.36809960e-01f,+1.05582535e-01f,+1.42526835e-01f,-1.08278625e-01f,+5.11477888e-03f,
-1.10236794e-01f,-3.73622179e-02f,+1.42951563e-01f,-1.65868089e-01f,+1.64300591e-01f,
+6.34578168e-02f,-1.09127313e-01f,+1.38977304e-01f,+1.28249928e-01f,+2.33884342e-03f,
-1.26937613e-01f,+4.57931794e-02f,+7.38213360e-02f,-1.58053160e-01f,+1.31396547e-01f,
-5.45342378e-02f,-4.09157835e-02f,-1.34079725e-01f,+6.18984923e-02f,+6.64997548e-02f,
-9.22265649e-02f,-1.19660586e-01f,-4.07165773e-02f,+2.78139770e-01f,-1.13311104e-01f,
+1.22542933e-01f,+8.20765942e-02f,-9.02543403e-03f,+6.58788532e-02f,+9.99877751e-02f,
-1.56195238e-02f,-7.28852153e-02f,+8.08984414e-02f,+2.84096263e-02f,+4.40774038e-02f,
+1.57634407e-01f,+2.01569367e-02f,+3.32891159e-02f,+6.76053837e-02f,-1.28775626e-01f,
-2.78067976e-01f,+7.38139525e-02f,+3.76215354e-02f,-1.51574537e-01f,-1.02136150e-01f,
+1.06805645e-01f,+1.19808629e-01f,+4.15941584e-04f,+4.30851132e-02f,-3.59241590e-02f,
-7.14163482e-03f,-1.32123902e-01f,-8.53421241e-02f,-2.87896916e-02f,+8.68672282e-02f,
+6.43539280e-02f,-5.11035919e-02f,-1.66365176e-01f,+5.65469824e-02f,-1.26542598e-01f,
-6.46119490e-02f,+4.10351232e-02f,-9.99031514e-02f,-2.00871661e-01f,-2.39801332e-02f,
-1.15482593e-02f,+1.82638224e-03f,+1.30302161e-02f,+6.28258213e-02f,+1.32049471e-01f,
+9.06493440e-02f,-7.43679404e-02f,-1.37568815e-02f,-7.06397230e-03f,+7.00990409e-02f,
+1.20693520e-01f,-4.96947467e-02f,+1.47556439e-01f,-1.66113917e-02f,+1.52046785e-01f,
-5.77100180e-02f,+9.32717845e-02f,+1.78848833e-01f,-3.09286211e-02f,-1.34442836e-01f,
-1.39194623e-01f,-1.27044976e-01f,+2.99174413e-02f,-5.02603427e-02f,-4.00393009e-02f,
-3.72882821e-02f,+1.80939764e-01f,+2.01692395e-02f,+1.68333035e-02f,+9.49164107e-02f,
-1.40265763e-01f,+4.63194102e-02f,-1.35241494e-01f,-9.17060152e-02f,+8.83949548e-02f,
-1.82822078e-01f,-7.16697017e-04f,-4.58248854e-02f,+1.54644787e-01f,+1.71833575e-01f,
-1.71679705e-01f,-1.67291671e-01f,-1.60235278e-02f,-1.80738062e-01f,+9.14658904e-02f,
+1.52854864e-02f,-1.11502439e-01f,+1.94123834e-01f,-1.63294211e-01f,+3.23234722e-02f,
-3.03479433e-02f,+3.14260349e-02f,+3.24216038e-02f,-3.81847322e-02f,+5.11045307e-02f,
-5.47323637e-02f,-7.74041936e-02f,-9.91016254e-02f,-8.75085667e-02f,-1.25455067e-01f,
+1.21678403e-02f,-1.05186746e-01f,-1.08376116e-01f,+3.37250233e-02f,-1.02537602e-01f,
-1.07537210e-03f,-1.48318350e-01f,+1.60155907e-01f,+1.35020632e-02f,+1.49051934e-01f,
+7.10369423e-02f,-3.89147326e-02f,+1.22169711e-01f,-1.62718058e-01f,-1.49246737e-01f,
+2.93150991e-02f,+6.27909005e-02f,-2.82723680e-02f,+1.23354435e-01f,-1.98574294e-03f,
+9.84332860e-02f,-4.44180146e-02f,+1.32033691e-01f,-9.07347873e-02f,-2.34348718e-02f,
-6.11883514e-02f,+1.71421304e-01f,-6.00458682e-03f,+9.05372500e-02f,-1.37166351e-01f,
-1.37324929e-01f,+7.63088018e-02f,-9.15378854e-02f,+7.17004016e-02f,+1.43033370e-01f,
-4.80158105e-02f,-1.30327046e-01f,+1.48313865e-02f,-5.45052998e-02f,+1.39006302e-01f,
-1.39186054e-01f,-1.19635522e-01f,-2.29468830e-02f,-1.18103035e-01f,+7.11554214e-02f,
-3.12876292e-02f,-1.42902836e-01f,+1.49132863e-01f,+2.32919287e-02f,+8.02337527e-02f,
-3.64815630e-02f,+4.02987096e-03f,+1.45095512e-02f,+5.59010357e-02f,+7.84581527e-02f,
+1.92846172e-02f,-1.79938748e-01f,+2.89065111e-02f,+1.88831445e-02f,-1.21537134e-01f,
-2.79211290e-02f,-5.34670204e-02f,+9.91756916e-02f,-7.13062137e-02f,+5.63604385e-02f,
+3.23330313e-02f,-1.23523092e-02f,+9.04959366e-02f,+1.19354255e-01f,-3.21509019e-02f,
-1.41754612e-01f,-5.91018423e-02f,-1.23215012e-01f,-6.23941906e-02f,-4.66739014e-02f,
+1.20464265e-01f,+1.31022543e-01f,+3.52740400e-02f,-1.06285572e-01f,-1.61068793e-02f,
+1.34383902e-01f,-1.17967032e-01f,-9.63149816e-02f,-3.00385728e-02f,-3.28635797e-02f,
+1.06941216e-01f,+1.17168330e-01f,-1.31500706e-01f,+1.12442844e-01f,+1.26926124e-01f,
+8.97967815e-03f,-1.78717390e-01f,-9.39432606e-02f,+1.06709257e-01f,-6.87617809e-02f,
-1.58346817e-01f,+1.47659585e-01f,+9.20395274e-03f,+3.22296768e-02f,-2.48040274e-01f,
+4.41932678e-02f,-1.23535097e-02f,+1.01664871e-01f,+2.61039585e-02f,-7.65237063e-02f,
+9.83008891e-02f,-1.42548591e-01f,+6.86162664e-03f,+8.71721357e-02f,+1.37660950e-01f,
+7.28391260e-02f,+7.55588263e-02f,-1.41152188e-01f,+4.18783054e-02f,-9.47905108e-02f,
-1.47638872e-01f,-1.39498403e-02f,+1.14988700e-01f,+1.10612921e-01f,-1.87534794e-01f,
+9.94914621e-02f,+4.24445570e-02f,+1.09184787e-01f,+8.93874168e-02f,-1.64877132e-01f,
-8.46693218e-02f,-1.06335096e-01f,-2.28571426e-03f,-1.90131173e-01f,+8.66363496e-02f,
+1.20493725e-01f,-5.40506765e-02f,+5.43090701e-03f,-1.22726724e-01f,-7.57646486e-02f,
+1.63647458e-01f,+9.76425260e-02f,-9.15881321e-02f,-1.73652992e-01f,-1.59339309e-02f,
-1.37099147e-01f,+3.03304400e-02f,+4.10445929e-02f,+3.67118455e-02f,+9.75438207e-02f,
+4.04622741e-02f,+4.92581725e-02f,-1.44374650e-02f,+1.06937177e-01f,-3.49674076e-02f,
+3.69399078e-02f,+4.70695533e-02f,+3.70126963e-03f,+3.07323262e-02f,-7.92633295e-02f,
+1.42039850e-01f,+1.12553544e-01f,+1.27201647e-01f,-5.00202514e-02f,+1.04313076e-01f,
-4.52520028e-02f,-8.45966041e-02f,-5.49863353e-02f,+1.87444031e-01f,-4.73729186e-02f,
+3.08364201e-02f,-4.55763079e-02f,-1.62453264e-01f,+7.79473335e-02f,-6.05485216e-02f,
-1.36313841e-01f,+2.60552056e-02f,-2.59583304e-03f,+2.68572569e-03f,+7.21471086e-02f,
-8.61253962e-02f,-9.96325240e-02f,+4.15320992e-02f,-4.98167910e-02f,-1.87622663e-02f,
+3.63127619e-01f,+1.77366324e-02f,-9.98569578e-02f,+1.13514856e-01f,-7.88987651e-02f,
+1.92528926e-02f,-2.90206596e-02f,+1.01904005e-01f,-1.02479510e-01f,-2.48994082e-02f,
-1.34720281e-01f,-5.46311028e-02f,-6.03802018e-02f,+4.73609790e-02f,-6.04429506e-02f,
-1.79254144e-01f,-1.73775405e-02f,+7.97649994e-02f,+9.92457792e-02f,-8.43812525e-03f,
-1.27254993e-01f,+3.46671045e-02f,-2.73867566e-02f,-1.58860590e-02f,-1.51379228e-01f,
+1.06853068e-01f,+4.08676006e-02f,+7.04404265e-02f,-3.00862715e-02f,-1.07308157e-01f,
+8.43044594e-02f,+6.91439062e-02f,+3.14852484e-02f,+1.64327130e-01f,+1.05912551e-01f,
-1.48107544e-01f,-9.01331529e-02f,-5.60696647e-02f,-1.13772668e-01f,-7.86351785e-03f,
+1.44676536e-01f,-7.33481571e-02f,+3.86847518e-02f,-6.54122531e-02f,+3.27703208e-02f,
-3.35781686e-02f,-7.52320886e-03f,-1.90371081e-01f,+5.43057173e-03f,+3.61514930e-03f,
+8.90692472e-02f,+9.02542919e-02f,-4.13831919e-02f,-1.38093665e-01f,+1.10579260e-01f,
+1.47712812e-01f,-1.22788832e-01f,+5.83949871e-02f,-1.46263875e-02f,+5.51544838e-02f,
-8.01643580e-02f,+1.38506591e-02f,-4.06840555e-02f,+1.00771941e-01f,-3.78794484e-02f,
-1.59671769e-01f,-1.23512261e-01f,+1.46017179e-01f,-1.56856745e-01f,-1.07092440e-01f,
+7.02831149e-03f,+9.36113149e-02f,-1.81061402e-01f,+2.87659168e-02f,+3.29251587e-02f,
+3.62042412e-02f,-2.65374761e-02f,-7.27845058e-02f,-4.79536504e-02f,+1.22126684e-01f,
+5.81496358e-02f,-8.96616057e-02f,+4.89694402e-02f,-8.52373168e-02f,-6.19433932e-02f,
+9.28184763e-02f,+1.27339453e-01f,+9.26549584e-02f,-2.86262203e-02f,+9.79938433e-02f,
-1.32416472e-01f,-1.30736932e-01f,-2.64803618e-02f,+8.33259150e-02f,-1.37683908e-02f,
+1.58650950e-02f,+2.52933688e-02f,-5.87041155e-02f,+1.51013449e-01f,+7.47227622e-03f,
-1.09475031e-02f,+1.61982074e-01f,+6.23496920e-02f,-1.76594764e-01f,-6.03528991e-02f,
+1.20223209e-01f,+2.94583440e-02f,+1.70799941e-02f,+7.17133880e-02f,+1.29846066e-01f,
-1.10821128e-01f,+1.21604994e-01f,-8.42017606e-02f,-4.22590971e-02f,+9.11809430e-02f,
+1.05771229e-01f,-7.19235763e-02f,-1.83384150e-01f,+1.06028341e-01f,-2.56279469e-01f,
+6.29377142e-02f,-2.31625345e-02f,-3.33805792e-02f,-9.45520923e-02f,+8.77129883e-02f,
-1.56564206e-01f,+7.02852160e-02f,+8.67384374e-02f,+1.26998946e-01f,+7.68216252e-02f,
+8.86325985e-02f,-1.09370694e-01f,-1.24388136e-01f,+3.90107296e-02f,+2.38052886e-02f,
-1.40763924e-01f,+4.16255407e-02f,+5.67703284e-02f,-1.11933559e-01f,-4.99043763e-02f,
+1.00494415e-01f,-3.48495343e-03f,+8.33132192e-02f,+1.09171690e-02f,-9.74965543e-02f,
+9.59951356e-02f,-1.24182552e-02f,-4.71473485e-02f,-4.05481383e-02f,+1.46236166e-01f,
-2.75012732e-01f,-3.87907550e-02f,+1.04626596e-01f,+1.62168164e-02f,+4.76343179e-04f,
-1.65703237e-01f,-1.16459534e-01f,+1.39596388e-01f,-1.86936751e-01f,-3.33693326e-01f,
+1.19709738e-01f,-3.46751034e-01f,+2.98277736e-01f,-1.36069223e-01f,+1.01726934e-01f,
-1.09126382e-01f,+2.44154319e-01f,-2.66678035e-01f,-1.30469620e-01f,+3.61960614e-03f,
-2.93439049e-02f,-9.59472880e-02f,+3.14736724e-01f,-1.16321057e-01f,+5.01014739e-02f,
+2.23146066e-01f,-4.53427769e-02f,+3.27142254e-02f,+1.54208705e-01f,+7.34738559e-02f,
+1.12117706e-02f,-7.32812807e-02f,+9.69384518e-03f,-1.05153240e-01f,+2.23335430e-01f,
+2.99831599e-01f,-4.80996966e-02f,+3.48546296e-01f,+1.08529665e-01f,+1.03147380e-01f,
-1.18015394e-01f,-1.96390852e-01f,+1.70882434e-01f,+2.89820671e-01f,-5.05803600e-02f,
-8.86302888e-02f,+1.61326796e-01f,+6.05809838e-02f,+3.44084501e-02f,+2.10072026e-01f,
+3.39349926e-01f,+1.20408520e-01f,+8.55183154e-02f,+1.10175624e-01f,-7.87995309e-02f,
+9.03433785e-02f,+3.88141721e-02f,-1.46454409e-01f,-1.32743604e-02f,-1.15890503e-01f,
+1.65672243e-01f,-3.35097164e-01f,+1.59654185e-01f,-1.48248613e-01f,-8.20791051e-02f,
+1.38375118e-01f,+2.10802689e-01f,+3.25090528e-01f,+2.71497488e-01f,-7.45876655e-02f,
-1.19767807e-01f,-2.10429862e-01f,+1.47765532e-01f,+1.27927035e-01f,+1.33853897e-01f,
+3.05749103e-02f,+1.26416191e-01f,-4.45108488e-02f,+1.14489228e-01f,-1.85224801e-01f,
-2.33904779e-01f,+2.71571398e-01f,-1.42980829e-01f,+3.56966555e-02f,+1.36186197e-01f,
-6.87322021e-03f,+5.85905723e-02f,+1.12461194e-01f,+1.39677987e-01f,-4.03333306e-01f,
+5.91638684e-02f,-5.14047715e-05f,-9.47200358e-02f,-9.49672461e-02f,+2.07657024e-01f,
+3.48110646e-01f,+1.47305086e-01f,+1.79540873e-01f,+1.86813828e-02f,+3.30304988e-02f,
+3.40811849e-01f,+2.69764531e-02f,-1.53247058e-01f,+1.07569538e-01f,-1.95409000e-01f,
-2.44778737e-01f,-1.96801260e-01f,-1.43034413e-01f,-9.51233506e-02f,+2.54902244e-01f,
+2.92617321e-01f,+3.07178199e-01f,+1.19386338e-01f,+1.88638896e-01f,+2.62254357e-01f,
+1.63477480e-01f,-1.31358281e-01f,+2.20775485e-01f,+5.30735180e-02f,-8.26303512e-02f,
+1.60206169e-01f,-1.78025141e-01f,+7.44947642e-02f,+8.32375437e-02f,+3.67072374e-02f,
+2.88138986e-01f,+2.07329839e-02f,-6.87041804e-02f,-1.50633918e-03f,-2.42226664e-03f,
-1.43155366e-01f,+1.43993735e-01f,-2.36931145e-01f,+1.62389025e-01f,-1.04077525e-01f,
-1.90811202e-01f,+3.42260569e-01f,+3.74579430e-02f,+5.59594072e-02f,+3.06825247e-02f,
+1.12598622e-02f,-1.16074204e-01f,+1.21633813e-01f,-4.21772674e-02f,-3.38972956e-01f,
+2.24908918e-01f,+3.51988882e-01f,-1.13596573e-01f,+2.93119013e-01f,+1.65733084e-01f,
-2.74297774e-01f,+1.65135607e-01f,+7.13127851e-02f,+4.36322600e-01f,-6.83112964e-02f,
-4.10987109e-01f,+7.05934837e-02f,-4.98081893e-01f,-3.04691792e-01f,-4.50844392e-02f,
+2.82140195e-01f,+1.84564903e-01f,-2.69189239e-01f,+1.67318180e-01f,+3.02757293e-01f,
+2.79591262e-01f,+1.46974131e-01f,-7.10731447e-02f,-3.59089039e-02f,+7.09523335e-02f,
+2.59683579e-01f,-2.34901041e-01f,+4.73333076e-02f,+1.61031604e-01f,-2.51887381e-01f,
+1.50589645e-03f,+8.12060386e-02f,-2.17592567e-01f,+5.84722608e-02f,+1.10627905e-01f,
+3.65672186e-02f,+6.76033497e-02f,+2.69739091e-01f,-2.06353832e-02f,+5.23636937e-02f,
+1.30692735e-01f,-2.22684205e-01f,-1.58002511e-01f,-4.24288809e-01f,+1.14896066e-01f,
+4.49344777e-02f,+3.04522971e-03f,+3.39932293e-01f,+1.23959616e-01f,-3.71145099e-01f,
+1.86717004e-01f,-4.42990065e-01f,-7.30372071e-02f,+1.37511179e-01f,+6.82211071e-02f,
-4.55068827e-01f,+1.33527353e-01f,+7.80435428e-02f,-8.60817451e-03f,-1.69292450e-01f,
-3.29817981e-02f,-3.42967093e-01f,+1.71413437e-01f,+1.52244031e-01f,+2.71623760e-01f,
+8.81508663e-02f,-2.72157900e-02f,+2.01406941e-01f,-1.26052320e-01f,-4.27463874e-02f,
+1.19136341e-01f,+2.96728313e-03f,-2.10393444e-02f,+6.62758350e-02f,+2.01362073e-01f,
+6.22146055e-02f,+1.44536346e-01f,-2.94068843e-01f,+1.13952562e-01f,-6.46831691e-02f,
-3.92800793e-02f,+2.16630548e-01f,-5.04285514e-01f,+1.28437385e-01f,+2.98608422e-01f,
+1.21203251e-01f,-2.42277205e-01f,+1.83599159e-01f,+2.46952530e-02f,-2.50112176e-01f,
+5.34524880e-02f,-1.11399032e-01f,+2.67110225e-02f,+2.86461174e-01f,+1.06839463e-01f,
+1.58159256e-01f,+1.65274218e-01f,+7.17389137e-02f,-2.35455424e-01f,+1.23645157e-01f,
+8.34118351e-02f,-9.14658755e-02f,+2.13865116e-01f,-4.14449163e-02f,+2.28540793e-01f,
+1.49706215e-01f,+1.92215309e-01f,+9.65703204e-02f,-4.58576053e-01f,-1.42795473e-01f,
+1.44220307e-01f,-4.36428040e-02f,+6.31574169e-02f,+3.12674850e-01f,+4.14692074e-01f,
-4.44099754e-01f,+2.96622843e-01f,+1.36751264e-01f,-4.66832072e-01f,+4.35308516e-01f,
+1.03673920e-01f,-1.29680142e-01f,+7.19725266e-02f,-8.63222480e-02f,+3.32308412e-02f,
+8.31058100e-02f,-2.98237912e-02f,-3.29480231e-01f,+2.67030954e-01f,+1.89519152e-01f,
+1.37996614e-01f,+4.10397053e-01f,+4.53823000e-01f,-3.57000709e-01f,+4.29150879e-01f,
-5.79591766e-02f,+3.11617166e-01f,+7.66310841e-02f,-2.95484781e-01f,-4.48947260e-03f,
-3.94418776e-01f,-4.25717682e-01f,+4.30484563e-02f,+2.73606360e-01f,-2.77406089e-02f,
-3.56492192e-01f,+7.20512168e-03f,+2.42797598e-01f,+1.57704905e-01f,+4.29840237e-02f,
+3.78118381e-02f,-1.45272702e-01f,+2.33929187e-01f,+2.09741175e-01f,-3.86738449e-01f,
+8.15277174e-02f,+3.81976128e-01f,-4.43861276e-01f,+7.27225393e-02f,+6.05535805e-02f,
-2.41595745e-01f,+1.02806799e-02f,+1.85601562e-02f,-6.29936010e-02f,+1.68474779e-01f,
+1.98512718e-01f,-3.20297517e-02f,-1.08707547e-01f,-1.31446570e-02f,-4.24028784e-01f,
+7.86937550e-02f,-2.36739442e-01f,-1.54481038e-01f,+2.40716547e-01f,-9.55580994e-02f,
+2.69902080e-01f,-3.97157669e-02f,-2.30952993e-01f,-4.43354324e-02f,-3.26933831e-01f,
-1.39638528e-01f,-4.61267456e-02f,-4.57976060e-03f,-4.79311824e-01f,+1.83189154e-01f,
-3.72669138e-02f,-3.14113982e-02f,-6.85024485e-02f,+9.13484097e-02f,-4.42063004e-01f,
+2.62552291e-01f,+1.19301766e-01f,+1.91975743e-01f,+6.05593398e-02f,-1.05599292e-01f,
+1.49293095e-01f,+8.29558298e-02f,+5.01834340e-02f,+1.76189303e-01f,+7.58751035e-02f,
-1.34875387e-01f,+2.18048081e-01f,+4.95456070e-01f,+1.65321290e-01f,-1.23575687e-01f,
-3.00533056e-01f,+1.25332609e-01f,-3.00103948e-02f,+1.44331306e-01f,+4.09579948e-02f,
-4.70780402e-01f,-5.62626729e-03f,+3.48967701e-01f,+4.52501297e-01f,-3.56517315e-01f,
+8.69231019e-03f,+1.33822098e-01f,-3.04596245e-01f,+1.15264185e-01f,-1.36802763e-01f,
+1.11432467e-03f,+9.41527411e-02f,-4.82336432e-02f,+1.94005683e-01f,+1.60836235e-01f,
+5.21023311e-02f,-4.27536726e-01f,-8.67671743e-02f,+1.55217320e-01f,+1.13914475e-01f,
+2.48337373e-01f,-7.21966624e-02f,+4.15928453e-01f,-7.02442452e-02f,+8.07716101e-02f,
-3.55377160e-02f,-4.99961078e-01f,+6.30640984e-03f,+2.43657716e-02f,+3.38711441e-02f,
+1.82348251e-01f,+4.37435955e-01f,-7.22030178e-02f,-3.17438617e-02f,+3.47333401e-03f,
-5.74357137e-02f,+8.95430893e-02f,-1.32599369e-01f,-1.15349837e-01f,-5.91671467e-02f,
-2.65940111e-02f,+9.94590297e-02f,-8.73062834e-02f,+9.29946229e-02f,+5.90625815e-02f,
+4.18922454e-02f,-3.55247334e-02f,-1.72216967e-01f,-2.40144879e-02f,+6.73405305e-02f,
-6.90429211e-02f,+8.11788738e-02f,-4.81984727e-02f,+1.45481214e-01f,-1.81180626e-01f,
-3.87267023e-01f,-9.80638862e-02f,+8.19889270e-03f,-6.38999194e-02f,-1.44949511e-01f,
+1.14839628e-01f,-1.69032589e-01f,+1.30943945e-02f,-2.68235207e-02f,+7.37186596e-02f,
-1.88093349e-01f,+1.12156533e-01f,-2.36129388e-01f,-3.08076531e-01f,+1.06988356e-01f,
+6.27605692e-02f,-6.75270483e-02f,+6.99201971e-02f,-8.14382881e-02f,-1.65557042e-01f,
-1.48415610e-01f,-8.89938697e-02f,-1.32818252e-01f,-1.40374243e-01f,+2.22339705e-02f,
-1.38026282e-01f,+1.26063049e-01f,-1.38897616e-02f,-7.35528171e-02f,+3.35805118e-02f,
+1.37307957e-01f,+4.54163775e-02f,+7.62068927e-02f,+1.08355485e-01f,+1.59607828e-03f,
+8.03596079e-02f,+1.71393920e-02f,-4.84021567e-02f,-2.01246023e-01f,-1.23810939e-01f,
-1.23300448e-01f,-1.07288890e-01f,+6.20601624e-02f,-1.49933621e-01f,-1.27803743e-01f,
+1.14780433e-01f,-1.25921205e-01f,+1.19813122e-02f,-9.80258957e-02f,-7.99759105e-02f,
+3.18263546e-02f,-2.75178794e-02f,-1.14107825e-01f,-6.83959499e-02f,-6.70882463e-02f,
+5.18352985e-02f,-1.14456706e-01f,-5.08551374e-02f,-6.37004599e-02f,+5.71775855e-03f,
-3.47940952e-01f,-1.31242424e-01f,+1.45228401e-01f,+2.16204315e-01f,-1.81626659e-02f,
-1.88584015e-01f,+1.05604641e-01f,-1.69210598e-01f,-1.33869901e-01f,-3.43820676e-02f,
-5.89586385e-02f,-5.27496636e-02f,+7.21209720e-02f,-3.69894952e-02f,-4.34024930e-02f,
+4.88202497e-02f,-1.14830770e-01f,-1.76895857e-02f,-2.59036869e-01f,+9.80809405e-02f,
+4.15650398e-01f,+8.52270350e-02f,-3.12265754e-02f,+2.55135335e-02f,-1.68076903e-01f,
-4.00958881e-02f,+1.52945165e-02f,-1.35755524e-01f,-6.79900870e-02f,+1.17235169e-01f,
-9.18053761e-02f,+9.64247994e-03f,-4.18953598e-02f,-1.32858485e-01f,-5.82016706e-02f,
+2.18735971e-02f,-1.19204670e-02f,+2.01783935e-03f,-2.36986652e-02f,-2.55008191e-02f,
-1.47545293e-01f,-1.71488419e-01f,-1.34680802e-02f,-9.28949267e-02f,-1.68190077e-01f,
+3.31466980e-02f,-1.09006772e-02f,-9.57186297e-02f,-8.04359838e-02f,+7.59423897e-02f,
+1.20700479e-01f,+5.73065393e-02f,+5.47533110e-02f,+6.09609112e-02f,+4.90224585e-02f,
-8.10140744e-02f,-1.22836895e-01f,+8.81139189e-02f,+8.04392248e-02f,-8.89787003e-02f,
+1.34720400e-01f,-1.03236407e-01f,+1.03476316e-01f,-9.68813971e-02f,-9.59377140e-02f,
-9.46654379e-02f,+2.19906718e-02f,+1.27647877e-01f,+3.68580818e-02f,-4.33336683e-02f,
-4.42845337e-02f,-9.08039585e-02f,-1.27958000e-01f,+1.10998914e-01f,-1.21725738e-01f,
+1.62313685e-01f,-7.99341351e-02f,+1.35268658e-01f,-1.25756919e-01f,-4.25507218e-01f,
+6.63744733e-02f,+8.33265409e-02f,+2.63404157e-02f,-9.97579396e-02f,-1.74637601e-01f,
-1.19310677e-01f,+1.31249413e-01f,-7.15941414e-02f,+9.61780734e-03f,-4.40610126e-02f,
+9.38290358e-03f,+4.25393656e-02f,+9.14421603e-02f,+6.67813867e-02f,+1.31598845e-01f,
-3.04556433e-02f,+5.37325852e-02f,+8.99756774e-02f,+6.25759065e-02f,+7.97066689e-02f,
+9.90902856e-02f,-3.82440090e-02f,-7.71824569e-02f,-1.16491273e-01f,-7.56486282e-02f,
+8.23143721e-02f,-1.98462531e-02f,-1.21017031e-01f,+2.27379967e-02f,+8.87158588e-02f,
-4.68809642e-02f,-1.29023284e-01f,+3.30821089e-02f,-4.56289090e-02f,+1.22712307e-01f,
+4.63365316e-02f,-9.73535553e-02f,+2.02413201e-02f,-2.98974589e-02f,+4.74028066e-02f,
-2.95057222e-02f,-4.04859483e-02f,+9.01590735e-02f,-1.86900258e-01f,+1.56728029e-02f,
+9.64315236e-02f,+1.17032014e-01f,-8.73913243e-02f,-6.38437597e-03f,+6.49864376e-02f,
-6.66093305e-02f,-5.50686084e-02f,+4.21449207e-02f,-1.37879429e-02f,+1.87984724e-02f,
-7.66872689e-02f,+5.83978221e-02f,+8.04072022e-02f,+6.25672936e-03f,-8.95206183e-02f,
+5.73956110e-02f,-3.27861458e-02f,+6.71979114e-02f,+1.21652298e-01f,-2.52265893e-02f,
+1.84497349e-02f,-1.04962744e-01f,-7.63987228e-02f,+4.49588522e-02f,-6.48320243e-02f,
-2.36653667e-02f,-1.37235671e-01f,-2.02008963e-01f,-9.73588079e-02f,-5.17687090e-02f,
-8.80272761e-02f,-1.23291202e-01f,-1.16498068e-01f,+6.78244308e-02f,-1.24354593e-01f,
+1.30907267e-01f,+5.97266406e-02f,-6.84237331e-02f,-2.01075617e-02f,+1.21548101e-01f,
-3.94461453e-02f,+1.32905081e-01f,+3.04251220e-02f,+1.21831581e-01f,+9.42784548e-03f,
-7.65679032e-02f,-1.11067794e-01f,+4.84020561e-02f,+1.06494986e-01f,+9.64464806e-03f,
-4.41313237e-02f,+9.16637704e-02f,-2.93100476e-02f,-1.44933194e-01f,+3.71195227e-02f,
+4.96647060e-02f,-1.26072302e-01f,+1.25535175e-01f,-6.01834059e-03f,-5.12308776e-02f,
-1.60493791e-01f,+4.70528640e-02f,+5.53540848e-02f,+1.17114864e-01f,+2.04345360e-02f,
+6.91595748e-02f,-1.07272357e-01f,-6.18635453e-02f,-1.51406094e-01f,-4.70096469e-02f,
+2.61920244e-01f,-1.07193090e-01f,-1.60211593e-01f,+1.62123471e-01f,-1.22961253e-01f,
-2.44811643e-02f,-9.41585079e-02f,+1.57155539e-03f,+7.96946287e-02f,+1.26125645e-02f,
+5.09590805e-02f,-9.46720829e-04f,+2.27068681e-02f,+1.90783560e-01f,+5.41685335e-02f,
+1.20951757e-01f,-8.30959007e-02f,-8.26759189e-02f,+1.19720697e-01f,-2.95946114e-02f,
-1.00031316e-01f,-6.41438887e-02f,-2.93232501e-03f,+5.85584342e-03f,-1.01201855e-01f,
-3.39380801e-02f,-1.49301574e-01f,-1.43262297e-01f,-4.25935127e-02f,-3.65786031e-02f,
-1.35972574e-01f,+6.53598905e-02f,+7.17463791e-02f,-1.31270707e-01f,+1.20636210e-01f,
+2.10924502e-02f,+6.72233030e-02f,-4.06485163e-02f,+6.00895770e-02f,+1.15816884e-01f,
+2.98090130e-02f,-1.67042673e-01f,+3.69637855e-03f,-2.50908792e-01f,+3.01122442e-02f,
-3.42435092e-02f,+2.17713118e-02f,-1.03348158e-01f,-1.00867152e-01f,+3.62467058e-02f,
-1.47392184e-01f,+8.05527568e-02f,+1.39386673e-02f,+5.26632667e-02f,-1.11071743e-01f,
-8.20696205e-02f,+4.57308702e-02f,+2.88956687e-02f,+6.10376932e-02f,+1.44643605e-01f,
-4.03859913e-02f,+2.93015153e-03f,-1.17752336e-01f,+4.03800011e-02f,+1.15280636e-01f,
+2.07025763e-02f,-1.16752863e-01f,+9.16621238e-02f,+4.29892875e-02f,+1.04930714e-01f,
-6.81700259e-02f,-9.39752385e-02f,+1.78455189e-02f,+9.23223421e-02f,-2.79637456e-01f,
-2.35259309e-02f,+1.31771237e-01f,+6.16690964e-02f,-1.42415926e-01f,+1.58303797e-01f,
-1.61404293e-02f,-2.68686805e-02f,+2.37483438e-02f,+1.41662106e-01f,+2.61169337e-02f,
-1.30021378e-01f,+1.23136275e-01f,+1.36283129e-01f,-2.69216541e-02f,+1.47255450e-01f,
-2.01883629e-01f,+1.25468165e-01f,-3.41891274e-02f,-1.01970620e-01f,-4.74096760e-02f,
-7.67275365e-03f,-1.20407641e-01f,-5.09841219e-02f,+6.68903766e-03f,+7.10126981e-02f,
-1.24357782e-01f,-9.59226191e-02f,+1.34244263e-01f,+1.28090391e-02f,+6.94611445e-02f,
+9.04727578e-02f,+1.07612208e-01f,-1.55425072e-01f,-2.69083213e-02f,-2.26442367e-02f,
+5.39109260e-02f,-3.59792598e-02f,+1.59766436e-01f,-9.18739960e-02f,+3.05653978e-02f,
+8.15102756e-02f,-4.79233265e-03f,-1.33871391e-01f,-1.51824147e-01f,+4.21698615e-02f,
+1.75118357e-01f,+1.59842908e-01f,-1.37587607e-01f,+6.16238751e-02f,+8.81769285e-02f,
+5.14306091e-02f,+5.09199277e-02f,-1.36876941e-01f,-1.15015775e-01f,-4.47684228e-02f,
-6.17211265e-03f,+6.67075589e-02f,-4.14077379e-02f,-1.76234826e-01f,+3.75586003e-02f,
+5.99575154e-02f,+4.40017097e-02f,-1.26444116e-01f,-3.79716679e-02f,+1.23117156e-01f,
-3.15360650e-02f,-7.62142912e-02f,+3.27277780e-02f,+8.90522525e-02f,+1.29961684e-01f,
+1.00049809e-01f,+4.87641729e-02f,+2.54401267e-02f,+3.62065099e-02f,-1.42167956e-01f,
-1.35717064e-01f,-2.32514590e-02f,-1.11439005e-01f,+4.76377271e-02f,+1.30664483e-01f,
-2.30609626e-02f,+9.12937671e-02f,+1.57069981e-01f,-1.14842787e-01f,-3.50077823e-02f,
-9.71868187e-02f,-4.62016370e-03f,-1.39247984e-01f,+1.80661697e-02f,+4.54252250e-02f,
-5.42971008e-02f,-8.06550160e-02f,+3.76921073e-02f,+6.37878627e-02f,-3.53191718e-02f,
+2.65070051e-02f,-1.18965879e-01f,-3.09103429e-02f,-1.27769336e-02f,-3.76883559e-02f,
-1.40164867e-01f,-1.61479652e-01f,-8.79781395e-02f,+1.37609050e-01f,+4.58816886e-02f,
-1.10376112e-01f,-1.19040154e-01f,+9.25827101e-02f,+2.18523189e-01f,-5.98570779e-02f,
-1.47006765e-01f,-1.45085543e-01f,+1.96050908e-02f,-1.29399240e-01f,-2.47696936e-02f,
-5.01461737e-02f,-5.91972470e-03f,+2.48104692e-01f,+4.76835296e-02f,+2.07899481e-01f,
+5.86933978e-02f,-4.85861674e-02f,-3.55661176e-02f,-4.70951162e-02f,+3.82209122e-02f,
-2.44218335e-01f,-3.41149308e-02f,-7.28186890e-02f,+3.74050811e-02f,+1.05262257e-01f,
-9.91721898e-02f,+9.33459252e-02f,-4.07307632e-02f,+1.52965665e-01f,+1.66185677e-01f,
-3.46773490e-02f,+6.06452003e-02f,-1.08080521e-01f,+9.82723683e-02f,-8.44739154e-02f,
-3.13938409e-02f,-4.82172109e-02f,-1.45048112e-01f,+1.04549013e-01f,-4.36167233e-02f,
+5.39335702e-03f,+8.80945474e-02f,+5.18986769e-02f,-7.68403336e-02f,-3.39595391e-03f,
+9.19031352e-02f,-1.75260641e-02f,-4.95505407e-02f,+9.32887346e-02f,+1.41915813e-01f,
-6.30930662e-02f,-1.45726293e-01f,+1.05835550e-01f,+1.64802894e-01f,+9.84498188e-02f,
+1.16215959e-01f,-3.34885111e-03f,+4.97829914e-02f,+5.42106330e-02f,-1.22133218e-01f,
