#include <verifier_functions.h>

#include <math.h> 
 #include <string.h> 
#include "k2c_include.h" 
#include "k2c_tensor_include.h" 

 


void poly_16_16_16(k2c_tensor* dense_105_input_input, k2c_tensor* dense_108_output) { 

float dense_105_output_array[16] = {0}; 
k2c_tensor dense_105_output = {&dense_105_output_array[0],1,16,{16, 1, 1, 1, 1}}; 
float dense_105_kernel_array[16] = {
-2.70907015e-01f,-4.37115729e-01f,+1.33280724e-01f,-1.26736909e-02f,+5.54564118e-01f,
-6.91086471e-01f,+4.96615738e-01f,+2.35561296e-01f,+6.75989091e-02f,+5.28562486e-01f,
-6.13176405e-01f,+6.12828553e-01f,+1.26840482e-02f,+5.27684212e-01f,+6.66251555e-02f,
-4.16297987e-02f,}; 
k2c_tensor dense_105_kernel = {&dense_105_kernel_array[0],2,16,{ 1,16, 1, 1, 1}}; 
float dense_105_bias_array[16] = {
+1.70950323e-01f,+1.86440647e-01f,+1.91091895e-01f,-4.54184078e-02f,+2.10938543e-01f,
-5.38590997e-02f,-2.37382084e-01f,+1.17384963e-01f,+9.67612565e-02f,-2.11594716e-01f,
+8.17002952e-02f,-2.26903498e-01f,+4.66281444e-01f,-1.33816719e-01f,+3.22739407e-02f,
+3.99499059e-01f,}; 
k2c_tensor dense_105_bias = {&dense_105_bias_array[0],1,16,{16, 1, 1, 1, 1}}; 
float dense_105_fwork[17] = {0}; 

 
float dense_106_output_array[16] = {0}; 
k2c_tensor dense_106_output = {&dense_106_output_array[0],1,16,{16, 1, 1, 1, 1}}; 
float dense_106_kernel_array[256] = {
-1.35977101e-02f,-3.41284066e-01f,-1.78997427e-01f,-3.40179086e-01f,-2.38867268e-01f,
+4.47613955e-01f,+1.08697591e-02f,+3.97751123e-01f,-2.29977503e-01f,+3.78232092e-01f,
-2.87691921e-01f,-2.15278968e-01f,-9.40895826e-02f,-5.74596412e-03f,+2.28130728e-01f,
-3.26124988e-02f,+3.64954621e-01f,-7.28898793e-02f,+3.45622301e-01f,+1.98384359e-01f,
-3.77146661e-01f,+4.20485407e-01f,+3.23387116e-01f,-5.58564700e-02f,-3.09297919e-01f,
-2.89183080e-01f,+1.36852950e-01f,+4.30589527e-01f,-1.20021082e-01f,+6.46902546e-02f,
+2.77184814e-01f,+2.18654037e-01f,+2.67898917e-01f,-4.24400449e-01f,-5.32400012e-01f,
+1.06486678e-01f,+3.51134509e-01f,-5.38619123e-02f,+3.61383021e-01f,-4.93032895e-02f,
+3.37155789e-01f,-3.16136748e-01f,+6.34402037e-02f,-2.76598632e-01f,+2.35090181e-01f,
-4.76379037e-01f,+3.53929818e-01f,-8.78511593e-02f,-3.43310297e-01f,+3.60187609e-03f,
-1.76402509e-01f,-3.97305578e-01f,+3.52719396e-01f,-1.04107022e-01f,-3.45729858e-01f,
-8.26587826e-02f,+6.94518164e-02f,-1.71057075e-01f,+1.06352955e-01f,-2.36055151e-01f,
-3.08793306e-01f,+2.22095922e-01f,-8.63979850e-03f,+5.65867610e-02f,+1.62643149e-01f,
-3.18159342e-01f,-4.29921448e-01f,-2.09108189e-01f,+2.12958798e-01f,-9.00233835e-02f,
+2.42880240e-01f,-3.44484359e-01f,+4.15795386e-01f,+1.37260556e-01f,-3.02226186e-01f,
-5.39595544e-01f,-3.05884510e-01f,+1.42453492e-01f,+2.56733835e-01f,-4.63560522e-01f,
-6.40226528e-02f,-1.77678972e-01f,+1.13783114e-01f,+9.76033695e-03f,-3.21142495e-01f,
-1.48483157e-01f,+3.72335583e-01f,-1.69537708e-01f,-3.72697383e-01f,-3.02761793e-02f,
-3.41349095e-01f,+1.30886450e-01f,-3.58079046e-01f,-1.49056688e-01f,-5.21261275e-01f,
+3.29068542e-01f,-6.67644814e-02f,-4.20792997e-02f,+1.16391629e-01f,+3.29295725e-01f,
-1.00288875e-01f,+2.80127227e-01f,-3.40172440e-01f,-2.58466214e-01f,+5.33784330e-01f,
-4.02525425e-01f,+9.36474651e-02f,+2.88565189e-01f,-3.71027291e-01f,+2.98472971e-01f,
-5.12673080e-01f,-1.54587328e-01f,+2.02165619e-01f,-1.02908909e-02f,+1.71392888e-01f,
-2.28149667e-02f,+2.87044495e-01f,+3.54097724e-01f,-2.55599380e-01f,-6.76349562e-04f,
-1.28151655e-01f,-3.60769123e-01f,+1.60315737e-01f,-7.76070118e-01f,+4.95330989e-02f,
-1.50039196e-01f,-4.52711340e-03f,-4.25981998e-01f,-4.03242975e-01f,-3.28270137e-01f,
-3.29005003e-01f,+4.20943856e-01f,+4.61341947e-01f,-1.72683641e-01f,+5.17668188e-01f,
-3.29510033e-01f,-2.69920558e-01f,-2.83498466e-02f,+2.50169039e-01f,+3.11549872e-01f,
-2.83678006e-02f,+2.60400742e-01f,+3.18964303e-01f,+5.26078977e-02f,+2.51341254e-01f,
-5.33353686e-02f,+1.17528826e-01f,-1.32378265e-01f,-4.23922300e-01f,+6.98085725e-02f,
-5.52264452e-01f,-6.31876886e-01f,-2.07242653e-01f,-3.86486232e-01f,+2.37848103e-01f,
-4.15550649e-01f,-5.42346835e-02f,+2.35980228e-01f,-2.30623469e-01f,+4.12931219e-02f,
-2.68693179e-01f,-6.19928911e-03f,+4.19855595e-01f,-1.18984535e-01f,-1.57163844e-01f,
+5.01958728e-01f,-3.21616232e-01f,-2.90573508e-01f,-3.89988363e-01f,-2.05336899e-01f,
-2.25197569e-01f,+1.93739280e-01f,-1.49260342e-01f,-1.73810348e-01f,-1.50242537e-01f,
+3.25681239e-01f,+9.50490683e-02f,-2.41015837e-01f,+3.12222451e-01f,+3.46965224e-01f,
-5.62627733e-01f,+3.34335715e-01f,+6.03612922e-02f,-3.38639081e-01f,+3.21951717e-01f,
-2.73366421e-01f,+1.72587007e-01f,+3.26115191e-02f,-1.23469055e-01f,-5.19759096e-02f,
-1.91487268e-01f,-3.09895575e-02f,+1.77785173e-01f,+2.30372734e-02f,+1.48755074e-01f,
-8.10067534e-01f,+1.06036639e+00f,-3.69037777e-01f,-1.65447876e-01f,+4.81197178e-01f,
-1.08127773e+00f,-1.29833579e-01f,-1.36292994e-01f,+2.38958210e-01f,-7.02977926e-02f,
-3.14796209e-01f,+4.90682185e-01f,-1.99641466e-01f,+2.63156235e-01f,+9.21845734e-02f,
-3.37571710e-01f,+1.66817352e-01f,-2.44610429e-01f,+2.49999583e-01f,+1.22101665e-01f,
-2.58149952e-01f,+5.70780337e-01f,+2.47842729e-01f,-3.18540812e-01f,-4.70640250e-02f,
+1.86987221e-02f,+1.43030971e-01f,-5.45330122e-02f,-7.57826567e-02f,+8.27645212e-02f,
+3.81443232e-01f,+3.82156253e-01f,+3.68510902e-01f,-6.19789623e-02f,-3.21332335e-01f,
-1.60962284e-01f,-3.05231899e-01f,-1.42364800e-01f,-8.45238566e-02f,-3.34461220e-02f,
-2.50513434e-01f,-2.08337709e-01f,-3.45147364e-02f,+2.09178612e-01f,+1.66397586e-01f,
+2.29096696e-01f,+3.24883431e-01f,-2.22068608e-01f,-1.07893956e+00f,+1.00941491e+00f,
-2.51888186e-01f,+1.06883936e-01f,+5.45699120e-01f,-1.27732158e+00f,-3.77202511e-01f,
+2.61473924e-01f,+2.38061845e-01f,+2.06538156e-01f,-4.25883144e-01f,+5.49231097e-02f,
+4.11711812e-01f,}; 
k2c_tensor dense_106_kernel = {&dense_106_kernel_array[0],2,256,{16,16, 1, 1, 1}}; 
float dense_106_bias_array[16] = {
+1.48715392e-01f,-1.44988410e-02f,+9.31610167e-02f,-1.18186772e-01f,+2.48861790e-01f,
-9.11431015e-02f,-1.14456877e-01f,+3.01628560e-01f,-9.68002528e-02f,-1.67017337e-02f,
-2.74230056e-02f,+2.15993986e-01f,-4.29647230e-02f,-8.02548379e-02f,+1.89602494e-01f,
+1.32066071e-01f,}; 
k2c_tensor dense_106_bias = {&dense_106_bias_array[0],1,16,{16, 1, 1, 1, 1}}; 
float dense_106_fwork[272] = {0}; 

 
float dense_107_output_array[16] = {0}; 
k2c_tensor dense_107_output = {&dense_107_output_array[0],1,16,{16, 1, 1, 1, 1}}; 
float dense_107_kernel_array[256] = {
-1.50856599e-01f,+3.02677780e-01f,-4.26220268e-01f,-2.51478612e-01f,+1.85624972e-01f,
-2.81993151e-01f,+3.80523831e-01f,+4.62200910e-01f,-3.66594076e-01f,-2.60840859e-02f,
-6.82922006e-02f,-4.21875000e-01f,+1.66311815e-01f,+4.49217781e-02f,+3.95659208e-01f,
+8.67625922e-02f,+2.35104874e-01f,-3.01067144e-01f,-3.69446009e-01f,+3.59739751e-01f,
-2.13121712e-01f,+3.84010643e-01f,+2.77338475e-01f,+1.22346677e-01f,+3.65723938e-01f,
+1.98196620e-01f,-3.59829783e-01f,-7.23224878e-03f,-4.18214262e-01f,+1.84017807e-01f,
-2.55218863e-01f,+3.28572541e-01f,+8.23015124e-02f,-2.52418280e-01f,-2.57059298e-02f,
-1.52902171e-01f,+3.78233045e-01f,+3.01042169e-01f,-3.16005021e-01f,-1.10393099e-01f,
+1.09006770e-01f,+1.90618575e-01f,-2.60783702e-01f,-2.10267037e-01f,+2.86505133e-01f,
-9.70420241e-03f,-3.30558807e-01f,-1.16006792e+00f,-3.66833299e-01f,-1.47224158e-01f,
+1.59483403e-01f,-1.65811598e-01f,-1.92958504e-01f,+1.12281211e-01f,-1.85429171e-01f,
+6.59415498e-02f,+7.41188824e-02f,+1.68738797e-01f,+2.73588419e-01f,-1.85986951e-01f,
+2.48068854e-01f,-1.62427530e-01f,+1.53748989e-01f,-1.02352297e+00f,+5.62455118e-01f,
-1.59197077e-01f,-2.18701303e-01f,+5.97640336e-01f,-1.14640996e-01f,-1.53891003e+00f,
+1.86518028e-01f,+5.39681256e-01f,-1.35525727e+00f,+6.28871500e-01f,-8.54981720e-01f,
-3.41290236e-02f,+7.44391158e-02f,+3.94618332e-01f,-5.33929560e-03f,+1.33258438e+00f,
-5.40431917e-01f,-2.67215252e-01f,+9.53328088e-02f,+3.41388404e-01f,-9.81260985e-02f,
+4.68687057e-01f,-1.50634363e-01f,+2.34487399e-01f,+3.65686059e-01f,-1.94383293e-01f,
+1.39748782e-01f,-2.52084732e-01f,-9.54588410e-03f,-1.12727985e-01f,-9.57917273e-02f,
-3.58030975e-01f,+6.76742569e-02f,-1.58982411e-01f,-2.16225073e-01f,+3.92228970e-03f,
-3.59711051e-01f,-1.44355178e-01f,-2.51580268e-01f,-1.98794082e-01f,+3.58002990e-01f,
-2.15058357e-01f,+1.38694063e-01f,-3.54417086e-01f,-2.56621808e-01f,-3.35618138e-01f,
-3.99333239e-01f,+7.61282369e-02f,-2.98964279e-03f,-2.21153527e-01f,+2.06415728e-02f,
+5.02577245e-01f,+3.94348711e-01f,-5.14783382e-01f,-2.87467599e-01f,+4.65995073e-01f,
-1.63640961e-01f,-1.87702641e-01f,+1.32713526e-01f,+2.98864573e-01f,-1.57890141e-01f,
-7.95158207e-01f,-2.67467737e-01f,-5.39585650e-01f,-9.12799239e-02f,+1.12659253e-01f,
-3.71429324e-03f,+6.26002923e-02f,+1.22918732e-01f,+5.20752013e-01f,-1.96505442e-01f,
+3.41758803e-02f,+7.97021389e-03f,-3.05861652e-01f,-1.67659506e-01f,+3.95609677e-01f,
+7.30863661e-02f,+3.48370939e-01f,-2.19149012e-02f,-3.16896915e-01f,-3.49593163e-01f,
+7.17777386e-02f,+1.04185939e-02f,+2.06354305e-01f,-1.60886720e-01f,+1.89532369e-01f,
+6.84666038e-02f,-5.08326627e-02f,-2.05717534e-01f,+1.68437034e-01f,-4.12354708e-01f,
+3.92400652e-01f,-2.49192104e-01f,+1.12536870e-01f,+3.87047619e-01f,-3.20235819e-01f,
-3.21878254e-01f,+1.99320540e-01f,+2.50908464e-01f,+2.69370139e-01f,-5.28963692e-02f,
-2.38836810e-01f,-3.02723020e-01f,+2.27048293e-01f,-4.22226161e-01f,-2.78404832e-01f,
+1.35576978e-01f,-2.18981072e-01f,+3.45640838e-01f,-1.67347014e-01f,-5.49462475e-02f,
+2.20063373e-01f,-3.26857537e-01f,+9.75999534e-02f,+4.02846545e-01f,+1.54173419e-01f,
+7.11923391e-02f,+1.82463497e-01f,-1.46820411e-01f,+3.21333259e-01f,-3.68164629e-01f,
-4.73364025e-01f,+3.07626039e-01f,-2.63006330e-01f,+1.95834771e-01f,-1.95205808e-01f,
-3.20453912e-01f,-7.91604102e-01f,+4.02841479e-01f,+3.90548408e-01f,+5.99426329e-02f,
-4.94900271e-02f,-3.11335716e-02f,+1.12090617e-01f,+1.64752096e-01f,-3.63664746e-01f,
-7.51560032e-02f,+2.91425318e-01f,-4.02332097e-01f,-4.30547565e-01f,+4.28438306e-01f,
-2.88511753e-01f,+3.49494725e-01f,-2.07971141e-01f,+8.15532357e-02f,+3.38014007e-01f,
-3.91378403e-02f,+1.44922554e-01f,+3.06602687e-01f,+2.34959088e-02f,+2.21217930e-01f,
-2.85932541e-01f,-1.64731145e-02f,-2.65839487e-01f,+2.76610494e-01f,-1.91959560e-01f,
+4.24424112e-01f,+1.06256030e-01f,-1.20629132e-01f,-4.83358949e-01f,+1.06802329e-01f,
+5.70255339e-01f,+1.15860380e-01f,+4.21185419e-02f,+4.96417433e-01f,-6.44075572e-01f,
-5.43402076e-01f,+2.58293301e-01f,-1.61307439e-01f,+4.78317350e-01f,-2.68630177e-01f,
+4.17003036e-02f,+4.91621912e-01f,-6.34321332e-01f,+4.87923861e-01f,-1.79334342e+00f,
-5.46854511e-02f,-2.13393718e-01f,-3.21210384e-01f,+3.90085913e-02f,+4.65108603e-01f,
+1.10257797e-01f,-2.36467719e-01f,+3.86256993e-01f,+3.81466180e-01f,+9.07352790e-02f,
+2.13051125e-01f,-9.37009156e-02f,-4.60455000e-01f,-3.31931382e-01f,+1.75894648e-01f,
-9.71327946e-02f,}; 
k2c_tensor dense_107_kernel = {&dense_107_kernel_array[0],2,256,{16,16, 1, 1, 1}}; 
float dense_107_bias_array[16] = {
+1.73573673e-01f,+3.98057029e-02f,-1.16591780e-02f,+1.79786682e-01f,+1.52912572e-01f,
-1.73758507e-01f,-3.17138359e-02f,+1.62498757e-01f,-1.22225769e-01f,+2.14841053e-01f,
-1.10008061e-01f,-1.08110933e-02f,+8.34995415e-04f,+4.77681169e-03f,+3.60196270e-02f,
+8.72062802e-01f,}; 
k2c_tensor dense_107_bias = {&dense_107_bias_array[0],1,16,{16, 1, 1, 1, 1}}; 
float dense_107_fwork[272] = {0}; 

 
float dense_108_kernel_array[16] = {
+8.74116540e-01f,+4.32830721e-01f,+1.00983150e-01f,-3.16178620e-01f,-3.41958851e-01f,
+5.99243581e-01f,-4.06801850e-01f,-3.16881776e-01f,+5.44575989e-01f,+1.14059508e+00f,
+3.46402645e-01f,-5.78047216e-01f,+5.03875911e-01f,-1.77349046e-01f,+4.69602644e-01f,
-6.98655546e-01f,}; 
k2c_tensor dense_108_kernel = {&dense_108_kernel_array[0],2,16,{16, 1, 1, 1, 1}}; 
float dense_108_bias_array[1] = {
-1.34940371e-01f,}; 
k2c_tensor dense_108_bias = {&dense_108_bias_array[0],1,1,{1,1,1,1,1}}; 
float dense_108_fwork[32] = {0}; 

 
k2c_dense(&dense_105_output,dense_105_input_input,&dense_105_kernel, 
	&dense_105_bias,k2c_relu,dense_105_fwork); 
k2c_dense(&dense_106_output,&dense_105_output,&dense_106_kernel, 
	&dense_106_bias,k2c_relu,dense_106_fwork); 
k2c_dense(&dense_107_output,&dense_106_output,&dense_107_kernel, 
	&dense_107_bias,k2c_relu,dense_107_fwork); 
k2c_dense(dense_108_output,&dense_107_output,&dense_108_kernel, 
	&dense_108_bias,k2c_linear,dense_108_fwork); 

 } 

void poly_16_16_16_initialize() { 

} 

void poly_16_16_16_terminate() { 

} 

