#include <verifier_functions.h>

// This file is computer-generated by onnx2c 
// (TODO: add creating command line here)
// (TODO: print creation date here )

// ONNX model:
// produced by pytorch, version 1.10
// ONNX IR version: 10
// Model documentation: 
/*

*/

#include <float.h>
#include <math.h>
#include <stdbool.h>
#include <stdint.h>
#include <string.h>
#define MAX(X,Y) ( X > Y ? X : Y)
#define MIN(X,Y) ( X < Y ? X : Y)
#define CLIP(X,L) ( MAX(MIN(X,L), -L) )

static const float tensor_q_net_0_weight[64][8] = 
{
  {0.21815462410449981689f, 0.23126253485679626465f, -0.14049024879932403564f, 0.39555677771568298340f, 0.38167867064476013184f, 0.29623535275459289551f, -0.11851222068071365356f, 0.38335996866226196289f},
  {0.32722774147987365723f, -0.18002328276634216309f, -0.058009725064039230347f, -0.61122369766235351562f, 0.20965157449245452881f, -0.21931108832359313965f, 0.28791013360023498535f, -0.083385989069938659668f},
  {0.097119949758052825928f, 0.11459454894065856934f, -0.18267662823200225830f, -0.53653883934020996094f, 0.62316286563873291016f, 0.80314677953720092773f, 0.23681224882602691650f, -0.17747259140014648438f},
  {0.065452866256237030029f, 0.33481782674789428711f, -0.062545962631702423096f, -0.48236319422721862793f, -0.091554202139377593994f, -0.59343177080154418945f, -0.13210780918598175049f, -0.084559924900531768799f},
  {-0.13729324936866760254f, 0.40263897180557250977f, 0.035320516675710678101f, -0.45157456398010253906f, 0.32293987274169921875f, 0.044250439852476119995f, 0.036267247051000595093f, 0.012885699048638343811f},
  {0.10267733037471771240f, -0.29715156555175781250f, 0.041881542652845382690f, 0.19170737266540527344f, -0.20044560730457305908f, -0.62976199388504028320f, 0.045773569494485855103f, -0.31998673081398010254f},
  {0.39393681287765502930f, -0.49902957677841186523f, 0.024521933868527412415f, -0.20070505142211914062f, -0.19924673438072204590f, -0.51733219623565673828f, 0.19300517439842224121f, -0.066791266202926635742f},
  {-0.42786395549774169922f, 0.35525736212730407715f, 0.043794512748718261719f, 0.70126491785049438477f, -0.087736882269382476807f, -0.024472059682011604309f, 0.25193959474563598633f, -0.32160553336143493652f},
  {-0.37834304571151733398f, 0.062281597405672073364f, -0.10328613221645355225f, -0.44685536623001098633f, -0.48348543047904968262f, -0.72696304321289062500f, 0.25606501102447509766f, -0.40161132812500000000f},
  {0.32648268342018127441f, -0.0040428149513900279999f, 0.31547635793685913086f, 0.00059961475199088454247f, -0.32405033707618713379f, -0.72218799591064453125f, -0.20964381098747253418f, 0.10720227658748626709f},
  {0.38044592738151550293f, 0.29978239536285400391f, 0.46423867344856262207f, 0.031197274103760719299f, -0.37070873379707336426f, -0.43410280346870422363f, -0.23311735689640045166f, -0.17661151289939880371f},
  {0.081495441496372222900f, 0.13058233261108398438f, 0.49873977899551391602f, 0.10359665751457214355f, -0.36440837383270263672f, -0.83493953943252563477f, -0.0057512996718287467957f, -0.14117108285427093506f},
  {-0.48074340820312500000f, -0.18296620249748229980f, -0.48946437239646911621f, 0.060058221220970153809f, 0.50314015150070190430f, 0.45120793581008911133f, -0.091498136520385742188f, 0.063873223960399627686f},
  {-0.54595232009887695312f, 0.32698225975036621094f, -0.33540120720863342285f, 0.23263694345951080322f, 0.16218961775302886963f, 0.79747009277343750000f, 0.36944240331649780273f, -0.14918304979801177979f},
  {-0.26147302985191345215f, -0.014169178903102874756f, -0.45713070034980773926f, 0.35372534394264221191f, 0.076309047639369964600f, 0.70875638723373413086f, 0.22188398241996765137f, -0.012267538346350193024f},
  {0.16665235161781311035f, -0.43763053417205810547f, 0.26236829161643981934f, 0.079260908067226409912f, -0.12267754226922988892f, -0.26360884308815002441f, 0.26789662241935729980f, -0.32691743969917297363f},
  {0.20245245099067687988f, 0.33070600032806396484f, 0.42438662052154541016f, -0.038668781518936157227f, -0.093829698860645294189f, 0.32169419527053833008f, 0.021105455234646797180f, 0.075158871710300445557f},
  {-0.15649257600307464600f, -0.067862235009670257568f, -0.42029604315757751465f, 0.15884177386760711670f, 0.53921091556549072266f, 0.11660134047269821167f, -0.054871030151844024658f, -0.017356799915432929993f},
  {0.18147696554660797119f, 0.29369148612022399902f, -0.047135170549154281616f, 0.66183745861053466797f, 0.30061650276184082031f, -0.14717732369899749756f, 0.30585092306137084961f, 0.36710429191589355469f},
  {-0.16968399286270141602f, 0.19787797331809997559f, 0.089986555278301239014f, 0.14142541587352752686f, -0.49346673488616943359f, -0.54258573055267333984f, 0.021661162376403808594f, -0.19954881072044372559f},
  {0.056874524801969528198f, 0.016406467184424400330f, -0.34424012899398803711f, 0.38101834058761596680f, 0.47883254289627075195f, 0.34022143483161926270f, 0.19595122337341308594f, 0.25335982441902160645f},
  {0.11424858123064041138f, 0.31948012113571166992f, -0.036738384515047073364f, -0.27242115139961242676f, -0.15877954661846160889f, 0.16541935503482818604f, 0.19767281413078308105f, -0.51673328876495361328f},
  {0.29471167922019958496f, 0.31039899587631225586f, 0.22677209973335266113f, 0.21753829717636108398f, -0.34232342243194580078f, -0.89071518182754516602f, -0.10210126638412475586f, -0.034211419522762298584f},
  {0.27470198273658752441f, -0.38548806309700012207f, 0.012460447847843170166f, -0.15099035203456878662f, -0.18389688432216644287f, 0.067192241549491882324f, 0.42906713485717773438f, 0.22979773581027984619f},
  {-0.30285152792930603027f, 0.12718689441680908203f, -0.23634999990463256836f, -0.097859762609004974365f, 0.33727130293846130371f, 0.65387105941772460938f, 0.33658239245414733887f, -0.090025521814823150635f},
  {0.12983664870262145996f, -0.013680899515748023987f, -0.37508219480514526367f, -0.43568241596221923828f, -0.050783421844244003296f, 0.15214347839355468750f, -0.17953255772590637207f, -0.019559901207685470581f},
  {-0.50570970773696899414f, -0.021971331909298896790f, -0.38528981804847717285f, 0.19613002240657806396f, 0.33713874220848083496f, 0.12308070063591003418f, -0.27605086565017700195f, -0.16908800601959228516f},
  {-0.025537222623825073242f, 0.18280114233493804932f, -0.66620808839797973633f, 0.32753634452819824219f, -0.044553890824317932129f, -0.048638828098773956299f, 0.23943090438842773438f, -0.29916507005691528320f},
  {0.013246620073914527893f, 0.0061931074596941471100f, 0.28966581821441650391f, -0.66723012924194335938f, 0.27381223440170288086f, -0.015885101631283760071f, -0.18933831155300140381f, -0.32966196537017822266f},
  {0.0067918747663497924805f, 0.39470055699348449707f, 0.51645112037658691406f, -0.064484819769859313965f, -0.20985592901706695557f, 0.43533846735954284668f, 0.26148512959480285645f, 0.34962534904479980469f},
  {0.27496284246444702148f, -0.055719595402479171753f, 0.10007699579000473022f, 0.053351432085037231445f, -0.64477878808975219727f, -0.64444440603256225586f, -0.27283635735511779785f, -0.12606687843799591064f},
  {0.040109504014253616333f, 0.24097920954227447510f, 0.44256675243377685547f, 0.20204040408134460449f, -0.23731969296932220459f, -0.43280628323554992676f, 0.088981576263904571533f, -0.16334712505340576172f},
  {-0.20051804184913635254f, 0.28609183430671691895f, -0.55090332031250000000f, -0.51247942447662353516f, -0.44774708151817321777f, -0.78392845392227172852f, -0.25878101587295532227f, -0.35088315606117248535f},
  {-0.36571717262268066406f, -0.062558107078075408936f, 0.18626607954502105713f, 0.31968280673027038574f, 0.27908536791801452637f, 0.70832550525665283203f, 0.14834557473659515381f, 0.27670016884803771973f},
  {0.0051297545433044433594f, -0.41218152642250061035f, 0.18223786354064941406f, -0.37051498889923095703f, -0.57999449968338012695f, -0.13926452398300170898f, 0.014435460790991783142f, 0.33188313245773315430f},
  {0.0067208493128418922424f, -0.12864139676094055176f, 0.25228044390678405762f, -0.56572192907333374023f, -0.057134315371513366699f, 0.15973892807960510254f, 0.31431904435157775879f, -0.31014627218246459961f},
  {-0.15479445457458496094f, 0.37155833840370178223f, 0.11172448843717575073f, -0.52487891912460327148f, 0.41267570853233337402f, 0.63274717330932617188f, -0.066411495208740234375f, -0.077210538089275360107f},
  {0.10807292163372039795f, 0.019888715818524360657f, -0.14963056147098541260f, -0.15754419565200805664f, 0.28064751625061035156f, 0.77019035816192626953f, 0.15600976347923278809f, -0.050552725791931152344f},
  {-0.030985336750745773315f, -0.17792107164859771729f, 0.37198591232299804688f, -0.56990164518356323242f, -0.68438649177551269531f, -0.69818657636642456055f, 0.18760897219181060791f, 0.31418430805206298828f},
  {-0.096249781548976898193f, 0.20530354976654052734f, 0.069778203964233398438f, -0.38891109824180603027f, 0.51376819610595703125f, 0.42729532718658447266f, -0.16407792270183563232f, 0.30811241269111633301f},
  {0.26538893580436706543f, -0.25400656461715698242f, 0.13034249842166900635f, 0.058185290545225143433f, -0.34820649027824401855f, -0.95329409837722778320f, -0.25205269455909729004f, 0.099996134638786315918f},
  {-0.32900983095169067383f, -0.10657498240470886230f, 0.038420654833316802979f, -0.26580807566642761230f, 0.77371126413345336914f, 0.70267903804779052734f, 0.056705467402935028076f, -0.094615273177623748779f},
  {-0.12493214756250381470f, -0.0019090808928012847900f, 0.076118469238281250000f, -0.32537639141082763672f, 0.59463250637054443359f, 0.62958085536956787109f, -0.37721189856529235840f, 0.12568932771682739258f},
  {0.19524233043193817139f, 0.28725963830947875977f, -0.39592170715332031250f, 0.066648237407207489014f, 0.66993498802185058594f, 0.16102367639541625977f, -0.18749777972698211670f, 0.17377586662769317627f},
  {-0.027112148702144622803f, 0.37780568003654479980f, 0.43887704610824584961f, -0.38862031698226928711f, -0.10949680209159851074f, -0.20028114318847656250f, -0.29930534958839416504f, 0.13486789166927337646f},
  {0.35994759202003479004f, 0.047369863837957382202f, 0.19669902324676513672f, -0.036185901612043380737f, -0.75354683399200439453f, -0.84851938486099243164f, -0.045158248394727706909f, 0.081925950944423675537f},
  {0.071872748434543609619f, 0.35479357838630676270f, -0.29301691055297851562f, 0.21493065357208251953f, 0.29768761992454528809f, 0.83482736349105834961f, 0.17704387009143829346f, -0.14421109855175018311f},
  {0.47903752326965332031f, -0.18081919848918914795f, -0.32811567187309265137f, 0.19381673634052276611f, -0.26112201809883117676f, 0.27223774790763854980f, 0.13952435553073883057f, 0.40633991360664367676f},
  {-0.024352405220270156860f, 0.10982310026884078979f, -0.30461657047271728516f, 0.26221168041229248047f, 0.33529517054557800293f, 0.60052609443664550781f, -0.17267595231533050537f, 0.23427157104015350342f},
  {-0.30914896726608276367f, -0.24522115290164947510f, -0.34981247782707214355f, 0.074846662580966949463f, 0.072011381387710571289f, 0.55288970470428466797f, 0.12995010614395141602f, 0.29457488656044006348f},
  {-0.25661298632621765137f, -0.20553721487522125244f, -0.36319628357887268066f, -0.13615398108959197998f, 0.33484759926795959473f, 0.48700192570686340332f, -0.23588190972805023193f, 0.048581797629594802856f},
  {-0.48833027482032775879f, -0.052741438150405883789f, -0.52350163459777832031f, 0.029284128919243812561f, 0.36043950915336608887f, 0.45980873703956604004f, 0.18380619585514068604f, -0.18469256162643432617f},
  {0.29166892170906066895f, 0.33382606506347656250f, 0.39080274105072021484f, 0.29744997620582580566f, -0.62458467483520507812f, -0.43188002705574035645f, 0.33035528659820556641f, -0.038627676665782928467f},
  {0.45882469415664672852f, 0.13740909099578857422f, 0.53757345676422119141f, 0.39300671219825744629f, -0.15581919252872467041f, -0.39446353912353515625f, 0.32210922241210937500f, 0.39250263571739196777f},
  {0.19721564650535583496f, 0.30481794476509094238f, 0.26546159386634826660f, 0.88385170698165893555f, -0.18524642288684844971f, 0.23591195046901702881f, 0.40120032429695129395f, 0.34988030791282653809f},
  {0.40553367137908935547f, 0.073846384882926940918f, 0.45291474461555480957f, -0.13075201213359832764f, -0.73496830463409423828f, -0.23548339307308197021f, 0.26262861490249633789f, -0.19603219628334045410f},
  {0.22023899853229522705f, 0.11966627091169357300f, 0.22532811760902404785f, -0.37130564451217651367f, 0.38832014799118041992f, 0.83304727077484130859f, -0.065574355423450469971f, -0.20430544018745422363f},
  {0.15716975927352905273f, -0.091723650693893432617f, 0.57184094190597534180f, 0.091566018760204315186f, -0.24363589286804199219f, -0.31140840053558349609f, -0.10437631607055664062f, 0.25462818145751953125f},
  {-0.12092297524213790894f, 0.14997078478336334229f, 0.37002924084663391113f, -0.49834203720092773438f, -0.53955227136611938477f, -0.80757874250411987305f, 0.24055902659893035889f, -0.18455579876899719238f},
  {-0.33796542882919311523f, -0.10893946141004562378f, -0.094529666006565093994f, -0.54049211740493774414f, 0.14477229118347167969f, 0.12138924747705459595f, -0.36110129952430725098f, 0.22672322392463684082f},
  {-0.086705610156059265137f, 0.33198833465576171875f, -0.44941312074661254883f, -0.34533905982971191406f, -0.049405906349420547485f, -0.92039835453033447266f, -0.16675196588039398193f, 0.095286034047603607178f},
  {-0.0067614694125950336456f, -0.0092237116768956184387f, -0.24660746753215789795f, -0.49029225111007690430f, 0.049339801073074340820f, 0.55061888694763183594f, 0.0098965754732489585876f, -0.023535570129752159119f},
  {-0.0071868840605020523071f, 0.41218081116676330566f, -0.32758048176765441895f, -0.56541866064071655273f, 0.10727716982364654541f, 0.31289383769035339355f, 0.16531947255134582520f, -0.25113204121589660645f},
  {-0.0041470979340374469757f, -0.26628723740577697754f, -0.23722857236862182617f, -0.27828401327133178711f, 0.28959137201309204102f, 0.78592771291732788086f, -0.016633754596114158630f, 0.015621821396052837372f}
};
static const float tensor_q_net_0_bias[64] = 
{0.12845531105995178223f, 0.41714116930961608887f, 0.14017663896083831787f, -0.13708075881004333496f, 0.18022812902927398682f, -0.12264554202556610107f, -0.071718491613864898682f, 0.099278226494789123535f, 0.44311326742172241211f, -0.13443689048290252686f, -0.083772376179695129395f, 0.084880210459232330322f, 0.052885454148054122925f, -0.024125367403030395508f, 0.37179458141326904297f, 0.15233589708805084229f, 0.32939881086349487305f, 0.22834061086177825928f, -0.060392919927835464478f, -0.051796566694974899292f, 0.35254719853401184082f, 0.00037004359182901680470f, -0.10096389055252075195f, 0.017663700506091117859f, -0.18190978467464447021f, 0.40287289023399353027f, 0.14833286404609680176f, -0.14991423487663269043f, 0.069670639932155609131f, 0.33992031216621398926f, 0.11308524012565612793f, 0.059126272797584533691f, 0.49273356795310974121f, 0.35135602951049804688f, -0.29483631253242492676f, 0.37666666507720947266f, 0.27321201562881469727f, -0.14660981297492980957f, 0.37281021475791931152f, 0.38398006558418273926f, 0.22427709400653839111f, -0.20411415398120880127f, 0.39281135797500610352f, -0.052804801613092422485f, 0.36961698532104492188f, -0.19960673153400421143f, -0.049253460019826889038f, 0.010654312558472156525f, 0.17027802765369415283f, 0.17125812172889709473f, -0.18524986505508422852f, 0.30131286382675170898f, -0.029451973736286163330f, 0.26675239205360412598f, -0.22516876459121704102f, -0.31322172284126281738f, 0.13871002197265625000f, 0.16369529068470001221f, 0.34716966748237609863f, 0.35749399662017822266f, 0.15715081989765167236f, 0.39058464765548706055f, -0.14269591867923736572f, -0.18345573544502258301f};
static const float tensor_q_net_2_weight[64][64] = 
{
  {0.039809726178646087646f, -0.050762739032506942749f, -0.19122810661792755127f, 0.13844394683837890625f, -0.093590117990970611572f, 0.27353912591934204102f, 0.15563592314720153809f, 0.11391936242580413818f, 0.098718091845512390137f, 0.28946930170059204102f, 0.15529285371303558350f, 0.34614974260330200195f, -0.082153230905532836914f, 0.075116179883480072021f, -0.095753416419029235840f, 0.17181558907032012939f, -0.012814316898584365845f, 0.11130903661251068115f, -0.044442199170589447021f, 0.17692987620830535889f, 0.052400562912225723267f, -0.054322648793458938599f, 0.11145962774753570557f, 0.094179615378379821777f, -0.062852211296558380127f, -0.069160178303718566895f, 0.060742199420928955078f, -0.17512120306491851807f, -0.067520424723625183105f, -0.032795850187540054321f, 0.33121207356452941895f, 0.077234402298927307129f, 0.10531808435916900635f, 0.22424302995204925537f, 0.16705378890037536621f, -0.029301825910806655884f, -0.10415780544281005859f, 0.018354790285229682922f, 0.28693309426307678223f, -0.13550117611885070801f, 0.29416126012802124023f, 0.017644144594669342041f, -0.0061908992938697338104f, -0.020617609843611717224f, 0.14635564386844635010f, 0.41214540600776672363f, -0.097013518214225769043f, -0.10015775263309478760f, -0.071614414453506469727f, 0.0054180887527763843536f, 0.10471388697624206543f, -0.14949390292167663574f, 0.15896672010421752930f, 0.033173188567161560059f, -0.012725659646093845367f, 0.14241665601730346680f, -0.12435232102870941162f, 0.059641480445861816406f, 0.24063502252101898193f, -0.13053065538406372070f, 0.029263472184538841248f, 0.038218718022108078003f, -0.24724909663200378418f, -0.023488728329539299011f},
  {0.17423489689826965332f, -0.14404435455799102783f, 0.11871144920587539673f, -0.14073741436004638672f, -0.18640923500061035156f, 0.37055459618568420410f, 0.35550564527511596680f, 0.084381602704524993896f, 0.12595379352569580078f, 0.37366050481796264648f, -0.042363274842500686646f, 0.12940715253353118896f, 0.10461071878671646118f, 0.038051422685384750366f, 0.18859438598155975342f, 0.075192660093307495117f, -0.059541210532188415527f, 0.17937716841697692871f, -0.023035459220409393311f, 0.13008004426956176758f, 0.26451393961906433105f, -0.067355290055274963379f, 0.12385556846857070923f, 0.18193358182907104492f, 0.069585300981998443604f, 0.070407159626483917236f, 0.096312843263149261475f, -0.11775827407836914062f, -0.083521172404289245605f, -0.14708033204078674316f, 0.22300963103771209717f, 0.13808275759220123291f, 0.12631011009216308594f, 0.23204496502876281738f, 0.20094783604145050049f, -0.063316814601421356201f, 0.061697196215391159058f, 0.36060976982116699219f, -0.0073961941525340080261f, 0.049506489187479019165f, 0.39023768901824951172f, 0.28091356158256530762f, 0.00083453452680259943008f, 0.14057278633117675781f, -0.010083124972879886627f, 0.42861360311508178711f, -0.032600872218608856201f, -0.053815595805644989014f, 0.22741876542568206787f, 0.17099411785602569580f, 0.20657210052013397217f, 0.18200482428073883057f, 0.12939044833183288574f, -0.0065177725628018379211f, -0.11676339060068130493f, 0.068210497498512268066f, 0.063147425651550292969f, 0.044522177428007125854f, 0.042455513030290603638f, 0.055172670632600784302f, -0.022057555615901947021f, 0.043040342628955841064f, -0.081087894737720489502f, 0.35298976302146911621f},
  {0.23861002922058105469f, -0.23024989664554595947f, -0.18466833233833312988f, -0.081831723451614379883f, 0.012825866229832172394f, -0.19809877872467041016f, -0.036571737378835678101f, 0.073575735092163085938f, -0.11711367964744567871f, 0.081489749252796173096f, 0.13067698478698730469f, 0.13643197715282440186f, 0.0028313649818301200867f, -0.069017753005027770996f, 0.24893933534622192383f, 0.053409364074468612671f, 0.18474619090557098389f, 0.13693585991859436035f, 0.16069933772087097168f, 0.039935141801834106445f, 0.21084152162075042725f, -0.025294207036495208740f, -0.098465941846370697021f, 0.13271909952163696289f, -0.15377731621265411377f, -0.079644471406936645508f, 0.22034750878810882568f, 0.073613561689853668213f, -0.062565729022026062012f, 0.20885217189788818359f, 0.0080586457625031471252f, 0.15638543665409088135f, -0.011275476776063442230f, 0.14987955987453460693f, -0.0075906203128397464752f, 0.078751616179943084717f, 0.025206508114933967590f, 0.036831356585025787354f, -0.041182726621627807617f, -0.096328593790531158447f, 0.00033591402461752295494f, -0.12598720192909240723f, -0.17129406332969665527f, -0.17054092884063720703f, -0.083667591214179992676f, -0.080502584576606750488f, -0.12925629317760467529f, 0.29826408624649047852f, -0.021374521777033805847f, 0.22890862822532653809f, -0.19245833158493041992f, 0.10709927231073379517f, 0.12323093414306640625f, 0.20859271287918090820f, 0.33895596861839294434f, 0.23294225335121154785f, -0.20542332530021667480f, 0.24068213999271392822f, 0.045689098536968231201f, -0.25923213362693786621f, -0.30224302411079406738f, -0.086679615080356597900f, -0.20254114270210266113f, -0.023934608325362205505f},
  {0.012151402421295642853f, -0.080465853214263916016f, 0.18287679553031921387f, -0.044251084327697753906f, 0.017527651041746139526f, 0.45019125938415527344f, 0.24628160893917083740f, 0.094322033226490020752f, 0.060371752828359603882f, 0.24444253742694854736f, 0.037650071084499359131f, 0.26536208391189575195f, 0.34161859750747680664f, 0.22568520903587341309f, 0.37079751491546630859f, 0.30439576506614685059f, -0.0099234059453010559082f, 0.32330745458602905273f, 0.025805614888668060303f, 0.021493338048458099365f, 0.18889281153678894043f, -0.21539863944053649902f, 0.079881221055984497070f, 0.19800573587417602539f, 0.21586979925632476807f, 0.00012950900418218225241f, 0.15623167157173156738f, -0.18108695745468139648f, -0.023947186768054962158f, -0.063886843621730804443f, 0.31381875276565551758f, 0.012173704802989959717f, 0.045073237270116806030f, 0.10030255466699600220f, 0.32286563515663146973f, -0.11053891479969024658f, 0.067862004041671752930f, 0.33145007491111755371f, -0.029285535216331481934f, -0.059672646224498748779f, 0.46206170320510864258f, 0.38773801922798156738f, 0.099843882024288177490f, -0.010076616890728473663f, -0.10407703369855880737f, 0.39953064918518066406f, 0.19188506901264190674f, 0.10665176808834075928f, 0.24853259325027465820f, 0.21420602500438690186f, 0.26149243116378784180f, 0.25434756278991699219f, 0.18250431120395660400f, 0.12893630564212799072f, -0.10681300610303878784f, 0.29649296402931213379f, 0.063576802611351013184f, 0.073573850095272064209f, 0.077158547937870025635f, 0.0094489855691790580750f, 0.0084897382184863090515f, -0.091813057661056518555f, -0.054182350635528564453f, 0.45082792639732360840f},
  {-0.23840337991714477539f, 0.11243195831775665283f, 0.17664073407649993896f, 0.19101649522781372070f, 0.18921749293804168701f, 0.078360043466091156006f, -0.10374754667282104492f, -0.20263071358203887939f, 0.20687070488929748535f, -0.39441037178039550781f, -0.0030742688104510307312f, -0.080623708665370941162f, -0.27258780598640441895f, -0.23862726986408233643f, -0.43394017219543457031f, -0.22435583174228668213f, 0.036069814115762710571f, -0.43091058731079101562f, -0.23016771674156188965f, -0.12625727057456970215f, -0.37506642937660217285f, 0.088187269866466522217f, -0.35779851675033569336f, -0.095470145344734191895f, -0.12668137252330780029f, 0.19016936421394348145f, -0.25043287873268127441f, -0.063041985034942626953f, 0.31137317419052124023f, 0.16694216430187225342f, -0.25634500384330749512f, -0.14596636593341827393f, 0.027735656127333641052f, -0.26911336183547973633f, -0.34560632705688476562f, 0.29699096083641052246f, 0.033497259020805358887f, -0.44645422697067260742f, 0.043086599558591842651f, 0.18069061636924743652f, -0.31268978118896484375f, -0.39499402046203613281f, 0.12418694049119949341f, -0.23094198107719421387f, 0.062787935137748718262f, -0.51159101724624633789f, -0.055471498519182205200f, 0.093760915100574493408f, -0.22473563253879547119f, -0.19402842223644256592f, -0.30508047342300415039f, -0.11900064349174499512f, -0.20271791517734527588f, -0.34012198448181152344f, -0.23433732986450195312f, -0.38566425442695617676f, 0.11102376133203506470f, -0.055576778948307037354f, 0.097018361091613769531f, 0.10016688704490661621f, 0.089245043694972991943f, 0.093156710267066955566f, 0.23987239599227905273f, -0.39936161041259765625f},
  {0.11363667994737625122f, -0.11476625502109527588f, 0.078896693885326385498f, 0.066844515502452850342f, -0.062882825732231140137f, 0.30544379353523254395f, 0.32426857948303222656f, -0.12937048077583312988f, 0.043641008436679840088f, 0.35152074694633483887f, 0.086937695741653442383f, 0.23645602166652679443f, 0.13569359481334686279f, 0.14984156191349029541f, 0.26194152235984802246f, 0.093106232583522796631f, 0.032632239162921905518f, 0.15264312922954559326f, -0.23644602298736572266f, 0.25205937027931213379f, 0.081635266542434692383f, -0.10205780714750289917f, 0.30623400211334228516f, -0.049210678786039352417f, 0.29133445024490356445f, -0.0061867069453001022339f, -0.21299467980861663818f, -0.34572216868400573730f, -0.041797988116741180420f, -0.032814878970384597778f, 0.19938999414443969727f, 0.16990604996681213379f, -0.031422771513462066650f, 0.16345030069351196289f, 0.28509023785591125488f, 0.026521094143390655518f, -0.086418665945529937744f, 0.27016139030456542969f, 0.032898947596549987793f, -0.070649474859237670898f, 0.47947883605957031250f, 0.48272311687469482422f, 0.012708514928817749023f, 0.084449648857116699219f, -0.10104190558195114136f, 0.41054910421371459961f, 0.096026554703712463379f, 0.028194520622491836548f, 0.21331375837326049805f, 0.20853206515312194824f, 0.18579813838005065918f, 0.078237682580947875977f, 0.21507252752780914307f, -0.025580700486898422241f, -0.48694935441017150879f, 0.058335643261671066284f, 0.20930580794811248779f, 0.032808996737003326416f, -0.037246603518724441528f, 0.0055221747606992721558f, 0.089518882334232330322f, 0.10202446579933166504f, 0.050044387578964233398f, 0.31719744205474853516f},
  {-0.085288621485233306885f, 0.28922149538993835449f, 0.016252666711807250977f, 0.28482085466384887695f, 0.12192104756832122803f, 0.089201539754867553711f, -0.11544167995452880859f, -0.30895799398422241211f, 0.14200058579444885254f, -0.44549903273582458496f, -0.23613505065441131592f, -0.38377496600151062012f, -0.27627867460250854492f, -0.18061470985412597656f, -0.19932252168655395508f, -0.26327726244926452637f, 0.012944096699357032776f, -0.10814810544252395630f, -0.078935399651527404785f, -0.23331575095653533936f, -0.17567694187164306641f, 0.15700307488441467285f, -0.40519207715988159180f, -0.071105711162090301514f, -0.015814695507287979126f, 0.19492444396018981934f, -0.24518775939941406250f, 0.27930036187171936035f, 0.23485839366912841797f, -0.065507851541042327881f, -0.21484285593032836914f, -0.15446797013282775879f, 0.21210542321205139160f, -0.28308996558189392090f, -0.32740798592567443848f, 0.22808176279067993164f, -0.0060250270180404186249f, -0.24201779067516326904f, 0.015818547457456588745f, 0.17335395514965057373f, -0.31098410487174987793f, -0.13097591698169708252f, 0.12392587214708328247f, 0.018267717212438583374f, 0.15386173129081726074f, -0.38449004292488098145f, -0.098586179316043853760f, 0.026902589946985244751f, -0.19651602208614349365f, -0.075001537799835205078f, -0.27726891636848449707f, 0.16991244256496429443f, -0.43324080109596252441f, -0.38906019926071166992f, -0.25354874134063720703f, -0.19644281268119812012f, 0.014368411153554916382f, -0.33322885632514953613f, 0.013818654231727123260f, 0.25099235773086547852f, 0.16091623902320861816f, 0.21784602105617523193f, 0.30325257778167724609f, -0.25449261069297790527f},
  {-0.072170227766036987305f, -0.080018885433673858643f, 0.020409706979990005493f, 0.018107375130057334900f, 0.12100200355052947998f, 0.19072127342224121094f, 0.012512203305959701538f, -0.097911886870861053467f, -0.059329327195882797241f, -0.068849869072437286377f, 0.12033488601446151733f, 0.0043710898607969284058f, 0.095427669584751129150f, 0.15726286172866821289f, -0.067280247807502746582f, -0.17388765513896942139f, -0.015289125032722949982f, -0.066146150231361389160f, -0.14121776819229125977f, 0.14212511479854583740f, -0.17424814403057098389f, 0.096866048872470855713f, 0.13846863806247711182f, -0.035955742001533508301f, -0.034598592668771743774f, 0.033977486193180084229f, -0.16414885222911834717f, -0.40871101617813110352f, 0.12308196723461151123f, 0.18057052791118621826f, 0.062202692031860351562f, 0.25976026058197021484f, -0.11620102077722549438f, 0.17163917422294616699f, -0.038683582097291946411f, 0.062901630997657775879f, 0.035258393734693527222f, 0.26417651772499084473f, 0.066189333796501159668f, 0.15618160367012023926f, -0.057941243052482604980f, 0.10236399620771408081f, 0.022188279777765274048f, 0.076030321419239044189f, 0.067163825035095214844f, -0.034154199063777923584f, 0.10445445030927658081f, 0.062601208686828613281f, 0.038991987705230712891f, -0.0028159948997199535370f, 0.19922742247581481934f, -0.090763956308364868164f, 0.024284677579998970032f, -0.015295368619263172150f, -0.0086393682286143302917f, 0.019022693857550621033f, 0.16327598690986633301f, 0.019932834431529045105f, 0.11496372520923614502f, 0.036093428730964660645f, 0.071977727115154266357f, 0.14000201225280761719f, 0.12978361546993255615f, 0.081248253583908081055f},
  {0.023736031726002693176f, -0.025699220597743988037f, 0.15763181447982788086f, -0.24371266365051269531f, 0.076956391334533691406f, 0.11216670274734497070f, 0.019583897665143013000f, -0.099595434963703155518f, -0.13125605881214141846f, -0.077290959656238555908f, -0.10912405699491500854f, 0.056446164846420288086f, 0.11344253271818161011f, 0.040039204061031341553f, 0.32302081584930419922f, -0.0051851081661880016327f, 0.020895812660455703735f, 0.24059231579303741455f, -0.13864405453205108643f, -0.013823688961565494537f, 0.096863254904747009277f, -0.11295887827873229980f, 0.0080253407359123229980f, -0.024075748398900032043f, 0.10035409033298492432f, 0.11887215077877044678f, 0.059135999530553817749f, -0.15646280348300933838f, -0.063102759420871734619f, 0.10059628635644912720f, -0.10340255498886108398f, -0.025858782231807708740f, 0.040215522050857543945f, 0.23754301667213439941f, -0.019444828853011131287f, -0.087447896599769592285f, -0.027252478525042533875f, 0.25956848263740539551f, -0.24412660300731658936f, 0.13474784791469573975f, -0.13142912089824676514f, 0.33568650484085083008f, 0.26997914910316467285f, 0.16034732758998870850f, -0.024767423048615455627f, 0.043260090053081512451f, 0.12754957377910614014f, 0.026250367984175682068f, 0.27280548214912414551f, 0.17117770016193389893f, 0.27039104700088500977f, 0.063806071877479553223f, 0.0043373447842895984650f, -0.086950249969959259033f, 0.054736234247684478760f, -0.25984621047973632812f, 0.10201036930084228516f, -0.12943817675113677979f, -0.20757859945297241211f, -0.043286524713039398193f, -0.057908158749341964722f, 0.18867820501327514648f, -0.049388341605663299561f, 0.34371569752693176270f},
  {0.16269370913505554199f, -0.090641640126705169678f, 0.33407381176948547363f, -0.24981755018234252930f, -0.047688644379377365112f, 0.051532551646232604980f, -0.027820870280265808105f, -0.12217465788125991821f, -0.30110061168670654297f, 0.062429893761873245239f, -0.047681186348199844360f, -0.18467840552330017090f, 0.42191633582115173340f, 0.23410506546497344971f, 0.19312825798988342285f, -0.19390852749347686768f, -0.022699305787682533264f, 0.14361284673213958740f, -0.075050175189971923828f, -0.083847865462303161621f, 0.085554935038089752197f, -0.16044916212558746338f, -0.11866078525781631470f, -0.054248213768005371094f, 0.087591670453548431396f, 0.13116572797298431396f, 0.0045957746915519237518f, -0.067963555455207824707f, 0.10262051224708557129f, -0.066463150084018707275f, -0.091429069638252258301f, 0.076816931366920471191f, -0.065514780580997467041f, 0.34167441725730895996f, 0.10036154836416244507f, -0.026915585622191429138f, 0.12716700136661529541f, 0.23105369508266448975f, -0.49811148643493652344f, 0.27135238051414489746f, -0.22650018334388732910f, 0.33609455823898315430f, 0.18874149024486541748f, 0.086333349347114562988f, -0.21756516396999359131f, -0.0019990049768239259720f, 0.21129795908927917480f, 0.010926697403192520142f, 0.19111117720603942871f, 0.15324740111827850342f, 0.28070616722106933594f, 0.18853364884853363037f, 0.076013475656509399414f, 0.0052044540643692016602f, -0.11812682449817657471f, -0.24885645508766174316f, 0.30704244971275329590f, 0.072120234370231628418f, -0.31120347976684570312f, 0.068592205643653869629f, -0.084356442093849182129f, 0.19869984686374664307f, 0.077865250408649444580f, 0.39240002632141113281f},
  {0.14850662648677825928f, -0.074717007577419281006f, 0.037134449928998947144f, -0.12119502574205398560f, 0.0029865431133657693863f, 0.44068425893783569336f, 0.49171701073646545410f, 0.029978511855006217957f, 0.026934770867228507996f, 0.26066485047340393066f, 0.14016115665435791016f, 0.089493945240974426270f, 0.33573856949806213379f, 0.16457015275955200195f, 0.29748567938804626465f, 0.12818470597267150879f, 0.059460815042257308960f, 0.14064489305019378662f, -0.19073958694934844971f, 0.10073393583297729492f, 0.11507871001958847046f, -0.22911238670349121094f, 0.29692378640174865723f, 0.070598088204860687256f, 0.27480733394622802734f, -0.019747007638216018677f, -0.031602460891008377075f, -0.090652033686637878418f, -0.083908930420875549316f, 0.032942954450845718384f, 0.31541916728019714355f, -0.029123993590474128723f, 0.068209432065486907959f, 0.19460071623325347900f, 0.23704920709133148193f, -0.18619076907634735107f, -0.079578131437301635742f, 0.24276991188526153564f, 0.030496358871459960938f, -0.093839101493358612061f, 0.38146281242370605469f, 0.51598453521728515625f, 0.19686333835124969482f, 0.076948150992393493652f, -0.0042138877324759960175f, 0.47030588984489440918f, 0.029774852097034454346f, -0.092107944190502166748f, 0.24870418012142181396f, 0.14294737577438354492f, 0.36582109332084655762f, 0.039292618632316589355f, 0.070145942270755767822f, -0.016394438222050666809f, -0.20360262691974639893f, 0.22278995811939239502f, 0.17279210686683654785f, 0.14726722240447998047f, 0.081653401255607604980f, -0.027644628658890724182f, 0.082992561161518096924f, 0.059097260236740112305f, 0.020439684391021728516f, 0.45385971665382385254f},
  {-0.037269923835992813110f, -0.013233989477157592773f, 0.050441313534975051880f, 0.096960514783859252930f, -0.013304723426699638367f, 0.038333304226398468018f, 0.095519714057445526123f, -0.13216990232467651367f, 0.049927849322557449341f, 0.0043032928369939327240f, 0.10844038426876068115f, -0.021212266758084297180f, 0.018983831629157066345f, 0.15530975162982940674f, 0.049950256943702697754f, -0.053854998201131820679f, -0.018299499526619911194f, -0.24352228641510009766f, -0.22793781757354736328f, 0.086859814822673797607f, 0.019186083227396011353f, -0.076619751751422882080f, -0.067105263471603393555f, 0.013814820908010005951f, 0.026190962642431259155f, 0.056931678205728530884f, -0.23100788891315460205f, -0.24673585593700408936f, 0.052483417093753814697f, 0.051887754350900650024f, 0.044184844940900802612f, 0.086033210158348083496f, 0.12403351813554763794f, 0.16370056569576263428f, 0.051647946238517761230f, -0.15247693657875061035f, 0.093208029866218566895f, 0.15555749833583831787f, 0.012672359123826026917f, -0.0028618148062378168106f, 0.19787408411502838135f, 0.16829256713390350342f, 0.098069354891777038574f, -0.015102085657417774200f, 0.13299091160297393799f, 0.11530400067567825317f, 0.13726522028446197510f, -0.032184682786464691162f, 0.080232463777065277100f, 0.10515087842941284180f, 0.20594149827957153320f, -0.0015722239622846245766f, -0.17064577341079711914f, -0.032998628914356231689f, -0.30024760961532592773f, -0.016840519383549690247f, 0.18064545094966888428f, -0.087454281747341156006f, 0.043012615293264389038f, -0.12464930862188339233f, -0.016356760635972023010f, -0.095486097037792205811f, -0.073089487850666046143f, 0.14364530146121978760f},
  {-0.31933814287185668945f, 0.095864601433277130127f, 0.012963525950908660889f, 0.061360683292150497437f, 0.094692289829254150391f, 0.047552134841680526733f, -0.035821396857500076294f, -0.35578832030296325684f, 0.11663362383842468262f, -0.19412431120872497559f, -0.062002155929803848267f, -0.037390526384115219116f, -0.014011162333190441132f, -0.18297852575778961182f, -0.24684654176235198975f, -0.15195745229721069336f, 0.092868752777576446533f, -0.13848097622394561768f, -0.29261168837547302246f, 0.071012847125530242920f, -0.15081585943698883057f, 0.15488491952419281006f, -0.12361942231655120850f, -0.18268568813800811768f, -0.12881243228912353516f, 0.15706658363342285156f, -0.16549779474735260010f, -0.16586822271347045898f, 0.18569126725196838379f, 0.18331693112850189209f, 0.042832322418689727783f, -0.043177008628845214844f, 0.13075701892375946045f, 0.013850322924554347992f, -0.010095916688442230225f, 0.12320645153522491455f, 0.23711615800857543945f, -0.0029319897294044494629f, 0.17416618764400482178f, 0.058785121887922286987f, -0.086439214646816253662f, -0.00048358322237618267536f, 0.16417151689529418945f, -0.063428081572055816650f, 0.14824359118938446045f, -0.13240034878253936768f, 0.0054958434775471687317f, 0.041746497154235839844f, -0.14201864600181579590f, -0.038211472332477569580f, -0.098656587302684783936f, 0.00074703554855659604073f, -0.24956408143043518066f, -0.22088995575904846191f, -0.29761829972267150879f, -0.22976428270339965820f, 0.23016150295734405518f, 0.056829571723937988281f, 0.16364301741123199463f, 0.10391284525394439697f, 0.086783096194267272949f, 0.15028232336044311523f, 0.24231080710887908936f, -0.094536118209362030029f},
  {-0.081497184932231903076f, -0.10604953020811080933f, -0.098453514277935028076f, -0.045412339270114898682f, -0.10155767202377319336f, -0.12251202762126922607f, 0.081085681915283203125f, 0.078427180647850036621f, -0.054624553769826889038f, 0.0060174167156219482422f, -0.059031233191490173340f, -0.085219174623489379883f, -0.097354210913181304932f, 0.099367246031761169434f, -0.12570723891258239746f, -0.048806279897689819336f, 0.051144350320100784302f, -0.058989580720663070679f, -0.077222615480422973633f, -0.052025102078914642334f, 0.084897868335247039795f, 0.10600796341896057129f, -0.029051870107650756836f, -0.081812746822834014893f, 0.11101569235324859619f, -0.022152381017804145813f, 0.050395954400300979614f, -0.099967509508132934570f, 0.076597340404987335205f, -0.049165833741426467896f, -0.092964068055152893066f, 0.11228527128696441650f, -0.062521085143089294434f, -0.056328367441892623901f, -0.10559067130088806152f, -0.093541368842124938965f, 0.10113424062728881836f, -0.043749392032623291016f, -0.0036208033561706542969f, -0.035984490066766738892f, 0.014195859432220458984f, -0.037675771862268447876f, 0.029046582058072090149f, 0.042464941740036010742f, -0.017537025734782218933f, -0.070485278964042663574f, -0.015114233829081058502f, 0.062547810375690460205f, -0.13122028112411499023f, 0.011437319219112396240f, 0.0068706828169524669647f, 0.0023602670989930629730f, 0.044951260089874267578f, -0.079975053668022155762f, -0.071694239974021911621f, 0.071261033415794372559f, 0.048300016671419143677f, -0.038783464580774307251f, -0.11437508463859558105f, -0.10530090332031250000f, -0.023737531155347824097f, 0.071373365819454193115f, 0.078888356685638427734f, 0.098223224282264709473f},
  {0.017681937664747238159f, -0.034746088087558746338f, 0.026435444131493568420f, -0.055442094802856445312f, 0.084392197430133819580f, 0.14307746291160583496f, 0.25803107023239135742f, 0.027614345774054527283f, 0.041672941297292709351f, 0.15093308687210083008f, 0.084248058497905731201f, 0.038772556930780410767f, 0.31678038835525512695f, 0.12123777717351913452f, 0.28351023793220520020f, 0.037379045039415359497f, -0.054429471492767333984f, 0.17456255853176116943f, 0.13437050580978393555f, 0.16741189360618591309f, 0.20818097889423370361f, -0.13367107510566711426f, 0.16335231065750122070f, 0.20213976502418518066f, 0.15813226997852325439f, 0.031449425965547561646f, 0.19508165121078491211f, -0.064261652529239654541f, 0.037953820079565048218f, -0.12142171710729598999f, 0.18481875956058502197f, 0.11260604113340377808f, -0.033036381006240844727f, 0.23429508507251739502f, 0.16474652290344238281f, 0.044893611222505569458f, -0.084175392985343933105f, 0.29319727420806884766f, -0.019168328493833541870f, 0.046591509133577346802f, 0.22014866769313812256f, 0.30502325296401977539f, 0.15588638186454772949f, 0.082859203219413757324f, -0.15434245765209197998f, 0.27747070789337158203f, 0.12540362775325775146f, 0.055179741233587265015f, 0.063972070813179016113f, 0.11357564479112625122f, 0.35304862260818481445f, 0.25617155432701110840f, 0.19899645447731018066f, 0.21180975437164306641f, 0.073772244155406951904f, 0.21135973930358886719f, 0.10853052139282226562f, 0.043075066059827804565f, 0.075905784964561462402f, 0.050960872322320938110f, -0.076805368065834045410f, -0.072391025722026824951f, -0.15869982540607452393f, 0.25466358661651611328f},
  {0.048364147543907165527f, -0.16001380980014801025f, -0.10615459084510803223f, 0.042665794491767883301f, -0.089554876089096069336f, 0.15426470339298248291f, 0.24482886493206024170f, -0.0023508903104811906815f, 0.18493518233299255371f, 0.092835105955600738525f, 0.13033233582973480225f, 0.12628380954265594482f, 0.12025544047355651855f, 0.049467835575342178345f, 0.011136862449347972870f, 0.10786514729261398315f, 0.15064184367656707764f, -0.20925736427307128906f, -0.010940535925328731537f, 0.24135628342628479004f, -0.11181139200925827026f, -0.11362563073635101318f, 0.26646089553833007812f, -0.0068355416879057884216f, -0.26022839546203613281f, -0.14765492081642150879f, -0.017903121188282966614f, -0.28927019238471984863f, -0.14681859314441680908f, -0.043341808021068572998f, 0.14714972674846649170f, 0.090105295181274414062f, 0.12131736427545547485f, 0.16693599522113800049f, 0.016254965215921401978f, -0.086786061525344848633f, -0.084545500576496124268f, 0.036464780569076538086f, 0.15460358560085296631f, 0.043241560459136962891f, 0.25060093402862548828f, -0.080069117248058319092f, 0.038668163120746612549f, -0.18475976586341857910f, 0.19009159505367279053f, 0.23111042380332946777f, -0.079839311540126800537f, 0.0092430869117379188538f, -0.086038909852504730225f, -0.13778266310691833496f, 0.15859498083591461182f, -0.012659359723329544067f, 0.10821833461523056030f, 0.076855868101119995117f, -0.067831747233867645264f, -0.084523648023605346680f, -0.19392646849155426025f, 0.16209912300109863281f, 0.22217106819152832031f, -0.0018588594393804669380f, 0.20291763544082641602f, 0.022319927811622619629f, -0.21245019137859344482f, 0.10406937450170516968f},
  {-0.085170283913612365723f, -0.20102760195732116699f, 0.16767810285091400146f, 0.091435775160789489746f, 0.069919914007186889648f, 0.30192148685455322266f, 0.29239079356193542480f, -0.16598762571811676025f, 0.034119147807359695435f, 0.079837121069431304932f, 0.083410739898681640625f, 0.17624081671237945557f, 0.20600172877311706543f, 0.036831110715866088867f, 0.092492617666721343994f, -0.071419462561607360840f, -0.0077793593518435955048f, -0.13304567337036132812f, -0.056684464216232299805f, 0.042408496141433715820f, -0.047829341143369674683f, -0.14441336691379547119f, 0.16078585386276245117f, 0.088563017547130584717f, 0.18806289136409759521f, -0.072297714650630950928f, -0.15794326364994049072f, -0.24915423989295959473f, -0.092381633818149566650f, -0.050246477127075195312f, 0.22304311394691467285f, 0.20525805652141571045f, -0.014545917510986328125f, 0.19453926384449005127f, 0.010625250637531280518f, -0.10061740875244140625f, 0.080749802291393280029f, 0.16026139259338378906f, -0.027021102607250213623f, 0.023631760850548744202f, 0.21078911423683166504f, 0.11309394985437393188f, 0.18172255158424377441f, -0.058822836726903915405f, 0.029845908284187316895f, 0.0031046387739479541779f, 0.15794347226619720459f, 0.029956160113215446472f, 0.0086074359714984893799f, 0.10474074631929397583f, 0.19393777847290039062f, -0.023244481533765792847f, -0.0029864688403904438019f, 0.062972299754619598389f, -0.10376872867345809937f, -0.13352032005786895752f, 0.23120427131652832031f, 0.038021873682737350464f, -0.090578131377696990967f, -0.13710036873817443848f, 0.046482216566801071167f, 0.079493746161460876465f, 0.051455453038215637207f, 0.32849794626235961914f},
  {-0.38794684410095214844f, 0.23463022708892822266f, 0.099332973361015319824f, 0.11096866428852081299f, 0.10163267701864242554f, 0.015508545562624931335f, -0.37094277143478393555f, -0.34114494919776916504f, 0.060910992324352264404f, -0.42397475242614746094f, -0.034005507826805114746f, -0.17790959775447845459f, -0.48639917373657226562f, -0.46867603063583374023f, -0.30714401602745056152f, -0.076864324510097503662f, 0.13295696675777435303f, -0.27760046720504760742f, -0.24297046661376953125f, -0.31936082243919372559f, -0.51012694835662841797f, 0.15279868245124816895f, -0.48085811734199523926f, -0.17911331355571746826f, -0.19756487011909484863f, 0.081893302500247955322f, -0.45618399977684020996f, -0.14600878953933715820f, 0.36547836661338806152f, 0.042635116726160049438f, -0.22887200117111206055f, -0.14626130461692810059f, 0.048020750284194946289f, -0.11243382841348648071f, -0.30005553364753723145f, 0.22720386087894439697f, 0.091309309005737304688f, -0.46199491620063781738f, 0.27731877565383911133f, 0.17200785875320434570f, -0.21227452158927917480f, -0.29246520996093750000f, 0.23714217543601989746f, -0.14731970429420471191f, 0.16509738564491271973f, -0.38705214858055114746f, -0.21711017191410064697f, 0.11092146486043930054f, -0.39829948544502258301f, -0.28685438632965087891f, -0.41394752264022827148f, -0.24748441576957702637f, -0.32741570472717285156f, -0.23978611826896667480f, -0.25126892328262329102f, -0.23523627221584320068f, 0.12809869647026062012f, -0.21131865680217742920f, 0.20809048414230346680f, 0.25855132937431335449f, 0.025445519015192985535f, 0.099211119115352630615f, 0.070471547544002532959f, -0.38679420948028564453f},
  {0.063788779079914093018f, -0.11465422064065933228f, 0.041056331247091293335f, 0.0026905676349997520447f, -0.073490351438522338867f, -0.22974042594432830811f, 0.0045337821356952190399f, 0.080782182514667510986f, -0.11195720732212066650f, 0.090564280748367309570f, 0.074562683701515197754f, 0.15662802755832672119f, 0.014054681174457073212f, -0.014516813680529594421f, 0.10131523758172988892f, -0.089026130735874176025f, 0.053214251995086669922f, 0.085822045803070068359f, 0.12848286330699920654f, 0.033946678042411804199f, 0.081553108990192413330f, -0.053986378014087677002f, -0.0041973213665187358856f, -0.086617879569530487061f, -0.082719810307025909424f, -0.063864529132843017578f, -0.086911387741565704346f, 0.13168476521968841553f, 0.043811801820993423462f, 0.14475011825561523438f, -0.027235485613346099854f, 0.13444070518016815186f, 0.049033373594284057617f, 0.061500281095504760742f, 0.027431901544332504272f, 0.089740008115768432617f, -0.079785235226154327393f, -0.085858702659606933594f, 0.025001520290970802307f, -0.15069234371185302734f, -0.13656277954578399658f, -0.0086589511483907699585f, -0.17436560988426208496f, 0.038382038474082946777f, -0.063376009464263916016f, -0.055297624319791793823f, 0.011708448641002178192f, -0.056762799620628356934f, 0.11737594008445739746f, 0.045179348438978195190f, 0.034329932183027267456f, 0.014873499050736427307f, 0.050797138363122940063f, 0.089459531009197235107f, 0.18422798812389373779f, 0.18381449580192565918f, -0.085266649723052978516f, 0.11965391039848327637f, -0.054896198213100433350f, 0.0097473487257957458496f, -0.11488702893257141113f, 0.031415663659572601318f, -0.045359302312135696411f, 0.0098347552120685577393f},
  {0.068109504878520965576f, 0.044293656945228576660f, -0.040815092623233795166f, -0.13787789642810821533f, 0.010976007208228111267f, 0.25423634052276611328f, 0.37835729122161865234f, -0.015589731745421886444f, 0.073368363082408905029f, 0.25871059298515319824f, 0.057587619870901107788f, 0.072489745914936065674f, 0.27743524312973022461f, 0.067951776087284088135f, 0.27537930011749267578f, 0.12526075541973114014f, -0.17063099145889282227f, 0.064940094947814941406f, -0.047321051359176635742f, 0.23277780413627624512f, 0.081741154193878173828f, -0.18538774549961090088f, 0.18076935410499572754f, -0.050154775381088256836f, 0.12744884192943572998f, -0.14015252888202667236f, 0.15380436182022094727f, -0.14759235084056854248f, -0.062660522758960723877f, -0.040573220700025558472f, 0.15254175662994384766f, 0.099394604563713073730f, 0.11229360848665237427f, 0.21973955631256103516f, 0.15660645067691802979f, -0.10263152420520782471f, 0.040227372199296951294f, 0.29841175675392150879f, 0.045546829700469970703f, -0.024765502661466598511f, 0.45537135004997253418f, 0.27670970559120178223f, 0.16152188181877136230f, 0.11591562628746032715f, 0.061673905700445175171f, 0.32885926961898803711f, 0.19336830079555511475f, 0.018607772886753082275f, 0.25735870003700256348f, 0.11976449936628341675f, 0.32557117938995361328f, 0.19776877760887145996f, 0.18441575765609741211f, -0.0078285690397024154663f, -0.23790915310382843018f, 0.18622641265392303467f, 0.0057470346800982952118f, 0.093039929866790771484f, 0.11038865149021148682f, -0.0086202500388026237488f, -0.022553814575076103210f, -0.10854095965623855591f, -0.059431914240121841431f, 0.30306491255760192871f},
  {0.16414883732795715332f, -0.36397439241409301758f, -0.20050004124641418457f, -0.017468476668000221252f, -0.048995841294527053833f, -0.047902826219797134399f, -0.15668402612209320068f, 0.28624150156974792480f, -0.10219871997833251953f, 0.15727904438972473145f, -0.00018556605209596455097f, 0.15609803795814514160f, 0.23668791353702545166f, 0.19924056529998779297f, 0.076193757355213165283f, 0.063169620931148529053f, 0.10334512591361999512f, 0.14197613298892974854f, 0.21249480545520782471f, -0.018271198496222496033f, -0.014554986730217933655f, 0.12238585948944091797f, 0.23601636290550231934f, -0.099383145570755004883f, 0.050927791744470596313f, -0.13544699549674987793f, 0.16995033621788024902f, 0.24522545933723449707f, -0.32122024893760681152f, -0.041139662265777587891f, -0.068727031350135803223f, 0.011744294315576553345f, 0.045155644416809082031f, 0.047504652291536331177f, -0.045773781836032867432f, -0.33027994632720947266f, -0.11507145315408706665f, -0.058233547955751419067f, -0.18169443309307098389f, 0.0078903539106249809265f, -0.22530908882617950439f, -0.042302742600440979004f, -0.098409980535507202148f, 0.0086706783622503280640f, 0.024795822799205780029f, 0.031432844698429107666f, 0.21273563802242279053f, -0.10568523406982421875f, 0.14999403059482574463f, 0.069492265582084655762f, -0.051520343869924545288f, -0.0088104419410228729248f, 0.014555605128407478333f, 0.12873418629169464111f, 0.11116032302379608154f, 0.15106788277626037598f, -0.17880587279796600342f, 0.10970628261566162109f, -0.058541264384984970093f, -0.094737738370895385742f, -0.00082772778114303946495f, -0.097718514502048492432f, 0.0074570314027369022369f, -0.26350954174995422363f},
  {-0.20966026186943054199f, 0.28699970245361328125f, 0.12440511584281921387f, 0.096884481608867645264f, 0.0074420133605599403381f, 0.094697080552577972412f, -0.19373938441276550293f, -0.38339480757713317871f, 0.17649449408054351807f, -0.36907741427421569824f, -0.27646374702453613281f, -0.28764164447784423828f, -0.17064096033573150635f, -0.17240054905414581299f, -0.24184632301330566406f, -0.11015212535858154297f, -0.037987664341926574707f, -0.30311408638954162598f, -0.24082724750041961670f, -0.15730738639831542969f, -0.16641348600387573242f, 0.029376925900578498840f, -0.25298449397087097168f, -0.22301328182220458984f, -0.19703431427478790283f, 0.049390055239200592041f, -0.29516869783401489258f, -0.023759728297591209412f, 0.17225988209247589111f, 0.13283555209636688232f, -0.24854059517383575439f, -0.24516148865222930908f, 0.27732360363006591797f, -0.19386093318462371826f, -0.32198551297187805176f, 0.20346625149250030518f, 0.18729656934738159180f, -0.26753264665603637695f, -0.025852488353848457336f, 0.0036856576334685087204f, -0.23044864833354949951f, -0.23200602829456329346f, 0.11340834945440292358f, 0.034788057208061218262f, 0.12591612339019775391f, -0.37776875495910644531f, -0.19512797892093658447f, 0.073910973966121673584f, -0.29845547676086425781f, -0.17177772521972656250f, -0.15710031986236572266f, 0.037140004336833953857f, -0.32258820533752441406f, -0.23875620961189270020f, -0.23851315677165985107f, -0.25458130240440368652f, 0.19080643355846405029f, -0.11088824272155761719f, 0.11576921492815017700f, 0.081732824444770812988f, 0.12688148021697998047f, 0.24091799557209014893f, 0.24151988327503204346f, -0.25815021991729736328f},
  {0.13024288415908813477f, -0.21606245636940002441f, -0.25471937656402587891f, -0.12657734751701354980f, -0.00061878439737483859062f, -0.26665374636650085449f, -0.056574355810880661011f, 0.10117934644222259521f, -0.090314559638500213623f, 0.069981701672077178955f, 0.13364243507385253906f, 0.15201537311077117920f, 0.010755036026239395142f, 0.17822432518005371094f, 0.085307992994785308838f, -0.14469380676746368408f, 0.081836514174938201904f, 0.052224908024072647095f, 0.25282436609268188477f, 0.040809828788042068481f, -0.040213622152805328369f, 0.16812047362327575684f, 0.12078556418418884277f, 0.017992490902543067932f, 0.12469444423913955688f, -0.18881498277187347412f, 0.10974965244531631470f, 0.18832126259803771973f, 0.0034952510613948106766f, 0.13474096357822418213f, -0.027321118861436843872f, 0.057309869676828384399f, -0.17382149398326873779f, 0.13943752646446228027f, -0.026384683325886726379f, -0.044641155749559402466f, 0.032559417188167572021f, -0.087686181068420410156f, -0.080230243504047393799f, 0.022234708070755004883f, -0.094926476478576660156f, 0.051749162375926971436f, -0.10262054949998855591f, 0.043000534176826477051f, 0.10547810792922973633f, 0.059295084327459335327f, 0.15711131691932678223f, -0.11501907557249069214f, 0.027139829471707344055f, 0.049051180481910705566f, -0.029480827972292900085f, -0.0026580276899039745331f, 0.057322658598423004150f, 0.15155473351478576660f, 0.36037412285804748535f, 0.30726212263107299805f, -0.093493334949016571045f, 0.15616887807846069336f, -0.0073223365470767021179f, -0.26910898089408874512f, -0.087469972670078277588f, -0.091085843741893768311f, 0.0079959733411669731140f, -0.18271963298320770264f},
  {-0.22238101065158843994f, 0.14569452404975891113f, 0.12318536639213562012f, 0.050768300890922546387f, 0.057736001908779144287f, 0.061752118170261383057f, -0.10190892219543457031f, -0.084101833403110504150f, 0.071025170385837554932f, -0.37708809971809387207f, 0.0044754785485565662384f, -0.051382016390562057495f, -0.20372490584850311279f, -0.26143074035644531250f, -0.12169687449932098389f, -0.074407443404197692871f, 0.085051052272319793701f, -0.27715635299682617188f, -0.076112315058708190918f, -0.10945522040128707886f, -0.10101536661386489868f, 0.083624884486198425293f, -0.092809349298477172852f, -0.14819873869419097900f, -0.27066925168037414551f, 0.11816746741533279419f, -0.42806392908096313477f, -0.11393301934003829956f, 0.18222181499004364014f, 0.085890278220176696777f, -0.068294405937194824219f, -0.10131096094846725464f, 0.11542283743619918823f, -0.048672139644622802734f, -0.18225687742233276367f, 0.017093712463974952698f, 0.060073263943195343018f, -0.27602678537368774414f, 0.023675695061683654785f, 0.0055815847590565681458f, -0.21048662066459655762f, -0.15652246773242950439f, 0.070085130631923675537f, -0.077856294810771942139f, 0.063279345631599426270f, -0.27397736907005310059f, -0.041482668370008468628f, 0.0074358079582452774048f, -0.12946689128875732422f, -0.13623504340648651123f, -0.26074165105819702148f, 0.0074501861818134784698f, -0.19049821794033050537f, -0.21609394252300262451f, -0.22687461972236633301f, -0.24451419711112976074f, 0.14462177455425262451f, -0.15865319967269897461f, -0.018973732367157936096f, -0.0011462437687441706657f, 0.0015166057273745536804f, 0.17513525485992431641f, 0.099213629961013793945f, -0.045453339815139770508f},
  {-0.35187035799026489258f, 0.32110515236854553223f, 0.040194895118474960327f, 0.0097714914008975028992f, 0.052734013646841049194f, -0.16949026286602020264f, -0.25607746839523315430f, -0.25278288125991821289f, 0.032350342720746994019f, -0.13017760217189788818f, -0.027924211695790290833f, 0.060991756618022918701f, -0.34011501073837280273f, -0.38439366221427917480f, -0.35286572575569152832f, 0.051972165703773498535f, 0.21779318153858184814f, -0.16477528214454650879f, -0.12940409779548645020f, -0.14331616461277008057f, -0.21344155073165893555f, 0.21107895672321319580f, -0.064635589718818664551f, 0.11796157807111740112f, -0.19762603938579559326f, 0.25027459859848022461f, -0.24992270767688751221f, -0.27989315986633300781f, 0.20544168353080749512f, 0.20773188769817352295f, 0.069746762514114379883f, 0.049830455332994461060f, -0.055908378213644027710f, -0.090908087790012359619f, 0.068450756371021270752f, 0.20521003007888793945f, 0.076993964612483978271f, -0.30477628111839294434f, 0.26718327403068542480f, -0.0051434924826025962830f, -0.11468383669853210449f, -0.22104707360267639160f, 0.11528714746236801147f, -0.38437554240226745605f, 0.053203798830509185791f, -0.14708398282527923584f, -0.35706588625907897949f, 0.28636187314987182617f, -0.40225666761398315430f, -0.13852685689926147461f, -0.16818764805793762207f, -0.10064733028411865234f, -0.0086744334548711776733f, -0.011396364308893680573f, 0.18982073664665222168f, 0.10306648164987564087f, 0.24954198300838470459f, 0.19273151457309722900f, 0.038057472556829452515f, 0.18896353244781494141f, -0.097384691238403320312f, 0.16455873847007751465f, 0.062593363225460052490f, -0.11025486886501312256f},
  {0.052195448428392410278f, 0.050197385251522064209f, -0.40093672275543212891f, 0.30260434746742248535f, -0.093621611595153808594f, 0.32663935422897338867f, 0.40531885623931884766f, -0.076549321413040161133f, 0.22525678575038909912f, 0.23701870441436767578f, 0.043834306299686431885f, 0.34278753399848937988f, -0.055135890841484069824f, -0.022357815876603126526f, 0.14516943693161010742f, 0.34987458586692810059f, -0.13996760547161102295f, 0.14696162939071655273f, -0.018727678805589675903f, 0.21757879853248596191f, -0.10033679753541946411f, -0.098380222916603088379f, 0.15882067382335662842f, -0.029912400990724563599f, 0.010200593620538711548f, 0.035601612180471420288f, 0.15854758024215698242f, -0.13436369597911834717f, -0.11183144152164459229f, 0.0093880752101540565491f, 0.30162027478218078613f, 0.079533845186233520508f, 0.10731740295886993408f, -0.18319387733936309814f, 0.34147974848747253418f, -0.049942020326852798462f, -0.23417820036411285400f, -0.032327253371477127075f, 0.38461026549339294434f, -0.22553399205207824707f, 0.55188077688217163086f, -0.057724740356206893921f, -0.20680965483188629150f, -0.017239008098840713501f, -0.015857269987463951111f, 0.40796890854835510254f, -0.15452001988887786865f, -0.041247975081205368042f, 0.056344494223594665527f, -0.10456352680921554565f, -0.090968437492847442627f, 0.028836766257882118225f, 0.035430245101451873779f, 0.19102069735527038574f, -0.039831105619668960571f, 0.18854962289333343506f, -0.43305322527885437012f, 0.083757430315017700195f, 0.19736090302467346191f, -0.11969639360904693604f, 0.20261059701442718506f, -0.14728735387325286865f, -0.049972541630268096924f, 0.14853268861770629883f},
  {-0.30960577726364135742f, 0.083824217319488525391f, 0.13215312361717224121f, 0.16836266219615936279f, 0.16406305134296417236f, -0.16673803329467773438f, -0.035731706768274307251f, -0.46184337139129638672f, 0.036329869180917739868f, -0.014322053641080856323f, 0.025762379169464111328f, -0.14610943198204040527f, -0.055542308837175369263f, -0.14846108853816986084f, -0.10058566182851791382f, -0.017120486125349998474f, 0.030263109132647514343f, -0.24791368842124938965f, -0.42425313591957092285f, -0.19529491662979125977f, -0.24004414677619934082f, 0.11323023587465286255f, -0.19349943101406097412f, 0.013119976036250591278f, -0.13695260882377624512f, 0.12357724457979202271f, -0.11835233867168426514f, -0.20645950734615325928f, 0.25967311859130859375f, 0.18601523339748382568f, -0.10926838964223861694f, -0.032918229699134826660f, -0.0063747498206794261932f, -0.21418657898902893066f, 0.020981518551707267761f, 0.25681570172309875488f, 0.15858587622642517090f, -0.18402379751205444336f, 0.069185845553874969482f, 0.049414753913879394531f, -0.034862648695707321167f, -0.19752831757068634033f, -0.074769958853721618652f, -0.11445603519678115845f, -0.011229505762457847595f, 0.087870717048645019531f, -0.26176923513412475586f, 0.066080041229724884033f, -0.28129890561103820801f, -0.28765094280242919922f, -0.051393646746873855591f, -0.095207497477531433105f, 0.086069308221340179443f, -0.0034137209877371788025f, 0.053526598960161209106f, 0.17482922971248626709f, 0.11465660482645034790f, -0.064012482762336730957f, 0.20457310974597930908f, 0.042293012142181396484f, -0.044863719493150711060f, -0.0077611496672034263611f, 0.070757396519184112549f, -0.087304420769214630127f},
  {0.099478133022785186768f, 0.24733690917491912842f, 0.092901550233364105225f, 0.13880012929439544678f, 0.24387358129024505615f, -0.13089141249656677246f, -0.15416060388088226318f, 0.14042855799198150635f, 0.20923952758312225342f, -0.37718847393989562988f, -0.0092837847769260406494f, -0.012187800370156764984f, -0.24399966001510620117f, -0.033405713737010955811f, -0.20239636301994323730f, -0.040017325431108474731f, 0.11455128341913223267f, -0.14229042828083038330f, -0.014479950070381164551f, 0.026758840307593345642f, -0.16709636151790618896f, 0.35877525806427001953f, -0.084940843284130096436f, 0.012950708158314228058f, -0.0025080656632781028748f, 0.14984841644763946533f, -0.037552811205387115479f, 0.17744450271129608154f, 0.37637805938720703125f, 0.12182971090078353882f, -0.21273334324359893799f, 0.11065265536308288574f, 0.28870311379432678223f, -0.10529734939336776733f, -0.057198848575353622437f, 0.27257013320922851562f, 0.31009623408317565918f, -0.30997812747955322266f, 0.20918703079223632812f, 0.17385248839855194092f, -0.15935514867305755615f, -0.20816659927368164062f, 0.17996343970298767090f, 0.063624791800975799561f, 0.32976922392845153809f, -0.39208927750587463379f, 0.055669374763965606689f, 0.24826063215732574463f, -0.030458616092801094055f, -0.090697094798088073730f, -0.33334204554557800293f, -0.065198123455047607422f, 0.046777710318565368652f, 0.0019734853412955999374f, 0.22274607419967651367f, -0.18641546368598937988f, 0.13560588657855987549f, -0.029513783752918243408f, 0.097153402864933013916f, 0.28238612413406372070f, 0.25362062454223632812f, 0.26590961217880249023f, 0.34381175041198730469f, -0.30460381507873535156f},
  {0.16194508969783782959f, -0.13662514090538024902f, 0.22200335562229156494f, -0.26839044690132141113f, 0.068079203367233276367f, 0.098781406879425048828f, 0.14336727559566497803f, -0.21472139656543731689f, -0.27969807386398315430f, 0.029984496533870697021f, -0.068076446652412414551f, 0.033410768955945968628f, -0.068165108561515808105f, 0.16385067999362945557f, 0.044401217252016067505f, -0.027689460664987564087f, 0.21162635087966918945f, 0.013707271777093410492f, -0.22926920652389526367f, -0.096877932548522949219f, 0.11108464747667312622f, -0.098422616720199584961f, -0.0040518133901059627533f, 0.0031360562425106763840f, 0.21589177846908569336f, -0.080747425556182861328f, -0.16328273713588714600f, -0.33084416389465332031f, 0.092923752963542938232f, 0.15611246228218078613f, -0.12045697122812271118f, -0.11788296699523925781f, -0.089866690337657928467f, 0.31134012341499328613f, -0.12304648756980895996f, -0.0061528021469712257385f, 0.085959345102310180664f, 0.38582575321197509766f, -0.42456874251365661621f, 0.15003313124179840088f, -0.015404081903398036957f, 0.17298521101474761963f, 0.24308024346828460693f, 0.16359716653823852539f, 0.070899344980716705322f, -0.20026564598083496094f, 0.12041793763637542725f, 0.11968190968036651611f, 0.27227792143821716309f, -0.027858395129442214966f, -0.0032672942616045475006f, -0.017526766285300254822f, -0.23441876471042633057f, 0.025634162127971649170f, -0.14069224894046783447f, -0.091489456593990325928f, 0.28514954447746276855f, -0.14013591408729553223f, -0.11016715317964553833f, -0.027864813804626464844f, -0.25357186794281005859f, 0.10830176621675491333f, 0.15903331339359283447f, 0.21354994177818298340f},
  {0.16561344265937805176f, -0.0034141954965889453888f, 0.18512482941150665283f, -0.27360475063323974609f, 0.12395674735307693481f, 0.11455291509628295898f, -0.073940709233283996582f, -0.074770331382751464844f, -0.22503109276294708252f, -0.012515343725681304932f, 0.022055502980947494507f, -0.15835949778556823730f, 0.13327689468860626221f, 0.27569067478179931641f, 0.20003372430801391602f, -0.072306282818317413330f, 0.12589675188064575195f, 0.29471087455749511719f, -0.12356202304363250732f, 0.086334377527236938477f, 0.30682578682899475098f, -0.013267123140394687653f, -0.088077753782272338867f, -0.035268023610115051270f, 0.041941974312067031860f, 0.14506398141384124756f, 0.070739842951297760010f, -0.017979362979531288147f, -0.15740156173706054688f, -0.015224774368107318878f, -0.13117332756519317627f, 0.10104928165674209595f, 0.030576305463910102844f, 0.30454444885253906250f, 0.089302852749824523926f, -0.13859075307846069336f, 0.040507033467292785645f, 0.24627159535884857178f, -0.28445491194725036621f, 0.25774297118186950684f, -0.083838552236557006836f, 0.19157944619655609131f, 0.32643535733222961426f, 0.13962833583354949951f, -0.15884432196617126465f, 0.046778310090303421021f, 0.25987204909324645996f, -0.088011600077152252197f, 0.16570958495140075684f, 0.27367544174194335938f, 0.33207240700721740723f, 0.043318457901477813721f, -0.16323503851890563965f, -0.062863074243068695068f, -0.15820543467998504639f, -0.12320227175951004028f, 0.31846234202384948730f, -0.063837692141532897949f, -0.22364607453346252441f, 0.0013333847746253013611f, -0.089703805744647979736f, 0.037493098527193069458f, 0.16885919868946075439f, 0.29116037487983703613f},
  {-0.18108069896697998047f, -0.063604861497879028320f, -0.46631130576133728027f, 0.26394000649452209473f, 0.041188269853591918945f, 0.28234079480171203613f, 0.49597319960594177246f, 0.098581217229366302490f, 0.33396390080451965332f, 0.25164246559143066406f, 0.032439481467008590698f, 0.20427419245243072510f, 0.035659320652484893799f, 0.033848971128463745117f, 0.18565015494823455811f, 0.37661603093147277832f, -0.015034576877951622009f, -0.049114357680082321167f, -0.10026474297046661377f, 0.21920166909694671631f, -0.16719329357147216797f, -0.11515947431325912476f, 0.38384979963302612305f, 0.050304777920246124268f, -0.11716312915086746216f, 0.083199091255664825439f, -0.030788028612732887268f, 0.14910051226615905762f, -0.049945406615734100342f, -0.12953008711338043213f, 0.24286322295665740967f, 0.051752656698226928711f, 0.21486142277717590332f, -0.40795296430587768555f, 0.24590662121772766113f, -0.055631965398788452148f, -0.31331688165664672852f, 0.011475701816380023956f, 0.23587878048419952393f, -0.17875684797763824463f, 0.40402013063430786133f, 0.19801144301891326904f, -0.16940142214298248291f, -0.027303420007228851318f, 0.065680123865604400635f, 0.23017372190952301025f, -0.0022684494033455848694f, -0.19657236337661743164f, -0.11534167826175689697f, 0.17487312853336334229f, 0.16629344224929809570f, 0.086001768708229064941f, 0.069348983466625213623f, 0.10054401308298110962f, -0.31491675972938537598f, 0.0083489129319787025452f, -0.52624416351318359375f, 0.10965847223997116089f, 0.27397871017456054688f, -0.12118507921695709229f, 0.42167511582374572754f, -0.092600695788860321045f, -0.22230669856071472168f, 0.14556165039539337158f},
  {-0.13875500857830047607f, 0.090727552771568298340f, -0.36608982086181640625f, 0.15688188374042510986f, -0.089451208710670471191f, 0.31918582320213317871f, 0.27644136548042297363f, -0.0067546050995588302612f, 0.24511221051216125488f, 0.23562891781330108643f, 0.042570773512125015259f, 0.33528843522071838379f, -0.10843291133642196655f, 0.024328276515007019043f, 0.021246131509542465210f, 0.17791713774204254150f, -0.068088427186012268066f, -0.094240687787532806396f, -0.16256113350391387939f, 0.27581092715263366699f, -0.10280036181211471558f, -0.17019690573215484619f, 0.37480476498603820801f, 0.16211779415607452393f, -0.21840934455394744873f, -0.012179965153336524963f, -0.10123057663440704346f, 0.078476265072822570801f, -0.026173809543251991272f, -0.11947493255138397217f, 0.31604352593421936035f, 0.066347651183605194092f, 0.34387326240539550781f, -0.34375038743019104004f, 0.11326738446950912476f, -0.13501076400279998779f, -0.23467390239238739014f, 0.056382816284894943237f, 0.29801121354103088379f, -0.053772650659084320068f, 0.28586742281913757324f, -0.020066078752279281616f, -0.38677248358726501465f, 0.045174833387136459351f, -0.0043714647181332111359f, 0.43097385764122009277f, -0.10749503970146179199f, -0.010616580024361610413f, -0.036414213478565216064f, -0.13666233420372009277f, -0.00043728508171625435352f, -0.053512435406446456909f, 0.087708666920661926270f, 0.010297411121428012848f, -0.16696161031723022461f, 0.14026875793933868408f, -0.49371594190597534180f, 0.10077085345983505249f, 0.19736517965793609619f, -0.10370834916830062866f, 0.39852368831634521484f, -0.17821858823299407959f, -0.020988505333662033081f, -0.077406592667102813721f},
  {-0.44848933815956115723f, 0.28873133659362792969f, 0.22874259948730468750f, 0.34208554029464721680f, 0.11389560252428054810f, 0.019339814782142639160f, -0.29426142573356628418f, -0.33255901932716369629f, 0.093079246580600738525f, -0.35975158214569091797f, -0.25597298145294189453f, -0.19628950953483581543f, -0.23797096312046051025f, -0.19044429063796997070f, -0.26354604959487915039f, -0.087241001427173614502f, -0.040710993111133575439f, -0.038388423621654510498f, -0.28433319926261901855f, -0.34585469961166381836f, -0.23619580268859863281f, 0.26441124081611633301f, -0.45997121930122375488f, -0.17366759479045867920f, -0.12165381014347076416f, 0.20063950121402740479f, -0.13861157000064849854f, 0.11349765211343765259f, 0.31855997443199157715f, -0.062804341316223144531f, -0.28069376945495605469f, -0.32014441490173339844f, 0.28795140981674194336f, -0.33666035532951354980f, -0.23814044892787933350f, 0.28742539882659912109f, 0.038212899118661880493f, -0.15996412932872772217f, 0.22903023660182952881f, 0.20806498825550079346f, -0.39408344030380249023f, -0.36941823363304138184f, 0.017276482656598091125f, -0.11795786023139953613f, 0.065581649541854858398f, -0.32044118642807006836f, -0.36067116260528564453f, 0.11990494281053543091f, -0.23936709761619567871f, -0.065158933401107788086f, -0.19618041813373565674f, -0.0054236864671111106873f, -0.40526112914085388184f, -0.36653962731361389160f, -0.26930674910545349121f, -0.27615287899971008301f, -0.0089815976098179817200f, -0.28985098004341125488f, 0.20220699906349182129f, 0.25777083635330200195f, 0.19783098995685577393f, 0.10234496742486953735f, 0.30100610852241516113f, -0.18695190548896789551f},
  {0.014901430346071720123f, -0.0016504590166732668877f, -0.0043820529244840145111f, 0.031423006206750869751f, -0.066912934184074401855f, -0.082194641232490539551f, -0.12947526574134826660f, -0.0084753641858696937561f, -0.13115544617176055908f, 0.11157079786062240601f, 0.12375933676958084106f, -0.078037485480308532715f, 0.071379974484443664551f, -0.0025535088498145341873f, 0.10026505589485168457f, -0.035675492137670516968f, -0.084505416452884674072f, 0.21744570136070251465f, 0.15896371006965637207f, 0.076637081801891326904f, 0.12770259380340576172f, -0.093589335680007934570f, 0.062199641019105911255f, -0.15685819089412689209f, 0.11259608715772628784f, -0.019955895841121673584f, 0.096349447965621948242f, 0.16260679066181182861f, -0.0096732117235660552979f, 0.021189637482166290283f, 0.088296465575695037842f, 0.022885642945766448975f, 0.10985928773880004883f, -0.037854596972465515137f, -0.080341078341007232666f, -0.16141133010387420654f, 0.091574810445308685303f, -0.057919129729270935059f, -0.21674129366874694824f, -0.0089995507150888442993f, 0.11599529534578323364f, -0.095116555690765380859f, 0.017884371802210807800f, 0.015476571395993232727f, 0.0036645280197262763977f, -0.049375902861356735229f, 0.015920422971248626709f, 0.015532331541180610657f, 0.11988689005374908447f, 0.088202610611915588379f, 0.12050722539424896240f, -0.0045966599136590957642f, 0.023893231526017189026f, 0.12127974629402160645f, 0.092039600014686584473f, 0.20180407166481018066f, -0.13089030981063842773f, 0.061996836215257644653f, -0.15775075554847717285f, -0.080558963119983673096f, -0.050973154604434967041f, 0.10565214604139328003f, 0.047025509178638458252f, -0.086284346878528594971f},
  {0.045280579477548599243f, 0.13693335652351379395f, 0.20347802340984344482f, 0.18391121923923492432f, -0.013202586211264133453f, 0.13532820343971252441f, -0.17760275304317474365f, -0.13518853485584259033f, -0.019563212990760803223f, -0.055110972374677658081f, -0.18940339982509613037f, -0.13424506783485412598f, -0.047030728310346603394f, -0.056817416101694107056f, -0.18084961175918579102f, -0.21041394770145416260f, 0.014101856388151645660f, 0.11624629795551300049f, -0.15587981045246124268f, -0.27969110012054443359f, 0.086333021521568298340f, 0.073276452720165252686f, -0.15201683342456817627f, -0.12552855908870697021f, -0.075608395040035247803f, 0.054291039705276489258f, 0.19680154323577880859f, 0.31690418720245361328f, 0.25626373291015625000f, -0.16595265269279479980f, -0.047649811953306198120f, -0.17068645358085632324f, 0.13038842380046844482f, -0.29070258140563964844f, -0.14599487185478210449f, 0.11256895959377288818f, 0.13827298581600189209f, -0.18692904710769653320f, -0.024564526975154876709f, -0.010596052743494510651f, -0.12019694596529006958f, -0.082152813673019409180f, 0.16227872669696807861f, -0.044699694961309432983f, -0.039191052317619323730f, -0.20096214115619659424f, -0.10708054155111312866f, -0.11602591723203659058f, -0.16120016574859619141f, -0.065821230411529541016f, -0.0075097219087183475494f, 0.10366342961788177490f, -0.29142960906028747559f, -0.20520651340484619141f, -0.19022355973720550537f, -0.18494126200675964355f, 0.093591898679733276367f, -0.20597006380558013916f, 0.10500515252351760864f, 0.044327553361654281616f, 0.22747638821601867676f, -0.0064371302723884582520f, 0.17344908416271209717f, -0.12210107594728469849f},
  {-0.035202387720346450806f, 0.13914461433887481689f, 0.13200050592422485352f, 0.21935024857521057129f, 0.14939135313034057617f, 0.056056968867778778076f, -0.20898889005184173584f, -0.30465635657310485840f, -0.034948114305734634399f, -0.20654253661632537842f, -0.18003225326538085938f, -0.12030059844255447388f, -0.27197957038879394531f, 0.028510496020317077637f, -0.16675594449043273926f, -0.11180811375379562378f, 0.052362974733114242554f, -0.067943066358566284180f, -0.14235697686672210693f, -0.099268846213817596436f, -0.090878769755363464355f, 0.025104539468884468079f, -0.28060293197631835938f, -0.20301592350006103516f, -0.0025683615822345018387f, 0.20561316609382629395f, -0.22207862138748168945f, 0.10870663076639175415f, 0.14050538837909698486f, 0.0061751068569719791412f, -0.19987282156944274902f, -0.085162289440631866455f, 0.0098070325329899787903f, -0.22837862372398376465f, -0.26409491896629333496f, 0.14711010456085205078f, 0.11725522577762603760f, -0.12258769571781158447f, 0.056288320571184158325f, 0.15059626102447509766f, -0.18920642137527465820f, -0.11873992532491683960f, -0.0041034757159650325775f, -0.0097069069743156433105f, -0.040217332541942596436f, -0.22029215097427368164f, -0.011817050166428089142f, 0.054375644773244857788f, -0.077511437237262725830f, -0.17141632735729217529f, -0.20507106184959411621f, 0.042304411530494689941f, -0.13189052045345306396f, -0.14223273098468780518f, -0.26054126024246215820f, -0.28972858190536499023f, 0.17237809300422668457f, -0.19294047355651855469f, 0.0028064220678061246872f, 0.12853923439979553223f, 0.13942840695381164551f, 0.0088712600991129875183f, 0.17075774073600769043f, -0.099461108446121215820f},
  {0.00063227466307580471039f, -0.067395478487014770508f, 0.037519142031669616699f, -0.087737843394279479980f, -0.12196155637502670288f, 0.45675483345985412598f, 0.45813894271850585938f, -0.22603611648082733154f, 0.14279310405254364014f, 0.25711187720298767090f, 0.12350613623857498169f, 0.25308206677436828613f, 0.12026047706604003906f, 0.20413371920585632324f, 0.21889790892601013184f, 0.17959421873092651367f, -0.042600918561220169067f, 0.15377736091613769531f, -0.31773933768272399902f, 0.31367024779319763184f, 0.051272921264171600342f, -0.035198219120502471924f, 0.13886177539825439453f, 0.00036273215664550662041f, 0.17624498903751373291f, 0.082343578338623046875f, 0.027431100606918334961f, -0.43711826205253601074f, -0.11592073738574981689f, 0.080239735543727874756f, 0.14776498079299926758f, 0.17617034912109375000f, -0.043051823973655700684f, 0.34062144160270690918f, 0.11051359772682189941f, -0.19587953388690948486f, 0.093013666570186614990f, 0.29922884702682495117f, -0.062644563615322113037f, 0.049370963126420974731f, 0.43747073411941528320f, 0.33272257447242736816f, -0.0040561682544648647308f, 0.18448986113071441650f, -0.085654579102993011475f, 0.24035938084125518799f, 0.11365323513746261597f, 0.015272114425897598267f, 0.16329973936080932617f, 0.18204984068870544434f, 0.38038328289985656738f, 0.0076396670192480087280f, -0.0061324173584580421448f, -0.048339560627937316895f, -0.28792905807495117188f, -0.023267194628715515137f, 0.10866219550371170044f, -0.038905553519725799561f, 0.088149063289165496826f, 0.086879193782806396484f, 0.090989276766777038574f, -0.034207399934530258179f, -0.13705454766750335693f, 0.38829392194747924805f},
  {-0.16043116152286529541f, 0.084570817649364471436f, -0.36812198162078857422f, 0.20438960194587707520f, -0.15151332318782806396f, 0.38686618208885192871f, 0.31292048096656799316f, -0.054503221064805984497f, 0.31703859567642211914f, 0.30308470129966735840f, 0.12919999659061431885f, 0.20797415077686309814f, -0.22509986162185668945f, -0.044458188116550445557f, 0.13461427390575408936f, 0.34478238224983215332f, -0.065858006477355957031f, -0.050021655857563018799f, -0.20174202322959899902f, 0.47378462553024291992f, -0.082984171807765960693f, -0.10408161580562591553f, 0.38651087880134582520f, 0.083341248333454132080f, -0.12070487439632415771f, -0.0099996579810976982117f, -0.016290722414851188660f, -0.050866585224866867065f, -0.19484272599220275879f, -0.077036477625370025635f, 0.36971312761306762695f, 0.17579238116741180420f, 0.43862634897232055664f, -0.23719395697116851807f, 0.23314313590526580811f, -0.013410557992756366730f, -0.28239700198173522949f, -0.062114436179399490356f, 0.19578768312931060791f, -0.18757413327693939209f, 0.50101238489151000977f, -0.022137217223644256592f, -0.32923832535743713379f, 0.094681128859519958496f, 0.055872347205877304077f, 0.47076213359832763672f, -0.19192133843898773193f, -0.16506905853748321533f, -0.029671601951122283936f, 0.057019695639610290527f, -0.067377977073192596436f, 0.19112326204776763916f, 0.31181463599205017090f, 0.098265908658504486084f, -0.43130552768707275391f, 0.20603919029235839844f, -0.47145879268646240234f, 0.065485633909702301025f, 0.15850193798542022705f, -0.11120923608541488647f, 0.41444626450538635254f, -0.21381168067455291748f, -0.13575452566146850586f, 0.033496279269456863403f},
  {-0.065717555582523345947f, 0.043325394392013549805f, 0.00079912814544513821602f, 0.045513469725847244263f, -0.10254090279340744019f, 0.027930859476327896118f, 0.077843047678470611572f, 0.086026109755039215088f, -0.14602532982826232910f, -0.023760361596941947937f, 0.046308200806379318237f, 0.047965954989194869995f, -0.091614440083503723145f, 0.086217559874057769775f, 0.025896288454532623291f, 0.012967939488589763641f, 0.041754819452762603760f, -0.0053181666880846023560f, 0.14834448695182800293f, 0.12441697716712951660f, -0.052470784634351730347f, 0.12274839729070663452f, 0.052562978118658065796f, 0.088444285094738006592f, 0.12476845830678939819f, -0.053690493106842041016f, -0.0020458751823753118515f, 0.0034441365860402584076f, 0.065032362937927246094f, 0.043445501476526260376f, -0.074495323002338409424f, 0.046035286039113998413f, -0.10630704462528228760f, 0.050155166536569595337f, 0.036085180938243865967f, 0.13194467127323150635f, -0.077326893806457519531f, 0.0092862322926521301270f, -0.074404858052730560303f, 0.044505942612886428833f, 0.089676007628440856934f, 0.068590193986892700195f, -0.12478643655776977539f, -0.078866548836231231689f, 0.076665356755256652832f, -0.025227077305316925049f, 0.012895411811769008636f, 0.19443283975124359131f, 0.090776890516281127930f, -0.013127447105944156647f, 0.049415938556194305420f, -0.092696651816368103027f, -0.011622942984104156494f, 0.080946803092956542969f, 0.18760915100574493408f, 0.13877579569816589355f, -0.12978413701057434082f, -0.034409224987030029297f, -0.10547037422657012939f, -0.067187190055847167969f, -0.078729711472988128662f, 0.082535877823829650879f, -0.049893416464328765869f, -0.039509270340204238892f},
  {0.18067476153373718262f, -0.14609111845493316650f, 0.16150505840778350830f, -0.35110116004943847656f, 0.049364551901817321777f, 0.11062387377023696899f, -0.083700492978096008301f, -0.038885597139596939087f, -0.071100763976573944092f, -0.12393496930599212646f, -0.10432720184326171875f, -0.18407543003559112549f, 0.34827920794486999512f, 0.19566604495048522949f, 0.23033221065998077393f, -0.073050357401371002197f, 0.10599014163017272949f, 0.17713175714015960693f, 0.12298844009637832642f, -0.088744878768920898438f, 0.19487206637859344482f, 0.0080304872244596481323f, 0.057492289692163467407f, -0.078095443546772003174f, 0.23475822806358337402f, -0.039616402238607406616f, 0.17148908972740173340f, -0.082970753312110900879f, -0.0045259147882461547852f, 0.087812438607215881348f, -0.10587773472070693970f, 0.068452969193458557129f, -0.13035677373409271240f, 0.14476126432418823242f, 0.12921668589115142822f, -0.078287191689014434814f, 0.23162685334682464600f, 0.30431598424911499023f, -0.30819585919380187988f, 0.25278317928314208984f, -0.056072253733873367310f, 0.42831060290336608887f, 0.12286522984504699707f, 0.036052037030458450317f, -0.10909122973680496216f, 0.037552192807197570801f, 0.23504841327667236328f, -0.0024454453960061073303f, 0.30591234564781188965f, 0.32824331521987915039f, 0.15966464579105377197f, 0.11110509186983108521f, -0.12685205042362213135f, -0.0071852947585284709930f, -0.12838074564933776855f, -0.31017154455184936523f, 0.089757651090621948242f, -0.23931929469108581543f, -0.16847562789916992188f, 0.047655589878559112549f, 0.032090686261653900146f, 0.11302641034126281738f, 0.15946766734123229980f, 0.42264828085899353027f},
  {-0.11448700726032257080f, -0.11464755237102508545f, -0.086625769734382629395f, 0.076319336891174316406f, 0.084143266081809997559f, 0.085036754608154296875f, -0.095585882663726806641f, -0.11223898828029632568f, -0.12801186740398406982f, 0.026643536984920501709f, -0.015833215788006782532f, -0.070379011332988739014f, 0.037905931472778320312f, -0.11418022215366363525f, -0.081749111413955688477f, 0.12371431291103363037f, -0.011432264931499958038f, -0.034068048000335693359f, -0.053733006119728088379f, -0.025320714339613914490f, -0.065006703138351440430f, 0.10998938977718353271f, 0.092438645660877227783f, 0.11466427147388458252f, 0.11686667799949645996f, -0.072718285024166107178f, 0.097955226898193359375f, 0.095762610435485839844f, 0.019183756783604621887f, 0.11711693555116653442f, 0.095708064734935760498f, -0.017515599727630615234f, 0.049844685941934585571f, -0.094459667801856994629f, -0.0053931367583572864532f, -0.085817784070968627930f, -0.091731071472167968750f, 0.10214826464653015137f, -0.10009035468101501465f, -0.054356910288333892822f, 0.098170474171638488770f, -0.052122324705123901367f, -0.093166857957839965820f, -0.088488817214965820312f, 0.035303656011819839478f, -0.065227657556533813477f, -0.10445483028888702393f, 0.068595990538597106934f, 0.093126907944679260254f, 0.045934766530990600586f, 0.10437060892581939697f, -0.064717903733253479004f, -0.048867929726839065552f, 0.010139751248061656952f, -0.055597554892301559448f, 0.0036247796379029750824f, 0.015893921256065368652f, -0.047795899212360382080f, 0.062606796622276306152f, -0.061492219567298889160f, -0.078168198466300964355f, 0.0014418094651773571968f, 0.064390979707241058350f, 0.079900518059730529785f},
  {0.022062599658966064453f, -0.11561702191829681396f, -0.016842937096953392029f, 0.17333279550075531006f, 0.15143598616123199463f, 0.086390681564807891846f, 0.15108378231525421143f, -0.22619923949241638184f, -0.044143971055746078491f, -0.048122890293598175049f, 0.092402353882789611816f, 0.029859410598874092102f, -0.083959236741065979004f, 0.027119399979710578918f, -0.12614056468009948730f, -0.097048237919807434082f, 0.15306666493415832520f, -0.19898791611194610596f, -0.061473663896322250366f, 0.20424287021160125732f, -0.066677145659923553467f, 0.047117192298173904419f, -0.079059876501560211182f, 0.061208307743072509766f, -0.045346755534410476685f, -0.0094110406935214996338f, -0.31120467185974121094f, -0.11055172234773635864f, -0.18454688787460327148f, -0.041356969624757766724f, 0.16721683740615844727f, -0.10089750587940216064f, 0.076974965631961822510f, -0.019730325788259506226f, -0.0016721891006454825401f, -0.013693228363990783691f, -0.068562150001525878906f, -0.066486917436122894287f, -0.083749532699584960938f, 0.094341516494750976562f, -0.011201488785445690155f, 0.076696686446666717529f, 0.057824291288852691650f, 0.00022185960551723837852f, 0.020677082240581512451f, -0.029637293890118598938f, 0.17111384868621826172f, -0.055810257792472839355f, -0.0094864768907427787781f, 0.057589817792177200317f, 0.010227752849459648132f, 0.017754385247826576233f, -0.091753877699375152588f, -0.057074043899774551392f, -0.27604338526725769043f, -0.19109597802162170410f, 0.090254738926887512207f, -0.070922918617725372314f, 0.035185076296329498291f, 0.094052307307720184326f, 0.059070728719234466553f, 0.070106178522109985352f, 0.15259671211242675781f, 0.027735875919461250305f},
  {-0.75698190927505493164f, 0.33830824494361877441f, 0.20035065710544586182f, 0.13195469975471496582f, 0.046038996428251266479f, 0.15051159262657165527f, -0.21041709184646606445f, -0.69828236103057861328f, 0.25155037641525268555f, -0.21330697834491729736f, 0.077735595405101776123f, -0.050100233405828475952f, -0.49868935346603393555f, -0.49930998682975769043f, -0.60845589637756347656f, 0.028594514355063438416f, 0.13440236449241638184f, -0.25703188776969909668f, -0.62921023368835449219f, -0.23118020594120025635f, -0.49396941065788269043f, 0.16586531698703765869f, -0.34172168374061584473f, -0.12949065864086151123f, -0.24417923390865325928f, 0.17578807473182678223f, -0.23746742308139801025f, -0.33394369482994079590f, 0.37224030494689941406f, -0.028709571808576583862f, 0.045530788600444793701f, -0.27642798423767089844f, 0.27144548296928405762f, -0.34959888458251953125f, -0.11713236570358276367f, 0.35173311829566955566f, 0.12983998656272888184f, -0.49046352505683898926f, 0.27798002958297729492f, 0.15856258571147918701f, -0.27395173907279968262f, -0.40324294567108154297f, 0.15763947367668151855f, -0.32601317763328552246f, 0.28953060507774353027f, -0.24860531091690063477f, -0.57716619968414306641f, -0.044420264661312103271f, -0.52670288085937500000f, -0.45261353254318237305f, -0.33055233955383300781f, -0.12584850192070007324f, -0.33937159180641174316f, -0.30326849222183227539f, -0.26016536355018615723f, 0.043164100497961044312f, 0.27220395207405090332f, 0.058288857340812683105f, 0.26960450410842895508f, 0.35536605119705200195f, 0.11850931495428085327f, 0.20242159068584442139f, 0.035390209406614303589f, -0.28659370541572570801f},
  {0.24134971201419830322f, -0.26644024252891540527f, -0.22646799683570861816f, -0.029579639434814453125f, -0.068001829087734222412f, -0.12205787748098373413f, -0.0083213746547698974609f, 0.24302855134010314941f, -0.26338735222816467285f, 0.22305177152156829834f, 0.045583032071590423584f, -0.049178682267665863037f, 0.24634583294391632080f, 0.22255991399288177490f, 0.18178899586200714111f, -0.010575274936854839325f, 0.13989944756031036377f, 0.096034027636051177979f, 0.20143662393093109131f, -0.050663668662309646606f, 0.051435504108667373657f, 0.15244598686695098877f, 0.045037563890218734741f, 0.10315421968698501587f, 0.053121890872716903687f, -0.054984018206596374512f, 0.14459604024887084961f, 0.32931458950042724609f, -0.014616743661463260651f, 0.13963510096073150635f, -0.039348933845758438110f, -0.012553757056593894958f, 0.018662024289369583130f, -0.073271438479423522949f, -0.084331773221492767334f, 0.0060552125796675682068f, -0.035461172461509704590f, -0.15402251482009887695f, -0.011163387447595596313f, -0.12223505228757858276f, -0.15112884342670440674f, -0.044427800923585891724f, -0.19715559482574462891f, 0.11542975902557373047f, 0.018884181976318359375f, -0.017797490581870079041f, -0.029611509293317794800f, 0.019045913591980934143f, 0.058945205062627792358f, 0.18789519369602203369f, -0.0022508378606289625168f, 0.032287027686834335327f, 0.15863560140132904053f, 0.20580747723579406738f, 0.30965313315391540527f, 0.29788860678672790527f, -0.063269689679145812988f, 0.13695853948593139648f, 0.036033477634191513062f, -0.21999235451221466064f, 0.062381654977798461914f, -0.23444961011409759521f, -0.13883352279663085938f, -0.095683656632900238037f},
  {-0.035588625818490982056f, 0.14306285977363586426f, 0.091807611286640167236f, 0.15336269140243530273f, 0.16357152163982391357f, 0.15843167901039123535f, -0.090365961194038391113f, -0.037540350109338760376f, 0.21116134524345397949f, -0.30822193622589111328f, -0.13114304840564727783f, -0.36983633041381835938f, -0.0018556958530098199844f, 0.017133576795458793640f, 0.052884224802255630493f, -0.083910383284091949463f, -0.15979467332363128662f, -0.047687016427516937256f, 0.059903264045715332031f, 0.047585077583789825439f, 0.042760308831930160522f, 0.21535967290401458740f, -0.089320756494998931885f, -0.12206940352916717529f, 0.10842762887477874756f, 0.11037899553775787354f, -0.11786046624183654785f, 0.31670311093330383301f, 0.048516381531953811646f, -0.16994746029376983643f, -0.22757703065872192383f, -0.26614826917648315430f, 0.23615185916423797607f, -0.39061447978019714355f, -0.036005198955535888672f, 0.14499635994434356689f, 0.061626125127077102661f, -0.10351241379976272583f, 0.010667584836483001709f, 0.12178695946931838989f, -0.013157379813492298126f, -0.29615685343742370605f, 0.038752794265747070312f, 0.18365530669689178467f, 0.012802849523723125458f, -0.30656263232231140137f, -0.090537205338478088379f, 0.030109232291579246521f, 0.081123098731040954590f, -0.18836681544780731201f, -0.10171983391046524048f, 0.16741102933883666992f, -0.34780794382095336914f, -0.25407978892326354980f, 0.032465256750583648682f, -0.32544365525245666504f, -0.067856438457965850830f, -0.15636336803436279297f, -0.0098892506211996078491f, 0.030527403578162193298f, 0.16023187339305877686f, -0.022415572777390480042f, 0.024211471900343894958f, -0.041194934397935867310f},
  {0.14434397220611572266f, 0.094048976898193359375f, 0.0081259077414870262146f, -0.085064068436622619629f, -0.083403840661048889160f, -0.061522789299488067627f, 0.071651421487331390381f, -0.013654926791787147522f, -0.026085210964083671570f, 0.29951071739196777344f, -0.087455011904239654541f, -0.027168614789843559265f, 0.20362386107444763184f, 0.096700370311737060547f, 0.10034553706645965576f, 0.11316360533237457275f, 0.091390997171401977539f, 0.27298456430435180664f, 0.0022327108308672904968f, 0.075188890099525451660f, 0.21974976360797882080f, 0.0072390958666801452637f, 0.060736574232578277588f, 0.086264319717884063721f, 0.11523527652025222778f, -0.018841022625565528870f, 0.22045974433422088623f, 0.12262471020221710205f, 0.037738811224699020386f, 0.11182913184165954590f, 0.083675347268581390381f, -0.067744024097919464111f, -0.051206272095441818237f, 0.074694603681564331055f, 0.26987737417221069336f, -0.13332800567150115967f, -0.15008890628814697266f, 0.071451269090175628662f, 0.083918511867523193359f, -0.049665823578834533691f, 0.025401184335350990295f, 0.13086372613906860352f, -0.035170234739780426025f, 0.094649322330951690674f, -0.071443744003772735596f, 0.19154576957225799561f, -0.019095614552497863770f, 0.13489145040512084961f, 0.10899265110492706299f, 0.18048639595508575439f, 0.20883597433567047119f, 0.21591840684413909912f, 0.086666807532310485840f, 0.20062959194183349609f, -0.0011472764890640974045f, 0.21859499812126159668f, -0.073257863521575927734f, 0.22642469406127929688f, 0.039001755416393280029f, -0.13298195600509643555f, 0.068821102380752563477f, 0.017462657764554023743f, -0.0075351642444729804993f, 0.097293853759765625000f},
  {0.039648633450269699097f, -0.071177154779434204102f, -0.10242731869220733643f, 0.054759521037340164185f, 0.0019289330812171101570f, 0.18013192713260650635f, 0.19706858694553375244f, 0.11691033095121383667f, 0.065419651567935943604f, 0.14810927212238311768f, 0.036663789302110671997f, 0.14362628757953643799f, 0.0061484002508223056793f, -0.0097647346556186676025f, -0.017221940681338310242f, 0.070781379938125610352f, 0.030913047492504119873f, -0.036226954311132431030f, 0.12125248461961746216f, 0.049707882106304168701f, 0.070754185318946838379f, 0.082354530692100524902f, 0.0053701847791671752930f, 0.039333827793598175049f, -0.25029954314231872559f, 0.0041124820709228515625f, 0.089822515845298767090f, -0.15411147475242614746f, 0.034718781709671020508f, 0.15588788688182830811f, 0.026523118838667869568f, 0.22313258051872253418f, 0.090975292026996612549f, 0.17189539968967437744f, 0.16540674865245819092f, 0.016145031899213790894f, 0.010170401073992252350f, -0.084917582571506500244f, 0.049042340368032455444f, -0.10954631119966506958f, 0.20859056711196899414f, 0.013107437640428543091f, -0.085352919995784759521f, -0.14503072202205657959f, 0.10028140246868133545f, 0.038836959749460220337f, -0.11215236783027648926f, 0.029065178707242012024f, 0.015106094069778919220f, -0.035793986171483993530f, 0.044290617108345031738f, -0.10807947069406509399f, 0.16398531198501586914f, 0.18928773701190948486f, 0.11573718488216400146f, 0.24510647356510162354f, -0.13917236030101776123f, 0.17256568372249603271f, 0.20497184991836547852f, -0.016789503395557403564f, 0.011059721931815147400f, -0.10163567960262298584f, -0.24429148435592651367f, 0.10032112151384353638f},
  {0.19825829565525054932f, -0.12376639246940612793f, -0.19325153529644012451f, -0.084712065756320953369f, 0.017001673579216003418f, -0.19947750866413116455f, -0.075873404741287231445f, 0.11116681247949600220f, -0.14797967672348022461f, 0.12933796644210815430f, 0.14329147338867187500f, 0.051459748297929763794f, 0.060408990830183029175f, 0.10055802762508392334f, 0.15765793621540069580f, -0.045741509646177291870f, 0.10886756330728530884f, 0.13647589087486267090f, 0.14282797276973724365f, -0.037454243749380111694f, 0.22178241610527038574f, 0.062893219292163848877f, 0.013812094926834106445f, 0.14678306877613067627f, 0.19158922135829925537f, -0.095362216234207153320f, 0.28037130832672119141f, 0.24258625507354736328f, -0.044425226747989654541f, 0.054949499666690826416f, -0.037310265004634857178f, 0.14333766698837280273f, -0.16668856143951416016f, 0.13047969341278076172f, -0.036635689437389373779f, 0.057483866810798645020f, -0.17539320886135101318f, -0.13771215081214904785f, 0.040377743542194366455f, -0.093283176422119140625f, -0.025518860667943954468f, -0.17348979413509368896f, -0.23537983000278472900f, 0.11951474845409393311f, 0.086185723543167114258f, 0.0063116652891039848328f, -0.0052988189272582530975f, 0.11624814569950103760f, -0.059322010725736618042f, 0.20235134661197662354f, -0.14396418631076812744f, 0.051922354847192764282f, 0.16562844812870025635f, 0.14704167842864990234f, 0.35630035400390625000f, 0.14829906821250915527f, -0.033249311149120330811f, 0.19869542121887207031f, 0.037147723138332366943f, -0.30976703763008117676f, -0.23286750912666320801f, -0.050033658742904663086f, -0.064260922372341156006f, -0.14445775747299194336f},
  {0.21372117102146148682f, -0.24600942432880401611f, -0.11049305647611618042f, -0.034739725291728973389f, -0.12124727666378021240f, -0.25284406542778015137f, -0.17259022593498229980f, 0.21863292157649993896f, -0.050384931266307830811f, 0.027021858841180801392f, 0.16861264407634735107f, 0.14864411950111389160f, -0.022144377231597900391f, 0.10744580626487731934f, 0.023211903870105743408f, 0.021394832059741020203f, -0.049552559852600097656f, 0.092598460614681243896f, 0.16911117732524871826f, -0.017839498817920684814f, 0.19945712387561798096f, -0.11666189879179000854f, 0.034782059490680694580f, 0.074415631592273712158f, -0.23264154791831970215f, -0.015049977228045463562f, 0.0084269940853118896484f, 0.094418853521347045898f, -0.012330735102295875549f, 0.12361724674701690674f, -0.087710201740264892578f, 0.016058057546615600586f, -0.21787402033805847168f, 0.16296242177486419678f, 0.030175581574440002441f, 0.073827818036079406738f, -0.011411441490054130554f, 0.067911177873611450195f, 0.0085502620786428451538f, -0.019028663635253906250f, -0.0036850164178758859634f, -0.18420630693435668945f, -0.11986751854419708252f, 0.00066985189914703369141f, 0.11609312146902084351f, -0.055544242262840270996f, -0.12549960613250732422f, 0.23789295554161071777f, -0.019517283886671066284f, 0.15624256432056427002f, -0.13198874890804290771f, -0.071099348366260528564f, 0.15657438337802886963f, 0.13807056844234466553f, 0.26340132951736450195f, 0.16854985058307647705f, -0.12342040240764617920f, 0.26610285043716430664f, -0.037708893418312072754f, -0.063979908823966979980f, -0.053482297807931900024f, -0.12535978853702545166f, -0.19039422273635864258f, -0.034267283976078033447f},
  {-0.032708168029785156250f, -0.038820404559373855591f, 0.078749597072601318359f, -0.091952972114086151123f, -0.050161436200141906738f, 0.22818005084991455078f, 0.24894608557224273682f, -0.11473555117845535278f, 0.064402967691421508789f, 0.34439095854759216309f, 0.17831026017665863037f, 0.16866175830364227295f, 0.19224831461906433105f, 0.19671699404716491699f, 0.20685546100139617920f, 0.19083452224731445312f, -0.15325525403022766113f, 0.31074178218841552734f, -0.0033553098328411579132f, 0.028322625905275344849f, 0.18511503934860229492f, -0.075172647833824157715f, 0.13206879794597625732f, 0.11754996329545974731f, 0.078254327178001403809f, 0.048949938267469406128f, 0.18983922898769378662f, -0.11650294810533523560f, 0.021977007389068603516f, -0.14205688238143920898f, 0.22898499667644500732f, 0.10827027261257171631f, -0.027491893619298934937f, 0.039658758789300918579f, 0.23285910487174987793f, -0.044266607612371444702f, 0.037659715861082077026f, 0.30263987183570861816f, -0.016550052911043167114f, -0.078090384602546691895f, 0.49128073453903198242f, 0.47971761226654052734f, 0.11970844864845275879f, -0.0031386415939778089523f, -0.10573939979076385498f, 0.47770038247108459473f, 0.070636786520481109619f, -0.013163550756871700287f, 0.10311828553676605225f, 0.30247130990028381348f, 0.27706083655357360840f, 0.21396785974502563477f, 0.074937269091606140137f, 0.13303709030151367188f, -0.090481474995613098145f, 0.26005342602729797363f, -0.022566946223378181458f, 0.15377908945083618164f, 0.018168916925787925720f, -0.060060851275920867920f, 0.13199371099472045898f, -0.0029477688949555158615f, -0.080722786486148834229f, 0.25138574838638305664f},
