// This file is computer-generated by onnx2c 
// (TODO: add creating command line here)
// (TODO: print creation date here )

// ONNX model:
// produced by pytorch, version 1.8
// ONNX IR version: 9
// Model documentation: 
/*

*/

#include <float.h>
#include <math.h>
#include <stdbool.h>
#include <stdint.h>
#include <string.h>
#define MAX(X,Y) ( X > Y ? X : Y)
#define MIN(X,Y) ( X < Y ? X : Y)
#define CLIP(X,L) ( MAX(MIN(X,L), -L) )

static const float tensor_linear_list_0_weight[64][5] = 
{
  {-0.0091603128239512443542f, -0.58216774463653564453f, -0.69003760814666748047f, 0.25509926676750183105f, 0.14821812510490417480f},
  {0.21156089007854461670f, -0.33951959013938903809f, -0.59661465883255004883f, 0.15236321091651916504f, 0.56546777486801147461f},
  {0.15804073214530944824f, 0.11541630327701568604f, 0.36077541112899780273f, 0.025539632886648178101f, 0.52510976791381835938f},
  {0.35800686478614807129f, 0.42180034518241882324f, 0.087166637182235717773f, -0.059325184673070907593f, 0.27932691574096679688f},
  {0.29505774378776550293f, 0.087309993803501129150f, -0.37027704715728759766f, -0.12833848595619201660f, 0.090750165283679962158f},
  {0.0030212432611733675003f, 0.43851640820503234863f, -0.26006841659545898438f, -0.41306096315383911133f, 0.38653117418289184570f},
  {0.38838312029838562012f, -0.37172681093215942383f, 0.27740126848220825195f, 0.37423965334892272949f, 0.23926798999309539795f},
  {-0.47989058494567871094f, 0.67901629209518432617f, 1.2458932399749755859f, 0.14401611685752868652f, -0.14034681022167205811f},
  {0.28823146224021911621f, 0.20153604447841644287f, -0.29043832421302795410f, -0.29217594861984252930f, 0.13893760740756988525f},
  {-0.32838320732116699219f, 0.37995350360870361328f, 0.88011342287063598633f, -0.25716090202331542969f, 0.11194398254156112671f},
  {-0.39663013815879821777f, -0.21875530481338500977f, 0.053341895341873168945f, -0.042404908686876296997f, -0.77483087778091430664f},
  {-0.45870038866996765137f, 0.28241389989852905273f, -0.35310736298561096191f, 0.56139504909515380859f, 0.34753650426864624023f},
  {0.032159846276044845581f, -0.34644636511802673340f, -0.12367708235979080200f, 0.0086275273934006690979f, -0.072925038635730743408f},
  {0.42908084392547607422f, 0.23753850162029266357f, -0.28417077660560607910f, -0.042934991419315338135f, 0.31917411088943481445f},
  {-0.22394032776355743408f, -0.38906025886535644531f, -0.41066226363182067871f, 0.22981154918670654297f, -0.041030038148164749146f},
  {-0.093214742839336395264f, -0.38979220390319824219f, 0.18872781097888946533f, 0.098242111504077911377f, -0.67212110757827758789f},
  {0.33371242880821228027f, 0.43831112980842590332f, -0.34719055891036987305f, 0.035846572369337081909f, -0.43057811260223388672f},
  {-0.48926332592964172363f, -0.22938366234302520752f, -0.28580969572067260742f, 0.28941190242767333984f, -0.40378272533416748047f},
  {-0.12088120728731155396f, 0.31297755241394042969f, -0.044160366058349609375f, 0.020191658288240432739f, 0.097725667059421539307f},
  {-0.43756419420242309570f, -0.0095863034948706626892f, 0.81085705757141113281f, -0.22779172658920288086f, -0.24830625951290130615f},
  {0.26229837536811828613f, -0.33589813113212585449f, -0.28004041314125061035f, -0.14711315929889678955f, -0.44662487506866455078f},
  {0.19663302600383758545f, -0.57997906208038330078f, -0.99200975894927978516f, 0.044587418437004089355f, 0.24161256849765777588f},
  {0.21350623667240142822f, -0.37046882510185241699f, 0.45206183195114135742f, -0.16316486895084381104f, -0.16322709619998931885f},
  {0.53037416934967041016f, -0.47104483842849731445f, -0.031360059976577758789f, -0.19688083231449127197f, 0.29512062668800354004f},
  {0.099360585212707519531f, -0.34490126371383666992f, 0.037297055125236511230f, 0.14684805274009704590f, -0.77351504564285278320f},
  {0.31833437085151672363f, -0.80528885126113891602f, -0.80352556705474853516f, -0.0091995419934391975403f, 0.14027300477027893066f},
  {-0.23603948950767517090f, -0.015547883696854114532f, -0.36882093548774719238f, 0.021591220051050186157f, 0.095867633819580078125f},
  {0.28977313637733459473f, -0.25793778896331787109f, -0.47370186448097229004f, 0.039760954678058624268f, 0.51861655712127685547f},
  {-0.35894298553466796875f, 0.15082509815692901611f, 0.17894648015499114990f, -0.057008024305105209351f, -0.37056636810302734375f},
  {-0.23512640595436096191f, 0.41506457328796386719f, -0.089453473687171936035f, -0.29108896851539611816f, 0.31164991855621337891f},
  {-0.048311840742826461792f, -0.12059622257947921753f, -0.32774186134338378906f, 0.16909261047840118408f, 0.27896565198898315430f},
  {0.19253927469253540039f, -0.47741797566413879395f, 0.033629357814788818359f, 0.20407648384571075439f, -0.32348677515983581543f},
  {0.14942587912082672119f, -0.061245508491992950439f, 0.35405272245407104492f, 0.30529427528381347656f, 0.40828770399093627930f},
  {0.038832701742649078369f, -0.29757508635520935059f, 0.048000764101743698120f, 0.090980470180511474609f, 0.50289171934127807617f},
  {-0.32111814618110656738f, 0.37055367231369018555f, -0.22952507436275482178f, 0.011193283833563327789f, -0.26829212903976440430f},
  {0.25273573398590087891f, -0.10301869362592697144f, 0.16030484437942504883f, 0.42347660660743713379f, 0.48456051945686340332f},
  {0.35904470086097717285f, 0.31207725405693054199f, -0.43859151005744934082f, 0.35007214546203613281f, -0.035524509847164154053f},
  {0.23303110897541046143f, -0.55857801437377929688f, -0.46591058373451232910f, -0.097600929439067840576f, 0.58750182390213012695f},
  {-0.23713617026805877686f, 0.67531472444534301758f, 1.4340684413909912109f, 0.23189105093479156494f, -0.024577166885137557983f},
  {-0.086606971919536590576f, -0.016727738082408905029f, 0.32283398509025573730f, 0.38479259610176086426f, 0.64774167537689208984f},
  {0.38484522700309753418f, -0.10241061449050903320f, 0.028639344498515129089f, 0.26967537403106689453f, 0.25579637289047241211f},
  {0.22600360214710235596f, 0.22620767354965209961f, -0.13320709764957427979f, -0.13111333549022674561f, -0.22056774795055389404f},
  {0.044119924306869506836f, 0.20815554261207580566f, 0.17074121534824371338f, 0.18902629613876342773f, 0.20882420241832733154f},
  {-0.0050385128706693649292f, 0.38007161021232604980f, 0.73580354452133178711f, 0.0041562546975910663605f, 0.58348476886749267578f},
  {0.15904223918914794922f, -0.27708742022514343262f, -0.12938301265239715576f, 0.19255812466144561768f, 0.47625768184661865234f},
  {-0.49161604046821594238f, 0.36944055557250976562f, 0.52213174104690551758f, 0.17980630695819854736f, 0.61278772354125976562f},
  {0.40068745613098144531f, -0.10976758599281311035f, 0.79091566801071166992f, -0.0079293949529528617859f, -0.29902178049087524414f},
  {0.45404857397079467773f, -0.38653081655502319336f, -1.0435023307800292969f, -0.067837163805961608887f, 0.50659984350204467773f},
  {0.29714503884315490723f, 0.22168365120887756348f, 0.43991181254386901855f, -0.35273432731628417969f, 0.49060189723968505859f},
  {0.17208237946033477783f, 0.064062044024467468262f, -0.034625057131052017212f, 0.14292468130588531494f, 0.69419151544570922852f},
  {-0.29808294773101806641f, 0.16506966948509216309f, 0.55600070953369140625f, 0.10958442836999893188f, -0.041735675185918807983f},
  {-0.23753236234188079834f, -0.10033267736434936523f, 0.047146942466497421265f, 0.29829266667366027832f, -0.67088580131530761719f},
  {0.31536743044853210449f, -0.062194500118494033813f, -0.0023040955420583486557f, -0.048309963196516036987f, -0.24746440351009368896f},
  {0.071418799459934234619f, 0.40170076489448547363f, -0.25376406311988830566f, 0.33172351121902465820f, 0.045096311718225479126f},
  {-0.28291976451873779297f, -0.053196497261524200439f, -0.31314712762832641602f, -0.099668905138969421387f, 0.60654187202453613281f},
  {-0.16865567862987518311f, 0.18636544048786163330f, -0.12321282923221588135f, 0.20769457519054412842f, 0.67274820804595947266f},
  {0.15576621890068054199f, 0.065557368099689483643f, -0.30640882253646850586f, 0.45073828101158142090f, 0.67921745777130126953f},
  {-0.044783093035221099854f, 0.53141164779663085938f, 0.18351975083351135254f, -0.16402313113212585449f, 0.46735930442810058594f},
  {0.40007051825523376465f, -0.036994431167840957642f, -0.24531219899654388428f, 0.30204093456268310547f, -0.31301999092102050781f},
  {-0.0098809245973825454712f, -0.27370518445968627930f, 0.49582564830780029297f, -0.14146836102008819580f, 0.61244332790374755859f},
  {0.19866991043090820312f, 0.073938570916652679443f, -0.32692733407020568848f, 0.031731698662042617798f, 0.31252261996269226074f},
  {-0.36841318011283874512f, -0.50051605701446533203f, -0.14979179203510284424f, -0.29107174277305603027f, -0.22999162971973419189f},
  {0.071948885917663574219f, 0.17729075253009796143f, -0.095817379653453826904f, 0.23379516601562500000f, 0.059394162148237228394f},
  {0.32755237817764282227f, 0.027236681431531906128f, 0.081326201558113098145f, 0.44093635678291320801f, -0.040165804326534271240f}
};
static const float tensor_linear_list_0_bias[64] = 
{0.063785068690776824951f, 0.33931511640548706055f, -0.041265144944190979004f, -0.37907820940017700195f, 0.26631295680999755859f, 0.077275320887565612793f, -0.46790647506713867188f, -0.43858936429023742676f, -0.30909571051597595215f, -0.43457993865013122559f, 0.61325907707214355469f, -0.36221373081207275391f, -0.0071963528171181678772f, -0.39824214577674865723f, -0.058346893638372421265f, 0.74752229452133178711f, -0.10297956317663192749f, 0.085214555263519287109f, -0.16260223090648651123f, -0.26748436689376831055f, 0.43624928593635559082f, -0.27173635363578796387f, -0.039625164121389389038f, 0.64797377586364746094f, -0.055809549987316131592f, -0.063776828348636627197f, 0.28777205944061279297f, -0.21011796593666076660f, 0.60827070474624633789f, -0.13069713115692138672f, 0.59345453977584838867f, 0.29960793256759643555f, 0.18142320215702056885f, -0.42589762806892395020f, -0.28652191162109375000f, -0.43970558047294616699f, 0.41237339377403259277f, -0.18782754242420196533f, -0.33251693844795227051f, -0.60073441267013549805f, 0.34890592098236083984f, -0.22559697926044464111f, 0.21403889358043670654f, 0.21266254782676696777f, 0.39512431621551513672f, -0.25861081480979919434f, 0.13618238270282745361f, 0.67294114828109741211f, -0.22148902714252471924f, -0.37853729724884033203f, -0.16341346502304077148f, 0.86914873123168945312f, 0.79525047540664672852f, -0.13906262814998626709f, -0.36605215072631835938f, -0.73810064792633056641f, -0.34547480940818786621f, 0.35081323981285095215f, -0.14321830868721008301f, -0.62807196378707885742f, -0.45371541380882263184f, 0.099103301763534545898f, -0.13108646869659423828f, -0.43463286757469177246f};
static const float tensor_linear_list_1_weight[64][64] = 
{
  {0.029085977002978324890f, -0.099531978368759155273f, 0.11047685891389846802f, -0.061861515045166015625f, 0.097248062491416931152f, -0.10635191202163696289f, 0.075663931667804718018f, -0.0059298016130924224854f, 0.014710962772369384766f, 0.10926479101181030273f, -0.045177713036537170410f, -0.12237706035375595093f, 0.026165371760725975037f, -0.11223019659519195557f, 0.050600454211235046387f, -0.10615626722574234009f, -0.10646621882915496826f, 0.044609799981117248535f, -0.067418277263641357422f, -0.084286637604236602783f, 0.024965286254882812500f, -0.072562411427497863770f, -0.094320185482501983643f, 0.11915601044893264771f, -0.066476508975028991699f, -0.050516605377197265625f, 0.0054036625660955905914f, -0.072272770106792449951f, -0.11750195920467376709f, 0.077479377388954162598f, 0.018391055986285209656f, 0.0050983130931854248047f, -0.11952378600835800171f, -0.12481399625539779663f, -0.11437588930130004883f, -0.11971359699964523315f, 0.074772775173187255859f, 0.088901273906230926514f, 0.096991613507270812988f, 0.022557932883501052856f, -0.011332224123179912567f, -0.027288705110549926758f, 0.014322022907435894012f, 0.078019954264163970947f, 0.039661813527345657349f, 0.0084100244566798210144f, 0.029488207772374153137f, -0.0063394145108759403229f, -0.0052495561540126800537f, -0.087432473897933959961f, 0.042344685643911361694f, 0.014968393370509147644f, -0.12468820810317993164f, -0.043083146214485168457f, -0.066522002220153808594f, -0.096571199595928192139f, 0.11702501773834228516f, -0.090785339474678039551f, 0.12031136453151702881f, 0.088158138096332550049f, 0.097809895873069763184f, -0.10395024716854095459f, 0.015142634510993957520f, 0.058207869529724121094f},
  {0.16036738455295562744f, 0.046702835708856582642f, -0.084557928144931793213f, -0.0075147747993469238281f, 0.054996371269226074219f, -0.029828140512108802795f, -0.069966688752174377441f, -0.053184188902378082275f, 0.10016854107379913330f, 0.22020781040191650391f, 0.14505292475223541260f, -0.11134541779756546021f, 0.052511204034090042114f, -0.066475540399551391602f, 0.13484796881675720215f, 0.20508256554603576660f, 0.12134373188018798828f, 0.094319269061088562012f, 0.0059228837490081787109f, -0.0075044059194624423981f, 0.096662841737270355225f, 0.22914755344390869141f, 0.12473054230213165283f, -0.057349890470504760742f, 0.083717323839664459229f, -0.32970112562179565430f, 0.050732515752315521240f, -0.069589428603649139404f, 0.073192290961742401123f, 0.030040508136153221130f, -0.0048253638669848442078f, -0.038100335747003555298f, -0.12928120791912078857f, 0.14083084464073181152f, -0.097449094057083129883f, -0.10596443712711334229f, 0.036231920123100280762f, -0.080729655921459197998f, 0.074569657444953918457f, -0.0088723944500088691711f, 0.052942566573619842529f, 0.058747932314872741699f, 0.028648169711232185364f, -0.077236272394657135010f, 0.088900946080684661865f, 0.053042002022266387939f, 0.20124590396881103516f, -0.022879701107740402222f, -0.035959199070930480957f, -0.044938609004020690918f, 0.093992009758949279785f, 0.054322179406881332397f, -0.29034438729286193848f, 0.00012937188148498535156f, -0.085126958787441253662f, -0.29041060805320739746f, -0.18705213069915771484f, 0.025125641375780105591f, 0.077367097139358520508f, -0.12100662291049957275f, 0.11092429608106613159f, 0.14494043588638305664f, 0.0061523974873125553131f, -0.067692503333091735840f},
  {-0.011859541758894920349f, -0.0073748831637203693390f, -0.016620755195617675781f, 0.013817965984344482422f, 0.049723833799362182617f, -0.049497351050376892090f, -0.077803589403629302979f, -0.11484019458293914795f, 0.016331374645233154297f, 0.10801994055509567261f, 0.028128327801823616028f, -0.082358524203300476074f, -0.10912596434354782104f, -0.088525637984275817871f, 0.0073572639375925064087f, 0.094817139208316802979f, -0.11381889879703521729f, -0.024508843198418617249f, -0.060864418745040893555f, 0.088843718171119689941f, -0.078545197844505310059f, 0.019664734601974487305f, 0.12249054014682769775f, -0.00057305151131004095078f, 0.0047674849629402160645f, 0.11949154734611511230f, -0.086998522281646728516f, 0.0086902379989624023438f, 0.11006392538547515869f, 0.016365081071853637695f, -0.041123952716588973999f, 0.088276132941246032715f, -0.12710192799568176270f, 0.099266104400157928467f, -0.11875763535499572754f, -0.051142401993274688721f, 0.049609646201133728027f, 0.095623254776000976562f, 0.063506275415420532227f, -0.089925929903984069824f, 0.096516542136669158936f, -0.053769081830978393555f, -0.010290129110217094421f, -0.10317454487085342407f, -0.065409012138843536377f, 0.017931105569005012512f, 0.038475360721349716187f, 0.047281861305236816406f, -0.018701106309890747070f, -0.038959845900535583496f, -0.060579672455787658691f, -0.048039104789495468140f, -0.013180756941437721252f, -0.10632239282131195068f, 0.11335788667201995850f, 0.040952265262603759766f, -0.042555987834930419922f, 0.10122065246105194092f, -0.057208567857742309570f, -0.055664695799350738525f, 0.079664558172225952148f, -0.093637295067310333252f, 0.078552410006523132324f, 0.056884378194808959961f},
  {0.10796409100294113159f, -0.10474847257137298584f, 0.063639931380748748779f, -0.077871888875961303711f, 0.090629279613494873047f, -0.064807727932929992676f, 0.027737775817513465881f, 0.065350458025932312012f, 0.040599510073661804199f, 0.0015388871543109416962f, -0.15908935666084289551f, 0.046071656048297882080f, 0.12515923380851745605f, -0.045937344431877136230f, 0.061360169202089309692f, 0.043180540204048156738f, 0.10662101209163665771f, 0.15761621296405792236f, -0.0022372305393218994141f, 0.072667740285396575928f, -0.11513768881559371948f, 0.097075603902339935303f, -0.016232175752520561218f, -0.10278259217739105225f, -0.18705837428569793701f, -0.059384662657976150513f, 0.060418825596570968628f, 0.0062959706410765647888f, -0.081841409206390380859f, -0.036164339631795883179f, 0.094506718218326568604f, -0.034698631614446640015f, -0.066690810024738311768f, -0.048440471291542053223f, -0.0012740343809127807617f, 0.0072361044585704803467f, 0.0029045096598565578461f, -0.041836928576231002808f, -0.089804999530315399170f, 0.14457996189594268799f, -0.050377469509840011597f, 0.11159703135490417480f, -0.10503606498241424561f, 0.025282824411988258362f, 0.11336510628461837769f, 0.12185099720954895020f, -0.074756912887096405029f, -0.097699254751205444336f, 0.0036093133967369794846f, 0.096381574869155883789f, 0.021874140948057174683f, 0.063774339854717254639f, -0.12957744300365447998f, -0.091172918677330017090f, 0.025327315554022789001f, 0.052340317517518997192f, -0.034256633371114730835f, -0.032071974128484725952f, 0.028707996010780334473f, 0.054469536989927291870f, 0.058571949601173400879f, -0.015007763169705867767f, 0.084232717752456665039f, -0.015994369983673095703f},
  {0.022378297522664070129f, 0.17366193234920501709f, -0.18310429155826568604f, -0.049835294485092163086f, -0.068760797381401062012f, -0.10809947550296783447f, -0.047977846115827560425f, 0.30006816983222961426f, 0.057218268513679504395f, 0.22225049138069152832f, -0.090585358440876007080f, 0.12372399121522903442f, -0.094049043953418731689f, 0.11289033293724060059f, 0.046987973153591156006f, -0.11159731447696685791f, -0.055839926004409790039f, -0.050327103585004806519f, -0.022275894880294799805f, 0.10627181828022003174f, 0.061833973973989486694f, 0.11377157270908355713f, 0.10166622698307037354f, 0.11448758095502853394f, 0.079119890928268432617f, -0.056776858866214752197f, -0.0081041892990469932556f, 0.027960337698459625244f, -0.00068820634623989462852f, 0.064856104552745819092f, 0.012263060547411441803f, -0.16329607367515563965f, 0.22668361663818359375f, 0.040210273116827011108f, 0.091772690415382385254f, 0.082341149449348449707f, -0.10961177200078964233f, -0.14118644595146179199f, 0.27351066470146179199f, 0.060505565255880355835f, -0.057406678795814514160f, 0.11786636710166931152f, -0.049946203827857971191f, -0.12620164453983306885f, 0.12405813485383987427f, 0.21568875014781951904f, 0.14583124220371246338f, -0.086759254336357116699f, 0.079974882304668426514f, 0.014555261470377445221f, 0.11742175370454788208f, 0.0098776770755648612976f, 0.28996580839157104492f, -0.11408488452434539795f, 0.13327077031135559082f, 0.27776286005973815918f, 0.0096831917762756347656f, 0.099764347076416015625f, 0.12381023168563842773f, 0.12821339070796966553f, -0.10991423577070236206f, -0.049157109111547470093f, -0.011213721707463264465f, -0.093409255146980285645f},
  {0.025614127516746520996f, 0.17070244252681732178f, -0.090693980455398559570f, 0.0090739727020263671875f, -0.0065916776657104492188f, 0.10729266703128814697f, 0.065201431512832641602f, 0.19877846539020538330f, 0.019134312868118286133f, 0.16421929001808166504f, -0.22824847698211669922f, 0.090323202311992645264f, 0.10260366648435592651f, 0.10157984495162963867f, 0.075733348727226257324f, -0.078103534877300262451f, -0.016235128045082092285f, -0.041967522352933883667f, 0.042831346392631530762f, -0.011660039424896240234f, 0.020797058939933776855f, 0.24439349770545959473f, 0.086880907416343688965f, 0.097779922187328338623f, -0.17562182247638702393f, -0.079287715256214141846f, 0.032089896500110626221f, 0.28856799006462097168f, -0.19593685865402221680f, -0.020293433219194412231f, -0.082225576043128967285f, -0.088317371904850006104f, 0.050648037344217300415f, 0.21443682909011840820f, -0.065105587244033813477f, 0.062718294560909271240f, -0.10021843016147613525f, 0.054476257413625717163f, 0.035120550543069839478f, 0.17610655725002288818f, 0.083140425384044647217f, 0.079400002956390380859f, -0.0093395225703716278076f, 0.0052801254205405712128f, 0.10677801072597503662f, 0.15469221770763397217f, -0.058615744113922119141f, -0.10482248663902282715f, 0.093599334359169006348f, -0.027158156037330627441f, 0.077652730047702789307f, 0.0025898173917084932327f, 0.12662507593631744385f, 0.10536557435989379883f, -0.097329452633857727051f, 0.0096268588677048683167f, -0.066985748708248138428f, -0.15957334637641906738f, -0.051948904991149902344f, 0.18361712992191314697f, -0.13008259236812591553f, -0.083533845841884613037f, 0.090648047626018524170f, -0.0099340081214904785156f},
  {0.049682185053825378418f, -0.054003730416297912598f, -0.12216730415821075439f, -0.042997971177101135254f, -0.019827559590339660645f, -0.028594270348548889160f, 0.015782281756401062012f, 0.041556611657142639160f, 0.12095068395137786865f, 0.095173314213752746582f, -0.099840506911277770996f, 0.075846254825592041016f, 0.12118637561798095703f, -0.061975926160812377930f, 0.035916373133659362793f, -0.062933206558227539062f, 0.10300447046756744385f, 0.027026459574699401855f, -0.094554379582405090332f, -0.11043396592140197754f, -0.11042934656143188477f, -0.10855685174465179443f, -0.068927735090255737305f, -0.045074135065078735352f, 0.029859751462936401367f, 0.054205700755119323730f, -0.11094863712787628174f, -0.11218102276325225830f, -0.0049477666616439819336f, -0.069783031940460205078f, 0.086321905255317687988f, 0.10846096277236938477f, 0.046981111168861389160f, -0.049384683370590209961f, 0.049114540219306945801f, -0.12493716180324554443f, 0.050569772720336914062f, 0.076382249593734741211f, -0.056196913123130798340f, 0.11963233351707458496f, 0.0099441707134246826172f, -0.075628161430358886719f, -0.063145279884338378906f, -0.019618898630142211914f, -0.089250117540359497070f, -0.058692544698715209961f, -0.048645615577697753906f, -0.10556007921695709229f, 0.039237216114997863770f, 0.010398700833320617676f, -0.050909176468849182129f, -0.055224150419235229492f, 0.045162349939346313477f, 0.061042740941047668457f, 0.024055749177932739258f, 0.041353270411491394043f, -0.026937708258628845215f, -0.10472054779529571533f, -0.081119045615196228027f, 0.093312218785285949707f, -0.097670316696166992188f, -0.074948042631149291992f, -0.013947114348411560059f, 0.050334841012954711914f},
  {0.14203815162181854248f, -0.079315900802612304688f, -0.058511562645435333252f, 0.019915834069252014160f, -0.048240095376968383789f, -0.032506965100765228271f, -0.066454246640205383301f, -0.0092988582327961921692f, 0.025527000427246093750f, -0.078846529126167297363f, 0.067292638123035430908f, -0.011898943223059177399f, 0.11271284520626068115f, 8.5070729255676269531e-05f, 0.14370757341384887695f, -0.016833484172821044922f, 0.053917989134788513184f, 0.068038880825042724609f, -0.044406324625015258789f, 0.21881760656833648682f, -0.13612385094165802002f, 0.15430578589439392090f, 0.16928304731845855713f, -0.057928923517465591431f, -0.11463441699743270874f, -0.36106660962104797363f, -0.048014372587203979492f, 0.056967463344335556030f, -0.060269951820373535156f, -0.038102634251117706299f, -0.074659161269664764404f, -0.084907762706279754639f, -0.050951994955539703369f, 0.0050009097903966903687f, -0.11905139684677124023f, -0.089212395250797271729f, -0.089278578758239746094f, -0.14749242365360260010f, 0.17750881612300872803f, 0.038754429668188095093f, 0.035162445157766342163f, 0.034004494547843933105f, -0.085028156638145446777f, 0.12884029746055603027f, -0.076570995151996612549f, 0.13761167228221893311f, 0.10090651363134384155f, 0.061530429869890213013f, 0.062111262232065200806f, 0.045031275600194931030f, -0.012888673692941665649f, 0.16129529476165771484f, -0.23819972574710845947f, 0.052345871925354003906f, -0.15897282958030700684f, -0.086317077279090881348f, -0.075265184044837951660f, -0.011310323141515254974f, -0.057511806488037109375f, -0.13342900574207305908f, 0.033929485827684402466f, 0.077961184084415435791f, -0.0025673811323940753937f, 0.027399837970733642578f},
  {-0.035487342625856399536f, -0.023316293954849243164f, 0.076109878718852996826f, 0.068076446652412414551f, 0.058382824063301086426f, -0.10002041608095169067f, 0.024619858711957931519f, -0.045807983726263046265f, 0.12395736575126647949f, -0.073278583586215972900f, -0.080218918621540069580f, 0.026055831462144851685f, 0.083081163465976715088f, 0.081882253289222717285f, -0.082682810723781585693f, -0.085013449192047119141f, 0.11983913183212280273f, -0.064549438655376434326f, 0.016104266047477722168f, -0.10283934324979782104f, -0.082493916153907775879f, -0.036590654402971267700f, -0.0090442132204771041870f, -0.030176747590303421021f, -0.11683809757232666016f, 0.034133702516555786133f, 0.099106878042221069336f, 0.092944867908954620361f, 0.091352894902229309082f, -0.061283897608518600464f, -0.079953022301197052002f, -0.10726217925548553467f, -0.069210425019264221191f, -0.028662294149398803711f, 0.12308754026889801025f, -0.10392694920301437378f, 0.060207918286323547363f, 0.063858367502689361572f, 0.035223856568336486816f, -0.10739168524742126465f, -0.014677719213068485260f, 0.029110446572303771973f, -0.027407146990299224854f, -0.0063944696448743343353f, -0.089884698390960693359f, 0.067728146910667419434f, 0.11218416690826416016f, 0.069205902516841888428f, -0.081756636500358581543f, 0.020978495478630065918f, -0.11449610441923141479f, 0.10499302297830581665f, 0.067958027124404907227f, 0.066418677568435668945f, -0.078825891017913818359f, 0.10021219402551651001f, 0.12068828940391540527f, 0.0094730844721198081970f, 0.10944931209087371826f, 0.053628578782081604004f, 0.081259228289127349854f, 0.071992725133895874023f, -0.084493756294250488281f, -0.12223029136657714844f},
  {0.11093740910291671753f, -0.023905515670776367188f, -0.025177737697958946228f, -0.076559007167816162109f, 0.0047845244407653808594f, -0.064928978681564331055f, 0.018774731084704399109f, -0.095182806253433227539f, 0.030897572636604309082f, 0.019017508253455162048f, 0.093591600656509399414f, 0.12590171396732330322f, -0.12784920632839202881f, 0.019337579607963562012f, 0.074573174118995666504f, -0.025296969339251518250f, 0.020559385418891906738f, -0.11456193774938583374f, -0.013921648263931274414f, -0.14865100383758544922f, -0.036045376211404800415f, 0.0045377137139439582825f, 0.069055758416652679443f, 0.036008801311254501343f, 0.021086480468511581421f, -0.016902375966310501099f, 0.078923910856246948242f, 0.0042129228822886943817f, -0.095276258885860443115f, -0.087674200534820556641f, 0.061608832329511642456f, 0.042563490569591522217f, 0.17179976403713226318f, 0.10532411932945251465f, -0.062048450112342834473f, -0.081162460148334503174f, 0.047176454216241836548f, 0.10846579819917678833f, 0.066734768450260162354f, 0.074327461421489715576f, 0.11773690581321716309f, -0.055026724934577941895f, 0.17627815902233123779f, 0.063077837228775024414f, 0.033586185425519943237f, 0.17730635404586791992f, -0.020018290728330612183f, 0.010528429411351680756f, -0.079659633338451385498f, -0.22293309867382049561f, 0.026447702199220657349f, -0.097728885710239410400f, -0.14929747581481933594f, -0.026479795575141906738f, 0.076799988746643066406f, -0.097048982977867126465f, 0.062031608074903488159f, -0.049748647958040237427f, -0.056936144828796386719f, 0.050854574888944625854f, -0.067691706120967864990f, -0.082203157246112823486f, 0.0054107406176626682281f, -0.050356909632682800293f},
  {-0.0056901443749666213989f, -0.13812206685543060303f, -0.035535696893930435181f, -0.068273887038230895996f, 0.057508826255798339844f, -0.11900644004344940186f, 0.15394505858421325684f, -0.00052970641991123557091f, 0.021807804703712463379f, 0.068325236439704895020f, 0.11202771961688995361f, 0.046816032379865646362f, 0.028273336589336395264f, -0.070832490921020507812f, -0.0072503322735428810120f, 0.11080197989940643311f, 0.014432966709136962891f, 0.058966875076293945312f, 0.10487569868564605713f, 0.12167473882436752319f, -0.034812912344932556152f, -0.10626949369907379150f, 0.17908677458763122559f, 0.031514931470155715942f, 0.035111907869577407837f, -0.032253328710794448853f, 0.056692939251661300659f, -0.11786234378814697266f, -0.055363774299621582031f, 0.10957942903041839600f, -0.10803031176328659058f, -0.018844814971089363098f, -0.044632039964199066162f, -0.0073765018023550510406f, -0.062297776341438293457f, 0.11370021849870681763f, 0.060961857438087463379f, -0.11842207610607147217f, -0.049893856048583984375f, -0.0014588094782084226608f, -0.073137782514095306396f, 0.043673694133758544922f, -0.014132488518953323364f, -0.017674507573246955872f, -0.028147710487246513367f, -0.036367736756801605225f, 0.10970219969749450684f, -0.027275843545794487000f, 0.097273379564285278320f, -0.036565322428941726685f, -0.073041029274463653564f, -0.11674518138170242310f, 0.069915190339088439941f, -0.028033420443534851074f, -0.10811363160610198975f, -0.054575603455305099487f, 0.034475151449441909790f, -0.084789119660854339600f, -0.059413298964500427246f, 0.16032917797565460205f, -0.10496665537357330322f, -0.035309854894876480103f, -0.042799144983291625977f, 0.029617741703987121582f},
  {0.15618842840194702148f, -0.081352993845939636230f, -0.10337305068969726562f, -0.013127863407135009766f, 0.060109049081802368164f, 0.079638905823230743408f, -0.11958829313516616821f, 0.16485597193241119385f, 0.076121836900711059570f, 0.12610581517219543457f, 0.23372323811054229736f, 0.045559309422969818115f, 0.055949877947568893433f, 0.031720384955406188965f, -0.043360479176044464111f, 0.10581414401531219482f, 0.12459476292133331299f, 0.18529723584651947021f, 0.11675547063350677490f, 0.094821639358997344971f, -0.014583398588001728058f, 0.12078779190778732300f, -0.043444219976663589478f, 0.010664809495210647583f, -0.034942559897899627686f, 0.0065544690005481243134f, 0.061896737664937973022f, -0.093201361596584320068f, 0.048776138573884963989f, -0.046263203024864196777f, -0.079238526523113250732f, 0.055669799447059631348f, 0.11095818877220153809f, -0.039200343191623687744f, -0.058754593133926391602f, -0.087302185595035552979f, -0.024204341694712638855f, -0.016531828790903091431f, 0.12372019886970520020f, 0.023892268538475036621f, -0.055358648300170898438f, 0.10885277390480041504f, -0.13596355915069580078f, -0.14177177846431732178f, 0.078863456845283508301f, 0.10374030470848083496f, 0.085852965712547302246f, -0.14028468728065490723f, 0.12044537812471389771f, -0.090345807373523712158f, -0.074464224278926849365f, 0.15241752564907073975f, 0.0032924113329499959946f, 0.016848817467689514160f, 0.022116940468549728394f, -0.14753267168998718262f, -0.14358884096145629883f, -0.013599757105112075806f, -0.12343218922615051270f, 0.011819492094218730927f, -0.11716917902231216431f, 0.12267822772264480591f, 0.074316106736660003662f, 0.095825642347335815430f},
  {0.080969117581844329834f, 0.0045550107024610042572f, 0.024371409788727760315f, -0.090669661760330200195f, 0.12487396597862243652f, -0.034119438380002975464f, 0.036150619387626647949f, -0.090655602514743804932f, -0.10430212318897247314f, -0.11858201026916503906f, -0.029811380431056022644f, 0.0048314896412193775177f, -0.10673786699771881104f, 0.11327123641967773438f, -0.057614628225564956665f, -0.16782966256141662598f, 0.00087396800518035888672f, -0.12894272804260253906f, 0.034738615155220031738f, -0.21086476743221282959f, 0.11784581840038299561f, 0.026447828859090805054f, 0.029417144134640693665f, 0.090770721435546875000f, 0.070270977914333343506f, 0.19742527604103088379f, 0.12216456979513168335f, -0.12030067294836044312f, -0.0096028689295053482056f, -0.10683097690343856812f, 0.11665652692317962646f, 0.058980122208595275879f, 0.10511773824691772461f, -0.053234592080116271973f, -0.0087283998727798461914f, 0.051595706492662429810f, -0.10384242981672286987f, -0.040574125945568084717f, -0.12012112140655517578f, 0.070175997912883758545f, 0.053234636783599853516f, -0.050742611289024353027f, 0.15403792262077331543f, 0.10248526930809020996f, -0.023834003135561943054f, 0.11847385764122009277f, 0.0049363840371370315552f, 0.11277446895837783813f, 0.076512493193149566650f, 0.11233559995889663696f, -0.043289359658956527710f, 0.014852182939648628235f, -0.0095643680542707443237f, -0.022577702999114990234f, 0.053133882582187652588f, 0.27003705501556396484f, 0.17139820754528045654f, -0.0048060705885291099548f, 0.048580408096313476562f, -0.080740645527839660645f, -0.11199245601892471313f, -0.10306414961814880371f, 0.013137448579072952271f, -0.029232040047645568848f},
  {0.21423138678073883057f, 0.12495609372854232788f, -0.019879175350069999695f, 0.015511989593505859375f, -0.051434487104415893555f, 0.094962157309055328369f, -0.18471024930477142334f, -0.021561507135629653931f, 0.12343651056289672852f, 0.017421334981918334961f, 0.12260738760232925415f, 0.14396338164806365967f, 0.066112995147705078125f, -0.032230660319328308105f, 0.13010151684284210205f, 0.12351753562688827515f, -0.085443019866943359375f, 0.19442638754844665527f, 0.10390698909759521484f, -0.10265360027551651001f, -0.016146624460816383362f, -0.0076842932030558586121f, -0.016706811264157295227f, -0.095804907381534576416f, 0.0015886913752183318138f, -0.092708349227905273438f, 0.11919625103473663330f, -0.017603296786546707153f, 0.095939278602600097656f, 0.12373761832714080811f, 0.14068241417407989502f, 0.041355531662702560425f, -0.14377182722091674805f, 0.0019125641556456685066f, -0.10202184319496154785f, -0.074033707380294799805f, 0.035637713968753814697f, 0.013628426007926464081f, -0.10457474738359451294f, 0.024389240890741348267f, -0.023264152929186820984f, -0.047502458095550537109f, -0.17058587074279785156f, 0.10214179009199142456f, 0.068428777158260345459f, 0.021262332797050476074f, -0.031507894396781921387f, 0.15407095849514007568f, 0.088670440018177032471f, 0.039058893918991088867f, 0.024096887558698654175f, 0.075561247766017913818f, -0.21822912991046905518f, -0.11398945748805999756f, 0.069854781031608581543f, -0.17089387774467468262f, 0.061617795377969741821f, -0.10081510245800018311f, 0.065045267343521118164f, -0.022505182772874832153f, -0.026403609663248062134f, 0.18647216260433197021f, -0.014630257152020931244f, -0.076434046030044555664f},
  {0.0051494464278221130371f, -0.12281362712383270264f, 0.13838994503021240234f, -0.089086726307868957520f, 0.049883738160133361816f, 0.11241908371448516846f, 0.071443282067775726318f, 0.31987109780311584473f, 0.014229252934455871582f, 0.15241695940494537354f, -0.12142623960971832275f, 0.0074655758216977119446f, -0.15252703428268432617f, -0.10059906542301177979f, -0.14112742245197296143f, -0.15977108478546142578f, 0.062652826309204101562f, 0.00091019319370388984680f, 0.0049032270908355712891f, 0.050866685807704925537f, -0.059967517852783203125f, 0.092363066971302032471f, -0.019174888730049133301f, -0.031422633677721023560f, 0.051212303340435028076f, -0.11102394759654998779f, 0.025540603324770927429f, -0.082393303513526916504f, -0.11035039275884628296f, -0.032026402652263641357f, -0.10154125094413757324f, -0.19440823793411254883f, 0.13759654760360717773f, 0.096572600305080413818f, 0.046892970800399780273f, 0.085691854357719421387f, -0.11381121724843978882f, -0.20596733689308166504f, 0.33040395379066467285f, 0.076896086335182189941f, 0.0080462526530027389526f, 0.058124199509620666504f, 0.087625324726104736328f, 0.044683862477540969849f, -0.17821896076202392578f, 0.20097291469573974609f, -0.12306082993745803833f, -0.29311451315879821777f, -0.12418329715728759766f, -0.079757958650588989258f, -0.025287449359893798828f, -0.10544096678495407104f, -0.074896328151226043701f, 0.027074471116065979004f, -0.077717728912830352783f, 0.10813897848129272461f, -0.10659392178058624268f, -0.033843390643596649170f, -0.040014684200286865234f, 0.17136418819427490234f, 0.076955214142799377441f, 0.051232464611530303955f, 0.020137105137109756470f, -0.028101503849029541016f},
  {0.10597518831491470337f, 0.051854424178600311279f, -0.13086546957492828369f, -0.11729939281940460205f, -0.052851825952529907227f, -0.059772752225399017334f, 0.059701126068830490112f, -0.0013041136553511023521f, 0.055452406406402587891f, -0.11763269454240798950f, 0.0068773194216191768646f, -0.052625369280576705933f, 0.12093576788902282715f, -0.085093811154365539551f, 0.0074711595661938190460f, 0.057883631438016891479f, -0.042325422167778015137f, -0.056530635803937911987f, 0.050675615668296813965f, -0.070362500846385955811f, -0.0050970367155969142914f, 0.16118577122688293457f, 0.085242904722690582275f, 0.12533310055732727051f, 0.017993338406085968018f, -0.065617978572845458984f, -0.055117499083280563354f, -0.065386034548282623291f, 0.078015260398387908936f, -0.0097760697826743125916f, 0.10805790126323699951f, -0.11283806711435317993f, 0.088594049215316772461f, 0.19530726969242095947f, -0.020776242017745971680f, 0.045389965176582336426f, -0.035507731139659881592f, 0.099645413458347320557f, 0.057168394327163696289f, 0.068934567272663116455f, 0.11594292521476745605f, 0.029034137725830078125f, 0.046481702476739883423f, -0.055233288556337356567f, -0.031831681728363037109f, 0.018479837104678153992f, 0.13097082078456878662f, 0.065327152609825134277f, 0.0027008859906345605850f, -0.17014108598232269287f, -0.034429848194122314453f, -0.17111545801162719727f, -0.11334726214408874512f, 0.032231852412223815918f, 0.025295579805970191956f, 0.021845271810889244080f, -0.026253936812281608582f, -0.13540028035640716553f, 0.069778621196746826172f, -0.035291794687509536743f, 0.040834881365299224854f, 0.17271639406681060791f, 0.063601985573768615723f, -0.068232029676437377930f},
  {0.091689273715019226074f, 0.062843635678291320801f, -0.029496237635612487793f, 0.11175087094306945801f, 0.052333652973175048828f, 0.10845014452934265137f, -0.12089708447456359863f, -0.058369070291519165039f, 0.073723942041397094727f, 0.018434017896652221680f, -0.072442099452018737793f, -0.097170293331146240234f, -0.069836184382438659668f, 0.10448627173900604248f, -0.10931335389614105225f, 0.11518740653991699219f, 0.081394597887992858887f, -0.11269021034240722656f, 0.068728029727935791016f, -0.099647581577301025391f, -0.078331664204597473145f, -0.062316223978996276855f, 0.074449330568313598633f, -0.043010145425796508789f, 0.12442556023597717285f, -0.031488597393035888672f, 0.083579301834106445312f, -0.086194619536399841309f, 0.12483574450016021729f, -0.043677747249603271484f, -0.055843740701675415039f, -0.10399337112903594971f, 0.10344712436199188232f, 0.055433183908462524414f, 0.050738006830215454102f, -0.099339798092842102051f, -0.042148023843765258789f, 0.010026082396507263184f, 0.12426044046878814697f, -0.045757532119750976562f, 0.012724205851554870605f, 0.084158673882484436035f, 0.082327395677566528320f, 0.018776372075080871582f, -0.0027556419372558593750f, -0.011094763875007629395f, 0.066732555627822875977f, 0.084146812558174133301f, 0.095877647399902343750f, 0.11412017047405242920f, 0.061812296509742736816f, -0.067817240953445434570f, -0.069876149296760559082f, 0.014120340347290039062f, 0.035998910665512084961f, -0.092599928379058837891f, -0.097411721944808959961f, 0.078037664294242858887f, 0.085489720106124877930f, -0.10226336121559143066f, -0.053769975900650024414f, -0.10108935832977294922f, 0.084526106715202331543f, 0.11387176811695098877f},
  {-0.0060171540826559066772f, -0.016920231282711029053f, -0.080241978168487548828f, -0.062741234898567199707f, 0.020413696765899658203f, -0.11013362556695938110f, 0.12662470340728759766f, -0.024158289656043052673f, 0.043340727686882019043f, 0.022146796807646751404f, -0.045093502849340438843f, -0.0042142709717154502869f, 0.011354647576808929443f, -0.080392464995384216309f, 0.028741624206304550171f, -0.032705910503864288330f, -0.093975901603698730469f, -0.051711261272430419922f, -0.11123766005039215088f, 0.14262402057647705078f, -0.0064445738680660724640f, -0.24217061698436737061f, 0.12180961668491363525f, 0.015247788280248641968f, -0.050228398293256759644f, 0.038098268210887908936f, -0.075267136096954345703f, -0.15975090861320495605f, -0.15111482143402099609f, 0.13621221482753753662f, 0.16041629016399383545f, -0.17090936005115509033f, 0.25594407320022583008f, 0.13576567173004150391f, 0.12056656181812286377f, 0.0084417732432484626770f, 0.055881895124912261963f, -0.024080267176032066345f, -0.29788172245025634766f, 0.078488372266292572021f, 0.13599763810634613037f, -0.093443974852561950684f, 0.051291249692440032959f, 0.056243550032377243042f, 0.21409629285335540771f, 0.25474917888641357422f, -0.016793424263596534729f, 0.093035154044628143311f, 0.028756745159626007080f, -0.063074074685573577881f, -0.048948310315608978271f, 0.046480089426040649414f, -0.093418784439563751221f, -0.062246993184089660645f, -0.011383158154785633087f, -0.17113427817821502686f, -0.18296384811401367188f, -0.055836107581853866577f, -0.10704261064529418945f, -0.0067202202044427394867f, 0.041813526302576065063f, -0.019939018413424491882f, -0.10561222583055496216f, 0.0078628808259963989258f},
  {0.046559922397136688232f, 0.078598409891128540039f, 0.085152558982372283936f, 0.11662803590297698975f, 0.014339536428451538086f, 0.080986186861991882324f, 0.14488114416599273682f, 0.23424318432807922363f, -0.064972355961799621582f, 0.080679975450038909912f, -0.28683045506477355957f, 0.21108567714691162109f, -0.11335003376007080078f, -0.11366054415702819824f, -0.045705039054155349731f, -0.11970506608486175537f, 0.048292890191078186035f, -0.11543183773756027222f, -0.037053465843200683594f, 0.027258528396487236023f, 0.017896082252264022827f, 0.18525753915309906006f, -0.16222715377807617188f, -0.0063151665963232517242f, -0.029924627393484115601f, 0.062401764094829559326f, -0.14728592336177825928f, 0.042001720517873764038f, -0.19762542843818664551f, 0.086607113480567932129f, 0.033778317272663116455f, -0.11033151298761367798f, 0.051435146480798721313f, 0.034472890198230743408f, -0.049124702811241149902f, 0.18080098927021026611f, 0.10556743294000625610f, 0.085328742861747741699f, 0.14652667939662933350f, 0.19375206530094146729f, -0.050099998712539672852f, -0.081848308444023132324f, -0.092322871088981628418f, 0.014438989572227001190f, 0.067927792668342590332f, 0.25397139787673950195f, -0.051986541599035263062f, -0.031279511749744415283f, -0.0098553188145160675049f, 0.16310836374759674072f, -0.016570584848523139954f, -0.18189536035060882568f, 0.023091176524758338928f, 0.077107235789299011230f, 0.048966694623231887817f, -0.031295686960220336914f, 0.12625901401042938232f, -0.021327167749404907227f, 0.011436611413955688477f, 0.20087184011936187744f, -0.00063667213544249534607f, -0.14653109014034271240f, 0.066008165478706359863f, -0.10465896129608154297f},
  {-0.087274804711341857910f, 0.037290390580892562866f, 0.037700958549976348877f, -0.11736787855625152588f, -0.015102356672286987305f, 0.020178349688649177551f, -0.0042321975342929363251f, 0.065399251878261566162f, 0.017234399914741516113f, 0.024929551407694816589f, 0.11734829097986221313f, -0.12324663996696472168f, 0.0075931828469038009644f, -0.026311606168746948242f, 0.068526625633239746094f, 0.33861312270164489746f, 0.098610147833824157715f, 0.13578043878078460693f, -0.11228097975254058838f, 0.040732745081186294556f, -0.00016626951401121914387f, -0.18168985843658447266f, 0.056802809238433837891f, 0.033970277756452560425f, 0.0071162856183946132660f, -0.071159414947032928467f, 0.071300342679023742676f, -0.090962938964366912842f, 0.15248601138591766357f, -0.11418218910694122314f, -0.063694298267364501953f, 0.13652457296848297119f, -0.13029666244983673096f, -0.038793735206127166748f, -0.10614947974681854248f, -0.14305247366428375244f, -0.079199150204658508301f, -0.081159226596355438232f, 0.13168697059154510498f, -0.33356389403343200684f, 0.091814450919628143311f, -0.098712846636772155762f, -0.031256604939699172974f, 0.015551212243735790253f, -0.028931230306625366211f, -0.23068483173847198486f, 0.082936652004718780518f, 0.10243972390890121460f, -0.00059101695660501718521f, 0.16977871954441070557f, -0.13150778412818908691f, 0.35328289866447448730f, 0.0086892070248723030090f, 0.030995309352874755859f, 0.069335021078586578369f, -0.013676089234650135040f, -0.18598988652229309082f, 0.25273266434669494629f, -0.010194540023803710938f, -0.10404945164918899536f, 0.11869112402200698853f, 0.088040784001350402832f, -0.11786780506372451782f, -0.035387828946113586426f},
  {-0.13638265430927276611f, 0.11155289411544799805f, -0.020342834293842315674f, -0.10821168124675750732f, -0.016163736581802368164f, -0.064047560095787048340f, -0.10622892528772354126f, -0.23904004693031311035f, -0.097925677895545959473f, -0.14541243016719818115f, 0.17714524269104003906f, -0.069829553365707397461f, -0.024227442219853401184f, -0.085186690092086791992f, 0.077026173472404479980f, 0.25247114896774291992f, -0.10384140908718109131f, 0.052268505096435546875f, -0.039788931608200073242f, -0.14029663801193237305f, -0.042726643383502960205f, -0.16401477158069610596f, 0.10090664774179458618f, 0.085789881646633148193f, -0.021148122847080230713f, 0.072140119969844818115f, 0.092852562665939331055f, -0.15862132608890533447f, 0.11267805844545364380f, -0.071150302886962890625f, 0.20585009455680847168f, 0.036967180669307708740f, 0.065480202436447143555f, -0.14700132608413696289f, 0.12211737036705017090f, 0.055959697812795639038f, -0.084637716412544250488f, 0.038072999566793441772f, -0.19899460673332214355f, -0.25998932123184204102f, 0.050324071198701858521f, 0.12476244568824768066f, 0.020047731697559356689f, -0.023480005562305450439f, -0.013505665585398674011f, -0.20216841995716094971f, 0.059423163533210754395f, 0.11320309340953826904f, 0.12379875034093856812f, -0.14227245748043060303f, -0.078563690185546875000f, 0.25806140899658203125f, 0.17888709902763366699f, -0.024821966886520385742f, -0.14645083248615264893f, -0.059784032404422760010f, 0.026052514091134071350f, 0.022892115637660026550f, -0.061709523200988769531f, 0.068072900176048278809f, -0.11068462580442428589f, 0.055147323757410049438f, -0.044124860316514968872f, 0.036670371890068054199f},
  {0.097276896238327026367f, -0.023628402501344680786f, -0.16802681982517242432f, -0.080168098211288452148f, -0.11254435777664184570f, -0.072504550218582153320f, -0.084272347390651702881f, 0.072607509791851043701f, -0.034309148788452148438f, 0.12876674532890319824f, 0.17986087501049041748f, -0.22976016998291015625f, 0.030631087720394134521f, -0.0065784305334091186523f, 0.030846927314996719360f, 0.16675536334514617920f, -0.082514971494674682617f, 0.053623549640178680420f, -0.0088757574558258056641f, -0.076042518019676208496f, 0.026161683723330497742f, -0.063111029565334320068f, 0.026163734495639801025f, 0.20271944999694824219f, -0.064540982246398925781f, -0.19623571634292602539f, -0.11009927839040756226f, 0.0067126057110726833344f, 0.11730334162712097168f, 0.048875916749238967896f, 0.16192074120044708252f, 0.19758525490760803223f, 0.23847493529319763184f, 0.068921528756618499756f, 0.025199532508850097656f, -0.050642978399991989136f, 0.0022598120849579572678f, -0.22651548683643341064f, 0.095581494271755218506f, 0.056153662502765655518f, 0.22866442799568176270f, 0.12185408174991607666f, -0.048764094710350036621f, 0.022059539332985877991f, 0.0067971395328640937805f, -0.043896220624446868896f, 0.11419410258531570435f, 0.14747451245784759521f, 0.10158093273639678955f, -0.14936777949333190918f, 0.063862435519695281982f, 0.038881655782461166382f, -0.14000841975212097168f, 0.047226652503013610840f, -0.044760677963495254517f, -0.15647560358047485352f, 0.0052899969741702079773f, 0.15767307579517364502f, 0.091517627239227294922f, -0.20314344763755798340f, 0.060215432196855545044f, 0.090954944491386413574f, -0.010905144736170768738f, 0.12280023097991943359f},
  {0.17660248279571533203f, 0.062385983765125274658f, -0.013228945434093475342f, -0.036864846944808959961f, 0.083081915974617004395f, -0.076037347316741943359f, -0.017178615555167198181f, 0.0043709096498787403107f, 0.11372253298759460449f, -0.024139350280165672302f, 0.042548913508653640747f, -0.013487440533936023712f, 0.12651370465755462646f, -0.11344525218009948730f, 0.13237380981445312500f, 0.040158800780773162842f, -0.083980858325958251953f, 0.095485784113407135010f, -0.076007664203643798828f, 0.077384144067764282227f, 0.035031627863645553589f, 0.071100324392318725586f, 0.14689101278781890869f, 0.070213548839092254639f, -0.028787665069103240967f, 0.14375416934490203857f, 0.16223253309726715088f, -0.0055326591245830059052f, 0.082939967513084411621f, 0.038906350731849670410f, 0.066030226647853851318f, 0.10111568123102188110f, -0.068788141012191772461f, -0.022939719259738922119f, 0.064925283193588256836f, -0.065546110272407531738f, -0.018870750442147254944f, 0.17919273674488067627f, 0.11569429188966751099f, -0.0085680354386568069458f, -0.051456168293952941895f, 0.016566529870033264160f, -0.013566780835390090942f, -0.030021062120795249939f, -0.019782388582825660706f, -0.13820517063140869141f, -0.059278797358274459839f, 0.20178712904453277588f, 0.10857201367616653442f, -0.021140899509191513062f, -0.072244234383106231689f, 0.16120733320713043213f, -0.23790962994098663330f, 0.036653697490692138672f, -0.085108593106269836426f, -0.19912633299827575684f, -0.12599526345729827881f, 0.0057682069018483161926f, -0.11995689570903778076f, -0.029219562187790870667f, 0.010144456289708614349f, 0.068994112312793731689f, 0.034137096256017684937f, 0.091496422886848449707f},
  {0.015893245115876197815f, -0.10807190090417861938f, -0.046316683292388916016f, 0.047034606337547302246f, -0.083811789751052856445f, 0.013488993048667907715f, 0.0055198366753756999969f, 0.075876325368881225586f, -0.015448421239852905273f, 0.061198998242616653442f, 0.10539034008979797363f, -0.14254862070083618164f, 0.031699851155281066895f, 0.073672473430633544922f, 0.14207866787910461426f, 0.18468981981277465820f, -0.083858579397201538086f, -0.0099404109641909599304f, 0.0034347772598266601562f, 0.016261547803878784180f, -0.15632174909114837646f, -0.0071516875177621841431f, -0.020566496998071670532f, 0.027183515951037406921f, 0.025226505473256111145f, -0.044405598193407058716f, -0.035164654254913330078f, -0.14595162868499755859f, 0.064700804650783538818f, 0.055989861488342285156f, 0.11546913534402847290f, 0.11171574145555496216f, -0.10527724772691726685f, -0.12431190907955169678f, 0.081900715827941894531f, -0.00052304955897852778435f, 0.032977767288684844971f, 0.022996211424469947815f, 0.078179560601711273193f, 0.024382971227169036865f, -0.062035601586103439331f, -0.011367470026016235352f, 0.033790852874517440796f, 0.049779620021581649780f, 0.095310218632221221924f, -0.081450529396533966064f, -0.087382778525352478027f, 0.012015015818178653717f, -0.053724925965070724487f, -0.12701994180679321289f, -0.10531472414731979370f, 0.059274878352880477905f, 0.072140671312808990479f, -0.072031766176223754883f, -0.059806447476148605347f, -0.13252069056034088135f, -0.078574411571025848389f, -0.037672899663448333740f, -0.057079523801803588867f, -0.10871538519859313965f, -0.098807185888290405273f, 0.093565799295902252197f, -0.0044580842368304729462f, -0.059897452592849731445f},
  {-0.098002567887306213379f, -0.017960160970687866211f, 0.033398352563381195068f, -0.11950507760047912598f, -0.0092101097106933593750f, -0.051554605364799499512f, -0.012434914708137512207f, 0.10773310065269470215f, -0.025099098682403564453f, 0.075483188033103942871f, 0.078872546553611755371f, -0.12367092818021774292f, -0.089114971458911895752f, -0.058492675423622131348f, -0.025241896510124206543f, -0.085322067141532897949f, 0.086160913109779357910f, 0.029630633071064949036f, 0.061536654829978942871f, -0.027783976867794990540f, 0.026828899979591369629f, -0.063496515154838562012f, -0.10052733123302459717f, -0.11567298322916030884f, 0.082131005823612213135f, -0.055216312408447265625f, 0.096377141773700714111f, -0.031340196728706359863f, 0.12004000693559646606f, -0.079761460423469543457f, -0.053336590528488159180f, -0.10403635352849960327f, 0.025672616437077522278f, -0.11313652992248535156f, -0.0083076506853103637695f, -0.11760111153125762939f, 0.062820360064506530762f, 0.00058972835540771484375f, 0.031113591045141220093f, 0.015195363201200962067f, 0.033098131418228149414f, -0.12096998095512390137f, -0.019585430622100830078f, 0.042754232883453369141f, 0.10597058385610580444f, -0.015440912917256355286f, 0.059226803481578826904f, 0.025295704603195190430f, -0.031516626477241516113f, -0.0010782927274703979492f, 0.022830501198768615723f, -0.12484246492385864258f, -0.0041537955403327941895f, -0.074566364288330078125f, -0.064295053482055664062f, 0.031663075089454650879f, -0.071261301636695861816f, 0.035324174910783767700f, 0.087393894791603088379f, -0.028035787865519523621f, 0.034408137202262878418f, -0.12019211798906326294f, -0.018521890044212341309f, -0.0077287107706069946289f},
  {0.15156750380992889404f, 0.28827163577079772949f, -0.018569348379969596863f, -0.12239044904708862305f, 0.070560887455940246582f, -0.081098027527332305908f, -0.072237350046634674072f, -0.41246715188026428223f, 0.068876355886459350586f, -0.21323695778846740723f, 0.17962755262851715088f, -0.20620286464691162109f, 0.047186065465211868286f, 0.10420732200145721436f, 0.017715150490403175354f, 0.22565953433513641357f, -0.074779242277145385742f, 0.11011197417974472046f, -0.010258838534355163574f, -0.22322613000869750977f, -0.036063991487026214600f, -0.27242353558540344238f, 0.035308562219142913818f, 0.26140484213829040527f, 0.19943551719188690186f, 0.013788145966827869415f, 0.075552903115749359131f, -0.14190401136875152588f, 0.094825312495231628418f, -0.088147029280662536621f, 0.049349848181009292603f, 0.052463140338659286499f, 0.074735425412654876709f, -0.069052621722221374512f, 0.053815722465515136719f, -0.17057818174362182617f, -0.076683558523654937744f, 0.17393423616886138916f, -0.23124361038208007812f, -0.26783087849617004395f, 0.16637584567070007324f, 0.10049994289875030518f, -0.048833187669515609741f, -0.14619314670562744141f, 0.083739727735519409180f, -0.28993147611618041992f, 0.051444575190544128418f, 0.35707432031631469727f, -0.018781010061502456665f, 0.20107556879520416260f, 0.020495526492595672607f, 0.28402349352836608887f, -0.053033832460641860962f, -0.028307452797889709473f, 0.13086591660976409912f, 0.017135361209511756897f, 0.28266322612762451172f, 0.20309686660766601562f, -0.015634253621101379395f, -0.31706386804580688477f, -0.021923834457993507385f, 0.090734504163265228271f, 0.086673796176910400391f, 0.062756642699241638184f},
  {0.0058951904065907001495f, 0.066024348139762878418f, -0.099300019443035125732f, 0.066876515746116638184f, -0.0082689374685287475586f, -0.10445478558540344238f, -0.11630090326070785522f, -0.022062098607420921326f, -0.067420065402984619141f, 0.0062949899584054946899f, 0.11409819871187210083f, 0.00056524417595937848091f, -0.073959805071353912354f, -0.019260779023170471191f, 0.089835323393344879150f, -0.015013789758086204529f, 0.12196454405784606934f, -0.094736270606517791748f, 0.024684622883796691895f, 0.045932155102491378784f, 0.12815290689468383789f, 0.084003679454326629639f, 0.034316167235374450684f, 0.10135646909475326538f, -0.059041205793619155884f, -0.083041444420814514160f, -0.0072637004777789115906f, 0.0024887954350560903549f, 0.049528799951076507568f, -0.092977225780487060547f, 0.0011446677381172776222f, 0.10989238321781158447f, 0.039969936013221740723f, -0.016282271593809127808f, 0.10605658590793609619f, 0.065634332597255706787f, -0.085873290896415710449f, -0.084896802902221679688f, 0.099985085427761077881f, -0.021831998601555824280f, -0.017438605427742004395f, 0.0021081268787384033203f, 0.10391689836978912354f, 0.077871426939964294434f, 0.089443720877170562744f, 0.048646643757820129395f, 0.029309045523405075073f, 0.11466197669506072998f, 0.10455860197544097900f, -0.11192852258682250977f, -0.027751708403229713440f, 0.20789037644863128662f, 0.014581282623112201691f, -0.047185987234115600586f, -0.070130035281181335449f, -0.061089329421520233154f, -0.11373141407966613770f, 0.062385618686676025391f, 0.11376446485519409180f, 0.046436820179224014282f, -0.13147498667240142822f, 0.032327201217412948608f, 0.078328758478164672852f, 0.035353496670722961426f},
  {-0.072500571608543395996f, -0.028794810175895690918f, -0.049027875065803527832f, -0.11244305968284606934f, 0.090557977557182312012f, -0.073649808764457702637f, -0.088168472051620483398f, 0.072000533342361450195f, -0.11518949270248413086f, 0.028442829847335815430f, -0.018605530261993408203f, -0.046659946441650390625f, 0.039318203926086425781f, 0.065841183066368103027f, 0.00088465213775634765625f, -0.026342958211898803711f, 0.10985711216926574707f, 0.083355978131294250488f, 0.10258729755878448486f, 0.017047598958015441895f, -0.10328492522239685059f, 0.11064474284648895264f, -0.089321389794349670410f, -0.065668433904647827148f, -0.064827010035514831543f, 0.058872461318969726562f, -0.00079299509525299072266f, 0.11578899621963500977f, -0.044045329093933105469f, 0.0040388703346252441406f, 0.049967080354690551758f, 0.059511572122573852539f, -0.11535508930683135986f, -0.0015915036201477050781f, 0.021659091114997863770f, 0.099761933088302612305f, 0.0054745823144912719727f, 0.063913315534591674805f, -0.11547212302684783936f, 0.028209775686264038086f, -0.031981676816940307617f, 0.067837968468666076660f, 0.059828162193298339844f, -0.0040458887815475463867f, 0.11090694367885589600f, -0.068521946668624877930f, -0.11792567372322082520f, -0.096256285905838012695f, -0.038822203874588012695f, -0.011607244610786437988f, -0.064838379621505737305f, -0.11345627903938293457f, 0.091334253549575805664f, 0.069035544991493225098f, -0.026583299040794372559f, 0.045481473207473754883f, -0.024976328015327453613f, 0.11095272004604339600f, -0.040159791707992553711f, -0.057545065879821777344f, -0.042317211627960205078f, 0.0085627883672714233398f, -0.027185827493667602539f, 0.051641270518302917480f},
  {-0.11920063942670822144f, -0.10381062328815460205f, 0.13403478264808654785f, 0.075253486633300781250f, 0.11425796151161193848f, -0.10850002616643905640f, -0.10192214697599411011f, 0.013001377694308757782f, -0.073880404233932495117f, 0.055488232523202896118f, 0.36282256245613098145f, -0.20648071169853210449f, -0.10304121673107147217f, 0.053527593612670898438f, 0.019363097846508026123f, 0.38428789377212524414f, -0.12179286777973175049f, 0.033354070037603378296f, 0.11318926513195037842f, 0.053597953170537948608f, 0.14921323955059051514f, -0.14464157819747924805f, 0.11664925515651702881f, 0.20079506933689117432f, 0.31819948554039001465f, -0.059634417295455932617f, 0.065418593585491180420f, -0.053970173001289367676f, 0.14670886099338531494f, -0.048284482210874557495f, 0.14259113371372222900f, 0.16509073972702026367f, 0.072312563657760620117f, -0.078430615365505218506f, 0.12392510473728179932f, -0.19292920827865600586f, 0.022324323654174804688f, -0.072282239794731140137f, 0.037188034504652023315f, -0.35982143878936767578f, -0.068369433283805847168f, -0.11882673203945159912f, -0.048343650996685028076f, 0.029051834717392921448f, 0.11329682171344757080f, -0.028331194072961807251f, 0.21579889953136444092f, 0.20888370275497436523f, 0.028653116896748542786f, -0.066369935870170593262f, -0.019963795319199562073f, 0.42023229598999023438f, -0.043709963560104370117f, 0.12347969412803649902f, 0.092446483671665191650f, 0.099152199923992156982f, 0.052584085613489151001f, 0.13825221359729766846f, 0.024247288703918457031f, -0.23811903595924377441f, -0.058246783912181854248f, 0.049788303673267364502f, -0.015118676237761974335f, -0.0095310509204864501953f},
  {0.028551230207085609436f, -0.097790032625198364258f, -0.041297089308500289917f, -0.078704506158828735352f, 0.11708752810955047607f, 0.062791526317596435547f, -0.11525178700685501099f, 0.096700288355350494385f, -0.073280900716781616211f, -0.10899192094802856445f, -0.037373974919319152832f, 0.067320890724658966064f, -0.0077291522175073623657f, -0.10618850588798522949f, 0.049024783074855804443f, 0.11115641891956329346f, -0.014346182346343994141f, -0.089862570166587829590f, 0.0062878727912902832031f, -0.064597882330417633057f, 0.032002374529838562012f, -0.019836813211441040039f, -0.018437400460243225098f, 0.027699386700987815857f, -0.11449556797742843628f, -0.10196597874164581299f, 0.086130388081073760986f, -0.055113032460212707520f, 0.064023822546005249023f, 0.021757036447525024414f, -0.021913303062319755554f, -0.045118927955627441406f, -0.012092441320419311523f, -0.12044964730739593506f, -0.080602616071701049805f, -0.033754691481590270996f, -0.0070750415325164794922f, -0.093452289700508117676f, 0.028937486931681632996f, -0.080888874828815460205f, -0.10355477035045623779f, 0.0043970644474029541016f, -0.088094793260097503662f, 0.090858809649944305420f, -0.12625603377819061279f, -0.017030039802193641663f, -0.055968973785638809204f, 0.10953398048877716064f, 0.10227507352828979492f, -0.064893022179603576660f, 0.040249329060316085815f, -0.055643759667873382568f, -0.080284744501113891602f, 0.092406436800956726074f, -0.051651865243911743164f, -0.045430928468704223633f, -0.0092950016260147094727f, 0.024889642372727394104f, -0.083645075559616088867f, 0.11897184699773788452f, 0.054568365216255187988f, 0.039461597800254821777f, 0.049240767955780029297f, 0.0071656554937362670898f},
  {-0.32812228798866271973f, -0.24666279554367065430f, 0.18071325123310089111f, 0.0089287012815475463867f, 0.050434023141860961914f, 0.066002763807773590088f, 0.11629806458950042725f, 0.36237537860870361328f, 0.073490470647811889648f, 0.57903170585632324219f, 0.21441978216171264648f, -0.050354644656181335449f, 0.048495832830667495728f, -0.070846036076545715332f, -0.090537510812282562256f, 0.080062232911586761475f, 0.061601921916007995605f, 0.030334563925862312317f, -0.11798277497291564941f, 0.30099636316299438477f, -0.0090451650321483612061f, 0.0046636569313704967499f, -0.12009757757186889648f, -0.26713857054710388184f, 0.14399775862693786621f, -0.52571427822113037109f, -0.12305685877799987793f, 0.25701656937599182129f, 0.084891840815544128418f, 0.029321849346160888672f, -0.063988216221332550049f, -0.093449860811233520508f, 0.13646295666694641113f, -0.11427597701549530029f, 0.077408269047737121582f, -0.081612840294837951660f, -0.081952638924121856689f, -0.31703129410743713379f, 0.19840881228446960449f, 0.18886749446392059326f, -0.061321385204792022705f, -0.083789527416229248047f, 0.010450784116983413696f, 0.41281455755233764648f, -0.20523707568645477295f, 0.14226327836513519287f, 0.14773193001747131348f, -0.50335925817489624023f, 0.053560636937618255615f, 0.072832904756069183350f, 0.32783970236778259277f, 0.030409667640924453735f, 0.024116316810250282288f, -0.099565431475639343262f, -0.34700402617454528809f, 0.15227980911731719971f, -0.076512463390827178955f, 0.22961446642875671387f, -0.035923734307289123535f, 0.10416472703218460083f, -0.061553269624710083008f, -0.027162492275238037109f, 0.045086011290550231934f, 0.096846461296081542969f},
  {-0.25067350268363952637f, -0.19035185873508453369f, 0.071287803351879119873f, -0.021336838603019714355f, -0.099306166172027587891f, -0.042896751314401626587f, 0.089987546205520629883f, 0.44215571880340576172f, 0.049239963293075561523f, 0.27435117959976196289f, 0.24485601484775543213f, 0.016229087486863136292f, -0.14170520007610321045f, -0.0093728601932525634766f, -0.017294866964221000671f, -0.24716258049011230469f, -0.026853308081626892090f, -0.16374255716800689697f, -0.079045414924621582031f, 0.21186037361621856689f, 0.11679258197546005249f, 0.058020234107971191406f, -0.14168550074100494385f, -0.24302811920642852783f, -0.17073985934257507324f, -0.42126193642616271973f, -0.067945726215839385986f, -0.0024165834765881299973f, 0.080897577106952667236f, 0.057826966047286987305f, -0.18755429983139038086f, -0.12040670961141586304f, 0.080125153064727783203f, 0.10646446049213409424f, -0.096397697925567626953f, 0.022383885458111763000f, -0.11547428369522094727f, -0.30106335878372192383f, 0.36192199587821960449f, 0.31692987680435180664f, -0.19252845644950866699f, 0.030865401029586791992f, 0.099347166717052459717f, 0.11217424273490905762f, -0.11605731397867202759f, 0.37298354506492614746f, 0.037635657936334609985f, -0.55739188194274902344f, -0.054900661110877990723f, -0.11848644167184829712f, 0.30927082896232604980f, -0.00040717679075896739960f, -0.15810272097587585449f, 0.079975873231887817383f, -0.24435168504714965820f, -0.0081826113164424896240f, -0.21815952658653259277f, 0.088179618120193481445f, 0.039757907390594482422f, 0.34783738851547241211f, -0.020683106034994125366f, -0.072892606258392333984f, 0.10480315983295440674f, -0.12333267927169799805f},
  {-0.099721200764179229736f, -0.12703034281730651855f, -0.0012393256183713674545f, 0.090364798903465270996f, 0.10487020015716552734f, -0.10979345440864562988f, -0.014645011164247989655f, 0.032795213162899017334f, 0.059467732906341552734f, 0.0026828630361706018448f, 0.0079531250521540641785f, -0.086590081453323364258f, -0.10338772833347320557f, 0.079571917653083801270f, -0.10556532442569732666f, 0.081462919712066650391f, 0.10818386077880859375f, -0.11796829104423522949f, 0.10816310346126556396f, 0.12609611451625823975f, 0.056802853941917419434f, -0.051648870110511779785f, -0.0055498383007943630219f, -0.15432591736316680908f, 0.0052772369235754013062f, -0.046166934072971343994f, 0.012357898987829685211f, -0.075573250651359558105f, 0.11991343647241592407f, 0.063797891139984130859f, -0.056551836431026458740f, 0.11305249482393264771f, 0.021938590332865715027f, -0.068114243447780609131f, 0.11975286900997161865f, 0.097955912351608276367f, 0.070205956697463989258f, 0.044395074248313903809f, 0.12096152454614639282f, -0.14906071126461029053f, -0.0084726568311452865601f, 0.037317097187042236328f, -0.069362923502922058105f, -0.18144159018993377686f, -0.14443323016166687012f, -0.15997056663036346436f, 0.12621031701564788818f, -0.086417570710182189941f, -0.11246570944786071777f, -0.022377654910087585449f, 0.10713287442922592163f, 0.11826007813215255737f, 0.11484299600124359131f, -0.073603585362434387207f, -0.11719691008329391479f, -0.060310363769531250000f, -0.069887444376945495605f, 0.074933476746082305908f, 0.10600496828556060791f, -0.13406935334205627441f, 0.0028668642044067382812f, 0.10270933806896209717f, -0.11192943155765533447f, -0.018336519598960876465f},
  {-0.14031459391117095947f, 0.0088302902877330780029f, -0.042657364159822463989f, -0.12112586200237274170f, 0.00011019408702850341797f, -0.11348991841077804565f, -0.085175096988677978516f, 0.23742271959781646729f, -0.047866344451904296875f, 0.10752364993095397949f, -0.055480234324932098389f, 0.17284828424453735352f, 0.010458217002451419830f, -0.069963276386260986328f, -0.12064448744058609009f, -0.042511597275733947754f, 0.029147431254386901855f, -0.17070148885250091553f, -0.12138265371322631836f, 0.0049027875065803527832f, -0.15741160511970520020f, 0.080376558005809783936f, -0.050679855048656463623f, 0.058191161602735519409f, -0.083881206810474395752f, 0.15420028567314147949f, 0.11218575388193130493f, -0.071325607597827911377f, -0.15840891003608703613f, -0.035805698484182357788f, 0.15604326128959655762f, -0.071663856506347656250f, 0.13605599105358123779f, 0.044430501759052276611f, 0.11330033838748931885f, 0.12234779447317123413f, 0.11883413791656494141f, -0.13122846186161041260f, -0.21152861416339874268f, 0.14261151850223541260f, 0.038058452308177947998f, -0.064106479287147521973f, 0.14778824150562286377f, 0.16636089980602264404f, 0.10874623060226440430f, 0.10451059788465499878f, -0.014845884405076503754f, 0.21630017459392547607f, 0.087337501347064971924f, 0.013060210272669792175f, 0.028003759682178497314f, -0.011111893691122531891f, 0.19311465322971343994f, -0.10574679076671600342f, -0.031618490815162658691f, 0.14102233946323394775f, -0.0051048668101429939270f, 0.14043970406055450439f, -0.084192380309104919434f, 0.0076045612804591655731f, -0.016992919147014617920f, -0.098507612943649291992f, -0.11140641570091247559f, -0.10026754438877105713f},
  {-0.036814261227846145630f, -0.064699120819568634033f, -0.060487084090709686279f, -0.061749875545501708984f, 0.058900088071823120117f, -0.12152037024497985840f, 0.023844154551625251770f, -0.065499149262905120850f, -0.088823541998863220215f, -0.043504383414983749390f, 0.13577860593795776367f, 0.021523039788007736206f, 0.0098363347351551055908f, 0.077906638383865356445f, -0.093164086341857910156f, 0.10066277533769607544f, 0.11720341444015502930f, -0.081072606146335601807f, 0.11797517538070678711f, -0.018863271921873092651f, 0.064059436321258544922f, 0.097110606729984283447f, 2.6211784643237479031e-05f, -0.045698314905166625977f, 0.11257600039243698120f, -0.10382787138223648071f, 0.084612846374511718750f, -0.070104286074638366699f, 0.044615045189857482910f, 0.019683241844177246094f, -0.086277365684509277344f, 0.11040739715099334717f, -0.026370074599981307983f, 0.11009316891431808472f, -0.088335201144218444824f, -0.10397445410490036011f, 0.082917451858520507812f, 0.013963666744530200958f, -0.0087415026500821113586f, -0.047986429184675216675f, -0.073089852929115295410f, -0.016363024711608886719f, -0.026742314919829368591f, -0.086308278143405914307f, -0.088009953498840332031f, 0.034415874630212783813f, -0.0056360433809459209442f, -0.086775466799736022949f, -0.071390882134437561035f, -0.069781422615051269531f, 0.0062217065133154392242f, -0.010144144296646118164f, -0.10819958895444869995f, -0.072333335876464843750f, 0.060227740556001663208f, 0.10642340779304504395f, -0.056076675653457641602f, -0.098569065332412719727f, 0.10010904073715209961f, -0.024739610031247138977f, 0.095557942986488342285f, 0.020764505490660667419f, -0.065771207213401794434f, 0.065445914864540100098f},
  {0.085494354367256164551f, 0.085867069661617279053f, 0.12919752299785614014f, -0.033662408590316772461f, -0.025993153452873229980f, -0.00081336870789527893066f, 0.089441470801830291748f, -0.11836831271648406982f, 0.0023794174194335937500f, -0.075926005840301513672f, -0.039306808263063430786f, -0.077485486865043640137f, -0.043173670768737792969f, 0.062430873513221740723f, 0.098048560321331024170f, -0.017380472272634506226f, 0.037966668605804443359f, -0.031373269855976104736f, -0.092121765017509460449f, -0.030400458723306655884f, -0.064232856035232543945f, -0.23084510862827301025f, -0.045035701245069503784f, 0.015876922756433486938f, -0.099018551409244537354f, 0.22153683006763458252f, 0.074676990509033203125f, -0.047013048082590103149f, -0.099487498402595520020f, 0.017929840832948684692f, 0.064578413963317871094f, -0.023547064512968063354f, 0.14979438483715057373f, 0.058287709951400756836f, 0.055547028779983520508f, -0.045016832649707794189f, -0.015088268555700778961f, 0.041258800774812698364f, -0.13468106091022491455f, -0.058089774101972579956f, 0.011054580099880695343f, 0.085815891623497009277f, 0.12709796428680419922f, -0.087017826735973358154f, 0.085847415030002593994f, 0.12155751883983612061f, 0.072801195085048675537f, 0.27808794379234313965f, -0.087313733994960784912f, 0.021561671048402786255f, -0.0039868936873972415924f, 0.047126319259405136108f, -0.12807501852512359619f, -0.042051821947097778320f, -0.076811388134956359863f, 0.059852305799722671509f, 0.098414480686187744141f, -0.0076841916888952255249f, 0.057740733027458190918f, -0.084038510918617248535f, -0.040598072111606597900f, -0.12696604430675506592f, 0.095466479659080505371f, 0.018955647945404052734f},
  {0.034102536737918853760f, 0.096726432442665100098f, 0.062271036207675933838f, -0.057509288191795349121f, 0.077298894524574279785f, -0.10442127287387847900f, 0.042272917926311492920f, 0.14469084143638610840f, 0.11903357505798339844f, 0.064995341002941131592f, -0.28101330995559692383f, 0.17801207304000854492f, -0.10663211345672607422f, -0.11706328392028808594f, -0.087823569774627685547f, -0.19023850560188293457f, -0.091989845037460327148f, -0.14146547019481658936f, 0.11314551532268524170f, -0.0065371124073863029480f, 0.013880729675292968750f, 0.067155495285987854004f, -0.10170362144708633423f, 0.12115627527236938477f, -0.27189657092094421387f, 0.12672895193099975586f, 0.10922522097826004028f, -0.14299616217613220215f, -0.17941890656948089600f, -0.087024264037609100342f, 0.12858496606349945068f, -0.027329212054610252380f, 0.12959817051887512207f, 0.21952907741069793701f, -0.10803374648094177246f, 0.18564438819885253906f, 0.026386693120002746582f, 0.024802559986710548401f, 0.18995137512683868408f, 0.27353087067604064941f, 0.16354063153266906738f, 0.11560150980949401855f, -0.0042439941316843032837f, 0.0060620615258812904358f, 0.11774752289056777954f, 0.25223436951637268066f, -0.30889281630516052246f, 0.057398401200771331787f, 0.10412675887346267700f, 0.0040427939966320991516f, 0.029166636988520622253f, -0.18749219179153442383f, 0.074706360697746276855f, -0.0012030154466629028320f, 0.011695574969053268433f, 0.17001986503601074219f, 0.061369478702545166016f, -0.065949052572250366211f, 0.11341734230518341064f, 0.11221753805875778198f, -0.075339049100875854492f, -0.10226889699697494507f, 0.044088806957006454468f, 0.028451472520828247070f},
  {0.023674113675951957703f, 0.0026326624210923910141f, 0.18134663999080657959f, -0.067808181047439575195f, -0.11269815266132354736f, 0.018561223521828651428f, -0.023652017116546630859f, -0.012436012737452983856f, 0.035827577114105224609f, -0.074638664722442626953f, 0.057055275887250900269f, -0.084852203726768493652f, 0.068782441318035125732f, -0.0055897682905197143555f, 0.020897326990962028503f, 0.20530751347541809082f, 0.050356626510620117188f, 0.051487140357494354248f, 0.11843110620975494385f, 0.010148754343390464783f, -0.12605653703212738037f, -0.42422786355018615723f, 0.021173324435949325562f, 0.13548542559146881104f, 0.11890257149934768677f, -0.020748069509863853455f, 0.11454306542873382568f, -0.025623636320233345032f, 0.070128731429576873779f, 0.10807641595602035522f, 0.23651894927024841309f, 0.019600851461291313171f, -0.053193204104900360107f, -0.26165112853050231934f, -0.11875738203525543213f, -0.20717892050743103027f, 0.075513899326324462891f, -0.085626013576984405518f, 0.051258049905300140381f, -0.22999222576618194580f, -0.050053190439939498901f, -0.019981741905212402344f, 0.091317772865295410156f, 0.078319571912288665771f, -0.055752642452716827393f, -0.042564727365970611572f, 0.12069323658943176270f, 0.35512754321098327637f, -0.030654944479465484619f, 0.084512107074260711670f, -0.033415298908948898315f, 0.35975179076194763184f, -0.037491679191589355469f, 0.054244458675384521484f, -0.15368030965328216553f, -0.22633911669254302979f, -0.13451892137527465820f, 0.15013718605041503906f, 0.069515138864517211914f, -0.15115638077259063721f, 0.071496613323688507080f, 0.13137190043926239014f, -0.055699806660413742065f, -0.020899564027786254883f},
  {-0.014005881734192371368f, 0.057075019925832748413f, 0.079094767570495605469f, 0.10293327271938323975f, 0.045264333486557006836f, -0.072276979684829711914f, -0.12561799585819244385f, 0.18940457701683044434f, 0.0040393024682998657227f, 0.051273237913846969604f, -0.12736858427524566650f, 0.15519945323467254639f, -0.15260018408298492432f, -0.036468207836151123047f, -0.10490148514509201050f, -0.057076647877693176270f, 0.041101425886154174805f, -0.10390969365835189819f, -0.11626505851745605469f, 0.00035673010279424488544f, 0.11525160074234008789f, 0.055889535695314407349f, 0.0063150459900498390198f, 0.046036865562200546265f, -0.086584344506263732910f, -0.11166338622570037842f, 0.049691472202539443970f, -0.086888730525970458984f, 0.0022103779483586549759f, -0.089130356907844543457f, -0.018028991296887397766f, -0.021686723455786705017f, 0.022621599957346916199f, 0.015657765790820121765f, -0.092497810721397399902f, 0.022551782429218292236f, -0.055978059768676757812f, -0.073156781494617462158f, 0.15975530445575714111f, -0.10018220543861389160f, 0.032459106296300888062f, 0.11875945329666137695f, 0.10593259334564208984f, 0.15325988829135894775f, -0.081964835524559020996f, 0.057870905846357345581f, -0.071473360061645507812f, 0.086478628218173980713f, 0.052451156079769134521f, -0.073594585061073303223f, -0.090194441378116607666f, 0.027768174186348915100f, 0.043982207775115966797f, -0.048422157764434814453f, 0.083976335823535919189f, 0.065934114158153533936f, -0.018078820779919624329f, 0.18580581247806549072f, 0.092866659164428710938f, 0.0090811923146247863770f, -0.089987412095069885254f, -0.15856049954891204834f, -0.020533053204417228699f, 0.030007600784301757812f},
  {0.17516590654850006104f, 0.076481297612190246582f, -0.031106734648346900940f, 0.10005904734134674072f, 0.045517146587371826172f, -0.097325265407562255859f, 0.025392454117536544800f, -0.10554905235767364502f, 0.0059673786163330078125f, -0.040740519762039184570f, 0.0024576929863542318344f, 0.096008032560348510742f, 0.15808913111686706543f, 0.037578374147415161133f, 0.019641039893031120300f, -0.092422105371952056885f, 0.10463275015354156494f, -0.016078408807516098022f, -0.023358494043350219727f, -0.13213565945625305176f, 0.060916192829608917236f, 0.23750962316989898682f, -0.010073952376842498779f, -0.042198482900857925415f, 0.019451495260000228882f, 0.11928301304578781128f, -0.059102810919284820557f, 0.036577232182025909424f, 0.090010717511177062988f, -0.064154103398323059082f, 0.060021478682756423950f, 0.13405090570449829102f, -0.053619548678398132324f, 0.15273907780647277832f, 0.065873190760612487793f, 0.091977126896381378174f, -0.054100569337606430054f, 0.18451774120330810547f, 0.030878510326147079468f, -0.10812209546566009521f, -0.025865595787763595581f, 0.092486068606376647949f, -0.032586578279733657837f, -0.22895067930221557617f, -0.039198171347379684448f, -0.24132117629051208496f, 0.097254663705825805664f, -0.020652510225772857666f, 0.0012878736015409231186f, 0.11547118425369262695f, -0.17973396182060241699f, -0.065707691013813018799f, 0.048250645399093627930f, -0.12446960806846618652f, 0.036878958344459533691f, 0.041293382644653320312f, 0.13027194142341613770f, 0.043282646685838699341f, 0.042711958289146423340f, -0.052071396261453628540f, -0.051626708358526229858f, 0.086064822971820831299f, -0.019673585891723632812f, -0.018460556864738464355f},
  {-0.078117772936820983887f, -0.080071806907653808594f, 0.039314702153205871582f, -0.0025854408740997314453f, 0.095069661736488342285f, 0.095506876707077026367f, 0.071796625852584838867f, -0.11031407117843627930f, 0.089015677571296691895f, -0.034989058971405029297f, 0.044207751750946044922f, 0.078752681612968444824f, 0.045418083667755126953f, 4.4882297515869140625e-05f, 0.021760791540145874023f, -0.12160794436931610107f, -0.042343959212303161621f, 0.032842755317687988281f, -0.096677437424659729004f, -0.10797409713268280029f, -0.060315921902656555176f, -0.089996293187141418457f, -0.11254411935806274414f, -0.11668597161769866943f, 0.037879377603530883789f, -0.075190618634223937988f, -0.057056203484535217285f, -0.069827497005462646484f, 0.0078909248113632202148f, -0.080344080924987792969f, 0.090473189949989318848f, 0.094094917178153991699f, 0.091898992657661437988f, 0.012513145804405212402f, 0.056587725877761840820f, -0.082047522068023681641f, 0.035974979400634765625f, 0.020232424139976501465f, 0.032864838838577270508f, -0.10258680582046508789f, 0.056834533810615539551f, 0.078962922096252441406f, -0.12327502667903900146f, -0.080458655953407287598f, -0.051434189081192016602f, -0.088366866111755371094f, -0.11274194717407226562f, 0.10983341932296752930f, -0.0085045248270034790039f, 0.052073389291763305664f, -0.10603903234004974365f, -0.057393655180931091309f, 0.014560848474502563477f, -0.10373866558074951172f, -0.087207153439521789551f, 0.025940805673599243164f, -0.018875405192375183105f, 0.033077746629714965820f, -0.069869190454483032227f, 0.095207378268241882324f, 0.083337157964706420898f, -0.026777952909469604492f, -0.00026555359363555908203f, 0.046314239501953125000f},
  {0.11551209539175033569f, -0.020696196705102920532f, 0.20375761389732360840f, -0.12377502024173736572f, 0.054894655942916870117f, -0.053029090166091918945f, 0.0018270165892317891121f, -0.20545211434364318848f, 0.094505414366722106934f, 0.10722219944000244141f, -0.051552832126617431641f, 0.026834987103939056396f, 0.018905706703662872314f, 0.045167475938796997070f, -0.026156796142458915710f, -0.012805647216737270355f, -0.012426406145095825195f, 0.055993229150772094727f, 0.095700666308403015137f, 0.022868080064654350281f, -0.085406877100467681885f, -0.36345112323760986328f, -0.081004001200199127197f, 0.0044092270545661449432f, 0.12935170531272888184f, 0.31157690286636352539f, 0.13613791763782501221f, -0.22045682370662689209f, -0.14068453013896942139f, -0.037128005176782608032f, 0.051645431667566299438f, -0.0077659045346081256866f, -0.00090491195442155003548f, 0.17079064249992370605f, -0.0085966736078262329102f, -0.038297373801469802856f, -0.073724485933780670166f, -0.041943076997995376587f, -0.47401800751686096191f, 0.068436652421951293945f, 0.10098879784345626831f, 0.032443881034851074219f, 0.036758501082658767700f, 0.069835200905799865723f, 0.16832809150218963623f, 0.13890214264392852783f, -0.072472237050533294678f, 0.15463221073150634766f, 0.099238015711307525635f, 0.13129879534244537354f, -0.12202070653438568115f, -0.21766807138919830322f, 0.062806576490402221680f, -0.017319336533546447754f, -0.017202038317918777466f, 0.30414557456970214844f, 0.15613275766372680664f, 0.033233512192964553833f, 0.027242153882980346680f, -0.053122155368328094482f, 0.096597485244274139404f, 0.026218308135867118835f, 0.091220721602439880371f, -0.066829591989517211914f},
  {0.30232068896293640137f, 0.27996346354484558105f, 0.018844386562705039978f, 0.089506253600120544434f, 0.017981365323066711426f, 0.086590610444545745850f, 0.13448849320411682129f, -0.64684635400772094727f, -0.021001741290092468262f, -0.21740908920764923096f, -0.040507663041353225708f, -0.031575258821249008179f, -0.0029409625567495822906f, -0.0052824318408966064453f, 0.11734086275100708008f, -0.033559791743755340576f, -0.053391143679618835449f, -0.088936515152454376221f, 0.051090016961097717285f, -0.044123120605945587158f, -0.019990352913737297058f, -0.19802583754062652588f, -0.039428390562534332275f, 0.33872109651565551758f, -0.10471554100513458252f, 0.16998286545276641846f, 0.15712328255176544189f, -0.057916861027479171753f, -0.12968780100345611572f, 0.099387846887111663818f, 0.056646615266799926758f, 0.13922494649887084961f, 0.12381006777286529541f, 0.091880016028881072998f, -0.066202089190483093262f, -0.12527769804000854492f, -0.10772822797298431396f, -0.076624654233455657959f, -0.76249390840530395508f, -0.0089372778311371803284f, 0.082146681845188140869f, -0.082634359598159790039f, -0.095074944198131561279f, -0.12028831988573074341f, 0.14647674560546875000f, -0.31032207608222961426f, -0.19413535296916961670f, 0.23709194362163543701f, -0.17347741127014160156f, -0.13479626178741455078f, -0.16775071620941162109f, 0.098274074494838714600f, 0.016756169497966766357f, 0.033807635307312011719f, -0.051589068025350570679f, -0.11126488447189331055f, 0.083963565528392791748f, -0.092055819928646087646f, 0.058066144585609436035f, -0.095522649586200714111f, 0.034432251006364822388f, 0.11319396644830703735f, -0.033969126641750335693f, 0.054981887340545654297f},
  {-0.046888753771781921387f, -0.0035818070173263549805f, -0.12262289226055145264f, -0.014343187212944030762f, -0.012068256735801696777f, -0.11478108167648315430f, -0.0023230165243148803711f, -0.0045432746410369873047f, -0.11360134184360504150f, 0.018051266670227050781f, -0.065163731575012207031f, 0.064088478684425354004f, -0.036081060767173767090f, 0.030099421739578247070f, -0.0043599307537078857422f, -0.060176596045494079590f, 0.044425770640373229980f, -0.085494101047515869141f, -0.11448214948177337646f, -0.074375107884407043457f, 0.072284355759620666504f, 0.075575917959213256836f, 0.032076671719551086426f, -0.10991683602333068848f, 0.043380260467529296875f, -0.083098456263542175293f, -0.099307447671890258789f, -0.061258673667907714844f, -0.080804139375686645508f, 0.091047376394271850586f, -0.043649271130561828613f, -0.11115041375160217285f, -0.084291175007820129395f, 0.035292893648147583008f, 0.078545436263084411621f, -0.044613108038902282715f, 0.0039878934621810913086f, 0.087114304304122924805f, -0.039980769157409667969f, 0.017046108841896057129f, 0.051142662763595581055f, 0.045812711119651794434f, 0.032028034329414367676f, 0.11759710311889648438f, 0.10976262390613555908f, -0.12182261049747467041f, 0.078052952885627746582f, -0.035636648535728454590f, -0.020625799894332885742f, -0.074396282434463500977f, -0.10517629981040954590f, -0.11656120419502258301f, -0.015880480408668518066f, 0.12040777504444122314f, -0.10114541649818420410f, 0.12058377265930175781f, -0.028345078229904174805f, 0.048876106739044189453f, -0.041630357503890991211f, -0.075900331139564514160f, -0.059935584664344787598f, -0.00025732815265655517578f, 0.042102456092834472656f, -0.076092600822448730469f},
  {0.22498898208141326904f, 0.32918736338615417480f, 0.049127317965030670166f, 0.084421172738075256348f, 0.11932300031185150146f, 0.048454124480485916138f, 0.024157222360372543335f, -0.31400644779205322266f, -0.0073458105325698852539f, -0.18536572158336639404f, -0.13628461956977844238f, 0.083652362227439880371f, -0.026414083316922187805f, -0.080035313963890075684f, -0.048838466405868530273f, 0.068562813103199005127f, 0.028530031442642211914f, -0.0073319138027727603912f, -0.098536372184753417969f, -0.24131281673908233643f, 0.12066047638654708862f, -0.11224182695150375366f, 0.090306602418422698975f, 0.13184238970279693604f, -0.26772388815879821777f, 0.16358967125415802002f, 0.17024531960487365723f, 0.010448475368320941925f, -0.17393721640110015869f, 0.074523463845252990723f, 0.045701023191213607788f, 0.037031121551990509033f, -0.091239422559738159180f, -0.044314254075288772583f, 0.11045950651168823242f, 0.12312773615121841431f, -0.10726360231637954712f, 0.18040427565574645996f, -0.49877193570137023926f, 0.051118131726980209351f, 0.043385967612266540527f, -0.092702597379684448242f, 0.026173196732997894287f, -0.17865304648876190186f, 0.049793213605880737305f, -0.13123926520347595215f, -0.11547843366861343384f, 0.40786486864089965820f, -0.010039905086159706116f, -0.19105288386344909668f, -0.17580983042716979980f, -0.078565709292888641357f, 0.028702542185783386230f, 0.051368191838264465332f, 0.075549781322479248047f, -0.10545658320188522339f, 0.26158297061920166016f, -0.12398517876863479614f, 0.021513745188713073730f, 0.15154787898063659668f, 0.092522323131561279297f, 0.099721454083919525146f, 0.035506553947925567627f, -0.042224839329719543457f},
  {-0.14780293405055999756f, -0.10109744966030120850f, 0.10495840013027191162f, 0.075188487768173217773f, 0.10456857085227966309f, -0.11247396469116210938f, 0.033440440893173217773f, 0.071719489991664886475f, 0.12215024232864379883f, 0.014637878164649009705f, 0.047727037221193313599f, -0.040725998580455780029f, -0.017930215224623680115f, 0.065655589103698730469f, -0.045371882617473602295f, 0.047092635184526443481f, 0.011848658323287963867f, -0.090347066521644592285f, -0.044482186436653137207f, -0.032107699662446975708f, 0.00084322236943989992142f, 0.056311503052711486816f, 0.041855774819850921631f, 0.083402827382087707520f, 0.10977980494499206543f, -0.080155849456787109375f, -0.10086831450462341309f, 0.012446910142898559570f, 0.10269989073276519775f, -0.070228919386863708496f, -0.053038220852613449097f, -0.041361499577760696411f, -0.014137596823275089264f, -0.023059608414769172668f, 0.079999923706054687500f, 0.065149173140525817871f, -0.0068570226430892944336f, -0.11530432105064392090f, 0.023041710257530212402f, 0.030077883973717689514f, -0.063591688871383666992f, 0.018141523003578186035f, -0.022579751908779144287f, 0.018370913341641426086f, -0.12828139960765838623f, -0.051998551934957504272f, -0.054013933986425399780f, -0.069069005548954010010f, 0.063596628606319427490f, 0.031416598707437515259f, 0.0067086480557918548584f, 0.057479482144117355347f, -0.052468672394752502441f, -0.085093408823013305664f, -0.11912252008914947510f, -0.059507377445697784424f, 0.079849988222122192383f, 0.049076594412326812744f, -0.0087006241083145141602f, -0.068013906478881835938f, 0.087837889790534973145f, -0.013562445528805255890f, 0.034113809466361999512f, 0.061842232942581176758f},
  {-0.15264233946800231934f, -0.025693897157907485962f, 0.099940903484821319580f, -0.019262149930000305176f, 0.093193829059600830078f, -0.030683176591992378235f, -0.044983558356761932373f, 0.091686986386775970459f, 0.0050945729017257690430f, 0.11307577043771743774f, 0.018837060779333114624f, 0.17992147803306579590f, -0.011960774660110473633f, -0.030362039804458618164f, 0.0020508945453912019730f, -0.11224012076854705811f, 0.077208101749420166016f, 0.049285665154457092285f, 0.067196056246757507324f, -0.16008998453617095947f, -0.10919965058565139771f, -0.12545891106128692627f, -0.18775653839111328125f, -0.011875565163791179657f, -0.076268307864665985107f, -0.059490788727998733521f, -0.042123358696699142456f, 0.18648864328861236572f, 0.060307178646326065063f, -0.11063661426305770874f, 0.14663301408290863037f, 0.024097522720694541931f, 0.053475216031074523926f, -0.095189154148101806641f, -0.059786096215248107910f, 0.045460544526576995850f, 0.12235692888498306274f, -0.15838181972503662109f, -0.21544961631298065186f, 0.066745631396770477295f, 0.14572419226169586182f, -0.11567360162734985352f, -0.018552947789430618286f, 0.10318799316883087158f, 0.14168839156627655029f, 0.17510206997394561768f, -0.068230874836444854736f, -0.00042546220356598496437f, -0.066905520856380462646f, -0.19340424239635467529f, 0.059179391711950302124f, 0.048271525651216506958f, 0.075636632740497589111f, -0.040632039308547973633f, -0.088687375187873840332f, 0.096287146210670471191f, -0.15637271106243133545f, 0.11644232273101806641f, 0.11063100397586822510f, -0.031204396858811378479f, -0.035713270306587219238f, -0.13215902447700500488f, -0.069564118981361389160f, -0.019865736365318298340f},
  {-0.039613489061594009399f, 0.17841094732284545898f, -0.0014631404774263501167f, 0.018823027610778808594f, -0.10789416730403900146f, 0.099399887025356292725f, 0.10310813784599304199f, -0.064911551773548126221f, 0.048003897070884704590f, -0.030799496918916702271f, -0.17792977392673492432f, 0.061808247119188308716f, 0.12093653529882431030f, -0.017392605543136596680f, 0.0024015319067984819412f, 0.019959552213549613953f, -0.052587524056434631348f, -0.24961772561073303223f, 0.099015593528747558594f, -0.17709104716777801514f, -0.022943161427974700928f, -0.087173692882061004639f, -0.071744874119758605957f, 0.20400801301002502441f, -0.044853270053863525391f, 0.027364384382963180542f, -0.10780741274356842041f, 0.077149651944637298584f, -0.035984609276056289673f, -0.11803543567657470703f, -0.076891064643859863281f, -0.033776037395000457764f, 0.025502938777208328247f, 0.15637055039405822754f, -0.022493451833724975586f, 0.11129577457904815674f, -0.091920837759971618652f, 0.13502895832061767578f, -0.24444973468780517578f, -0.037211257964372634888f, 0.16533564031124114990f, -0.11025553941726684570f, 0.064616814255714416504f, 0.15704821050167083740f, 0.22330731153488159180f, -0.017501177266240119934f, -0.051602113991975784302f, 0.23177653551101684570f, 0.060100398957729339600f, -0.11440281569957733154f, -0.021020460873842239380f, 0.032791078090667724609f, -0.057001490145921707153f, 0.090820014476776123047f, -0.011107142083346843719f, -0.022539703175425529480f, -0.059433486312627792358f, 0.082487836480140686035f, 0.00090593099594116210938f, -0.017915422096848487854f, 0.099264293909072875977f, -0.13812331855297088623f, -0.086774736642837524414f, 0.0078302472829818725586f},
  {-0.15346154570579528809f, -0.065110012888908386230f, -0.0025883736088871955872f, 0.071026772260665893555f, 0.0044591873884201049805f, -0.045811764895915985107f, 0.15078555047512054443f, 0.15882353484630584717f, -0.10927976667881011963f, 0.056340478360652923584f, -0.15195652842521667480f, 0.030376626178622245789f, -0.11869060248136520386f, 0.042201146483421325684f, -0.078883178532123565674f, -0.10607481002807617188f, -0.075575888156890869141f, -0.048216599971055984497f, -0.10714478790760040283f, 0.14171582460403442383f, -0.010700534097850322723f, -0.033601000905036926270f, -0.047216728329658508301f, -0.10573053359985351562f, -0.10295074433088302612f, -0.11707279831171035767f, 0.00086736876983195543289f, -0.16795548796653747559f, 0.060317199677228927612f, 0.092358566820621490479f, -0.013080390170216560364f, -0.060107260942459106445f, 0.012485986575484275818f, -0.059739697724580764771f, -0.041150033473968505859f, 0.061724953353404998779f, 0.10251279175281524658f, -0.081729993224143981934f, 0.16961953043937683105f, 0.10089042037725448608f, -0.039993889629840850830f, 0.054943859577178955078f, 0.011212539859116077423f, 0.10121968388557434082f, 0.046032965183258056641f, 0.10840862244367599487f, 0.069657452404499053955f, -0.032498601824045181274f, -0.038308843970298767090f, 0.055920731276273727417f, 0.16802337765693664551f, -0.13771362602710723877f, -0.16337230801582336426f, 0.042939841747283935547f, 0.13378743827342987061f, -0.0044968086294829845428f, -0.072950348258018493652f, -0.080778367817401885986f, 0.083215475082397460938f, -0.011211997829377651215f, 0.047811426222324371338f, 0.014858730137348175049f, -0.0066006481647491455078f, 0.10475984215736389160f},
  {0.057277325540781021118f, 0.072510533034801483154f, -0.076788872480392456055f, 0.084913909435272216797f, 0.058490112423896789551f, 0.060870222747325897217f, -0.022159030660986900330f, -0.081240296363830566406f, -0.079544171690940856934f, -0.053887210786342620850f, -0.082577355206012725830f, -0.056492641568183898926f, 0.0068708672188222408295f, -0.060856938362121582031f, 0.099514096975326538086f, -0.13639423251152038574f, 0.048906594514846801758f, 0.013828870840370655060f, 0.026363030076026916504f, 0.095506630837917327881f, -0.054694950580596923828f, -0.095533996820449829102f, 0.030361913144588470459f, 0.043469589203596115112f, 0.11074045300483703613f, -0.067864045500755310059f, 0.046842560172080993652f, 0.023850487545132637024f, 0.029229946434497833252f, 0.038549847900867462158f, 0.020777592435479164124f, 0.098790034651756286621f, 0.18197093904018402100f, 0.18435598909854888916f, -0.055371820926666259766f, -0.087206013500690460205f, 0.082379095256328582764f, -0.015942476689815521240f, 0.034489680081605911255f, 0.16218984127044677734f, -0.019292907789349555969f, -0.062005728483200073242f, -0.068514727056026458740f, -0.089962378144264221191f, 0.0039188629016280174255f, 0.10120946168899536133f, 0.063497915863990783691f, 0.078133992850780487061f, -0.099369309842586517334f, -0.15940581262111663818f, -0.026456976309418678284f, -0.080401778221130371094f, 0.042752947658300399780f, -0.11796562373638153076f, 0.065699763596057891846f, -0.032573685050010681152f, 0.075302422046661376953f, -0.14823962748050689697f, -0.00072355568408966064453f, -0.077718727290630340576f, 0.12043718248605728149f, -0.092816837131977081299f, -0.035776410251855850220f, -0.11200866103172302246f},
  {0.23802401125431060791f, 0.24635173380374908447f, 0.0066480780951678752899f, 0.022374659776687622070f, 0.027864784002304077148f, -0.073557376861572265625f, -6.6541193518787622452e-05f, -0.30423250794410705566f, -0.0084147602319717407227f, -0.20789949595928192139f, -0.11499745398759841919f, -0.012826158665120601654f, 0.15647582709789276123f, -0.11238473653793334961f, 0.13956567645072937012f, -0.18073187768459320068f, 0.029099032282829284668f, 0.0098464488983154296875f, -0.00054138898849487304688f, -0.096581764519214630127f, 0.080028407275676727295f, -0.14905706048011779785f, -0.047853223979473114014f, 0.089732937514781951904f, -0.15113586187362670898f, 0.28503748774528503418f, 0.057640220969915390015f, -0.23691207170486450195f, -0.16063442826271057129f, 0.018717152997851371765f, 0.19823335111141204834f, 0.027086410671472549438f, -0.0025545521639287471771f, 0.0015628099208697676659f, 0.11845423281192779541f, -0.084445185959339141846f, 0.063978523015975952148f, 0.10740123689174652100f, -0.27851977944374084473f, 0.0059862136840820312500f, 0.098671600222587585449f, -0.059070751070976257324f, 0.086671605706214904785f, -0.12161819636821746826f, 0.011650491505861282349f, 0.068675555288791656494f, 0.066305823624134063721f, 0.19002984464168548584f, 0.043586999177932739258f, -0.16655443608760833740f, -0.11245806515216827393f, -0.21429297327995300293f, -0.031622417271137237549f, 0.070332691073417663574f, -0.0099984025582671165466f, -0.024205524474382400513f, 0.012145488522946834564f, -0.16121490299701690674f, 0.090020358562469482422f, -0.085128664970397949219f, 0.0055226185359060764313f, 0.13210380077362060547f, 0.055946450680494308472f, -0.11772769689559936523f},
  {-0.0092002479359507560730f, 0.0054199807345867156982f, -0.11007853597402572632f, -0.049261555075645446777f, 0.082761377096176147461f, -0.10766742378473281860f, 0.0013578934594988822937f, -0.082874126732349395752f, 0.036546275019645690918f, -0.035714752972126007080f, 0.10933542996644973755f, -0.16847972571849822998f, 0.057070180773735046387f, 0.027850687503814697266f, 0.072954736649990081787f, -0.090316034853458404541f, -0.023600563406944274902f, -0.053984619677066802979f, -0.089212656021118164062f, 0.053728412836790084839f, -0.088559530675411224365f, -0.21422423422336578369f, 0.11211337894201278687f, 0.13753114640712738037f, 0.10289525240659713745f, 0.046682141721248626709f, 0.080861181020736694336f, -0.0064581693150103092194f, -0.0026105558499693870544f, 0.080289073288440704346f, 0.010735287331044673920f, 0.014198391698300838470f, 0.056295122951269149780f, 0.13091291487216949463f, -0.064719557762145996094f, 0.013167625293135643005f, -0.021916929632425308228f, 0.13195329904556274414f, -0.24451760947704315186f, -0.017971865832805633545f, 0.15453512966632843018f, 0.045441731810569763184f, 0.15950328111648559570f, -0.0099263442680239677429f, 0.15638969838619232178f, 0.078779853880405426025f, 0.069927461445331573486f, 0.054538484662771224976f, 0.0028559570200741291046f, -0.13856942951679229736f, -0.012223555706441402435f, 0.080858200788497924805f, -0.039107713848352432251f, 0.052468925714492797852f, 0.063455231487751007080f, -0.096859306097030639648f, 0.057295352220535278320f, -0.0029024011455476284027f, -0.086516171693801879883f, -0.11963053047657012939f, -0.10490814596414566040f, 0.064594328403472900391f, 0.085089169442653656006f, 0.0041361898183822631836f},
  {-0.090621866285800933838f, -0.058608874678611755371f, 0.097595959901809692383f, 0.047167807817459106445f, 0.022792309522628784180f, 0.039437714964151382446f, 0.20514667034149169922f, 0.23752632737159729004f, -0.074155911803245544434f, 0.15232124924659729004f, -0.14880438148975372314f, 0.0067615923471748828888f, -0.063993908464908599854f, -0.10728177428245544434f, -0.042662438005208969116f, -0.10251185297966003418f, 0.015460565686225891113f, -0.062173403799533843994f, -0.062194108963012695312f, -0.016124285757541656494f, -0.10203335434198379517f, 0.22541479766368865967f, 0.12376156449317932129f, 0.047357361763715744019f, -0.056432999670505523682f, -0.071165800094604492188f, -0.091510102152824401855f, 0.0071330806240439414978f, -0.0059456215240061283112f, -0.084829606115818023682f, -0.099568605422973632812f, -0.0084659438580274581909f, 0.14926224946975708008f, 0.12215337902307510376f, 0.064917400479316711426f, 0.081003263592720031738f, 0.040925849229097366333f, -0.027747699990868568420f, 0.16484127938747406006f, 0.094934359192848205566f, -0.11257927864789962769f, 0.025823980569839477539f, -0.11377473175525665283f, 0.080833546817302703857f, 0.082393333315849304199f, 0.088090293109416961670f, 0.11184099316596984863f, 0.066932305693626403809f, 0.033956237137317657471f, 0.14841885864734649658f, 0.042196564376354217529f, -0.18273350596427917480f, 0.10925850272178649902f, 0.11049163341522216797f, -0.068027012050151824951f, 0.22736476361751556396f, 0.055791355669498443604f, -0.074447624385356903076f, 0.088268175721168518066f, 0.13034905493259429932f, -0.032116740942001342773f, -0.093726485967636108398f, 0.011108347214758396149f, 0.068999275565147399902f},
